{"layers":[784,200,36],"weights":[[[0.7033229650472262,-0.6124931189027611,-0.4028986320407246,-0.6540421678350254,-0.6455115550403234,0.8168058186808964,-0.730853103443418,0.7503736419100053,-0.036475962799245476,-0.9244350018391332,-0.6304022393083022,-0.1574360605015035,0.2611250635070763,0.7716582197909863,-0.2790836990801529,0.5701631218836722,-0.3464184337457947,0.04300954828270953,0.7024941591185807,-0.8021346878029667,-0.6579978657021699,0.8060445391800171,0.7162914492868153,-0.493137005352835,0.48115447801557076,-0.3261032894193443,0.5891933746116056,0.22762703899257541,-0.7605413711319526,0.7415617382477238,-0.1875744688440273,-0.3642947894681372,0.8032402549426715,0.9073365364951517,-0.342514217107898,0.8903837557663605,-0.5008847861840857,-0.6167435893282581,-0.8035668139448533,0.010503900642842621,0.3255729623944702,-0.18944219568135431,-0.173723331506127,0.42467855741848576,-0.7530673643291641,0.7089827779377357,0.1883730453734204,0.7253707771163014,0.15660565941602184,0.3108836381631916,-0.380882548916464,0.17290437264696082,0.10806782990104787,-0.8962754991870607,-0.049747234958612996,0.263527592048463,0.1613133668402451,-0.8085696272373788,-0.9076358001851372,0.8772420679238065,-0.1614933807107435,-0.5133690881172706,0.7848589859407794,0.5917335555431023,0.79104323569759,-0.6618933796692629,0.1862385829185365,-0.4641992650620671,-0.5327289055959948,-0.8184614060288938,0.6592622877061669,-0.37691178956827587,0.6579675731261007,0.06355430027891174,-0.7027747842142946,-0.7798033494892291,-0.07119795233979838,-0.9333032520958143,-0.876811348460973,0.7673714986817634,-0.3673387522216662,-0.31852269938963634,-0.19694529196619145,0.41018093139804357,0.7957339804284325,-0.05709021388513495,-0.36994961382778524,0.5595183320828346,-0.9972683131304009,0.40104185048910684,0.5260853191525815,-0.4793440767297985,0.028014429135052837,-0.9043960331354174,0.4128244464453698,-0.7745642464222646,0.14306684810530787,0.7079343238953851,-0.7113147954278397,-0.6629912876364736,0.20610184259816394,0.22665575724606257,0.7911037388830651,0.3874188893959068,0.6409270072336479,-0.7032713210955824,-0.35224339133405747,0.6141649700063823,-0.46996486163399165,-0.5791457860384716,0.8279267063471089,-0.30000319282309473,-0.2257318911318622,-0.28999651684731126,0.76566222644247,0.9805878057324418,0.3751689207160612,-0.6047511390959225,-0.5451160458601286,-0.5794032134668696,0.2375667777281644,0.2790468204200124,-0.04907212656926977,0.5405739363439641,-0.4662641652388943,-0.41008572992527603,0.564767086614122,-0.3287577711819898,-0.35397729632604236,0.4346375132217516,0.5199459151356692,-1.1504644354168043,-0.4581255498327305,-0.033242802597004004,-0.8516119421835141,0.27837718555825014,-0.452590822981416,0.9108279655486017,-0.5440949052844758,-0.9734288280025166,0.7277041000969917,0.1547275623005473,0.1818827495637632,0.43012059488438625,0.8498053182843461,0.5510536450500163,1.3187009806641585,1.3793212316566248,0.702154243284126,1.4640453041029866,1.4754517139990506,0.030560044228906888,1.3573734602018614,1.0936980356375128,-0.22954357041385332,-0.2192791531859068,-0.5198106478689585,0.6893182464344482,-0.5306490205177204,-0.6049341234060575,-0.512589713937804,-1.1035456983326466,-0.3653529765589093,-1.3432789167869006,0.29187409971942607,-0.15900176159683557,0.7795933625352436,0.5440507052268462,-0.8862197507014418,0.12127075034341182,-0.6638987213726992,-0.6887054883671171,0.8581205914364053,0.22934587016003208,-0.44841936322362086,0.5521246506810521,0.22663733209693632,0.04974003015088793,0.5840601671071322,1.2361005037649309,0.7667412177592084,-0.23756081544986055,-0.09489293926408315,0.787227632025486,-0.4196972353010864,-0.7529575584067739,0.6352128992812325,-0.20639485639537247,-0.047136962963701554,0.2994736794948014,0.6282358002118067,-1.4124792271256745,0.6488435302923149,-0.04034679266239883,0.8735021237170264,0.719355789642147,0.10861043025599762,-0.6059151796417556,0.6256036917383669,-0.5634584355613926,-0.9752446454293286,0.7350737933953059,0.4759445262121539,-0.6000037329063446,0.642068886768761,1.2430202695597652,0.42036350980192305,0.5800754941033949,-0.027553271023449125,1.107309659050621,0.39381885408946365,-0.9313722974934808,0.9706592325051892,0.059937840333890366,0.7078446699671511,-0.06174081271443637,0.15134645173371397,-0.6176392274010608,0.16272611231870523,-0.015667099430048088,-0.005614201649765465,0.4017567577361299,0.460431122029052,0.7216384782992201,-0.9755307178009541,0.30882460318630955,0.3677488373970561,-0.945768635081628,0.7532376259931279,-0.3258047918692651,0.6199506335549784,-0.18001831776262678,0.8342143164528356,0.6829566775347526,0.2072791840664017,0.057443220306481094,-0.027191257308072054,0.37957604126901356,-0.8040321665341073,-0.5856932491292955,-0.5999642902286793,1.090898661715938,0.34224935310519516,0.5036447493333606,0.0776500455398845,0.3901974606664672,-0.02783750862676318,-1.5747654254727006,-0.26008991319781893,-0.27148756154185943,-0.8635251827105721,-0.9045424215818327,0.9362643762104518,-0.7425284137991071,-0.23703940353385244,-0.8639034305019853,-0.3908005834601708,-0.352776813115196,-0.17642436634275432,-0.4129203393062094,0.1755731846018525,0.010114615494974022,0.34286253158813246,0.6729256452480233,0.19072598887888714,-0.06463461928438544,0.015609726713281527,-0.403921901334649,0.5647856225664472,-0.29508807045323865,1.366216463204811,-0.4465331845095456,0.6421959214566237,-0.49623547009669844,0.13510490527564467,-0.6211228403236937,-0.7201461799113243,-0.9995374018749578,-0.6804773409793633,-0.7837813237506739,-0.9605001050554018,-0.19833726731313323,-0.11468782159544119,0.9567601642873882,-0.8356978898722426,-0.8805793055297612,0.8140963205691861,0.3994974941870933,-0.26069947093043183,-0.409670646881415,0.6761733059150921,0.04510219631565739,-0.4700325214463139,-0.8924806691896523,-1.3670007546267136,0.46267788142382416,0.892113922387704,-0.4721360605167257,0.7294865249395887,0.1593583999806446,-0.98988016927567,-0.6420654489304511,-0.35709180760393316,0.08438449389976563,-0.8352499210770796,-0.07004945567693459,0.8630023282771007,0.9374072034430989,-0.4461468876923527,-0.7634819737797903,-0.9932251803251989,0.10977893700832497,-0.25206994750955936,-0.04841468661871453,-0.0646057403331663,0.09828130044062425,0.06511249273054401,0.039231933510145055,0.23960823518073263,-0.2545862869671668,-1.1661085702951601,-0.9945453127195822,0.29653128668439227,0.407078689804534,-0.054026117040364585,0.14401106967945793,0.4856408144106109,-0.5385143776388808,-0.46528854985672713,0.7535725748571507,-0.12048575488002124,-0.1483166361595972,-0.6640398475211834,0.5619324219211105,0.5235257202411774,0.5667449096124878,-0.9275977506496802,-0.19395514846888467,0.5856002875391997,-0.8471659144936491,0.5300683591624713,-0.8313122644218722,0.8583057659019308,0.28099338476712216,0.20485649138701384,0.7491445549280557,0.9295587811834602,-0.5944267951257245,0.23453011359923226,1.0174249756212477,0.8123271739495349,0.8042911297378548,-0.34878771222603266,0.9217376646251633,-0.7430100224143368,-1.1220693469969336,-0.7900061664710398,0.9219680939385665,0.5871503889664781,0.46294250196205644,-0.34392125977484916,-0.35744872541196837,0.43644134664548734,-0.3509650364916737,-0.1725633971102618,-0.03983849272899825,-0.8725391659098096,0.4075487303328605,0.49236248155663703,-0.18347725386380603,1.4789472036414293,1.2602228265115178,1.7103136309276576,0.45209921029788747,0.8372328871165672,0.711540382544792,0.7903721427733827,0.13943432393587024,-0.45802654053730846,-0.20085290408471346,0.7176264697134368,-0.7006877836488439,0.5566349592964438,0.9793569036559111,0.06932140372409873,-0.2447479730854902,1.2606803068761585,0.5649163244846602,0.8372662202331678,0.9110999284306922,-0.2498086256150956,-0.837785360901722,-0.45188477277133154,0.757917131592723,-0.2800173505103114,0.9838132938513302,0.7411567129511527,0.9018174529874919,1.033228626174897,1.7639207838017736,0.5476799674640392,1.037479663712719,-0.34976735698903094,-0.5662193709247811,0.1612174552401917,1.5103198695264206,0.09174251353254406,-0.1282758514328833,0.8763652527770937,-0.3834759364844318,0.05517669968411771,0.34186898021220014,0.26958361098842215,-0.14646114913629077,0.96476279830455,-0.40154849697095996,0.5362370608618465,-0.08588098641286543,0.7368408133303878,-0.580536112705543,0.7743074786993442,0.7113560981912697,-0.7104048455666842,0.404700840348197,-0.5175983838259981,1.271356415724509,1.948384234844143,1.2420173229155507,1.1107179952509703,1.1655342713918448,0.15632672319117993,1.059502699464789,0.24442855002319974,0.9252872446095873,0.3389491254170178,0.8543751348635613,1.4174591504126577,2.1672069401677394,1.2771407848621057,1.0518742429296688,0.9347159835284192,-0.18972260180578002,-0.5147097817500215,0.17558980823767656,0.12213147750669583,0.4717995719142764,0.6433347566105708,0.6734136659603152,-0.773901914716318,-0.6132512649332211,0.21092317866056803,-0.6829977950279353,-0.5930393114706444,0.5029288977591773,1.236669325049938,0.1682852329525254,0.6202814369842325,0.2392482770827764,-0.3424638904023205,-0.4200198456897313,-0.1003314741259726,0.33817888583296096,0.4595360052344436,0.9958024443819201,1.352524653818372,1.787781508297919,2.0472755715807263,1.455676714881501,1.2602799795633663,-0.19146448092318075,-0.22944215486562133,-0.588260595251605,-0.31055888094453593,0.5723307486281711,0.3872211569712711,0.3923014175626707,-0.2529725821253866,0.9369211440712726,0.7386474925246217,0.9450963712455978,0.8351214588572173,-0.6194719859129305,0.08090701346281824,0.6813585521926202,0.033076789324557966,-0.4775598848512256,-0.45580183909931743,-0.10000701356732568,-1.1373061982515469,-0.5890985723922191,0.382724583369004,0.9344134415756347,1.40546755090256,0.5613643104906442,0.8857105204175876,-0.2844473587501634,0.03348879353955986,0.8200212952926684,-0.03961724375096403,-0.2986263690727412,-0.9845739815329719,-1.0768255206039896,0.6735650503516785,-0.7842751098533289,-0.5017873225593408,0.051462860330696636,-0.1586193972560713,0.32372394332185866,-1.1483522985617731,0.9314139853446709,-0.06267450980420924,0.08690669913008053,-0.20737361291824752,-0.803518737695731,-0.9946737718815045,-0.6385375900558549,-1.5629209677227105,-0.2778581813465155,0.6677539246878071,-0.34328858078463537,1.9219899257518516,0.0032188709362346232,1.096274852101071,0.49319562473275125,0.0981239211578666,0.4408268998845969,-0.7841613485202074,-1.2189773046615695,-0.4469567598269466,-0.5793651429022969,-0.5190833005909123,0.06665268547670773,-0.0037926187127683315,-0.8968938059795141,-0.32103026428840153,-0.9175974052254875,-0.6407651964734047,-0.9037298084095035,0.34929051477526263,-0.620729397649351,-0.562830283840097,0.8491361435417573,-1.0597284689189628,0.1919575095917138,0.2333552669055698,-0.8736319602754261,0.23011160008567036,1.1289337443223622,1.537774657582653,1.3839546581278652,0.7362530737626574,0.28406435501075494,-0.19635282918830058,-0.5560621978850976,0.2002843280276551,-0.7608556141784678,-0.9108957173255986,0.3146767911610877,0.11767890466270484,0.8907598626895399,-0.9638087929701975,0.6601581274513876,0.11393727080521035,-0.9843688602215435,-0.25485018643885765,-0.7191460899308206,0.5083811912838503,0.30249689449404576,-0.4785169998169126,0.18412048679042176,-0.16467554876139862,-0.6538796193687567,-0.5090381756939623,-0.9009827170678038,0.44754067827129806,1.4190329960594237,0.4031694703054515,-0.36636043467179635,0.5863809268017777,0.5462037606928317,-0.6783426662066078,0.27310434477814893,-0.49861318805149507,-0.7272794380187196,-0.7921948324235388,-0.483322450195682,0.33189162228793734,0.9503056484757002,0.549007573735755,0.33181181216996397,0.2628632998682309,-0.9047318069932174,-0.18133565990969597,0.10801029646126911,0.07949647891291596,0.026695012223315977,0.38553867444188034,0.6371469165803906,-0.10230893675891797,-0.13519360977383107,0.8476534945808687,-0.5839597555855733,0.5508165254153322,-0.5855562393114213,-0.43673678530185867,-0.5123325238430243,0.01638017029820741,0.3872438012769219,-0.7786296191150612,-0.834712102338573,0.17348665703040217,-1.2896706115447711,-0.8315528113535364,0.5388046665324976,-0.5760170569991435,-0.6349940202609757,-0.6582541994893587,0.03913365155155783,0.048005966477151996,-0.46883970986122847,0.9471552336984809,1.3547961870736454,-0.10261767871723133,0.867663808356062,1.016775409600837,0.6386115975301496,-0.020230072042603586,-0.02830590700142258,0.590106336592296,-0.26453891020501524,0.655274284170405,1.1961014036491828,0.19276244406934176,-0.17370994127399786,-1.1689289512111274,-0.6358331065452619,-0.08814190675670683,0.22769675299993306,-0.27635150934141456,0.4818209054760298,0.3685300013688768,-0.532415794263119,-0.5462022228371932,0.6933007078092466,0.11309133859844972,-0.810635459949045,-0.8948040060792896,0.30962813233410347,-0.085395190472696,0.30983953898995714,0.9835078973755572,1.381736496108617,-0.09538487476058356,1.1847393162559103,-0.7234672747925414,-0.7357627871920303,-0.44097244981488626,0.788337261364866,0.2188063779795272,0.7399286766586363,-0.8777762069972159,0.11631210656890964,0.47856416000257324,0.7777972273115971,0.5851884179530954,1.499127029794423,-0.37868723858882336,0.024733386657044405,0.42780050561611166,0.8841498587221087,-0.6455003878729624,-0.13759292592348857,0.16815011532965707,0.26578227369973745,0.8384819843159504,-0.17510263757971206,-0.6348687673186996,-0.35661820565013225,0.6608791724486651,-0.43424721271525935,-0.7416284619314576,0.3021459349486916,-0.5013943453844688,-0.049011804460135394,-0.6211773863904194,-0.7940033813431618,-0.4132266425825027,-0.006448044842465691,0.13481668059499313,-0.9275790018091487,-0.763478182444534,0.765328344506884,-0.05530706814524232,0.8100914054158395,-0.5313454366302948,0.8940070388733026,0.561272095653353,-0.13816569325514058,0.7137513082688554,-0.16863420583237984,-0.9680321908114654,-0.38018499392064986,-0.6748775297579097,0.3459171665231447,0.08480125615724823,-0.01812982766554026,0.8554339612960258,0.3269771332911961,0.39079455134888136,0.15202573710972475,0.8408603667030946,-0.06550309516188237,-0.6034606861678801,-0.6561672580662498,-0.9016181391461799,0.26792080486739456,-0.284679721967764,0.7507869854916782,-0.42612042214677626,0.7110718463645387,0.23544041592839754,0.9760397420367491,0.056972395514103547,0.6754008509734646,-0.5515190339074023,0.9731184381827926,-0.5719554534828407,-0.644629023768337,-0.7156016232268122,0.5287216683962341,0.5528091006884592,-0.2862786041823031,0.27340137932513625,-0.1009803321702873,-0.5246831592979391,-0.6663303613121708,0.799747106264121,0.9782822995743392,-0.8310679528908885,0.45417682728647074,0.8968524871718835,0.9302406224673974,0.45419672930695953,0.940149979349722,-0.8829705042619586,-0.6095604900954317,-0.7818590434217466,-0.9584181996289978,0.8577532895825685,0.46084137469043435,0.8502497238579845,0.705786043576007,0.7407588074417417,0.30300351921081287,-0.35191030973570664,0.09025824077678038,0.23971993461214522,-0.3341297115033635,-0.8379727679652731,0.6325741209188974,0.05413443164367149,0.8186047631674706,0.5080868870997128,0.8846327703227373,0.9617662769972973,-0.9184585024866129,-0.33601576913018455,-0.6693914383837437,0.50368137851455,-0.15675002961808485,0.5854294139148762,-0.5029198638239016,0.1406584874714312,-0.34347907333002947,-0.32269551493233234,0.27084276662898416,0.7156643105416789,-0.7379773658327984,0.27372118377713606,0.9062813314997256,-0.3712303795676072,-0.219795389429185,0.4650918326025415,0.3534349104837192],[-0.9921777414796086,0.7880862437791092,-0.0049360741454158585,0.4690132510974956,0.547344928003084,-0.5415341251901689,0.1840001150750652,-0.32771611662108935,-0.2902623160299136,0.729413704512369,-0.9600316261924267,-0.6173870780263071,0.3118764330258874,0.4655993190734616,0.546604601006331,-0.4373680490410015,0.16577937756344435,0.07746775898715841,0.6357495316261645,0.6819228080688666,-0.8045940108929472,-0.047900744174805165,0.0666653889538642,-0.6621187083297926,-0.08611492132442189,-0.6329144377046845,0.9400717339701572,-0.06896075464900475,-0.19095470666612702,-0.08671083649050981,0.9399473473617288,0.7974163095037121,0.9150633619912267,-0.9747195325873864,-0.22682281766257945,0.8966045069969962,0.8986776298821144,0.27172537337520963,-0.697373694905841,-0.5725700517399338,-0.2255925715459644,-0.6128423437377529,-0.026991034720279042,0.26479348532271474,0.823446082758088,0.3258376852576895,0.251746654103663,0.9055332420033156,0.47699019358098826,-0.43208047161981183,0.5246212020220605,-0.30555224826830135,-0.8948743846188022,-0.3312947734159115,-0.6749440566673339,-0.5781275536988848,0.45862594881616303,0.3472941250067558,0.03349985418684758,-0.5604267248634284,0.8372730696592314,-0.025716732630120292,-0.3146140327790367,-0.2507713535779755,-0.13345123313037105,0.07315773670913632,-0.5601091689837658,0.5878214015702058,-0.6470400217198008,-0.07059362604940572,0.7242952916191753,-0.5610434181533939,-0.44282853869489536,0.4519897637936851,-0.9355922356361801,0.5572616418539271,0.6930213858412285,0.0639252727381313,0.4053006270991703,0.3403682061383776,0.436820677437415,-0.08290592032577196,-0.2310287114873353,-0.7159642695293318,0.08416981710206084,-0.28203917524135935,-0.4357682907848371,-0.7224020931018041,0.33174456305413397,-0.13254115515806028,-0.1548698120706555,0.7146357726893171,-0.755102780736704,0.40351826055201,-1.0230186733836868,0.9394386786527813,-0.8378244865632912,-0.3632976424966052,-0.3211706321432917,0.2819470624809003,0.2399402153051025,-0.29830557676573466,-1.035166977373034,0.5016763286404119,-0.9899142719145183,-0.7168660514042231,-0.4804679332694149,0.6277646735301055,-0.5836899434677439,-0.26691742626518683,0.4924899437529034,0.42621107333067676,0.6750029465452081,0.7708308948622352,-0.04882936485217654,-0.019706995631696634,-0.7383616883995959,-0.23232973039434826,-0.07390894929522616,-0.8998415772698215,-0.7783792215150598,-0.7909779511230679,0.7126044753505336,0.6780701968704415,0.804086776050515,-0.8544849233954537,0.02782164960431045,0.03231322381438489,0.8734642367096855,0.5392223287487863,0.1271256806586771,-0.4521914018686636,-0.3203922183119995,0.21019811736264826,-0.5037238288071688,0.7806324068649275,-0.09642197902104611,0.4459391925690024,-0.7237268398820564,-0.0174688371790966,0.9351240774538426,0.2666082764537747,0.3612693002985132,-0.1611580705044869,-0.7925434920509515,-0.2459548032882213,-0.8032352532022673,0.029934001664002417,-0.01095200161555459,-0.9744087342148522,0.572089728064636,-0.4079260866927316,0.011462589005601317,-0.7783911522497401,0.7483122589858032,-0.14803477756105424,0.4525840443501523,1.0221267728340062,0.7042769906821812,0.7266722138204419,0.21478440717283348,0.31766126817282425,0.2794434612691939,0.6196808858693756,-0.4374413621924546,-0.42293413272207775,-0.501887262589409,0.19350507109729426,-0.18048146163244314,0.7685537514608718,0.4881135199520672,-0.5378448971302162,0.5993034645319608,-0.038552215488803006,-0.3839764630734285,-0.41034891912955856,0.7724274661833282,0.7073054064889454,-0.8634688905798429,-1.3098463116177115,0.45501361059030004,-1.1400191977417704,-0.7251759331494768,-1.0877881338509545,-0.08904706806676677,0.08598277949162392,0.20497549289055378,0.15515551648894668,-0.47258245041724933,0.9170369213234008,0.3159205395998591,0.01575962704622205,0.46529232446117014,0.5510280169048729,-0.5237102920194491,0.35235384755310284,0.021553850088105703,0.3695262678737241,0.9695973395537169,0.6185860646290897,0.0031254002999316893,-0.6364915077181361,0.5353377659181794,-0.8392793718086027,-1.25921148722801,0.14637927052933994,0.38284151078891804,0.5267001499963259,-0.5691743296182846,0.24168116099204281,0.007529997552064267,0.16575806818566466,0.031178752646474527,-0.2776346569587221,-0.8941688548646434,0.5001567974877934,-0.029437158273091887,0.35447842861285306,-0.46457431693113455,0.3191257632692131,-0.32417952846205955,-0.8158568067722819,0.6970780850842475,0.6600569110522412,0.6358968782729563,-0.10747392612155168,0.74822621568447,-0.8799062558064819,-0.9658192920951658,-1.2206644854923494,-0.5188869894020405,-0.21688831400946126,-0.2702438351396661,-0.9014048971732106,-0.5067058732435832,-0.8289063124721342,-0.5136778902569753,-0.6193647595917477,-0.2491500286455285,-0.8277391497662455,0.12920246563194582,-0.37658373788657534,-0.8738413251186924,0.0695975263236752,0.36848914200131083,0.8442896894028056,1.2256391004916496,0.5771174609905092,-0.4594202312930368,-0.3882869926127613,-0.6637745783152001,0.32910322843873735,0.9018099177410835,0.5731817615445043,0.304857216731929,0.7610485173652279,0.20928888510967444,-1.352858783730962,-0.5571206318191556,-0.4973280526077023,-1.2052069538887225,-1.2782207180865184,0.4463527716919843,-0.281552650385835,-0.12320683645769723,0.14448741294126288,0.05910681664240311,-0.29737420612517607,-0.21691118476959492,0.2644300645788913,-0.609108569702786,-1.1750979912018678,0.3058656884631673,0.27334487152684045,-0.04722096382737983,0.6081550135600908,0.5805106396107913,-0.584857076295741,0.5883997971423616,0.48948751496478515,0.04885658136128902,0.8031600559422437,-0.02715518775209228,0.6544018345060173,-0.02686071797327287,-1.1889144331434236,-0.8737988108342493,0.20501577231665719,-1.2773894283365623,-0.5492093974805459,-0.971106284349005,-0.9919185549132054,-0.926247287805532,-0.1666118647013686,-0.51892991481133,-1.1206742741965685,-0.40862929170878814,0.26767922350756074,-0.8926103436544008,-0.45549735320849205,-0.3196538462790175,0.4426321598041958,-0.3564923099095368,-0.18005004531934743,-0.6818394370866364,0.5345386234954767,-0.7390884293829912,0.03889414800808368,-0.6708112851994081,0.07226885023317146,0.13578440156704774,-0.5814703307630849,-1.4780340491735384,0.16179805662622676,-1.352979142757644,0.19180326963218303,0.05551575740637824,-0.942908181446593,0.4161562149566143,-0.09906354279151702,-0.4207089856169668,0.49207114636689786,0.5220216847905544,0.08221712124937174,0.24446577438105918,0.4666054918090381,-1.2637621378399717,-0.4666358339418683,0.6635900514899673,-0.7429640852416862,0.6344932886320234,0.15305637945071593,-0.19178093547425323,0.8954547676175538,-0.5594910676118975,-0.8633460738296682,-0.5012671031893284,0.7066950471217952,-0.45178836258295035,0.5101838480521617,-0.7206848589266355,-0.30428429462159295,-0.7471373052586009,-0.4615076960154578,0.4169957484592151,0.8433005507363481,-0.8417165455926257,-0.0415762535615654,0.1336296813304177,0.23791658147108896,-0.5510879006077031,-1.123233061223781,-1.4803292198812807,-0.8651885140127714,-0.40426970658280303,-0.3584523197651521,-0.8980260268207515,0.23126103985409246,-0.4055303904185675,0.25369828089046237,0.6732037885343347,0.8675836217883086,0.7443826001871147,-0.4993459009821916,0.7910293626656444,-0.4746363401174281,-0.590410396722269,-0.43616566497111414,-0.4420402853890388,-0.27620702908942835,-0.584219218538841,0.5114986795059646,-0.2772390984553813,-0.5859529552976218,-0.4437657225561037,-0.038944258009724037,-0.523589726313758,-0.0023214903650715414,-0.7717087298112673,0.5055633442110944,-0.5017218409358388,-0.5998778051192294,0.5017425462296168,-0.32257632894016863,1.0211867795823724,0.7491909576893324,0.8892205866461671,0.7690274455296858,-0.5219072670860347,0.34565341607815353,-0.654737844159545,0.9831489264245808,0.4161947637722435,0.14287545900206788,-0.21135375990401814,-0.9274253059123185,-0.9434161901936079,-0.5683702050709893,-1.159276315786002,0.21089044870122492,-0.054865804725692045,0.8003969644782541,0.2713254572700959,-0.6201523936738956,-0.8132015932731517,-0.47645007146973656,-0.6510930871528035,0.47976011606467733,-1.3370598005837473,-0.7158842176752339,-0.986954717304241,0.4385777161714218,0.02487647287210428,0.7874732865466211,0.7300614842386072,-0.009111006800979912,-0.44894566963812077,0.8260118598250819,-0.7572799339977881,-0.19841458287679334,-0.3984402512975625,-0.8768592112773765,-0.7005839386548033,0.8460495891677976,-0.30097126116631595,-0.79102623815584,-0.9690974632686404,-0.07623282411011853,0.46710579742878466,0.6710293876432349,0.8731348509931086,-0.23134438291076492,-0.7584542564346763,0.03737542005865812,-0.28468574047391587,-0.3670679444229206,-1.1164242277924548,0.24746626612160516,0.30138397700205066,0.9450210740172135,0.7306874068886501,0.9290197817114976,-0.23827105824323103,-0.5009516613154207,-0.006240473612861395,-0.7310682594906354,-0.8750524457836255,0.831516303567242,0.38166803121974385,-0.6889134667787453,-0.20527034938622696,-0.12807589529964225,-0.3782124505953095,0.1803158296229357,-0.17521889734042634,-0.4907928031670078,0.8299623048015011,1.2652158001207348,-0.7129320551758449,0.6105073144654403,-1.3661775030411272,-1.1697857655353912,-0.5183747358300248,-0.21710739696167766,-0.8278988059874348,0.464525336130254,0.2597269620451199,0.36668819917895873,0.16784918278056063,-0.3162827240219123,-0.565794471400801,-0.5362346570492744,-0.9840953738476852,0.4253089355812802,-0.34448269362000555,0.2843104613819966,0.9067818677488962,-0.29358099903776014,-0.09481099218215336,-0.5451702433800271,-0.782091750643091,-0.40580047884574866,-0.9773298020140662,0.8514896152529872,-0.2947733512103382,0.6654765004400961,0.566198565753592,-1.3228775323000321,-0.4421524730024066,-0.9679772010107525,0.3368834984954906,-0.27796321885507524,0.3132997006794349,1.2620932263429163,0.5292309847747086,0.17877245266402483,0.9260984969357856,0.7630637288599567,-0.4865289371521834,0.49335028870513,-0.9128640842774098,-0.7356470124454181,-0.539499734238264,-0.01042628311556657,-0.11148989076526053,0.19771696772546324,0.4205692496133652,-0.8087176242723633,-0.6086604023246533,0.17311481542923773,-0.24297896933372737,1.251830510922855,-0.38674197242722896,-0.09225109449453617,0.3894166551151462,0.6782849989405764,0.13570227798876666,0.4463936030228553,-0.48044827109012533,0.6524616335878308,0.7600608638812008,0.5699336610046223,-0.7346290342830905,-0.3276883385680888,0.7102895580868869,0.03989619256321901,0.22884238470064425,0.07336266943792144,-0.17072826425517232,-0.39650211850452904,0.3175526377622931,-0.6740002355860326,0.1805642644095776,-0.14520851749575,-0.3058526894678615,0.7712808667148768,0.41597526144760144,-0.027396437822289364,0.3518233844981886,-0.5041189458106546,-0.21253590568389286,-0.624071281279428,-0.1844054495914238,0.30021920616127534,-0.3883379098632231,-1.1912816163748747,0.8482628102600528,0.5833781067242448,1.2907709434690093,0.645221472215308,-0.4200087129050758,-0.7380535706124571,0.20335436060193296,0.19873397420435354,-0.9588437755719991,0.002705882949637637,0.017187356088385314,-0.2632544269638858,-0.39469299412432457,-0.7434932744461757,0.2613989332627538,-0.30786021827582566,0.9654765477025335,0.3677834296315619,0.08801052002318671,0.8191093440132238,0.4420373698987708,0.18985503628021816,0.8750496852077344,0.1350772410019186,-0.5128122707723693,-0.592740376908667,-0.27857761410265913,-0.6268519920109276,0.5100493211140001,-0.41661370405515147,-0.1399975905151697,0.3092539963652602,-0.7565887342147931,-0.584992604690567,0.2059453149724725,-0.8775114158719299,-0.16656504836860633,-0.24989589826440237,0.817383672497412,-0.8648941389153444,0.5928097581546763,-0.7448382288956876,-0.41277657019681563,-0.8821444557286287,0.4341930911462063,0.5600557660990948,1.2442291795426976,0.1131183476714298,0.31640355543053644,-0.7050644408360355,-0.9927904647079279,-1.2499635304236052,-1.1927194562836818,-0.5460159972753562,-1.0045359785984298,-0.2886726041637712,0.21279385377823015,-0.8050771170162337,-0.7168727297847705,-0.3476051247200774,-1.2876191190262112,-0.15530195971340807,0.30892405538199086,-1.0292852272794057,0.22800230047977596,0.595125002767587,0.4290671163653714,-0.5632929075219764,0.3815366536769528,0.47825363797969295,-0.4120872548113034,0.8219337354624339,-0.14858177408174184,-0.40695836748892467,0.6914913827233946,1.261799471095544,1.004688071772582,-1.2913641845803663,-1.3857030654401334,-1.2987618513684906,-1.1340370403347175,-1.1150082398545063,0.6658619262152047,0.770860304216512,-0.27778663822779537,0.6818410177728492,-0.862207034153794,-0.18870214763085455,0.022237476970116108,0.22491833356073213,0.14690353733002784,-0.5419655742648414,-0.5112563412810154,-0.26128554445387075,0.17780563675333372,0.9115069632373378,-0.7705984071755662,-0.8993489347693421,-0.006252503414129502,-0.71728519297249,-0.1731734768123069,0.04012823281692414,0.2723771022725743,-0.18231962932988305,-0.14962466637881183,0.20917842804441517,-1.3550364115809983,-0.35945696684104644,0.591787242492453,0.7443411162097018,-0.7679503173409208,0.4151618841405835,-0.07369115236320181,-0.19646910374950177,0.697469979707832,-0.09933057446328128,0.3971253669147602,-0.4572922745834932,0.854738247154318,-0.7305484443962681,0.6057613901019218,0.733327077892688,-0.5466101293542743,0.5192494541608859,0.6226181231994771,-0.6778648282801755,0.39975998557034625,-0.5132525795946388,0.003596578080427694,0.826376508527441,-0.5631095873722565,0.6420127433691295,0.9642246891378643,-0.4381561199993523,0.08917654695925716,0.17070985622753404,-0.5121569101488022,-0.9996258158401338,-0.34287625961986734,-0.7735123760508015,-0.8841747936403861,0.0826561561589294,-0.8999104513698144,0.820188883554602,-0.05008947015510348,-0.2677448042748486,0.8027563891806221,-0.887645980669109,-0.7783480598415669,0.6212887768376621,0.23367393486697108,-0.738758923184966,-0.5720701965321153,0.7543394200191209,0.08578098741140014,-0.7321123246378598,0.04759153727933666,0.9941580387105413,-0.21518851449619777,-0.6205656639893002,0.8561299743358322,0.07802372323841718,-0.5636293674850665,0.6189385221021527,0.8990878625771324,0.02074878113141827,0.5650833060340414,-0.8826134127368324,-0.20770447306703532,0.05851848149220094,-0.559921285746152,0.659863641893564,-0.9438595243789853,-0.7948746484480157,-0.40767621813778754,0.20224567867189724,-0.24363045123502344,0.38076627913931405,0.5842079669065958,0.2227508506825961,0.7661880826574105,-0.6971822389967396,-0.2979535927595092,0.7330085176642683,0.6468313615486391,-0.7913794447331138,0.3078266746514306,0.572535376016851,-0.4812222128478098,0.6715832737321316,-0.2631127701860784,-0.8564044886607515,0.5130786801765459,-0.6802187092268949,0.8697970434931408,-0.37450335211402624,0.3759427642280013,-0.47578883056192967,0.19420382131742522,0.9328933804956446,0.9672356864262253,0.1872757021543559,0.34451324186328297,-0.6039540576891382,0.15855494401422082,0.028310091830584142,0.6582812061923984,-0.450707293023706,0.7544650572302672,0.5119303353111282,0.5508416834834912,0.0690235737172738,0.44788725642836114,-0.4754527409473181,-0.46204268742161936,0.09738101978660442,0.4654551275735968,0.6980779572358189,-0.1645556563422911,-0.4284504500664733,-0.9762578637549199,0.4711808664564935,-0.8680863302856601,0.6063588025773755,0.7903009361284473,0.5327955805220018,-0.03733785031042922,0.6233331152950451,-0.9588711225210167,-0.8994866985932964,-0.27492151598156334,0.1251661545098191,0.7585208314465314,-0.9892022848031603,0.02397794050582965,0.19086448371803438,-0.28967884577397623,0.7134730079806121],[0.6573809943179263,-0.6550616889110854,0.4145467998909633,-0.016373659665679607,0.6525998370513126,-0.4850907479128761,-0.24051238285657695,0.7939602783809185,0.8472467445691447,-0.6375102627025946,-0.21215947832728244,0.6467823018029355,-0.6819582891913218,0.2700401187243041,-0.6156318815025934,-0.03556730522318991,0.6394330520148896,-0.57432017024782,0.9233296080911648,0.15041668999671254,-0.7395204862399596,-0.4292798087890781,-0.08415481692507187,0.8678681432552708,0.48040918197658256,0.6808644582596624,-0.22001051012884032,0.7161658847296,0.37597919289571013,0.6836313568429992,-0.15919565014194514,-0.10680346271787332,-0.18113186718379154,0.714188506335256,-0.13216141127169362,0.5315136125526728,-0.5444147291657635,0.7008506252886039,0.5185759934866584,-0.01581252386251225,0.5960476789955678,-0.590874802662344,-0.021624807169691087,-0.32209371340052934,0.3310145689391498,-0.35623425918735907,-0.5656767469535173,0.3835856008929594,0.05010299305223265,-0.31670015780477223,0.9864774191494851,0.02524618249345111,0.8923274420972233,0.7650309958271011,0.06398883081966522,0.6714829766981953,0.46078703480022387,-0.8436309145330383,0.18865968159652857,-0.4717233152212427,0.8221953865631003,-0.42578828107700367,-0.2069395591116066,0.48412388311983745,0.8925389622023384,0.6385249504750135,0.6004407187627956,0.6080176502675071,-0.983207247474334,-0.3010217161277206,0.11995478896217303,-0.44465436206258885,0.9432603545994002,-0.07019698267148189,-0.9394333553310238,-0.7172862907730465,0.9509043603879067,-0.20972365485030953,-0.06421065263587694,0.35092117740652173,-0.14344467220009346,0.5913932437397903,-0.7556792022816546,0.464250191670029,-0.7492381295233117,0.7316842738739434,0.18915999183508486,-0.9912114475966672,-0.38950139098572806,0.6039782312481012,-0.4008219815538763,-0.7055996160608058,-0.6461610640583783,-0.5991351982346642,-0.5750097796167416,0.029590044842573392,0.08612845199399026,-0.7914389174921133,0.19429796612397057,-0.14727429135417366,-0.009242285331711203,-0.024126297409069897,0.11040333519438668,0.9803845491398985,-0.6601125079394582,0.029397304495405844,-0.8383916108662918,0.0993470812506723,0.9025143436476364,0.7081392469611593,0.2814801679840801,-0.2906332824023042,0.21319065014883032,0.07194645018067537,0.6770354138974016,-0.16727928846151835,1.1962782084383903,1.0555254849609783,-0.22634990307950614,-0.39481885489147356,0.5059636240705675,0.2752214812886255,0.31326092643243564,-0.151176475945195,-0.323242679595881,-0.11645756212185679,0.8835709375363362,0.8739851338333228,0.49714411475844533,0.32720489073863934,-0.2698951026412924,0.034720481830938565,1.1269558170197846,1.6185934028525077,0.5869372422049883,-0.12147212602476633,-0.25720973808258146,0.41206865720113384,0.6399156524662059,-0.8468691682316166,0.6308675029749731,-0.08823163082706388,-0.032575393282978045,-0.39492143400820084,0.8294035755903127,0.8696481816114379,0.1979476358858671,1.2627867562263448,-0.6842237620070459,0.7657451555131113,0.05925658345875362,-0.7596507936684104,0.6912612716533609,0.7430080571086706,-0.14188198154727713,0.42628434937515913,-0.6164985321711167,0.40076017939624836,0.27527167451808676,-1.0204537803359257,0.22780838434408776,-0.5257105457805042,0.4464803463492128,0.6637056294606714,0.235277377647427,0.863353711112887,0.8145493931902773,-0.6033358903969864,0.48577123222437996,-0.7190357011917642,-0.8475803230939803,-0.9678737971646663,-0.7279406391696254,1.0822423794606455,1.0678109473334514,-0.20647389311047465,0.704243866858776,0.9711818858104694,0.5749051272633597,0.16488130342843318,0.7797823686342182,0.700587682943382,0.684303497208341,0.6184047576552792,0.7014553975449499,-0.4698546064620976,-0.25375781346936926,0.9690752993094158,-0.09518594546812484,0.8380104064614106,1.1043899338722096,0.20427386241684642,0.4300449170765802,-0.03126183529817411,-0.3882122948716655,-0.2270971817412116,0.16435377413119573,0.17279514690969788,0.025301964253414782,0.18210470860812006,0.16347902236799905,0.6788874134579543,0.04254962384196156,0.011185491617545007,0.35113356020974035,-0.9593300174549322,-0.11575110011643153,-0.3637759701922198,0.5673388242879781,0.2373156463556353,0.6351140129574065,-0.17277832901757179,0.4867128743814114,-0.2793868962297232,-0.027905012312424017,-0.6254617451959577,-0.6330496982304334,-0.06495418148912374,0.7248290413303412,0.2297875711695831,-0.24175556318807576,-0.780581864140536,0.9108955046710596,0.10051732720429137,0.6209539961631471,0.8921204102323878,0.33448733696141947,-0.18609598022043425,0.8673832575630654,0.5355170038755181,0.49947670453124415,0.5967045140309912,0.5299454877236184,-0.18074442627005688,-0.608949171764003,-0.5579249211954415,-0.1355902997963011,0.48354698080161096,0.04615479964373431,-0.32648379582728104,0.034669535212883885,-0.46706675496985944,0.17966963292178423,-0.6467171134704164,0.8750450135628267,0.08140432235520244,0.485297042451236,-1.0043264731994905,-0.45744723580891505,0.043197682266055214,0.03142763585192727,0.679952653266342,0.6758012918297511,0.4554187617599553,-0.4096158881060243,-0.25361214687124944,-0.9969923978902013,0.32542997762770653,-1.0468478821618525,0.6254279564340448,0.39893835765419544,1.3374536358100373,-0.5192460328838935,-0.3360408985864034,0.32631214744219317,0.07623185569940566,-0.8406731517688841,0.3627652151430745,0.046250791420016195,-0.8756799661510853,-0.9902862281816057,0.030335421258105094,0.7412060162335035,-0.46675291503556215,-1.1770819403270854,0.22671234442687713,0.29261578623034606,-0.9656037735360179,0.46202793180169843,-0.36974886416143976,-0.07108849546400128,-0.8427907949855171,-0.609548374611624,-0.7542504489131808,-0.7570195469286725,0.7242247398570932,-0.3059438560696106,1.0570872375859939,1.0112802360430035,0.45503606060234353,-0.15523622409531224,-0.3941652745532483,0.35669767394179736,-1.1160001202109742,-0.21688418771290724,-0.24766037200969157,0.06745608839528247,0.455415630507791,0.18727020404871328,-0.7397999891996386,-0.9170291618832305,0.7598855143093767,-0.3168690688863754,0.6122236615353791,-0.7347421128455682,0.0206130804199532,-0.9231683503341996,0.03507841521741331,0.060119619205442815,-0.8004484818054315,-0.7794328117623782,-0.5147496024001538,-0.7699677610807928,0.9359633148409214,1.18436611453548,0.40400076147450487,0.5547832682715956,0.40046395309741745,0.3806527840221002,0.006997351045674438,-0.9264752939905297,-0.6817007161799699,-0.724750019068283,0.2975305053955685,-0.4832623993919077,-0.2885507587465703,-0.914695156379039,-0.511850081662888,-0.7673208090819615,0.5148046170095851,-0.3946091980921731,-0.051750578184082116,0.971757554575874,0.55163881335101,-0.18262028559744,-0.8343629446550572,0.029586146217683677,-0.9363841688205493,0.24049673927666734,-0.5698231239169916,0.4506918182863323,-0.46898755300171374,-0.781758884603064,-0.010472114763087315,0.4135687270830343,-0.22036406468096012,-0.023632480037470906,0.10721476064641958,-1.1314485209073113,-0.9095558236988466,-1.2990001787402448,-1.8611746746247424,-0.6929026579910974,-1.275714756150401,-1.1302938992628033,-0.8134845109525947,-0.5158215464855695,0.2178825380833818,-0.26632116380413623,-0.8173897229516311,0.8041232449578712,0.4978536944920359,0.3823072095811807,0.3492412553490205,0.6410490827541183,0.6625460785442517,-0.29567554325389095,0.9490094437803056,-0.12007661273645984,0.48159256813603846,-0.6839428970888977,0.7586158743138499,-0.33770825211102656,-0.1846549699303524,-0.29912299786113145,0.6183229286248149,-0.08529582664158789,-0.39876811165510273,0.10168615283281873,-0.6198945770664912,-0.97840218927239,-1.0477456263194964,-0.7651393600482429,0.21126568468016066,-0.30339069011603226,-0.42603302413240085,-0.8311382124234036,-0.5801207047539451,0.5145622483259197,-0.8960372631461183,0.08019458055231166,0.49732035453826506,0.815924173022882,0.5945817342688424,-0.13599566416648057,0.9504333325143117,0.3838034828080765,0.4554217867577824,0.4730366434493614,-0.35512747444003123,0.12403510248046784,0.2314826203317133,1.2763121758090317,0.6436550403338239,1.0387199509234533,0.4724673699931701,0.2837388781114247,-0.5033641069933115,-0.899338129174887,-0.9430872165377997,0.2452792780029393,-0.5257506029797714,-0.5107762967802966,-0.35404458446133774,-1.220458781556762,-0.1868635994771308,-0.05142884736895602,0.5655383227463592,-0.39809480575413614,0.5355264206463868,0.27951632745593047,-0.264951418634675,0.7641925091480938,-0.8550313493151878,0.28134143980136095,-1.545218966813474,-1.6457375976607496,0.07010404709914432,-0.9183395749184591,-0.32395363636443364,1.3125740248620257,0.7789259948512012,0.20113084395341368,0.3998668815375525,-0.9206641702430166,0.1860041059852012,-1.2028583613376864,0.15081733319666182,-0.5107638871070131,0.6800489365378906,-0.6683044567212895,0.6045259884181272,-0.9354441826191057,0.725340233823401,0.874302591160215,-0.1382150359670081,0.08505500209358234,-0.27348304882965285,0.9701759382472332,0.4670706028900362,-0.835294799765729,-0.5232777439355815,-1.3933827532239917,-0.4507296005081788,-0.5205422352104365,-1.5478314580657204,0.09696328859952844,0.119528373609472,-0.8706913528794732,0.3612516802274707,0.656392851749854,0.5516401078434712,-0.5108022716903343,0.6552380373190428,0.3641686640547178,0.2546468389777921,0.531386440682948,-0.991151614757608,0.31552986068029465,-0.7144249585005231,-0.5161606107199854,-0.5992313860067163,-0.34727612179148104,0.5410876412830368,-0.3505334145376062,-0.6609705353977665,0.13587586289129036,-0.6963919143679647,0.815426888275042,-0.29855757153560847,-0.28321792094982146,-1.4272583146119036,-1.4877185509436341,-2.2140289034498997,-1.408776959807334,-1.3274476124231476,0.09709435170551531,-0.7631514124750962,-0.3928443266691188,-0.6857392271474684,0.013133719832826608,-0.6788820656814287,0.1201133644945826,0.048734851815364646,-0.2505598921809433,-0.43686912945864415,0.3144028378956524,0.5231851601919968,-0.8810048752789288,0.4120352481496931,-0.9536379995902377,-0.15724104413805184,0.4066708026013983,0.7343116812612155,-0.31615420787251414,0.9427057399553133,-0.6673322834492782,0.07934887728574619,-0.9685170465082824,-0.6921999524948635,-1.6446877167427627,-0.35712567677317153,-1.7274854470738843,-0.6135233834687294,-0.6308944782386234,-0.7039670408519884,-1.2062079593763066,-0.07228251857636592,0.12830839542897432,0.6882288068025333,-0.3795344678844667,-0.009511045510576575,0.8878046140104343,-0.4261704381257258,0.7739472045379695,1.3467643160431413,0.8010914129415904,0.6396926295881047,0.2137992824755874,-0.7286836622048227,0.9903119156903939,-0.025888681708785517,0.4835438605133655,0.5389421052861284,-0.48947149075412866,0.9720872354936299,-1.0265779914426552,-1.4092163523133214,-1.3448515245879153,-0.5124129027787505,0.19729564911151895,-1.023595277163501,-1.05069712007964,-0.7434528591885773,0.41568958807308315,-0.29998864558322186,0.10313080513080038,0.3588646793816096,0.513294936227054,-0.7847277271256958,0.3926452188916583,-0.0876710366120109,-0.6297210771789913,-0.028242739959367495,-0.6025270657164012,-0.31041016832846546,-0.42922676061400805,-0.5144495974047715,-0.7650039209860383,0.3205406766237732,0.6114015175019465,-0.06136986917412949,0.13537159472396287,0.5902018820872816,-0.5899643850369913,-1.0272734830146917,-0.03363402659018183,-0.929301948822398,-0.9740977996617438,-0.39218625993756334,-0.17752013619966192,-0.5665319390649436,-0.19994732419871136,0.16980135680561018,-0.29614770823827863,0.4098057516393285,-0.2343036177767292,0.0563233171397352,-0.4742591298033309,0.985308310245206,-0.12290909998486756,-0.4045277693128362,-0.3344755034104375,-0.7355996992497768,-0.31186274542830994,0.6017586428072488,0.03526059837138621,0.63505938484072,0.1411775993700993,0.48947214841901077,-0.8373983125709231,-0.6524096661221441,0.512847603164782,-0.6077722202052447,-0.40889085908657963,-0.5875131865426418,0.040993461856071056,0.4857852798790214,0.420929649535348,1.2787886722073747,-0.5813511179158353,0.03785006529202191,0.27619497593531184,-1.2103767864766455,0.2502758229749775,-1.0044306715370563,-0.6980632273406931,0.0053165426201644385,-0.010683980538171614,0.03967818097221473,0.26484481815098493,-0.33546585471224266,-0.48119773768089985,-0.45895182540165136,-0.34379335244669085,-0.8179209656015354,-0.8187839130901654,0.1929580140354376,0.4286851342608094,-0.302263761189188,-0.09727371716668222,-0.15978077210785724,1.4487465821934153,0.9340756409301667,1.0174707342810168,0.593136794738036,0.5987210511738031,0.004684209942540668,0.07410109675658069,0.09184053496626751,-0.5667629120444179,-0.5313570722452564,0.3813144397308516,-0.17679945677954997,0.5400247254488497,-0.1681266275415866,-0.536496181939793,-0.9773493306973063,0.6095538848645172,0.4749538178246944,-0.699753383421116,0.754277117665933,-0.29124874027992165,0.02934834664994956,0.3412021275715693,0.5042955589624954,0.041043472823547686,0.9913365272313063,0.7966921477077464,1.1093858321200176,0.0807081690135361,0.28531716178673905,-0.5989550497794794,0.7156240333589022,0.22280156295734932,0.570690241296691,-0.6023193705935359,-0.9873971097728425,-0.1591415938370368,0.9304738275266038,-0.39789289750015727,-0.9207244102300903,-0.10158577458910693,0.6039487807327992,-0.781330809708003,0.12608589947862592,0.2285422743104997,0.6431846156586484,-0.6999660431576115,0.9909930189526818,-0.7717088835709901,-0.4402359419484522,0.3973274291603833,-0.2156096213269215,0.07954486028047221,0.5548456059638401,-0.12921811247973713,0.0972273908800101,-0.35671695081146265,0.15992081793285265,0.09355342689410207,-0.19308477175231037,0.3805131350102658,0.22050430553531175,-0.7428856018962784,-0.2844188747155942,0.6348821912656424,0.42045777307918597,0.6876781826079569,-0.1407613398099517,-0.9138866059121227,-0.9544313595523988,0.5934268639236384,-0.509886075593671,-0.6454229437076292,0.32256627243259967,-0.8578022635876852,0.33077591558200725,0.3270744059573017,-0.19697660948838577,0.6276569658229687,0.2533514713043889,0.8923212308042888,-0.3351484891705257,0.3986117148047566,-0.43323493079338515,-0.346901566932704,-0.4150694699801063,-0.32017616583016156,0.2659256124674793,-1.0222459565478619,0.9065049150177751,0.6855057705572186,-0.02194145884166746,-0.16544967040346117,-0.9597964570422268,0.018763113919826838,0.03601243708579815,0.568470882382407,0.46860568512695555,0.7248243966639727,0.6512062483161414,0.34019487369310497,0.642933135680449,-0.6995372351434513,0.5845715109525782,0.5214932396166423,-0.04169215006979822,0.5600496528439636,0.8679128457403129,0.5616721951416723,0.8090469384635006,0.35861052401442556,-0.8065409203585502,-0.8824764637605133,-0.02286547062092796,-0.06810867199576999,0.5832530061744428,-0.9294990677181988,0.4597390686611744,0.4219413005139839,-0.0081882236920677,-0.7141903258082779,0.30536732024655505,0.824498934283539,-0.5925241142765957,0.030279194324299714,0.9700522421422946,0.700090751741782,-0.9320291717758374,-0.3166506257928429,-0.5400537758467134,0.04148452577597672,-0.7249983283126932,-0.8136738087213641,-0.2508129076466117,0.7626949936495309,-0.6648593948960625,-0.9690506974785885,0.4068709882093903,0.6566816306638001,-0.6473483516079372,0.795014045892556,-0.5424405557310633,0.7076482309180588,-0.015247261982797725,0.8256337254667692,0.1273121686361236,-0.7222245626295144,0.5039904401021476,-0.21003780899515084,-0.8588828690265503,-0.4995937391418574,0.983043802711613,0.6549212194721138,-0.010054943343660128,0.9599006666716224,0.38489034612132855,0.9139520306184354,0.3737929616584314,0.9350613762136815,0.9884335165238931,-0.23680629532933575,0.6384506957116196],[-0.08636933101998126,0.9847002879392206,0.7931300247964348,-0.2758638195243308,-0.4879381724227989,-0.048757220643449006,0.6771528561567215,0.6763709727589227,-0.056192762272758934,-0.12760621126220872,-0.5016131022162749,-0.37967297525225074,0.03150247470230383,0.20122846858370472,0.6735526298456339,-0.231014919385847,-0.7173962981752049,-0.028791914204933544,-0.24424166162390204,0.19312251017267057,-0.2810624502496344,0.89761739071165,0.12681990754549677,0.20474957760428447,-0.9319181416923832,0.2518642421293409,-0.37724449556171535,0.5729854468827993,-0.3465431134468502,0.3245110991200435,-0.7731485598309402,-0.7273562938016092,-0.8441068715442945,0.8834537863990125,0.14550910916240106,-0.3490926928365316,-0.8623574435476602,-0.6777570658204143,0.5019805447158738,0.536749668461588,-0.8416521693350997,0.8170897246860109,-0.9634993141422225,0.08510985952807994,-0.7869528363912763,-0.9773763984288368,0.4654911383187287,-0.652230044238826,-0.07338732762772032,-0.2321562718383579,-0.19312546851078602,0.06731934583407143,-0.5274828231400377,-0.6393517006024254,-0.3716616013566467,0.6959799894293295,0.4912806075106908,-0.31914968712319247,0.5557654492771225,-0.38628912586721087,-0.6562700890782742,0.22506023802914873,-0.30250731446811385,0.9015457264503574,-0.5050372749080708,-0.5226366103408193,-0.3815883317643713,-0.31445499729431087,-0.34822716150676747,-0.10802989801622356,-0.9187971979976688,0.4103822956415615,-0.07659861079349801,-0.3257212101448818,0.0894160551458215,-0.28330474201077965,-0.44678724987126955,-0.4511131363776344,0.9405398629696169,-0.5072819535859806,-0.6626458991481453,0.13002629686346848,-0.9158437243331629,-0.9237443025873566,0.2037223811171165,0.09289117877481534,0.6698973469004704,-0.8063879785865198,-0.7208408402045079,0.6074724947346585,-0.5533248376739762,0.046084181058034725,0.7454651532438605,-0.2623840860642219,0.09864144580055066,0.39071691945490505,0.6299365982738817,0.9032627223191372,-0.7941228612575368,-0.8557825230384224,-1.1284467191536602,-0.27944053495247884,-0.41064027068299946,-0.46635440224128316,-0.2507488430537728,0.7508135985435113,-0.6585200167865944,-1.0139928215159255,0.022926018523786278,-0.19385589888765037,0.3203777057698149,-0.8196932923879705,0.8950868366021996,-0.4569414085094168,0.7790443867223605,0.11782442058019217,0.9852405106611783,0.24977358951760276,0.2938924717365685,0.8875435580660199,0.6843096519835957,0.9392630853334072,-0.05968074533274154,0.24320621705759654,-1.1529282666046878,0.20219127783539292,-1.1522270255041185,-0.345053379448342,-0.4328985919910085,-0.4387134536678893,-0.047230703546663734,1.0472008209182047,0.423280265943154,-0.41195500954398345,-1.704382458338107,-0.5546594003776812,0.756367776873309,-0.05241531719945828,0.5796098733266939,0.13377680205620718,-0.05417070057225543,-0.45725516800774196,-0.2473132040784414,0.36341150655005383,0.6104214210236952,1.6517103135973932,1.1938682995978585,1.6814685520335781,1.1714311766746526,1.693106090482313,0.2922687186504967,-0.4757491947467893,-0.13802137996207822,-1.0656294885625488,0.13357349014749792,-0.866282221559089,-0.7830782919954983,0.8590395993731307,-0.15824685442218386,-0.9231798329473307,-0.3612476770058959,-1.0925187629461333,-1.1177709986324824,-1.1456613981164978,-1.1452323906631143,0.04582744308230176,-0.27590170649033796,-0.22934828821127556,0.5796677202467615,-0.1733594892015233,-0.44221948160071234,0.3591434602903859,0.2969254212089425,1.8666382487578528,1.5107825574049472,1.6317195770586863,1.275133015350978,0.558096175628182,0.87355460461882,-0.5162648977194558,0.6321063388068814,-0.3026763842261632,0.05986270362992678,-0.4292687929916209,-1.0305741475347252,0.2143502123511331,0.3043283479772052,0.8951712417493632,-1.047498248809975,-0.8371834347762795,-1.109612679209901,-1.0855135876066127,-0.1985493304771526,0.5855616117166127,-0.24464342469320952,-0.01689153644574419,-0.6300649145241111,0.7252726236421919,0.30506729377933467,0.2644977122607533,1.1695782863642834,1.4823994806380978,0.25506012436239117,1.3996523235117275,-0.3908128257252376,0.35561079601397044,0.3796498017777701,1.4877185232861834,0.23498805142892834,-0.23945080065091803,0.48764925955161775,0.4854288220201755,-0.47443695677167763,0.5351757250187907,-1.0780252875064538,-1.7308346034351696,-1.4859125750633742,-0.179493931441709,-0.12144528253877471,-1.5749925540531782,-1.215732033801806,-0.39196221600312575,0.22643959348592413,0.6666982162422261,0.5501889895444422,0.06251839493945267,-0.8853850093917419,-0.22113087634519113,0.15456566801043875,1.7642384428852242,0.31365876186067393,0.8097444620110424,0.28912333006903956,-0.15753019562587162,1.5610071050297671,0.015260594675283679,0.5733778635766338,0.03408773661444325,-1.307088500676753,-1.156253848056233,0.8105647685673018,-1.2892960060999077,-0.7654111892975857,-0.8563040665617869,-1.3185817709355578,-0.880760896167848,-0.8631374963930261,-0.8434825240915714,-1.8313360469969546,-0.7367797483018453,-0.035135925126446886,-0.09550039067046258,0.3708012325890848,-0.7490463762942033,-0.009815534310231095,-0.9913916774548942,0.6621449250772508,0.4459921721946972,0.5148109573294857,-0.6121378805473122,0.7622089562923798,-0.04780730236549543,-0.021484431062867397,0.1475200385041988,-0.23796101300853809,-0.2583574690499006,-1.057767506114653,-0.187149347700532,-1.275722581217868,0.530918453126287,0.1312395645024769,0.08031569222355807,0.2804240569720281,0.23910987572560577,-1.7001935334651006,-0.8268736532276696,-1.917955121566983,-0.7300560549462096,-0.04492086216808977,0.26791260014216506,0.2968519518354336,-0.720021110704248,-0.47746894923353633,0.7634357237564724,0.48052997663058494,-0.20721039317324763,1.2192530778705468,0.3104210980880466,0.6209049406224122,-0.39318457826091946,0.05394522260298596,-0.2935664640328385,0.1844168766361002,0.8731943381416752,0.6118023688719689,0.5700313627769844,1.0891892913341947,0.6288189924870841,0.9907727567873114,0.5242629811437131,1.0053287084805176,1.0065972921463793,0.5140209300117243,-0.9146483379870608,-2.094517445222627,-0.8812505146138512,-0.5948906619491647,0.6297039317448808,-0.011484458306871009,0.6396673898251005,-0.7639345787209528,-0.3219407899478598,-0.4415354986407715,0.15353067749849741,-0.2758390601480181,0.4593528196050701,0.27583202786149114,0.8199895245814801,0.8826845134099311,0.02203618854857386,-0.19514902720664565,-0.03697917460525933,0.5936031980548514,-0.6661447353583861,-0.4199776827955932,0.09697043680385513,1.1959226129672826,0.8607831568659342,0.5697220926905167,0.42912894146106056,1.0782689126960345,-0.8121996973322207,-1.9250329236614385,-0.23382151558647793,0.566654483945096,-0.08357101967941959,-0.47982602219459053,0.9226486453180993,-0.9558380992821417,0.678644261114625,0.33864723158278104,1.2140734015789196,1.0406454599927053,-0.13584880579776354,0.6679951737900272,0.5528186326517145,1.023208544464806,-0.5424655100959865,0.2138054930359684,-0.7238616983901529,0.09706059500860423,0.005663997856917431,0.26721985785993596,0.715087325682288,0.6132249529441219,0.2014386319894134,0.30821564052613853,1.1691107437130686,1.1161485932157464,0.5719326925471226,-2.090182087779102,0.28566321866830074,-0.9419246502291506,-0.23975085135098365,0.7480537712080252,-0.3468568495832057,0.6322133451876047,0.6202234432750539,0.8647225393097749,0.5134497171017129,0.7100431104726168,1.2418280883560964,0.27778373526807165,1.0563614333738793,1.342322372892209,0.11833037312394959,0.20480303805832595,0.008167089272137123,-1.0241491577225517,-1.8517714544667343,0.14027868958632925,-0.741764068277715,-0.3958854934020663,0.12646426045396036,-0.6407413942325878,0.02272517767730148,0.06690877188812336,0.3352274791095093,-0.6072451167475863,0.08313543447304571,0.488020875063961,0.8770453167434697,0.5574507234424294,0.36536772116364313,-0.4741500542145165,0.05838085937318006,2.1969275302773315,2.2197785693763437,1.370724454180864,0.6921553412337701,0.8033272286830867,1.1408186357687462,1.0194858724380156,-0.5622021221403698,0.02089454561425283,-0.058326161287286044,-0.028650664849683163,-1.3154133332491331,0.008579325058328181,-0.8081097856432489,-0.41395490048668515,-0.6535590552076919,-0.3390417338077712,-1.9445665107178405,-0.8374204148100165,-0.3987587391842508,-2.0122430762107864,0.2728218419356821,-0.2663735976225434,-0.4370384995249668,-0.24942128586040974,0.43791824123984363,0.9103331586068577,0.7942614906904848,-0.004941362970957732,1.5421745133161104,2.1603440546730357,2.2756514095336358,0.8519144608812884,1.919868386479355,2.0648574606179744,0.28733532020441843,-1.0411299996714782,-1.5594386538852483,0.3275019117136662,0.02678231709204351,-1.2792127909617457,-1.942920158285849,-0.8909377169923741,-1.9148415929718732,-1.5613485577789408,-1.3433491840066945,-1.8538982694587396,-1.3944303767374195,-1.5264648616842968,-0.36833409943288675,-0.7899448513954006,0.6236904449915762,0.632304136188478,-0.008053450123324701,-0.4032655403701091,0.27941253988577847,0.45321899689878736,0.4221499621133662,0.5303244096319174,1.539428362772584,2.0464457421251536,1.8864053274626238,1.068028491549354,1.4484973098273828,-0.232735902801479,0.17970358050582003,-0.1425264065000394,-0.2467612617043134,-0.22987049693902162,-1.448629645528541,-1.87967208083721,-0.6143122707888569,-1.9643622970133499,-1.532761993829125,-1.386752239384483,-1.8454434720408759,-0.392428206905332,-0.18186852807382553,-0.3247417613020592,-0.39667230507168455,-0.26883915916793777,0.5596534820255926,-0.3281181238121222,-0.5079184345634109,0.5725118730800142,0.3414995409836813,0.3821316555367667,0.5844968763655288,2.5071255768372582,1.725052039320038,0.8032724082616736,0.9955108053076485,-0.6334306252174604,0.15722315227738676,0.535991476637552,0.17223295534492422,0.3220154749979775,-1.6592589843234251,-1.4772203858280712,0.08358417761458863,-0.2914694509569605,-2.3452416183687848,-1.0007635944019244,-1.5598433127389246,-1.025518715677906,-0.3178557763715655,0.7155027619649761,-0.32968639448124587,0.47887877723155575,0.9315205066640232,-0.9672543230591749,0.9107604654775974,-0.1886242623806384,0.49257649047042246,0.28454945839836093,-0.18333716489006469,0.2935630708169894,0.6443408212252587,-0.7310520842142028,0.6318340051555943,0.08910165840456138,0.008630733275322782,0.7854983479933794,-0.12964904569779054,-0.8410486073625097,-0.6869052460671012,1.122653761807218,-0.8893511171370707,0.056668492727468774,-2.065903229218575,-0.7372392677145263,-1.1080839997678242,-0.6493151051310901,-0.6731948004036356,0.6562332845845876,-0.2979837713702759,-0.9037387821979845,-0.7508336027540907,0.31078469610554277,0.2899385718767444,1.235262308568978,0.20213798781674838,1.132912728626987,0.39526775729203006,0.7505077685065772,0.2349595858593278,-0.7357984533214983,-0.286410037989542,-0.6526198276452283,-0.5619456577915743,1.0885533704675434,0.06128335821563013,-0.0887116013661358,0.8278595080126313,-0.4141488294570779,-0.2504226599324577,0.4572748483941523,-1.0349233308636547,-1.104133293557212,-0.20288117190479177,-0.9525981651652984,0.6952956041990835,-0.5591273613129109,0.41895167572965103,-0.4586027526246625,-0.25700743669024123,0.38044872768250726,-0.9094758408510645,0.36387269305267417,2.954359540513621,1.4420710837919177,0.33522294701206423,-0.5115037234631326,-1.2884773533726666,-0.9998875237306364,0.8799990813152594,0.14653464722395262,0.6027253433209421,-0.6826265864289986,-0.8657190542166898,-0.5627842902461764,0.9076581890954025,1.1116329171889188,-0.23662842217655802,0.8155505001492149,-0.22493708270092758,-0.16752641043236186,-0.9565334483794858,-0.4401368573508321,-0.30210894896295065,-0.5652700264158,0.937770029447998,-0.12443916157872086,-0.41382714757928146,-0.5320209478646196,-0.29398651820207494,0.975075007327406,2.0754406163586547,1.2412790839227539,0.6009160972142006,0.19129988356879984,-0.4050857412645488,0.19032555776400284,1.0081935171753498,-0.5834556452457391,-0.7691592412697033,0.09121383079597103,0.5561022111936239,-0.44101961323360533,-0.20248052188802174,1.0768140969882143,0.3967289178686437,-0.5617466291788049,0.6135764764787991,0.8760276459357464,-0.336445991307225,0.5678560974788408,-0.4861729898709472,0.8955035987796202,-0.05545795983422807,-0.740127414726288,0.7367782043936588,0.11963693765898424,-0.7354768792132748,0.6316506327908155,1.2881594066215862,1.6324716469534761,0.11587122214951233,-0.16912811743775366,0.467250610747383,-0.07294335312179077,0.2628336784073277,0.12006313048823349,-0.6854007669804493,-1.1825021778530727,-0.5747979485356128,-0.31208400584507284,-0.9549559220041542,-0.5618006185567485,-0.5788446067098237,-0.11027624272767265,0.6445724576982743,0.5675886405161328,-0.2910284502692551,0.3604630041597945,-0.27401022775403305,0.5260743334119904,-0.9766132925139437,-0.5204416560157888,-0.4940693049833792,-0.9197607896273896,-0.708590077247683,0.9995579446876777,0.8476872258248718,0.8844442534333884,0.7213911210118666,0.5021720126045751,-0.5413711972688174,0.4553978714432158,0.03959765070113709,-0.9740544263243598,-0.376242191083839,-1.428009971349569,0.33453073107149073,-0.8637733270698768,-0.3180046672675313,-1.2019091545531957,0.07782709214359138,1.027711538196199,0.4278751144305219,0.8862306836223011,-0.7297910187183512,-1.177889003542043,-0.6781143289462322,0.07428538279110372,-0.5059316190767297,-0.5338845099492474,0.2014195075714705,0.5149283161023117,0.5126771834237143,0.45881389555015034,0.6634889970954249,0.8613913322543382,0.5169451158353379,0.20281335625565694,-0.026051909125218285,-0.1969609519877798,-1.6181170122893886,-1.9457814554052466,-0.9365484918604167,-1.4794571911559633,-0.41769597821562376,-1.338669395817089,-1.1541328528950374,-1.6003342981260853,0.3147893143042754,-1.4545693858864996,-0.40042816500311407,0.26999690047054875,-0.5676502725357108,-0.3480075138978012,0.17440969985938562,-0.28471580988200546,0.9275534309090364,-0.24236830378013366,0.9286285738705133,-0.6050322050967156,0.3876010357086634,0.48978256576395535,0.18673721280820688,-0.8326866826907072,-0.9550503636534543,-0.6471687490402332,0.5905981943572771,-1.069936730068511,0.38517835068825895,0.4688803015339428,-0.5851568361764876,-0.3633963169085785,0.16694591287074323,-0.7650038831062003,-1.068402251858721,-0.2707469074892768,-1.0091190689301202,0.7278360691399889,0.16008967715177502,-0.9894246716196395,-0.7371053602030966,0.959408327851296,-0.9183342953819741,0.3911544362412915,0.605648216502942,-0.0499454623542589,0.07661435911640023,-0.5715062970198262,-0.03378674357248734,-0.611453758484586,0.44871201645651826,0.4812945581288844,0.3776387007245561,0.34057654934280884,-0.5279377439045776,-0.556905050021973,-0.2004229929821914,-0.027144508286245674,0.38176392839288975,0.20783608596691766,-0.6492886237805437,-0.062213061631198906,0.7543822648719732,-0.1622408736669579,-0.4834911257063778,-0.5657317237019687,0.02126459138479635,-0.536627974309559,0.6129815110216273,-0.6012722276152254,0.8165468307075173,-0.3306767739250192,0.9390337086601865,0.3484203825062111,-0.15079927497631812,-0.35388038820974943,-0.03881131438222778,0.19391194584517382,-0.8678812806586107,0.6213346652782407,0.9487820383177742,0.37157017493120853,-0.17669657287215365,0.3501621768127773,0.45586094879304334,0.20550751909445097,0.8444427650262136,-0.24206989196757547,0.09259729821047734,-0.5914134227180499,-0.10408581159660091,0.7509440490448029,-0.5327265913315026,-0.39335425998830015,-0.9983800679198239,-0.26246376632945667,0.4716475555237143,0.9527361089134415,0.25035895485351867,0.18058629121541017,-0.3357636013767341],[-0.669252508242773,0.6533492662732159,-0.11008512220697586,-0.42011310863877194,0.9230525027652536,-0.7291613531209684,-0.6977796683675161,-0.057943943361463024,0.26118802962028376,-0.6607518320969605,-0.32547167285399814,0.8342453464364605,0.8428772310626909,0.7961416285621592,0.7741152891779931,-0.8736829310311164,0.24570499114200733,-0.7181754901139619,-0.6992243257187023,-0.27957740578929835,-0.8082496200135489,0.6199993005776774,-0.98388222811929,0.11276251369918944,0.48536734504124457,0.3770123720694003,-0.024891746517218483,-0.07920271781994259,0.5641688715927065,0.0071099372676752814,0.4609599000497484,-0.48140085345522615,0.028650636593686295,-0.9657319135397014,0.8326196472921196,0.6850697342808302,0.41470183663576377,0.3320209555010478,0.8931016168170584,-0.04747676051709992,0.46975080066300023,-0.6162314959207351,-0.711146901230376,-0.9490552872948963,-0.002876551190151294,0.16011942895744047,0.6046836868194401,0.788646340444402,-0.43524689279037465,0.9858047833154417,-0.7900517171679826,0.3114393766660834,0.6838417842324422,-0.32089134442637013,-0.6974595413892155,-0.67599431315623,0.5250660897799482,0.1138423428576365,-0.9722132321692054,0.7990349888451264,0.09251993522902881,0.5240466473330279,-0.39043280592205337,0.7222641698920758,0.5352733170186086,0.8847276568759203,-0.47676472567412004,-0.11334505387266343,-0.07353167004748141,0.15045260661379004,-0.6842760736394471,-0.4972103323151725,0.4140265673675448,0.37952705031340606,-1.048252437561746,-0.2335820221582878,-0.3330401500999346,0.891445886487428,-0.8658540720684901,-0.18754048231723439,0.682735346347094,0.30371798179949305,-0.6454111384745811,0.777089455122927,0.6174564371911977,0.7494745138712452,0.4761839685232138,0.21480325388140656,-0.457480486878398,0.08399198332409326,0.6469089100222454,0.5041052946316502,-0.3980910192289879,0.08472109690099215,0.6582196081360093,-0.17753355591491812,-0.019773007255913216,0.15559498434248864,-0.10143946706988526,-0.37140646746523576,0.7007531913853071,-0.6729666560903257,-0.15153737333706857,0.3133434447096798,0.795613258118987,0.20047551490574825,0.36292792342200153,-0.24635184610060823,0.9500037287440322,-0.499863514004653,0.4965024268728256,-0.11070965923767348,-0.6226754213254186,-0.698721553394366,0.5307739038846134,-0.974386184722399,0.3328991921082981,-0.8346289306567432,0.10780872893765436,-0.5918289045870054,0.20194850832716296,0.23200173295129137,-0.4759080491343151,-0.9248849792769958,0.180084450667217,0.17574784959743084,-1.118723559295902,-0.17881715971610895,-0.6596652313715949,0.4525207180146767,-0.6309961859607106,-0.27891782272513027,1.0832996662475758,-1.1185174507683582,-0.05429193631975253,-0.1417268380034591,-1.0104624622055691,-0.4210329181945905,-0.43081814427312437,0.1533119373011778,-0.7169138939801962,0.4569242124543628,-0.7272420781557517,-0.07191043480143379,0.14998255337793195,-0.14495756390474093,-0.38099400796165017,0.38487243508187047,0.057196511438368056,0.4147148947580346,0.9791664302061961,0.7349358467000456,0.7261381356626975,-0.4664821278660139,-0.7988726597518434,-0.11712775472354177,-0.0728525703176121,-0.03201351220923375,-1.2148122798296572,-0.14302672155610222,-0.08748146951016818,-1.3114459494169528,0.6126348066366539,-0.3039828294353154,0.02714520288217355,-0.34484194330572643,-0.9667337712842734,0.3296189862378938,0.8027002426766124,0.3398139249115907,0.6382283176352129,-0.7987152568845031,0.10979448523059965,0.2823279897470152,0.02217872806575079,1.7197982344534324,0.1839417583188969,0.8211044253045932,0.08782816245038665,-0.4323849673050223,0.8246555308686946,-0.16105775665083202,0.3367597026349709,0.5125203455126787,-0.9472400420690619,-0.14561340063666717,-0.4068901029178158,-0.8547908557229488,-0.9390355653284607,-0.052328219539107844,0.314488301126014,-0.9761840228737039,0.35491763044453856,0.4291964327672122,-0.1619904925658985,-0.722312587174172,0.5116256888222068,0.2753215473426797,-0.3755235380456367,0.3737190176125118,0.1063393603285726,-0.3770582731072275,-0.2796274036584502,1.385816051002282,0.4796083117616584,1.6446055349893995,1.3986034782494812,0.42578752266779984,0.46689601258992475,0.25354877085869204,0.5294719845466219,0.33900436542785256,0.7590120647160574,-1.0126064263040049,-0.6358020260234988,-0.4624068207682991,-0.08448192103409717,0.7438584412868603,-1.3208962441107055,0.047670983045620764,-0.4610436249635159,-0.633441453223685,-0.27312248158699515,-0.27588197432295153,0.4551201865297621,-0.6325919874905258,-0.863675279643414,0.6435748037123594,-0.408063980586522,0.7271754468905613,-0.9524788469014757,0.4972583820974223,-0.15528245467885923,0.6556432676339268,0.3346930530870036,0.11918153352487143,-0.03227567341238061,1.2702951477301514,1.7590200750413063,1.6158079301443167,0.40964514177525674,0.4701089020108867,0.810564100713418,1.1551089795679557,-0.32207595138177814,0.41762719028696155,-0.3578568338141501,-1.2781381526647433,-1.1769782206763633,0.6267174347015175,-0.707509851034103,-0.24578363942138517,-0.24967414031693963,-0.5068110865147822,0.6903588532293384,0.4395151245817331,-0.27372005466284643,-0.5160641561632362,-1.1055607837366774,0.39040074795421303,-1.3142901910948357,-0.16422513667508698,-0.05627175511680135,0.12968048006108202,-0.8064002683814943,-0.6938179952097691,0.06144273792482518,1.2423470061855453,1.597449121862514,1.7501561320229195,0.7292892513968406,1.1611254860793112,1.0793453070684287,-0.11590782374621694,0.004732137519680292,-0.6167591467896775,-0.3434526499356256,0.121616286330811,0.3349948146569772,0.9202093075988625,-0.000827374461187419,0.8773175403715013,0.3370284081477329,-0.7583255920251502,0.5356993500013635,-0.665064885212617,-0.31452038079995215,-1.8256427478416393,0.05218837919530744,-0.0927237201746774,-0.4105282295693909,-0.3385679236244868,0.31616699425881517,0.1851778678118832,0.7433520835008077,1.5531507959872832,1.5618144105896332,0.7057518411223764,1.9024782678564953,1.5052914804975763,1.1814363151305,0.14214075157593753,-0.8351413006201842,-0.12081142179056724,-1.13140646643114,-0.8440983230571237,0.25145886411250085,0.5077056307372014,-0.6813891166538674,0.9079864884961443,0.46187793775032676,0.24453809376945237,0.5881753502705088,-1.390849045035961,-0.379110129437795,-0.34719770289982416,-0.9472896346920872,-1.0938984415445066,-1.0746987621004545,-0.6195362816805337,-0.2662112762072088,0.2099920471296713,-0.5775438103830698,0.9099062488350321,0.5001349527670218,1.0014740799260908,1.2617976709174197,0.8762273677562968,-0.004934250202981598,0.3599451113199493,-0.3085642438822003,-1.0958288873689617,-1.1167650598147605,-0.07694013352452983,-0.7142630161704658,0.49178646835152967,-0.7958409613463794,0.6273240533449188,0.44606270863645864,0.23686704914301715,-0.6553235648533421,-0.6386052373537645,-0.12257248112845137,-1.4246517399073397,-1.4983024676480254,-0.14365644250913642,-1.1555971772321096,-1.9283216753985253,-0.9550330606628938,-0.9965184475327019,-0.3119582615384494,-0.06255258212505031,1.1241969531448615,0.41861863049109366,2.006049417367685,1.9963080345962687,0.7183571542930467,1.00934949282777,-0.3064793281297873,-0.04647745371724287,-0.6698637161175116,-1.1921680141992312,0.8459345518018888,0.39403395597706814,-0.47933499108355904,-0.21725285366163974,0.053690147881468274,-0.3388719738788605,0.7426659745166134,0.8712260434116282,-0.909667728912718,-0.597300746795542,-1.3879920408842934,-0.9026750724195045,-0.5586328844070437,-2.319443185807345,-2.2953651924651406,-1.2040864873042643,-0.7953836147958443,-0.0701702391083957,0.8581692316807888,0.6913915078789552,0.778028712610297,1.6485351333612244,1.4945541718116913,1.070193867908323,1.0381422764541752,0.20668962833886065,-0.727954416150814,-0.8939393141625663,0.34087577539852726,-0.47858224497096674,0.07441766641537981,-0.13417054774618783,0.9955638236601398,0.681286497255621,1.2801614986069476,0.6441695168257363,-0.3429952608199333,0.18878995684352115,-1.386437645981498,-1.3835272183681007,-1.7815200760961367,-2.219491148215123,-0.8029176079494791,-0.3013658013966448,-0.33334467986529165,-0.32270456962561206,-0.461089055592649,2.2717547558693423,1.202154688249261,1.6782521620632964,-0.23658296444122798,0.4260082811230239,0.7253439513212416,0.4251937026721475,-0.9817358789112465,0.5371862559114506,-0.5700781287791212,0.4758054632088104,0.5040507654707886,0.7465735721058383,-0.6282908929491389,-0.8108655723824394,-0.052174759315244436,0.6612114368077313,-0.5904321438599999,0.6380997866638668,-1.1535461768799942,-1.7952493779649579,-1.8688215869137808,-1.990476362048031,0.30436954035569175,-1.2959661095044674,-0.6500615225163945,-0.29898679937547906,-1.4217062896178925,1.499664338530945,0.15838137102217492,0.061315925430432225,1.01851398111492,-0.2516490039341903,-0.3737674250528466,-0.3178861427201414,-0.46802055021052846,-1.2669403874666305,-0.6646220799536426,0.881987824668099,0.9615158422313753,0.6965767252164845,-0.42646280848078766,-0.642147513953301,0.24579364236151477,0.19511589353449244,0.0109747211377263,-0.6682581515291606,-0.8154381409773334,-0.8609674801811323,-0.992955840057217,0.05338790281987982,-0.18282445947861528,-1.0188820114549828,-0.5994649154559349,-1.9386141925977085,-0.504449103435666,-0.27407954834946224,1.4415337908375663,-0.6005166498148983,-0.4490661970476149,0.19187424251056137,0.6772736539694524,0.08779242547215016,-0.24419102657406888,0.013083117035169272,0.38966342304701673,-0.3272766531524654,0.22419267084648462,0.7687092200571398,-0.4973887118437731,0.6338309171982917,1.116438466283655,1.1848741877064486,-1.0905711746793463,0.003915358333579551,-0.1098753399240648,-1.5471758463845044,0.4741222856993336,-0.018991997859580268,-0.7498585422993345,0.5344467953663677,-0.19740721506043238,-1.6960492493349937,-1.0701084998198143,1.100519087024717,0.36527428458222283,-0.4442176024629636,0.6424618879612711,0.45604446844339014,1.1435726668806703,-0.24127948899891208,-0.31350462636861043,-0.8860105025695617,-0.6864790229757477,0.909996943372759,-0.286712675437469,0.24779236675858804,-0.39694571764049275,0.30976047196997003,0.39157257773769266,0.8276668183597332,-0.12449286189231142,-0.10821553560089477,-0.9571112669408667,-0.385440640676334,0.2538033296054916,0.2346821706343418,0.4330494415711532,-0.8607522970765215,0.07420432604240738,-0.24533870161625926,-0.6937728828550617,0.7274243459643942,0.018708570904369268,-1.1206014904157402,-1.0409412882135978,-0.48202872208543485,-0.13742169751563296,-0.7125247753794013,-1.0014077980568872,-0.49124654215714514,-0.17955864512689834,-0.12748225436023453,-0.6177741299379143,0.5755607175193349,-0.5215064252439809,0.6564009548906428,0.5421485751789381,-0.8193006213281526,-0.0783088779713736,-0.2161034579926736,-0.09183933546670536,0.004005753447237045,0.03162399834987651,0.36809761623097736,-1.0157528773621092,0.07994076881327555,-0.18006741191926265,0.439907793106463,-0.20249576960583238,-0.5962454047801862,-0.9550216020888019,-0.19413769311122933,0.8338166294665951,0.7433800540997065,0.7657223727325984,-1.2371419388546947,-0.6456144467299167,-0.878983545923768,-0.5208817369021769,-0.08955997591511208,0.9934805013407773,0.3305651985382398,0.8027808356845167,0.5135149071492575,0.5186181502761069,-0.06697416942504524,-0.12529217043234375,0.8913635594961923,0.041443827934939156,0.2875844200714138,0.2882151660502065,-0.5259141841231404,-0.33909047083920457,-1.0358337934701571,-0.8334178742312787,0.21533515931659541,-1.4757652351751636,-0.06584528243653714,0.2858563315970398,-0.4508121789233116,0.6257096559155759,-0.38881688120541735,-1.0394758249619607,-0.1522615449066602,-0.8814665558833145,0.8044884296605976,-0.04856353079629503,-0.5293995541261335,-0.09339743936439211,-0.3199933650305875,-0.893195726654702,0.522497533179221,-0.543520645757338,1.3191173605738702,0.4341820271560975,1.4707293234958811,0.020334091872264023,1.5730093312190963,1.501398343743323,1.2181257203770106,-0.3384710728925695,0.6544365589270571,-0.7985273255839319,0.39813102270316764,-1.0116165301512212,-0.25767409667841545,0.4359498517172461,-0.398515590898578,-0.25443890438124656,-0.9468242477063525,-1.2027860987325547,-0.34984346342595546,0.7775429677078182,-0.4163435856878652,-0.5732510092106725,0.1546537785244471,-0.09294477596801551,0.012589832024278054,-0.3391075837028839,-0.47311975758847036,-0.13327893455555856,0.9216160722244374,0.5287035775938876,0.10600539271007677,0.5707039244242812,1.3426348077144272,0.8375360378928163,0.21460408368185588,-0.1945938166235522,0.6344778912250728,0.46269288770603545,-0.2682109372037738,0.6485775080042833,-0.01768474386342747,-0.11314848391232817,0.1505501772252445,-0.3420726581618928,-0.54329204413516,-0.6044938725861848,-0.45839447650652326,0.20158045487235945,-0.16526463796340257,0.451632286727587,0.6142028696513986,-0.9955756095814657,-0.46159260075728137,0.20445954286335632,-0.5424544336036118,0.5975545755133211,0.037379379130580655,-0.2827142029826437,0.10337911363582629,1.1090476931876958,0.19829665380146047,1.4237293089784793,0.03813220548506742,1.6189447004082036,1.764178436416644,0.5930264520102446,-0.6034993963130351,-1.3503967050534726,0.5852966284768991,-0.6379938330075733,-0.8520375014719722,0.2492756914469968,-0.9975952141243791,-0.5547345624934764,0.3587462840391537,-0.3777166231634151,0.3067869971345744,0.839992126038143,0.7952168545670841,-0.8852656901416085,0.9451814266463401,0.7596628601503761,0.76785764304357,0.9000612871247812,-0.795895743518046,0.8862707320164117,0.5972043680701276,-0.00635867690218471,-0.3672703670004418,0.6898068008327864,0.37636812709306877,-0.3068884591030711,-0.25216174208115244,0.25660060255855915,0.7744419199271695,-0.7645796341853361,0.05889929101414052,0.873270732777884,-0.31717376714872636,0.5959268805934392,0.26240364161458635,0.3493343330605445,0.5469314512571806,0.9317056082166238,0.502823111360962,-0.245714500974997,0.7966533059085055,-0.5643378737144837,0.8907096658278846,-0.9738357940753449,-0.06821194521468493,0.9687849443894411,0.11994698943159927,-0.6392575374161413,0.34583468818459306,0.659121493707135,0.8455062174704123,0.3610749298668419,1.0039090303763054,0.5205825192927938,-0.133912549363258,0.15130118513466617,1.1290583598466646,-0.10516539968735329,1.2908480994506089,0.8217549167675496,1.0976739477249968,0.2502770431561631,-0.5299548739980315,0.3235033006901133,0.0011928194494019776,0.775548549664804,0.3097266153349363,0.7982426300376865,0.9583329863894801,0.13282196299986584,-0.9257125990116387,0.5982476346782426,-0.961556390901265,0.061816515985682746,0.24553377847445962,-0.5172624200736309,0.3317574771679616,0.6363181582090136,0.7876624030055435,0.20727516313667108,-0.14700036912743739,0.8275307948343653,0.22275873878392283,-0.36648696880835663,0.5368764978100746,1.0904951813987007,-0.41659156956189886,-0.13271271414188388,-0.05919740077906614,-0.6797701068175372,-0.9063573385771526,-0.4850910995617579,-0.9557453432847022,0.34637243697212927,-0.8047413790772108,0.6744964888186595,0.18744375761902993,-0.33703472920922284,-0.24617994430849785,-0.33462111834763747,0.6983337600907231,0.4860756146999312,0.48555559875106435,0.6000803855797765,0.7523581077098629,-0.4314987462942042,-0.21427280345757974,-0.6832179148632833,-0.21080947236534797,-0.7682714250581704,-0.6949368880179615,0.6439235112901437,0.15443413038217416,-0.26039059629461014,0.015420684500186828,-0.9619182597634054,0.4166203516852904,-0.5261742957203277,-0.6184562786442916,0.3793899526991946,-0.31516730902911483,-0.5164903192225013,0.98579536749962,-0.13449659784391776,0.22381290211212726],[-0.7819230290930953,0.7923441847373831,-0.617776201635281,-0.922711643958761,0.14091221523025776,0.8662801879107436,0.24726197431056374,-0.9477928952164341,0.8679381516418978,-0.07211789540264357,-0.7927559582932115,0.8857947859346655,-0.19621597507897226,0.7162118670131169,0.5044368540486553,-0.5857569686083459,-0.48163468386336056,-0.20204447070337528,0.909219458801044,0.8189903447300879,0.27510207846132007,0.4498181216827346,0.5936791462319242,0.04780529852832638,0.09997147429449305,0.8806745954073394,0.5695056212993719,-0.3182605662173281,0.9986654226185108,0.8873778218501918,0.5917739327956735,-0.7936999489038153,-0.10293563252734779,-0.5890385218219045,-0.6219033143483765,0.07976851970321422,0.13423157886940165,0.9211887091463362,0.5451848853809531,0.10946258777352609,-0.7925296437659537,-0.6891522337408341,0.9669632554518051,-0.9674807396760099,-0.3010492029392851,-0.6113031911109473,0.05824871687206823,0.8161154828346917,0.1494285764344995,-0.36035625727704423,0.14739544385553555,0.3548220233318495,-0.9143223266568348,-0.2792112865748133,-0.4301995948384998,0.20049155970733867,-0.8021979852657326,0.2094903235882093,0.681526262174733,0.3441803088510704,-0.7369915905129238,0.9781141392597718,-0.8689899010520481,-0.26852325270180927,-0.1620172237518942,-0.20795892149849865,-0.3908861427373353,-0.7905547890496186,0.6237788480195489,-0.45259002127980374,-0.3267864686542779,-0.9767891992949029,-0.3304409557408246,-0.43722141500091993,-0.9029733674991476,0.07956407679210792,0.003885000496176144,0.6316901041821443,-0.5874009651528624,0.15986068962202532,0.7329781678355969,0.5560130514861806,0.13553389656331455,-0.02404852717254924,-0.2413836599679855,0.5980448886171564,-0.498482989738811,-0.9698393859644648,-0.48305541325725804,-0.5417394013700242,0.6330064782595018,-0.014095057816152704,0.38134953967683455,0.25202891972255576,0.9000775799656411,-0.5556257461778963,1.1947578726441037,1.0866719949447023,0.5055056049423017,-0.4596086661815393,0.07579810139303741,0.19939840124605074,0.1272650959723017,0.1317451477847867,-0.11740913422494788,0.3591788537289235,0.5638898532357546,0.9627078773021311,1.0078401794288818,-0.9441599107851498,0.47118808267945955,0.20736169511398017,0.6465212461051242,-0.15336783562009787,-0.18544444555614864,-0.6488205255667803,-0.7112579701404494,-0.8987556646559637,-0.24318085360742225,-0.5507467720808581,0.5317600401288739,-0.6589124998478764,0.028236482707340176,-0.44006173206723637,-0.4747858438404492,-1.4132016849618338,-0.8704792592823235,0.44689508459152505,-0.1953199894649426,-0.7432150322394019,-1.422857235762079,0.436679835173752,-0.05702656481030141,-0.5709171037654086,-1.1213412315238598,-0.14880523848312815,-0.4600450889081583,1.2145268551312436,0.06110131451353563,0.495512525993455,-0.24784485763607866,-0.11159412451369613,-0.08757336905412393,0.25951085121659645,-1.2666855264923766,-1.174173696161935,-0.3872428935065704,-0.4812757765582405,-0.3229716809475271,-1.526220774792261,-0.8514006731638286,-1.6619688691331442,-1.355534674937338,-0.2918199882983432,0.007885573197349964,-0.4753620987922262,0.53571297387729,0.5537197544012815,0.6804377798885305,0.0528410668968455,0.004226263665502425,0.3557160056491944,0.6724745614030981,0.07358699278712717,1.488119555860873,1.3758012643761037,-0.8688656237897353,0.3651237069555073,-0.6184188353633407,0.7352155551027749,-0.34194899718263644,-0.8519130257115949,-1.0848350574137178,0.6594095111327323,-1.1194872831075438,-1.1944766821462207,-0.21551438460175731,-0.024106325352455982,-1.1991138624844457,-0.6789580327698375,-0.8895095076581132,-1.6135399065927616,-1.1543302721847009,-0.9261797966506276,0.7783931122582476,-0.05196815872496815,0.1035686696950647,-0.49625738306000916,-0.012314413187190927,0.7801609878706884,-1.3360108402346726,0.43666564873072866,1.4232128252395377,1.4666257162918002,0.07527005836746856,-0.7789098612754423,0.6426972334868768,-0.8851919737276044,0.39783171443821097,-0.8566274580216237,-0.17824741461287996,-0.7743703922261977,-0.6619123997395446,-0.8074803319274599,-1.5691694451994507,-0.2469472670924344,-1.9553911657115182,-1.8826078664746586,-0.6298005665113111,-0.2896428054972518,-1.2042174255876645,-1.1278474689654607,0.08282210760245153,-0.29979512214496523,1.1499528908339915,-0.5455781863730338,-0.42731405150082896,-0.8006333529888916,-0.4683937594158078,-0.1615375734000776,1.159510573790263,0.7825380595830292,0.7224953017160621,0.1978387772238689,-0.924978046123258,0.7443856854980127,0.6029385825820734,-0.8248968874628553,0.01964122201482159,-0.7346984346714275,-0.6406429654793269,-0.018872709929854663,0.08511943758288391,-0.15104450874256833,-0.37333901198045344,-1.2824593591686346,-1.4164078821508381,-1.1288013855489822,-0.09903891533482906,-0.2556050740084083,0.1866136659115348,0.8584502268758868,0.6965861403405476,0.8055259298661588,0.03834175676677029,-0.3014472854457507,-0.293452379828749,0.7166544475421408,1.208358118054887,1.5375154055642763,-0.41747558339143637,-0.26225253746199284,0.4557021374315586,0.24093761249718815,0.8092865975265031,-0.39319344275607654,-0.7196611782805556,-0.6802857515493004,-1.052538429722359,-0.2794795341972406,-0.7781473495030147,-0.6676732914940002,-1.0308922544464443,-0.6801060874634278,-1.0972650649132172,-1.3236713859552907,0.7208641114535458,1.1168564795498945,1.5141696438670167,0.25441179848893647,-0.025987587173861147,-0.05166100266149337,0.3653754954748692,-1.2205446935369695,-0.4034998330965694,-0.9550613469595728,0.4585305593579298,1.2359160229568322,1.288064267739676,0.04578822113085171,-0.8138753643079056,0.4110486940953213,-0.15590476604679257,-0.7423824815035682,-0.5359601888268678,-0.9336434810828769,-0.022293523615663238,0.6424770918035487,-0.679879582755935,0.4024806195241031,0.6002595366154219,-1.2333896152227348,0.11439090135585539,-0.324078774287353,-0.32499962821653783,0.8766944311912424,0.556958827962463,1.0981283910266166,-0.6715391148843073,0.508311947097255,-0.7004621619810416,-0.9128889082644607,-1.4751646552831144,-0.1583998317170083,1.0008341757934143,1.2019627700943212,1.1634734552348729,1.10279721668939,-0.2512210452044198,0.36007182239901414,0.7696536976018047,-0.4499853521571634,-0.5742964905127053,0.2560364714219006,0.764312031873704,0.32157055020832037,0.7050217317334876,-0.39574623113612667,-0.9122109510359169,0.4851093292658864,0.6900388736117751,-0.6593659313065783,0.13868724966663495,0.30201407121014623,0.42443969531545206,-0.3529260937495463,-0.013393975794590143,-2.1441641033828174,-1.7630326577368365,-1.0450495109167268,-1.036365908386201,-1.2442062232059505,0.508250657581794,0.5907598352518696,1.1094105106902425,-0.39658707700636586,0.34337154306316453,0.041131180250332175,0.7731155107894074,-0.8550727644633448,0.5022182431990134,0.54003662714524,-0.17080990096701268,1.2416053145190316,0.2769495960520773,-0.9591605898070092,-0.5363051693683687,-1.0514445644119228,0.9926449766183317,0.8105514633488062,0.4580167339853398,-0.4851527250101437,-0.6308986811684956,-0.7830701107676808,-0.37514931186808176,-1.476867805569685,-1.5014578807613774,-2.207996362579238,-1.687497299709756,-1.2004959821061603,-0.8567296008598687,0.07325401382060534,0.06323625426653176,-0.617011158118764,-0.657737521760652,-0.4803268065005344,-0.6810307756400756,0.7373030364607204,-0.27510435385823495,-0.17899034713158002,0.6966652777272451,-0.023388628412161723,-0.1767579160798465,-0.9127957304770533,-0.30665516552097305,-1.3684522256215963,-0.02270422461796587,0.5916364978525389,0.5079731100067439,0.7722297059889065,-0.7774134461465475,-0.5790003083474287,-1.90617201462902,-1.1890097215632096,-0.9654450692733895,-1.8143146471357132,-0.9728347068837416,-1.5787865752767252,0.5863303024207094,0.7927749272550751,-0.04199950015103425,0.9340312698944091,-0.41821759961312044,-0.25409268964607745,0.8610449784205413,0.20399216030380316,-0.42597797404608895,1.198913404858286,0.5862481340714873,-0.6848706757995896,-0.27983830784936314,-1.692788007687506,-0.9099292807451198,-1.2648699481822252,-1.0707552971488368,-0.22871559962030283,-0.9189308116094435,0.5202099195885557,0.035015218563928925,-0.07093104456532888,-0.8614644404799601,-0.019757357818921642,-0.9114328326287148,-0.013539807760850679,-0.8271037876970948,-0.8238304377939809,0.9837825300791061,-0.20758925085324686,-0.08855646720154868,-0.9901141283715965,-0.8698012856258133,-0.3467023116102505,-0.544387454550027,-0.4862501744491007,1.3769447517679239,0.9885305235607751,-0.006819826888746915,0.6817363138505915,0.07717768104045512,-0.864391893421095,-1.197334700279486,0.030203749385944143,-1.0747201734175644,-0.3334108913474496,-1.0087520131883605,0.4347268082321404,0.13607081548226235,-0.1685034235858463,-0.5435020387385159,-0.4275110665132266,-0.6690845805586493,0.14412554375756353,-0.9856244124799655,-0.19676584976223338,-0.11220988550973937,-0.21599317115453712,-0.19911862478650794,0.7703245220272191,0.22801690208916495,0.4760803625737857,0.12034782092987323,0.8529591266475106,1.1111600742979535,0.27169893679786483,0.7898629943369777,0.2637931609504083,-0.023178141724098173,0.48985685208040913,-0.42499567625955936,-1.2635395001052963,-0.8284145223917874,0.12317088017521084,0.47000040893904044,0.18439988160461218,0.5832168308160666,0.03604889734258253,0.41243444805971485,-0.18500930490710185,0.3423881098043207,0.7426327728869225,-0.8050205727859758,0.6317975617028577,0.800099216318718,0.13632782684927872,0.3173826662060662,0.6569593077289366,-0.15505158854028972,-0.48400998582547494,-0.050726506934654324,-0.6794143220225596,-0.7946979994388046,0.45406308876646856,-0.1516901202447004,0.025279922990773404,1.341598906072879,-0.3539662766497455,-0.4650633923245846,0.22956316309850008,-0.3848993078824203,-1.3458768814717992,-0.3012993295082906,0.6429073559533607,0.18995064356359156,0.022809454399215175,1.3632167890490825,0.9074602818102946,1.3575970374849304,-0.6320388323897547,-0.2532230955991133,-0.050775967645591835,0.04435956046498452,-0.1954398428169229,0.41042686754960955,0.3892540669445946,-0.7814303010769704,-0.40503410329818246,-0.133499717453671,0.6907311440115924,0.025786990732235702,-0.7281031572159166,0.25404519722491814,0.5061548234010365,0.4690538464433441,1.4178475641352777,0.2586364997028173,0.008552490038573743,0.3510909536837422,-0.264004040208165,-0.3377428244906427,0.04840067939629943,-0.07382799002134005,-0.04953891821766406,0.710120000659057,0.8381302292094333,0.036674473827118505,-0.06367543004653105,0.5713119372285805,-0.4903141196751274,0.9945442540411619,-0.11366663312624424,-0.6202256040858791,0.5433318120644438,-0.37502247756471613,0.8468464777800409,0.9872975750678846,0.18275683729444755,-1.3362220466530716,-1.6736991769775005,0.3459193801649784,0.6996175267402657,0.4764921099621352,-0.2542022936031955,-0.7894260172003323,0.23057159360801627,0.2751525296607232,-0.10590329692899876,0.6926332675244852,0.5679975584562277,-0.5790024750236259,0.6368650125888448,0.31122602545730543,1.1502979611893962,1.0222165977092017,0.4609620528823287,-0.5159238451681201,-0.49158234459169614,0.05310669613391333,0.13082066173280193,0.5764432896404608,0.7824136162201749,0.2231802283508312,-0.48344044849683754,0.30108219622553645,-0.21200221703339936,-0.5309072019255942,-0.5676388260106557,-0.025000208681206115,0.1377637598029579,0.8505484284710384,0.7740297645009341,0.6274139168360723,-0.09318691390619491,1.0045518906515511,-0.7947256476846477,0.731963282491924,-0.1250441088083139,0.029102482297263452,1.1962603681430277,0.23524493097345564,0.7305090827315782,1.0710178021416765,0.23240547325413696,-0.17451523025491297,0.056035594194065994,-0.14815142587738375,0.18429120554393583,-0.006019635786997216,-0.06259326020509538,0.20632590870894094,-0.4270355998307672,0.8214984766957849,-0.3863062072556675,-0.5872605712201777,-0.6908535144457417,-1.7292880689623311,-0.191984064509567,-0.1517623071122872,1.0982898826140541,1.0024000546716207,0.17123781297479276,0.23184376349872482,-0.7804048877510243,0.32955634770602893,0.2352550044337159,-0.3171142991616129,0.9896602150164974,0.3366561257802833,1.8475902624321245,-0.12893712606250127,0.1816822777531863,0.16737716879807454,0.4707852268224291,-0.12278298210518288,-0.04260786801945371,-0.9225023849463029,-0.090836210701868,0.5638841839099327,-0.7268745972992946,-0.5535134077396281,0.9727294113396341,0.2510356178461579,-0.4805683121442357,-1.2974250686572883,-0.8343377396464972,-1.594861040125937,-1.0954461794188428,0.12349925921276128,0.14471688668797222,1.1536947768829724,1.1665241750465285,-0.9126521371201537,0.17326815325027975,0.649612367781455,-0.28009251650675554,0.29194237502927395,-0.16666663428145298,-0.531675598394865,0.570463032330813,-0.28655736462691644,0.7598724704286511,0.45584995636342096,-0.7974154682537479,-0.03902912969403881,0.9299880583629698,0.7204948217616283,0.5986096235695773,0.18851799086680235,-0.13792196153464018,-0.9869984032975109,-1.1382406566097176,-0.44253969145724625,-0.8600094678087452,-0.201623814757083,-0.7163163386261179,-0.34006861707903197,-0.16707705525951597,-0.45411137324041895,-0.5631598625411554,-0.10628763243923399,0.5298543020631523,0.763437742612009,1.0909746476339892,0.8389352876082574,0.9480420782895982,-0.728727260327493,0.9054191048065032,0.343513973130365,-0.4161478548203663,0.1011896978071502,-0.7069406879905097,-0.037584324290990095,0.11060905434459851,0.3345933819183984,-0.3161066073132492,-0.19660789333215317,0.3125415637744461,-0.5380019447627882,-0.09895826252618599,-0.2530151768747721,-0.38675406768233306,0.7431934680543341,0.3491593638606666,-0.5624806046224723,-0.5302628741445881,1.4375072849140167,1.282214570381221,1.3472768271249003,1.3881426680996103,1.3680067928643598,-0.22297802556632063,1.0091815146698186,0.2711139966910931,0.7926362578454804,0.3676730221277695,-0.5313805973541804,0.26807696388936014,0.6781687801475185,0.7305752120254819,0.23597174261757367,0.9836518626879172,0.7173740194636262,-0.39788920439976666,-0.489421653563411,-0.9045172260735929,-0.8627670420416812,-0.870287011862517,0.5389531883415668,0.5682503913398793,0.29510653938741044,0.4987211049020335,-0.17789661435828755,-0.716807952404019,-0.45417757146110965,-0.6905725804988874,-0.2527627701441347,-1.0557458686820465,0.7268575935122169,0.9606688172471302,-0.7435461594380623,-0.7919653831446795,0.048738067419102596,-0.03534882534434437,0.6254684788352908,0.3084595644707235,0.17600591930562556,-0.4793981277314573,0.37076126419421146,-0.19765626337767145,-0.6510987529238221,0.6131465386757765,-0.20305969836147325,-0.8665066379585834,-0.07854019658695031,-0.9418445041533356,-0.855647366997981,-0.31377469794836604,-0.6889806348820975,-0.46268302535242956,0.01328418440388733,-0.008029743966288893,0.9172604010102389,0.5480635729011412,-0.5563589847412934,-0.5839632769827267,0.19601875059899038,0.29963916787486555,-0.12770193340917133,0.4028388453172677,-0.07969690748974942,0.689142851352441,0.092094603210321,0.23878321777637207,0.2976811542312098,0.43742445931352136,0.3261839667265134,-0.49024669745998756,0.04178581913114199,-0.5732581737837926,-0.5298537510765082,-0.04636964733701126,0.32740434859100853,0.9043905281622472,-0.690001604077053,-0.15589084861358363,0.05936450968306482,0.5055045303626793,0.9697556247387633,-0.03389781336358581,0.31771910955909183,0.7650098342542593,0.6127291384681423,-0.8643337300310112,-0.69538851143881,-0.07542380641946425,0.30644993006055743,-0.31954602533745025,-0.6847451972352208,-0.8129490631511792,0.02178960644955257,0.7165413242764103,-0.1747047377836201,-0.8719540429686763,0.3571884222950863,0.4358933066072299],[0.6258705922011042,0.976848746527216,0.06654611748557704,-0.5191935822117837,0.5881987794047014,0.8233688172379772,-0.623969776497947,-0.06663830742061938,-0.4329535813976859,0.27241196967551096,-0.8768091448060051,-0.6844953247602712,0.280371312306273,0.7235504008085882,0.7359172417876677,-0.2727145255256396,-0.8044992441807396,-0.5071951197259716,-0.20346396798086275,-0.759741242857678,0.6689969735076144,-0.4309881891077607,-0.005361107975471846,-0.06235306010794517,0.5297038001948149,0.4066674856165782,-0.7725905376901134,-0.2325165763800241,0.883839977929509,0.3642294979730032,-0.945512211620068,-0.4199269094027722,0.7412383136713441,-0.9068495389797344,-0.8478761255133818,-0.5987364837407175,-0.4190552934244133,0.9065232317604222,-0.47723841183367127,-0.6131473869486574,0.27074588950528927,0.21505716830170982,-0.7893712164354699,-0.7899859060364518,0.5160847165213818,0.5881767953184096,0.42943653294112916,0.6209077342654511,0.6291895142364895,-0.09635983544050149,0.9361469195661125,-0.1747852069637442,-0.96364913693668,0.8914176515474894,0.5159612192860976,-0.5250794767895366,0.019378301439102685,0.9350445951535424,-0.09074449379359009,-0.011740460252205733,0.6866509597386985,0.629016224724692,-0.9778562730108378,-0.8391271257921589,0.9904466689281917,-0.2666130699801848,1.010134347460451,-0.11842859752298202,0.25958482529859256,0.23701365003122132,-0.6626062275058248,-0.7072315973509008,-0.1384139658464698,-0.12348246321144539,-0.9813992301589558,0.7815398244495189,0.2540107462935637,-0.32933996335548804,-0.9810858114400581,-0.8847995843502625,0.13996469887390892,0.02451726644429984,-0.9044508177752825,-0.7615619733957635,0.4962128822148073,0.5361842144041549,0.8302640642592769,-0.2334487562174154,-0.38751161529850175,-0.09244331782633054,-0.14801677945995295,0.002365937011546912,0.056768302366626645,-0.3070886653394276,-0.41551048200022006,-0.3755585571786495,0.2953114715216024,-0.5135295652648306,-0.6451552231815191,0.09018035459492135,0.5702900716999252,0.9641399361115127,-0.19959262724906618,-0.12989634422507854,0.3713679285165909,-0.5088033189565677,-0.285583050175572,-0.529367814124492,0.7422180065809186,-0.08878871590305902,0.1386533908012701,0.5171865373247022,0.09839436191804429,-0.7949742386507652,0.8318726534776977,-0.5952150095918387,-0.9218786967750561,-0.8297239254806237,-0.6747572617981328,-0.01808137931386094,0.5381466706405965,-0.6676834241166226,-0.4919249945895706,0.33754905488705117,1.0183948282591,-0.31344110297963657,-0.021315336698041615,0.8654331732770094,0.791451372411915,0.3753787475427299,-0.4871880522947008,0.27705842133527336,0.8704678235471639,-0.4625842328689583,-0.0712058541347254,0.19256695771633944,0.006742375681344155,0.05605367918330866,-0.5761291708336054,-0.8956620242524178,-0.08529898007191984,-0.8870667444807516,0.636261334566157,-0.7419043396024626,-1.0942865737101646,0.02489477603498655,-0.5279374507751967,-0.3877552716910729,0.6401155679592355,1.2259053799827924,-0.10111418836288003,0.833531056038268,0.5017570184610008,-0.47735952836802487,0.3588473336725845,-0.3264820220983206,0.5963260487554184,-0.4173352515858004,0.5587179785726093,0.9561489749795804,0.9075758696419878,0.3242819197697244,0.5054321998708856,-0.290276734663305,0.38010194960185073,-0.23910983112424727,0.2476811622679916,-0.49728044117388576,0.7730538033774161,0.7472779304211755,-0.5627367486006264,-0.0004794233530860667,-0.784037536367103,-0.4134600220313929,0.4523336322097969,-0.4755544135423732,0.24690793842455502,0.8196169358886742,-0.2305561096102402,0.6188305021246375,-0.6255698802865435,-0.21020713912937505,-0.27367021794761764,-0.7480189954455486,-0.10241767012907249,0.9909627158551801,1.273684788639456,0.0018254681540980817,1.384021307033173,0.48993815963108905,1.0887719767043607,0.3460386365541906,0.6536688262871106,0.1808947489627971,-0.09587155487693873,-0.12234730237679775,0.675390382070969,0.24329425467674015,-0.349128651275086,-0.3863809044185316,-1.0407039872726027,-0.2801315516315191,-0.8048271579063719,-0.7334416570562389,0.17944910203628414,1.2099284210716945,0.15042933291831934,-0.30626970965187156,-0.4956144681694355,-0.2536179247719311,-0.41879716989697685,-0.1313606059813901,0.3291254687972252,0.20054530252372538,-0.2236964741987127,0.6945254338869771,0.29597011265268963,0.655469629267091,2.19272684598884,0.32058548213319826,0.26329004291406716,0.22260632881448106,-0.071659046400979,0.17866019203906633,-0.6860679451123958,-0.06979280221802378,-0.5970478389098609,-0.5447610837592102,0.6257456468971848,-0.5056447423155254,-0.16144471424567178,0.007078022120240062,0.2729224931437579,0.07079807970643587,-0.16827626096674989,-0.324183081772883,-0.7061561789095449,-0.43189473926204947,-0.7942606380971723,-0.9117063987351296,1.0601263592882244,0.0629931478859611,-0.4492491643212023,0.8208029016480665,0.4097455041676338,0.9030338244583371,2.3521956177741288,1.4074640523644661,0.1861729495561348,0.6608684698351079,1.0757935363786562,0.5186840917845668,0.09790236191346183,-0.8958565681824183,0.506051540751031,-0.6522682872211588,0.249988084268579,-1.2279946903791141,-1.1482224822948397,-1.005117389167768,0.8794129697959223,-0.8924338174496825,-1.0192691358681527,-0.5740639894264783,0.229466859055095,-1.1899963309548196,-1.0666578509133333,-1.5378521136166818,-1.1761553744234245,0.9119625655825749,0.9061313778231551,1.1900108244199619,0.1843843963849356,1.5489837078577309,1.5584723775255331,1.1356626930209834,0.36330768746447745,-0.7117732558312694,0.7063262179159484,1.0694473635319288,0.6480205661344753,-0.5400719423108296,0.1937822969399587,0.028268064127573506,-1.281083865268999,-0.09118621619048471,-0.716076189937554,-0.34972102255721216,-0.3479891422983234,-1.1206525821960036,-0.18353145236352342,-0.34761649811868794,0.874941429931652,-0.22301415166369673,0.24246389470065083,0.2447970600831701,0.034853161934805865,0.03806301652760083,1.4926271736419796,0.5243822374464286,0.5469813676689402,2.3548076588094387,0.47589852894331386,1.1016582011025349,0.255825736944931,-0.49873685369815113,-0.2347497756760868,0.5428883909955705,-0.5112464514588629,0.0593634193196021,0.8986932873288016,0.5824084654402354,-0.5718955896449747,-0.14773442292897826,-1.631389443350859,-0.16740103953276309,0.023251776900852762,0.18774848795650198,1.3194711722805132,-0.19399176667790827,-0.6795690594989282,0.7078162224823398,1.664655985364763,0.7720291768391924,-0.7993496454099174,0.8119037981850261,0.12497418232741528,1.177490036790752,0.3505645662290463,0.6240027924853505,1.5823756911247748,0.47866812281198573,-0.17157400731552117,-0.08955900186157216,0.34617337386676017,0.8536952926239776,0.8721784041784056,-0.7132145568778362,0.8822783328334112,0.06400313065005642,-0.7475672479171315,-0.6382410557913266,-0.9983628184258914,0.046996177272036685,0.13341808790242307,-0.17799450602625957,0.7599451561595542,0.266157403257825,-0.600839509991628,0.7131395200163585,-0.8129853342387411,0.6899824460448942,0.6918698754909031,0.8907440392594463,0.8471294918455881,1.1761217873320977,1.3781064925004385,0.23290762274082977,