{"layers":[784,80,10],"weights":[[[-0.7763514885526411,0.752111123375033,-0.8292486879861882,0.7713752008351991,0.900022510747625,0.6800310395895708,0.962839847372326,0.17475221859365644,-0.9238982189244229,0.61804596294176,-0.37142824294761334,-0.6356240725445398,-0.5395043675147881,-0.08716912051076112,0.1134892770657394,-0.05217075295525075,0.8839858353416965,-0.15967766315593745,-0.3822048241888742,0.37830577253191416,0.29413240810303387,0.06839376307684518,-0.18572109434433506,0.294942205057699,0.8359017735504408,-0.20751996867458633,-0.8720448911709164,-0.6849464500674101,-0.5935764198990578,0.33097641732999117,-0.5751865727621475,0.14824081842707226,0.8602622249328489,0.7412129957399927,0.9140104688824531,-0.2041884433095619,-0.776003071321176,-0.5594310510510756,-0.9720447486547672,-0.49138009152116285,0.8244018359175712,-0.1017687665273716,0.4338874312399959,-0.07197926908931973,0.45373349184306466,-0.5357220250021979,0.24798175431248565,0.5653072178120424,0.3148140311618226,0.30596870856401925,-0.33021393898442924,-0.6590841177924203,-0.6172568063296837,0.5922858273209379,-0.6433220295789797,-0.7774777467841036,-0.6590981236706668,-0.8551575789929529,0.5753195141899572,0.35675083707719857,-0.7367346263852448,-0.5200911299713624,0.6521188256756059,-0.2544013304284922,-0.19605894103601357,-0.8711625812056265,-0.5444935190514031,0.6969752835093164,0.04698179766370367,-0.5546978344113456,-0.16214628432321448,0.20611718161391174,-0.9933850092527711,0.6005930374454171,-0.9567771511032225,-0.9464709362186327,-0.4803944673909817,-0.8141637405434149,-0.702352841392852,0.3798550377242065,-0.6852703701610787,0.030862833507912857,0.7002688516818454,0.22067422273574167,-0.025307125062739466,0.5597784885724737,0.3611352734196195,0.8584617619788595,0.19573198909890205,0.21576604875251285,0.7828403700579987,0.7916974425423848,0.9081738034899188,0.17419586473030416,0.6815991274828407,0.30914634456210216,-0.30279067421636713,0.007358883724225049,-0.36385008069349156,0.3687965461127782,-0.2927796770318412,-0.6807947704040533,0.30502975597569953,0.7285722826203067,0.29373575603518487,0.5106780173418496,0.22346208878522092,0.27851578800023585,0.9626820691149326,-0.7056669970784042,0.5137288861402025,-0.7144835582920273,-0.059015127625341446,0.49628398148310415,-0.25941327518047413,-0.9436919249710191,-0.884643059049294,0.280249404865443,-0.8263972547326669,-0.8794394885606748,0.10162495539473951,0.49607028294342365,0.7712840648568455,0.46700581488652443,0.3848716857376972,-0.16530374286597158,-0.715617690066781,-0.28015781311599675,-0.04496419563113598,0.7463398996263745,0.7120903363479104,-0.10695879670938821,-0.47703751231320274,0.16046084160932128,-0.30606852604460705,0.3856196549810454,0.348784310449017,-0.5182037103395484,0.7367262521743416,0.5304961536816468,-0.7361704709075303,-0.15112818194704444,-0.5688106445606316,0.1925220381251744,-0.7385538987966835,-0.4119721978489203,-0.3412867030650352,-0.1510777533508836,0.14921772225458088,0.4327999762015922,-0.40043668135340266,-0.03360216735639389,0.43056037945241077,-0.2535991845582281,0.6748893182076381,0.10952032463305998,-0.9561326024407275,-0.04943540969401287,0.63329195645165,0.7589670101185039,0.0960349649130141,-0.5559340733972171,-0.07071247195263723,-0.4659948437420621,0.5567439588712089,-0.7611137557657407,0.5896817427730864,0.5665608523556317,-0.6385311650709817,0.6618575275023283,-0.2740841529877573,0.2893419616382955,-0.5087527899106007,-0.3300927094256208,0.42295786517843476,-0.3789750082155629,0.5491812026371818,-0.19927313450407688,0.12781800899870055,-0.2599996776930553,-0.9779212460538306,-0.31881223808285525,-1.0840111805822383,0.8006504766939576,-0.2893040526829328,-0.5570160480332007,0.2804212523629959,-0.7989148822711655,0.7943160527180616,0.8730850729656776,0.7280756384935553,0.14918077872315652,0.5701591722451306,-0.4904774770091658,0.9000926335511442,-0.11250637956916477,0.7335115337098022,0.5778109926794974,-0.5865922888814512,-0.4817843383297977,-0.5292399140575204,0.7152425102399643,0.26249214128558335,0.2265626998368244,0.38362383098648906,1.0359282602156439,-0.4473851236002447,0.519049584537036,0.0858415728002865,-0.5682424370983156,-0.8032229174858498,-1.5440570474572597,-0.5293242044385167,-0.34707179991115866,-1.2902387893877942,0.16721718747492428,0.474141643515623,0.8660365256950086,-0.2503823019077629,-0.05598039459057082,-0.19195062702249782,0.6099826655797014,0.6144211952267075,-0.2023715401303589,0.7722431090648709,0.9782050118106328,-0.842122647933259,0.057811340103151504,-0.7980746128390925,0.8195819682823593,-0.06768984508588936,-0.7210169130076396,-0.3348054261183214,1.1374515519785438,0.17975911903329667,-0.23503387242153467,-1.2695529490749018,-0.30218742245989005,-1.917244368490275,0.35067329303645456,-0.3976676370786247,0.939384321456077,0.04286739658151261,0.08049360928004398,0.5027797528928485,-0.3251498195053843,0.43738454823661455,-0.12560472120281782,0.3246330533913343,-1.0929767030948059,-0.08057361913541794,0.10539886912355982,0.0915192420452553,0.46981187122760265,-0.2256261716118132,0.35295565858513206,0.3655300648047433,-0.685862052097454,0.17286871595139336,0.985393692052089,0.2737440744358375,0.3989914497144777,-0.7502437983445082,0.7694788981102284,-1.394932619417057,-0.3647436752194154,-1.71217341295834,-0.6867150558299379,0.6569110619310662,0.3299361113473777,0.5906475077463542,-1.0248153730603287,-1.0894016294996864,0.28353223502917146,0.9821767969929704,-0.3800296086151486,-0.16689628427120737,0.3620584802741619,0.676920649781966,-0.9452798684472129,0.9051571180243965,0.3289312435109744,0.09978702511156005,-0.60094828031268,-0.48204008598852804,1.1165502099678042,0.2297396995404099,0.9726106476520399,-0.04519318902970334,-0.11832571771104082,-0.06204761002671915,-0.7138434663591379,-0.4960517224946969,-1.841251566475014,-0.9547549986542943,-0.8790810582288611,-0.5184241356804362,1.1601869127841613,0.32026096434147877,-0.4483931760044676,0.08651250236917296,-1.2819240864394894,-0.26606894398444725,0.3855523239619212,-0.3905668048971243,0.21864963090460582,0.6148904917639343,0.4088073230677236,-0.34702344183733125,-0.1344224686153083,0.18728451200821825,-0.07428832266043646,1.1804458105064148,0.8268528156492287,-0.11294657865131122,0.41658158495113806,0.4490582179895889,-0.42676350802676183,-0.8709152998483233,-1.081684403125792,-2.0944756397041786,-0.5765253067868485,-1.5833579316274116,0.27060719378462866,-0.7497422202020946,0.07302878716940586,0.1995557023288621,-0.7735288381828921,0.35800482439514764,-1.458383548447602,-0.1690519529432356,-0.969626702174611,-0.8937931186272936,0.5031062154892207,-0.9225784423663246,-0.9770619591337893,0.7152361278300092,-0.7884971920435005,0.7446458789421176,0.12791875904560324,-0.21456876169467823,0.5374654196080186,-0.06206611675377214,0.7647378841569159,1.070530909059249,-0.5148375875953858,-0.20813871190316546,-2.091162904705768,-1.2156213787174015,-0.9552562214952113,-0.15100284475891057,0.6403505624544222,1.1621288166177917,0.47658872029686555,0.017550538832736398,-0.6937500793866557,-1.116028105775334,-1.9226212318108944,-0.6067639738337701,-0.5134672839101532,-0.3925762153396818,0.6876798677791655,0.6472686893182779,-0.5465283866291432,-0.9917552777743897,-0.8449266678422866,-0.3750282007845422,-0.4915166590093664,0.7551420591821472,1.0387851677426765,0.3546662041420288,0.694017881454368,-1.2294486341430728,-1.9834172521444697,-2.462451103344199,-2.6992185785480722,-1.1641774153485343,0.20371936289903375,1.934828852562801,1.620258296868782,1.3464306395133512,2.468454304380283,1.9262349461669288,0.9971143646014561,-1.0025239147191853,-1.7644282814311998,-0.875615501837942,-1.294975878455791,-0.4983833550630459,-0.5806895092797639,-0.5680389318103936,-0.7638029994267971,0.8694938960307741,0.21689138617554315,-0.1055427423279943,-1.2165107703660045,-0.2238832908260999,-0.3086677939536619,-0.7529357368904563,0.6397875217139074,-0.221541744721747,-1.4127402620186522,-2.48167484223083,-0.9488282732600463,0.1447355492554757,2.485698183858388,2.097159569838693,1.0233208363957393,2.7761640681559467,2.5879659970512146,2.034691672894497,0.23457847176800622,-1.0241655697998917,-0.9226125247982705,0.16955869372912838,0.6333593067427535,-0.7543598832568206,0.37608455800378016,-0.7766299193168407,-0.5869115088254462,0.7616433503260504,-0.64481567212577,-0.28810977016978334,-0.6613868946617294,0.5206495399457733,1.2212399133397642,-1.2828503301574978,-1.550345438255692,-0.1773321879432161,-1.3747177311108778,-1.1765555454960646,1.5965313400203185,1.9697365457835836,1.0790530879434932,1.065959882367165,0.8329973622223961,1.5442096232552518,0.9121117159802848,1.17843255306148,0.38175300715600063,-0.8844468079995849,-1.0551975327441454,-1.1396593361548297,-0.10563132212327248,0.04860973005226285,0.02853124304465539,0.9960969206672343,-0.2517421086311453,0.7187048646091658,-0.7290640770823682,0.40921788695639516,-1.329153022087978,-1.6001714573418193,-0.916926038466201,-0.9143911598578701,0.21744160351955394,-0.7388979649607251,0.1553260904418916,1.5794540471306586,1.463670261817512,1.7039694103549805,1.728434049868726,1.805893438952822,1.7269638286331723,1.8314969873628475,0.4830102001682998,0.37717426136680415,-0.833110540013298,-0.8027959289317923,0.058793577493002916,-0.5766995709763445,0.6514751619828182,0.2468540921564347,0.24483827056422156,-1.1593138917348613,-0.2844819144895395,-0.4478587919724659,0.7464398626306156,-1.0981593924401944,-1.2930913997180966,-0.18464079887805823,0.12448797196302354,1.1108951660393642,-0.21235917877517269,0.5559190817599109,0.8946011105745427,1.6195513232899275,2.123805020286038,1.9785354735693166,1.7234376965365148,0.5352226031985604,1.5212299837704628,1.586046754318028,-0.26121215385179225,0.5605936175345752,-0.7070593463558236,-1.0468118158032953,-0.2619926416065985,-0.8360194542014052,-0.0027512431812798553,-0.3868753537090399,-0.6421729168310939,0.9653537039965149,-0.2185749071701001,-0.3295104988818771,0.6700947122801034,-0.3236574444205858,-0.6636324322241645,-1.3175622927150685,-0.6167552775932241,0.19487551931862662,0.37647999602464066,0.819934358104958,-0.5532512007467132,1.706293166149074,0.6265056148812723,1.2557959350774865,0.9617443703702955,0.5282190204352843,1.2235514664614395,0.9325078241015515,0.5640681980629918,-0.6410078165673277,-1.0555506156823118,-1.2835476466632374,-0.2888654329783907,-1.0537608325385366,-0.28198456858067805,0.6458074320363224,-0.8433971523740823,0.187215649837303,-0.3720288268635693,-0.9133441945526752,0.9269875175041619,-0.7010423317107735,0.2880297238709482,-0.32046238725202203,-0.10170347378619508,0.1887172145866948,-0.354693425812228,0.08709650907271707,1.3224414544101137,1.7795991776215057,0.06615473766246348,0.6096002025478123,1.5121727316061158,0.552344320427258,-0.26805058228732703,-0.4884459127903936,-0.588997847593667,-1.152208804990408,-1.5338630398912132,-1.225330234808257,-0.5342621347732318,-1.3664511236111907,-0.6823840025235125,0.6417773533863492,-0.6222437536105017,-1.0230751835043923,-0.7852475806314926,0.3848940545582047,-0.40729676293463185,-0.5171459989141175,-0.23737134440613872,-0.3289744431861822,-0.5405055910263448,-0.09099181658299871,-0.8091215411319463,0.5661518174675905,1.2933750566221216,0.548713138180398,0.6448223583873719,1.3915762567554422,1.0270746514612197,2.124982449073363,0.5461466620005225,0.5918157905972842,-0.8962268438796183,-1.1750808025583053,-0.18597417130763552,-0.5701296529911734,-0.8224835796033171,0.6186703783851576,-0.24614816948532328,-0.6118893663475922,0.017931622483096536,0.1392758804747918,-0.9223632547746283,0.0024490699427492935,-0.5528457784336887,0.028765892706265506,-1.037020413484729,0.686989214071591,-0.9544732258087745,0.10068416981954914,0.423846159826761,1.0332417722862035,0.17259763360747857,1.4053879535864526,1.3533791847269876,0.6151817878802321,1.5313244445984346,0.10544655775018652,0.22359248259036116,0.02735724421991949,-1.9759166361123286,-1.4276005023951976,-0.9494828414979325,0.26077263172730714,-0.321017634995861,-0.14660009087140996,0.8775157498204135,0.21957414120328692,-0.5155335201606442,-0.19575659528053327,0.7939886952136387,0.05444122000888241,0.15564449978655587,0.6567985466097628,0.7380305809984858,-0.5317005678805367,-1.087737943198172,-0.1510817346153611,-0.677856623788706,1.5892084488928517,-0.2147834437070368,1.074116375671889,0.9558232576583414,0.6100597013598934,0.5991881902182797,-0.6536522237319293,-0.4959790682447677,-1.3216953544725485,-1.0183164760400698,-1.5383852814969434,-0.7904275087916869,0.1582411275060719,0.2881446968189604,-0.08373809538778923,0.7603740810271835,-0.6400129841041274,0.003540899617875037,0.8870280314198724,-0.7544617300702126,0.13086140105697863,0.6861587089495742,-0.38584338199878937,0.8269029661162268,-0.11978439522194183,-0.00612885549838435,0.2130243640551081,-0.007327011543589206,-0.38200234570351005,-0.11783472262693963,-0.5602835036049014,-0.2793588117711091,0.8633389529714957,-0.10974079988020166,-0.9168096560878315,-0.1790144538311202,-0.22399755104709496,-0.5348118872790769,-0.18011983001939608,0.8354072090699137,-0.8531951960566063,0.2709209783861821,-0.735961010214249,0.09217970535359045,-0.739118714733993,0.3558305353408698,-1.001010675998895,-0.12184582742250252,0.17174217568048755,0.3372396374862459,-0.704842476977021,0.8097865574752988,-0.991482965169778,-1.2916469674278248,0.5033528214899717,-1.0339881268115616,-0.7547279503888038,0.06258607578572417,0.5059148602013841,0.1980684371056108,-0.5712651062621512,-0.4394778255673907,-1.4174134744433282,-2.0532292616834558,-0.5796317010318895,0.4910440034024349,-0.7949886955986833,-0.7889347360096725,-0.10391925322081179,-0.02025842298038064,-0.7746094544372878,0.6394532552967934,0.43624639595256676,-0.3149649577570677,-0.28456536259816917,-0.9640148944065136,0.9618236184813993,-0.06647812486301774,-0.16854825327621178,0.9241996051558771,-0.8599434022959651,0.6652667268284576,-0.22090399072074263,-1.0757315840624768,-0.8082482517683311,0.1371123157106751,-0.5676558442168018,-0.7058970595540301,0.19113668889264782,-0.8360806682821501,-0.9149712230033544,-0.4119842239502893,-0.13916934918124876,-0.3193689226157411,0.5319205868681859,-0.5635936187737279,-0.4618333595755541,-0.41964624987435417,0.29737629382858294,-0.09977566501713307,0.8306162737127321,0.7268165340744894,0.5562086087318499,0.5993308634767489,-0.8747491579880835,0.4115494266850286,0.7178743701103654,-0.6998340629310453,-0.1250579010832793,0.04623451012221616,-0.5378046081898402,0.030488434588749298,0.22411139889117723,0.3036671555480581,-0.802060414549022,-0.7469363392844256,-0.3073950687002117,0.4740424569126282,0.6567221851728591,0.9052787737927528,1.0298396682792752,0.9470814711041493,0.9918032561990912,-0.47982263940870185,0.623928403906307,0.1964533456284945,-0.314643278258847,0.8607092659522299,-0.38352269104820313,0.23261647870105193,0.6935019584098322,-0.03407091029841558,0.9146216720882792,-0.7897602130227797,0.9333615531336688,0.37233001201214044,-0.43924440933606934,-0.003850560268975504,-0.9315456063199476,0.6907552602683474,0.3679252604004711,-0.8332550713749958,0.3591160912202218,0.12659028168578465,0.8290602235085911,-0.5280671565794943,0.034155766221507566,-0.25869280167037634,0.9380805056209296,-0.19694406515387133,0.4586026346122125,0.8833529403205787,0.8909497807945836,0.6908545983020667,0.5835284135106547,0.5501423869322308,0.3763735655291751,0.9724360800875888,0.6933313799296652,0.01385751832951776],[0.3488738587809358,0.7984909519976156,0.4156868455967917,-0.9169565796590655,-0.9669707457723868,0.5927973563481189,0.4063687006117997,0.2824907597108347,-0.3640878960329627,0.6616500754668801,-0.0546429876202818,0.37794018394294854,0.07764991149431187,0.979312432903677,-0.6849400827371415,0.16362273211525963,0.03282982361508973,0.7797511309136649,0.8991272833109226,0.83232445397363,0.6402135948923724,-0.8954178319040182,0.040248356564065425,-0.9113436207497494,0.7302127657751236,0.30921350580590534,0.1407797121464509,-0.47444713969859453,-0.10917529158674055,-0.5454597366710487,-0.26543996652299917,-0.14409040506074922,-0.397098184899376,-0.5996095951614033,-0.645857256601865,-0.8033602013450923,-0.9020188971028802,0.8462875431122261,0.2417961198019489,0.3674338402500285,0.6334269795859648,-0.2669036472149602,-0.06024754971204411,0.506146329444658,0.016752082487054207,0.35394309427506965,-0.7132583926632429,0.7457528927167066,-0.3201186586702125,0.9586890860131252,0.13410836155843836,0.3917095304917777,0.18673603696187557,-0.9824995622326425,0.8812051760637161,0.37039264815165707,0.39669011290516654,0.583224735254336,-0.7771822466572655,-0.538011330178795,-0.9551832358278065,-0.6916303393435204,0.22300857150398434,-0.5247369067725541,0.9174668330045528,-0.8597336394306416,0.22551379937742003,-0.13043801912141048,-0.20654817853885515,-0.03284412982240467,-0.9399725822423577,-0.7096144416063503,0.9862950218418566,0.42239188455095505,-0.13834372107576115,0.8650502991289899,-0.8368798713737394,-0.9192252344235877,0.9685373442620016,0.8030078629165147,-0.6985856931225216,-0.6167824405077114,0.23499549324931834,-0.14157634696464294,-0.49061472455119226,0.2669669529157872,0.5706952762216595,0.46197026403550395,0.546470848490862,-0.2964315040642549,0.47135488702691203,-0.5428602893369404,0.41848145472198095,0.8363673923498176,-0.5346804556360587,0.09783501149513542,0.6630293623874186,-0.74263712852225,0.9830534244768827,-0.027645197385883075,-0.03837095731472504,0.7376818495712757,-0.48525151605584793,-0.04031868002844855,0.9951657756516282,-0.0758336842161328,-0.17488868521734752,0.8034643976188157,0.42576508441500927,0.6614386737322215,0.2893988555687734,-0.01360581825593421,0.2932620542987916,-0.415158931509628,-0.7799875585113506,0.6697665125553779,-0.8653539201213135,0.6811863737891414,0.004054675969834847,0.3227557214136096,-0.16740182897685507,-0.13545459191703452,-0.6868096758078501,-0.23096260165143043,-0.6388076067220306,0.8944560614169337,-0.9561497428801096,0.6160848008894257,0.044633446369435344,-0.6213261447216121,-0.6383134673431712,0.6617608880391481,0.45539314294714467,-0.3694373618849072,0.684558002260045,-0.7154883407297037,-0.27061463383374357,0.27736682699099846,-0.4982482565453123,-0.6335118270522804,-0.4828946172486632,0.6450328215022845,-0.016155557372208886,-0.16726767570251466,-0.20545881267110094,0.05672629840260685,0.4434480594468192,-0.21289995418907637,-0.31444682448701433,0.024898173617365106,-0.7860805419121654,-0.22580290735870298,0.057064861040222396,0.2769782229358308,0.1532941241842576,0.3829738007849542,0.5311107257214212,0.583218522913054,-0.48123220944724954,-0.27206176607738164,0.13996520672073795,-0.38841811864460596,0.5623769906590512,0.4386192127294318,-0.8579555932686473,-0.6559161032140373,-0.5472527268150776,0.41801231734387456,0.07322407388844843,-0.5573245031726096,-0.7077135600613146,0.21594502738196628,0.17150926496003607,0.6465624089497946,0.24077007798123548,1.0092416144745466,-0.6255749726634315,-0.46751959979345287,-0.4241571113564693,0.6617947823363552,0.821359577986613,0.22016191447530817,0.20518858898005252,-0.3583947981820925,-0.4070353104083135,-0.8491999819278782,0.05357006793039923,-0.3494551578222888,-0.2983565110545576,-0.2670299533557204,0.5290460893640698,-0.6798588051700013,0.7391877357569195,0.2285626921174122,0.9502828765066106,0.9166038474667668,-0.5533618450876774,-0.5739628207074291,0.16590939956829576,0.4546365100785787,0.36804654010953797,-0.8397248676784214,0.8896325324137867,-0.18260507511180818,-0.44538208341939006,-0.9011541372645421,-1.2265610729710246,-0.25702619155134276,-0.5937147739563259,0.9166119094302981,0.5779849335673047,-1.198735502099607,-1.4704411626453475,0.31492862298533036,-0.11876570752073837,0.35994509104557193,1.4511886474311815,-0.4751234283256113,1.2987123810552474,0.5139532586975943,-0.6279857080400941,0.9077335985876718,0.6186524624295586,0.29694367560000295,0.28234524548343787,0.1535780979903967,0.024131137342890747,0.6769526863551089,-0.43299677685673965,1.022352185350186,-0.12868111091062281,0.7602375267504828,0.7109302123362369,-0.9302736340324994,-1.173439037382057,0.4082031325104595,-0.08601635254778353,0.15943110483671882,-0.7567126954680021,0.3390706657872464,-0.5817790015506835,0.4825431556359948,-0.8309170130649945,0.4633526949860995,0.17760738022778016,0.19438758117065183,1.485869397362877,1.1984849407279075,-0.15984542459968173,0.057746164390924504,0.35802601314655746,-0.1762589766672388,-0.09079629656741384,0.25293250369443376,-0.719006717036304,-0.9887303190919119,0.4366448539982026,-0.4352928447759054,0.4278153147178938,-0.8835512673535395,-1.101083305933747,-0.8148526010954941,0.4795045422822529,0.36439842759358304,1.4782106870600076,1.064928756157401,-0.9307470131222516,0.4779580655151559,-0.6381503409243771,-0.9328262344693263,-1.0103815689043114,0.9910354643840942,0.5496651627144957,1.3737300464714268,0.5554556501756666,0.5746643493352523,-0.6048129534877384,0.765602624422216,0.29974621276789754,-0.28378691765993114,-0.1625948949361149,-0.33852136808547467,-0.8291388273208965,0.8405032412527386,0.5303550615743677,0.3889523439200921,-0.13882183107753632,-0.8095363829312842,0.02259807337022647,-0.04545066697605254,-0.4207335156263361,1.1405361581162274,1.8831729915644866,-0.1987804934352223,1.0495570370851401,0.013861368212865379,-0.6605613286469212,0.5632738853949248,-0.2317673528017145,-0.7234257613260522,0.6512688975902392,0.4551130939455893,0.09275720297821542,-0.11159553164244801,0.33124399615127076,0.41851709298751366,-0.5642311094421809,-0.4663805326872814,-0.6281081765684666,-0.28561417913841464,-0.37826341487566467,-0.446030898618127,-0.26151015002017225,1.1863328356137006,-1.0447914850193005,0.16117688090239443,-0.2834282371627054,-0.8038292683412424,0.9980022431252723,2.099225914080233,0.15236558613313314,-0.1778413697339231,1.1895726197973215,-0.8195818297062467,-0.47403519053581616,0.4699222483380086,-0.8220520247376768,-0.659608187451922,1.132652008772126,1.4673160957193683,1.0723503905660998,0.11375644867281841,0.8332851134076045,0.41485423800678856,-0.2113715562031396,0.0782889650991779,0.6465585812288546,-0.11321242234259463,-0.3977671201752768,0.47057922741451613,-0.5173778061124439,0.9322116555012975,-0.11169303130093555,-1.476180626164771,0.24510979494315346,-0.5746262073758338,0.9132191878423763,1.5439183693866159,-0.5763389776964332,-0.6230607773448511,-0.47034149955279414,-0.8196777385974601,0.021266647758636886,-0.7216443814401099,-0.14669078594283452,-0.7807955673760457,1.0481932751162666,0.20732047463732925,1.8922121188337564,-0.19276923987446587,0.7960652068675206,-0.6950780024586053,0.7512532840825287,-0.4118689458457615,0.42938312299910253,-0.5829910826843206,0.8917190411749077,1.027209229159371,0.6400913588092424,0.9195759316290208,-0.2521223979875177,-0.7947040690565694,-0.44049484456343996,0.9490102003654018,-0.005464926067598727,1.1045359810185467,0.38750728760753395,0.5522090053166128,-0.22886984620075537,-0.37672817105852185,0.5151281062789506,-1.0487739636755735,0.09592277224854699,-0.951411931393239,1.7502894396920667,0.3687182369073281,0.39726807976775014,1.0742915385022929,0.24230598032348405,0.39650348287491255,-0.34867696615757293,1.0115872817797453,-0.08107897698324469,-0.2523111941427139,0.38900247746363015,0.8698971642747564,-0.13485600350781454,0.23015897300475294,0.1378630432112105,-1.1687366346812318,0.27850936172612034,0.3138912611211084,0.28335938772507746,-0.2836534172590049,-0.6048575034217852,0.5478389990016436,0.6738580586578392,-0.08210116092127406,-1.3191510689954913,0.006949175703207089,-0.17848006560483448,0.014493560753206984,1.5788729130639423,0.1948671816400101,1.016685895449617,-0.7506705924703554,0.39114320482831705,-0.49040416470585335,-0.8842431330425194,-0.20483117723469513,-0.2534909092899234,0.5606828866958518,0.8098788093548804,0.027789016417002824,1.1230790342901746,0.8466972963254422,-0.5024344344634886,0.43953179144466614,-0.31713416431376884,-0.015058255111254885,-0.012160284549713123,-0.5306002137020667,1.2199742852977522,-0.35383391721734536,-1.0227035189662705,-0.4757138829862386,-0.0933705506675085,-0.08212961526211814,0.3889607579082917,-0.2513286597396972,1.5551761425297288,0.5819092795104728,1.1072313313924398,0.4158836105344366,-0.2925279750138766,-0.7240299836854945,0.6969794464771226,0.09663488816378359,-0.10707618638153037,-0.24577205007044103,0.3550329257492046,-0.2595889595091749,-0.4252621591630544,0.5259080037686338,-0.2342146842437557,-0.3411534099609691,1.2365545732323666,0.6077524142394914,-0.388608016669761,-0.2850609134573079,0.36199098797934776,0.7702806394764965,0.5134889732017662,-0.8440886523023293,0.49893235916908946,0.9352824609750112,0.4729545601051984,1.232216628125621,1.2799017952367187,0.3129807403630398,1.11181686808742,-0.7959207085805484,-0.3982240400443243,0.42007757633723447,0.5403835141999235,-0.6457180204344581,-0.02177549779513477,0.42547520247667425,-0.0704737544594118,0.58503735144857,0.3778389953000624,-0.17899305134691573,0.9012702004713956,1.3039754874523797,-0.5505212208271315,-0.17116063755891903,0.8741319043222642,-0.7988204476984526,0.5278549761067034,0.09024376641399665,-0.043766803769368305,0.18189262283200597,-0.01766489551779829,0.1408880453975726,1.5703778896849188,1.573651794939816,0.6305089207504349,-0.13482772945765173,-0.18679776651986213,-0.9206688729999306,-1.2094839609932881,-0.32821370856481813,0.7901554114392636,0.7079969494806754,-0.9577235897407137,0.9046438252985115,0.9186392779508509,0.7324131040805281,0.12103422646741573,1.1422965250686241,1.122238840081314,1.1628400233561038,-0.5889200615056549,0.11739174384524163,-0.06260012930577033,-1.2937002036218959,-0.9906211257981026,0.1906486480353647,1.0995599680462482,-0.4298583466331992,1.4845530147969406,1.3983990000614683,0.780133157391684,1.4346605023666434,-0.6864929435911536,0.36206150450500546,0.16782992313417183,0.5278890408706244,0.2951094308043679,0.9232006845838473,-0.640018330566192,-0.7888943234441167,0.8859700720639436,-0.8095844031491496,-0.8185690646529404,0.22432774339776243,0.9986586479145902,0.9445263907347177,0.39705069646235036,0.5986150406663785,0.17686751951920515,0.09287493556993899,0.09647212614458509,-0.4105517961248053,0.5890287598735633,0.4497365558308156,1.2637764043782924,0.07870835873978889,-0.05749400217708117,0.40129370688202015,0.5356703573933065,0.6545503079450793,-0.9148613042961485,-1.2094569300751126,-0.1914302354288508,0.24037087554938835,-0.46291842156162816,-0.15348427569211878,0.41875224959076374,-0.1165254274681851,-0.8041971890999458,0.6735051711275909,-0.12809928742942092,0.2918174645764625,0.6713613966523055,-0.06968043934660814,-0.4515768765291854,0.6184633639822479,0.4574081880768728,0.7822836953431779,-0.8012580373658406,-0.3249742228153341,-0.3474175637062916,-0.20701581315947024,0.04643902872527549,0.7919409984046252,1.0896559421787912,-0.6074011030181545,-0.6539626477040279,-1.067334444637672,0.02991548730636599,0.6002391403233328,-0.7474153976411756,-0.6000727116361367,-0.06495264739353666,-0.6355162729783237,-0.8195121187630713,0.2499744129553958,0.10023022046590713,0.6500310700874622,0.33168984437590693,-0.6029064100601544,0.8531439258997092,-0.08831576761288608,0.4154185562333318,0.46442738526283267,0.1609314952734672,1.0251320941675648,0.3959536549425426,0.1683097368684259,-0.04115507616398923,-0.6237831066831073,-0.10732971056114977,1.1039740628591839,0.5425795918322455,-0.005636459217770926,0.5842137587242496,0.4074700185522506,-0.18735422531835336,-0.6555471805864392,-0.5665304942006185,-0.5477079975196631,-0.7761293949883689,-0.7008147205343368,0.40463588954702157,0.7390172392007938,0.19859021617537742,-0.3780962141599353,-0.048032292731015405,-0.901594036655482,-0.12764362882296654,-0.052834446508383696,1.365516888108553,1.3903403232404419,-0.4266880805375238,-0.6012135376018038,0.5892611160204663,0.11624859780172796,-0.42089796149482045,0.1410357586451465,-0.7041109620093924,-0.5347874994904348,1.0395024994425845,0.3333108980426277,0.5077332660627438,0.6379438972699976,0.3300938998433429,-1.396746740333526,-0.8104594439185815,0.33707735902404395,-0.1781165476280308,0.26304626568837924,-0.40251438227109104,0.8281876712325827,-0.02475767407876095,0.879639608983256,-0.45859933742445275,0.9729104144945231,0.16657629990480077,0.16312549265103082,0.21841162964575087,-0.04452731462307599,-0.4786848374814474,-0.2639120559490625,0.9493124470624952,0.4764938112077242,0.4766584123730887,0.014446799313829342,0.5562967956408482,0.5955508957312392,-0.5636751909071264,1.192068540291165,-0.8329205303819922,-0.5623544382941591,-0.9109230001699179,-0.09620805577249303,-0.3055209578603186,-0.40096600692739204,0.2571404744746708,0.19705699554611267,-0.5271905853976557,-0.4402727202715872,0.5400227759748315,-0.08683579083997335,-0.44765410823662855,-0.9067568727337572,0.110041173672826,-0.8395721448932415,1.1404431794762009,1.119116865616987,0.7880773447828665,-0.6106182416889254,0.3510215445147314,0.7741457472749106,0.7151448029342107,-0.0691548928407606,0.7975929214737517,-0.3010658796692574,0.6921847415246283,0.38172720477230937,0.8177480404054166,0.8531657898784178,-0.8964468193818351,-0.270656096510861,0.5670495001708314,0.6134907601041454,0.2797662206934718,0.29704086163164795,0.481719691423716,0.048293084076140524,0.5732798450924048,-0.021583271711346885,1.0069207258639765,-0.2675402133159127,0.32170003042073747,0.6074157907155162,-0.7136498392688213,0.5855122135374027,-0.7437417656252913,0.010782336431603612,0.8318161732876579,-0.8943268319030078,0.8439325392973255,0.5434581316306916,0.9055229406400138,0.1771281416676316,1.0285207655019946,0.9586058252504425,-0.8519884262514037,0.3962116372050716,-0.885719238401017,0.5881014192070629,-0.3960283883123276,-0.5637860231013428,0.19233343816718843,-0.37270381948817033,0.4112309231344844,-0.36458022473874196,-0.763940099855652,0.7984661248860685,-0.28173662927757226,0.5200681810433194,0.5412569476650066,-0.016806994813283287,0.18257855561460937,0.32662387458594944,-0.6930940088935036,-0.0730922685343999,-0.020359470565761994,-0.8889269718103446,0.6527834563151563,0.7646131550843542,0.6182200156904983,0.3771783244346505,0.05613350549928954,-0.5456316098729692,0.050266558860462225,0.9329350540374449,-0.5272976629028945,0.3715165628545042,0.881518597892385,0.9190588793350588,0.23538442091049888,0.758770402936561,0.513362472161519,0.6525659442092042,-0.09317746187901621,-0.35617638566655696,-0.6278140453147771,-0.8310190144867966,-0.021977867286833788,-0.4052293661239835,0.40999805717439947,0.0813148440676698,-0.6764531249906238,-0.06108249817033046,-0.3192027508550824,0.9329205600708365,0.8422584054232017,0.2320524317369986,-0.10777771759855752,0.09287966101218212,0.8054439320404898,0.31421753772487254,0.9980561591495026,-0.8836981317209676,0.23728713471594276,0.03827904468801822,0.8291960704024048,0.3576403820420467,-0.5010483900978466,-0.70865776893296,0.36369507424679925,-0.9122039074028554],[-0.4784328071400044,0.9779221319677158,-0.2835252534257213,0.6637824647459225,-0.5817948032477633,-0.03636067232658587,-0.048434683093791356,-1.0149173865613752,0.2957136506603362,-0.0626344717474329,0.9472961950787497,-0.07776985937647944,0.19088003814026627,0.4555681376692908,-0.06990296815977744,0.5620832522657093,0.43698422601733344,-0.7526060430105678,0.8565900223701604,0.06292557100175625,-0.6484573491287596,0.3042669287524776,-0.32352384587245653,0.040730980033532524,-0.31514298538687546,0.6648907731425693,-0.8735211915247123,0.5419893269021787,0.17573696660649496,-0.5938891462492686,0.3843121721458065,0.08324218581304432,-0.9984966274652907,-0.1564070922664298,-0.9970969151889313,-0.7047720826828944,0.1687117038259451,-0.08009462158985334,-0.4857053989959541,-0.7456746909182407,0.9761807031389014,0.6780350308039521,0.33617198595553177,-0.5072998376331866,0.5199292518490226,0.7035990129886698,0.4351665272635651,0.9228297729405144,-0.4453868797811462,-0.8497033977240213,0.6354442877615863,-0.7828705668204781,-0.7750277907203107,0.33964006274014125,0.37593937634714836,-0.8191518669423372,0.5536972004015195,-0.7976348920530327,-0.04698928560271298,0.7277485702569164,0.7987595228202108,0.6237051382725216,-0.5685803239284775,0.9550232933131784,0.42327810952273515,-0.4929439623836139,0.6045492701619394,-0.23267181958671584,0.723980710181726,-0.2518288774584423,-0.5616359470462088,-0.6468785228682994,-0.7350455187760023,-0.4675929565547283,-0.3273135270501687,-0.5691967768326849,-0.9154802524645692,0.04852957198868853,0.5099707390963828,0.3009373862088811,0.10134575817010116,0.07106152493142703,-0.39833920366315834,0.6531131486514123,-0.20689702488692507,0.4864411432017284,0.2655821985047869,-0.2683281282432738,0.5702779806035739,0.8087294574636995,-0.8732016579665537,-0.8762371189014782,-0.5167564999731867,-0.8688363872485899,-0.5914397351320005,0.312856791429538,0.817405639998349,-0.2991437996454628,0.5762642775331847,-0.7413740020967401,0.31501305818209246,-0.28025189065512035,-0.504147143763812,-0.43438095448152286,-0.6957510943201864,0.41350195347374674,0.3184307002332759,0.9935711639296215,0.5847521318313196,-0.47008824047919945,-0.34903529968077107,0.1369363078912902,-0.36683784064742264,-0.5131471167659707,-0.11271231473302697,-0.04517406872810052,0.13903070857546995,0.10282312944588386,-0.5727491324610131,0.07176677827022075,0.7559578503283412,0.6487727120018077,0.312961845349383,0.04450417409210151,0.5061152088085343,-0.8015304150839565,-0.9385060739503591,-0.7624894489744122,-0.017761395421332777,-0.9660489898529497,-0.5689066059513237,0.7892996531368709,0.4506363115732791,0.20977014945498237,0.2848552786787224,0.7818412714723824,0.3013447849274723,-0.8183536380191873,0.6897548373745062,-0.1586285487158432,-0.42870617391580623,0.7413756814369425,0.806002558668081,-0.13676104516458137,-0.982993503070305,0.683840528312617,0.640904120261704,0.31292459146407353,-0.8491930009130803,-0.7231645929705212,-0.7318692256952871,0.08068832520340416,-0.26905437124104564,-0.27643409400615154,-1.055414552461322,-0.03208832701717797,0.24123120343284138,-0.017305848542237694,0.5992415890052591,-0.38533002918968984,-1.2181370972816632,0.1180072723404985,-0.4021818415605401,-0.4880705206865157,-0.42576468454665645,-0.7890564839287689,0.12916656072098132,0.034067966580516806,-0.7640321154778467,0.29969244815871215,0.8124646320827998,0.5359658657261918,-0.2378526788358933,-1.0639070835446038,-0.2168162927311649,-1.1602360933904103,-0.2829792342248495,-1.1015010439054624,0.9087964267874422,-0.4097861629394902,0.2944301157606251,-0.11974555865092892,1.0515807806371267,0.6298379296784663,0.7589248092789533,0.7144063445654486,-0.7179214703060569,1.1020408338103462,0.28186032910074954,-0.5976721949081697,0.4256358985500148,-0.3424498612448575,0.17972541402624653,0.7083503968735496,-1.0144093382413777,0.3236396851987445,-0.9349108585886721,0.9246484869880958,0.5421191725779849,-0.7885382666574823,-0.6262854665162679,-0.8311390149690974,0.6675555518394657,-1.2258147731941431,0.08818236855193012,-0.5917838845902773,0.10790981682383742,-0.5048681584550408,-0.0029964375489526587,0.9261939245619808,0.5512946004960958,0.4637464241128026,-0.6529075773674355,0.29881448211539813,-0.5411304290659915,-0.48922016264459606,-0.418683504462368,0.9127426486595475,-0.181733787142082,-0.138289532649383,0.9267302351445381,0.2141046950454151,-0.4066106351598785,0.25057784425481255,0.3814114309396759,0.1858829256045266,-0.6516353257245052,-0.3359878115043215,0.6421136455498783,-0.4639565804018724,-0.3545758227030628,0.345305217318175,0.40938353557671947,-0.06919921252563277,-0.12760513541715532,0.03237815751971181,0.16363862539987462,0.22669934321948632,0.37663912051349085,0.26764252565504953,1.3658344300275385,0.8926017911338932,0.12795403527967775,0.40844900285351593,-0.5697556314528565,0.8895196011410917,0.7030724369220107,0.6313560907893032,0.6448078908606251,-0.6608966444973869,-0.378919827154309,-0.9761790242060886,0.4334866751154771,0.7904833741729316,-0.9195824537448288,0.4030212845015257,-0.2894670657546675,-1.1612928167769174,0.13911414854605192,-0.614416723919069,-0.1433549050356871,-0.5755232375602449,-0.23685579494716938,0.10824654881652769,-0.14621540972083014,0.5688365226689968,0.116709120547782,0.8588875282413,0.07669439806534904,1.5178359265966723,1.6787597575113533,0.4762980152628931,0.40987599508995276,-0.6672189311154476,0.33829717304390494,0.7803752268114298,-0.9223566374423612,0.358343049356424,0.07805514542395907,-0.5164179356672403,0.6402569776352758,-0.529919842130169,-0.706192850462286,-0.13823753353406532,0.011846670471679664,0.1453724030033774,-1.1107018054698983,-0.5448044271597446,-0.9086313706566279,0.4073393230451573,-0.2723502439220831,0.5405625397240786,-0.14651294310308702,0.38800381407175555,0.03767084062964811,1.7321947792245507,1.0075033304297671,1.5565584513087056,1.009141620492146,1.4750619692658091,0.34751469818421477,0.16476279066217014,0.49864882301448704,-0.5771587274467674,0.21902846509998342,-1.0721362342788125,0.9405359213207645,0.7572637683058324,-0.3659724456867126,0.9050150078279023,-0.7274507335102468,-0.5973493613819912,0.4318180735056652,0.4073139500051491,-0.7484311559509221,0.4753853342428181,-0.6682663983582401,0.5461324053483259,-1.3555522741394996,-0.670947616452405,0.7232843393566472,1.7811827601576051,1.332621674078102,0.24443115841764174,-0.16776803547700467,0.6335343458749666,0.22719056720785863,0.17862536656915348,1.5045617246301581,1.0118917728521861,0.6489536975319081,0.836005234281584,0.46491755503273957,-0.7000872697257924,-0.1003653310514369,-0.08208265505978701,-0.3091615813849158,0.2652658691843951,-0.8880509831031359,0.025277040132428274,-0.3192541177900091,-0.8498208175828457,-0.7620902928311343,-0.6924549944509549,0.9114907000735847,-0.26599044010529266,-0.14811992300786683,0.13235814440929464,-0.4531222413773186,-0.24813443721735026,-0.12766727478103992,-1.0762793457216249,-1.7351384706358552,-2.0613254266398084,-0.7191644595959829,0.37700435346244715,0.05828522869194252,-0.21635251176805106,-0.26105497476546563,0.1271387638429282,0.2923758550083769,-1.3228671770903437,0.7422180703953934,0.014168954241287954,-0.9691135035881511,0.24095110407319267,-0.728666586239857,0.4051524906678411,-0.5586800972140242,0.5522874612718733,-0.3954611040702502,0.7712409034570168,0.3096811801784349,-0.021348768097656557,-0.44455075312142833,-1.2749127328159167,0.09719734873543938,-0.872678665017001,-0.49220458625558483,-1.9943300037449672,-1.7668771589967684,-1.666405959035418,-0.9094423291459126,-0.5981380672916854,0.00866322543576927,-0.12593331378330302,0.15607603144257087,0.256232790904953,0.8306279128307597,0.3655228951371982,0.4339211659000905,-0.5610911673537046,-0.6748670000967095,-0.46190836083044645,0.641063781009968,-1.1517133611955903,0.6951461665723282,0.7261700713505936,0.7123772073297239,-0.7306361049516102,0.4782149785388831,0.40013220472195016,-0.8903384422701596,0.30160751771545063,-0.5194187997372198,-0.5377491097027897,-1.4012127404540868,-0.5937124598259801,-2.0307586143078216,-0.17495986661363416,-1.3936091338541876,-0.0018055659565582214,-0.2194532550611234,-0.5296603790654377,0.12483311975472423,-0.5145579201743875,-0.7963470864506955,-0.8973925921910483,-0.1361734381001083,0.3230799708763107,-0.9826932702953619,0.29736969137744473,-0.2811858428344484,-0.20960548879784352,0.6727216013337556,0.5546961548444105,-0.5014090957533426,-0.7102172773969221,0.2928127068067097,0.14140523830131285,-0.8339127587897317,-0.4319155447850614,-1.339860735980083,-1.7375297375579803,-1.6035204360251827,-2.3244474096002,-1.217340839713489,-0.007371334392253169,-1.0547651491317174,0.08108338164852193,-0.788929869690158,-0.01838013389597207,0.6839250895854411,0.39244332319329384,-0.2217027285236084,0.24322010095822813,-0.9622730733371132,0.25232417141385916,0.13992099633569535,0.6566016125631793,-0.9370434655705785,0.13618551482823602,-1.1132643415740573,-0.5201611412156033,0.21798899758844145,0.14906137916196777,0.3300831903802461,-1.4561882513335893,-1.3513218875499649,-0.39608399722155974,-1.7990924452237202,-1.882077503066478,-2.0856550820235418,-1.8952001139869374,-0.4962131300840894,-0.8411294675851017,-0.41261005478680174,-0.11627839189720832,0.3091372212907547,-0.9740535916291031,-0.20202638188185193,-0.9155600121075173,-0.29602623739626405,-1.1955787497105363,0.4294086798455355,0.8657677616703504,0.8430182330890252,-0.1833141015630327,-0.5382109958024718,0.19200366482453235,-0.3135989106988129,-1.2012307485593396,-0.4560845950525346,-0.9530778902826208,1.2623653171132811,0.2270943924432217,-1.011994406074678,-1.4752837464342943,-1.2989714038156848,-2.4810652753827442,-2.0145955788940757,-1.4106698986405939,-0.906598062063901,-0.7946101025478726,0.6028530315866589,-2.070180990778068,0.07204124447770101,-0.835345705570581,-0.09877816456532858,0.10420728149852793,0.12684457709727695,0.22178697974556846,0.8165306211205003,0.24987002640295508,-0.34173059336378886,-0.6596519784673665,0.8267924293470211,-0.37601759638686133,0.20224156444118935,-0.4134637200501442,0.08373522400920738,0.6901058515923018,-0.1855440111969786,-0.9399876795608364,0.7466636749661504,-1.24691709356126,-1.1410219823101555,-1.9030828841947052,-0.07032164380168592,0.2809514707214723,-0.3670205626033285,0.8869874748967783,-0.5679858971726401,0.004760124740427964,0.027698781798759016,0.17417757540009923,0.3505871862189061,-0.10447822534146371,-0.034194467112757254,-0.897563681990898,-0.6368439900843129,0.6513349086286366,0.7998670260766452,-0.916123742605551,-0.4144022044439642,0.3869044431172131,0.641981284337303,-0.4401968546554181,0.8174007491140047,0.7361184054064716,0.6075464873378357,0.8080243020906536,-0.10709801962511477,-0.251160674622306,-0.7179024143568266,-0.8544423987301735,1.048241574811881,-0.543462358602661,-0.6140830195910362,0.6274827601471215,-0.8189819685431706,1.0391844191961361,-0.30563798504404016,0.30804638840855186,0.1685391218019915,-0.028573733863433884,-0.37776111195293366,-1.3525535755195621,0.060760523740816565,0.8182673584227655,0.6394445040794943,0.46821149340115437,0.7284170193671076,-0.571003710099034,-0.546335191247041,0.1924794629594353,-0.2926692702353725,-0.28974293545126556,1.0540621190216488,1.4059632096194568,-0.7313558705012618,0.516866430239614,0.7026831580129766,1.5032809755237575,-0.1745436894346806,-0.16916199383963945,-0.49311476497586,0.6256458542617183,0.46325078892094607,-0.4897316777060485,0.011332333643971407,0.034182154247028244,-0.46764473897546993,-1.5566317888532486,-0.10104800829878907,-0.013014932136994789,-0.3155642793901259,0.0035334649990540214,-0.6478207585253442,-0.15145449353558701,-0.7571753858404948,-1.0345598396758937,0.8267359893818714,0.040670605731946294,0.6596281800600979,0.12335973628622847,1.061617473233637,0.7521911926860246,0.8201385866752579,-0.6572967512133385,0.5158021490495246,-0.19634664214264858,0.490090494261861,0.31421271513307997,0.18371035986740308,-0.10823329114851891,-0.4775654133918086,0.783038475888875,-0.8815748318378119,0.5291248159434827,0.41180598492334153,-1.2301829065881342,-0.7537068989047045,-0.32353626441897965,-0.9762869345290057,0.4457933714813511,-0.4293873357229936,0.7436956701950735,0.4804270231676387,0.8494703487497557,-0.40394097234077264,0.7313723204362956,0.3958471562124247,0.11040246107028173,0.5390078343884724,-0.29478060537090434,-0.4259254655716952,0.5522246140837451,-0.5279715997990769,0.14282604575095176,-0.569099765421239,0.895768901634125,-0.2954283365862924,-1.035656823266788,0.8740402605793065,-0.1505240486554801,-0.25881386152526187,0.10587562119663553,-1.080259535993941,0.6713350181422142,-0.6216241019087559,0.06142939963383719,0.23133748713246774,-1.0033347088527809,0.06345300035659962,0.3055160870211799,0.08734430523421126,-0.3612706625542915,0.16489303766339938,0.8324070360601866,0.5997815256264064,0.2536223131719851,1.203271473334391,0.5009397913735709,0.8164238540774214,0.8424821088217486,0.3577664254593098,-0.4573102410892083,-0.2991100844942344,1.3989616285053588,-0.2807366725731995,-0.455922507094153,1.2658521000320118,0.5600464717933291,0.056924364002384584,-0.5090059166225782,0.8063948551691235,-0.07114827063306307,-1.1191576179795464,0.4172106355220857,0.023524525918363022,-0.7296226695280018,0.8233948665285493,0.019398382583791233,-0.6386956001080348,0.47771156696321293,0.21895303812344732,0.25006839956100385,0.3819465993226313,1.4610130171103821,0.18267347352436378,0.7843114592007014,0.7051942527925439,0.5737644968105136,0.019677767285594498,0.910055410534352,0.6296403810011051,0.29053098538878513,-0.04609121798347239,-0.5918246486460288,0.05745112771496014,-0.45701326415613236,0.27510548436112725,-1.1628279050594965,-0.3326417286009962,0.015641805272841855,0.649470795201024,0.04380379145724408,-0.43885012172470383,0.7580520002282021,0.35141754751653353,-0.1741690264916671,-0.6650468398135703,0.3209263490500391,-0.4152123970429721,-0.5241069928633545,-0.801053804968198,-0.8058648121295755,-0.22016086196945447,-0.47658536489046444,-0.12966349321402285,0.9421060117275533,0.4620633548740317,-0.46173460391274346,-0.012530407676109405,-0.5185532972896524,0.9107182432280649,-0.7464942657676228,-0.48305362764677223,0.36797594085654206,0.07109364873926396,-0.14273529334990478,-0.9007180940364737,0.933636275933907,-0.16900794831597804,0.3992823205415843,-0.38861071396177227,-0.8140867044012361,-0.7845689634666182,-0.831866240265962,0.02285910653490886,0.9493097969611054,0.0369553535717334,-1.0318493516322678,-1.1059180784786704,-0.8929357086176456,-1.0991383604759006,0.42925649851489894,0.19586566915912487,0.17444819983347074,0.17681660212338704,-0.5695219087018837,-0.6758837676756118,-0.9745926332878105,0.7180804815542183,-0.9525145843203449,-0.929383998230285,-0.5539561440108023,-0.49890634869351336,-0.1557747731479643,-0.639043705356134,0.913651172339597,-0.98455408406381,-0.9507572769079479,0.15771331370523575,-0.12126400871687704,0.6467268975178615,0.6976808271731754,-0.23293890650751736,0.9865338671860602,0.47206385440644827,0.031632897297985615,-0.7587924855672813,-1.0669954239718336,0.4027463242877576,-1.1483600640684772,-0.8838884159710513,0.5505057817353132,-1.068248951174271,0.08860951325848587,0.276527210557098,0.7717050530058079,0.6939974281348702,0.44144011434157343,0.4585591952229523,0.26047891206281054,0.9826103351243297,0.09809635861675482,-0.3808255273107118,0.6582964310536709,-0.6037317110036426,0.46627601726449724,-0.4718318483309809,0.6253111737301458],[-0.4545026927768254,-0.8438914955815418,0.7133618714418417,0.938731477232325,-0.1666402129460156,0.5672810758432072,-0.46772348637181843,-0.8958420043433765,0.04735028178609524,-0.6480427871399644,0.06402001335826148,0.5397866795081877,0.27868450363942165,0.6722467884916471,0.6167761013383832,-0.4450448238555174,0.3386150118023966,0.37276318246273277,0.8264290437684623,0.989033501223631,-0.2984036236682187,0.6857763506654506,-0.7131598788558006,0.6245842543529361,-0.7448878773621579,0.7447655648063312,0.9692709482135942,0.4440115946932619,0.848202862156628,-0.3547556336715951,-0.8781636491230933,-0.8839289361337808,0.9816048116409575,-0.6727309575149802,0.22062213018933985,0.3942184908891965,0.011966317130015397,-0.22669238433596983,0.5582823611531829,-0.9183365635452846,-0.18000153788932094,0.4643470879042786,-0.18071691565374629,0.6640363758368406,-0.8134752352334542,0.150850132399035,-0.762858137276415,-0.3164658832800911,-0.670612481372661,-0.6204597038964698,0.739757738526095,0.5083322964704906,-0.7008773741226797,-0.29565960402011715,0.15652344413227537,-0.43645369443026194,-0.23825508573631815,0.17751163160650307,0.4224880348629827,-0.9821960600826891,-0.9348626769750812,-0.2045408638638988,-0.23168276229616228,-0.4809026246401021,0.7670180311914938,-0.462267811619191,0.6565795428300554,0.7836491120835597,0.8491416816181484,-0.7483533905352554,0.33296760054415103,0.0708589981395513,-0.6512612975194635,-0.5827589793484897,0.3848804699465335,-0.9232016726647365,-0.5600192521327998,-0.6706902451681402,-0.6002335175453443,-0.9755553955462406,0.6817030896585949,0.6256165540302079,-0.9683942763455722,-0.6562724114602654,0.769431067195165,-0.005397864804536745,-0.0631601959219958,-0.16633197616230902,0.6785060760427184,0.9706840458525131,-0.44352249368551966,0.4440219845318175,-0.47823196303241405,-0.5580816034923054,0.8981554701525459,-0.606862370604604,-0.6890206296016252,0.05476020469415154,0.31453728440396095,-0.8992103288123638,-0.01782606702280591,-0.09930140973832612,-0.052779946020131946,0.35526143617159944,0.4508356617536423,-0.5708390131139568,0.6014941643409965,-0.7259483803272435,0.9472628811144,-0.8809872047975756,-0.0011564401272954328,-0.524241138234085,-0.23374459038597672,-0.4563016636283588,-0.8206522474187897,-0.8749903833372337,-0.051486415455298154,0.1548558723999675,0.20066051355181388,-0.12790415588139842,-0.7860600329103735,0.7616912681699491,-0.49633108865777165,-0.42757894717153516,-0.08146029418650189,-0.07197593844025445,0.7760888876924276,0.3758720629504129,0.1735234131114682,-0.08964026991336432,0.9359051173059928,0.9251457752946575,0.6438430369809969,-0.09891631598807686,-0.3650235595829735,0.2736259844669498,0.6888452753137956,0.6003141933815307,-0.43923036126516074,-0.25471190693403445,-0.5417725723048785,0.7110544328222431,-0.48511958457341214,-0.022223303401569954,0.9496770377438044,0.3408225011440558,0.30894329844536633,0.6321888752950864,0.810609605794394,0.768047322398778,-0.22044440225009432,-0.9857368694651887,0.604543093865171,-1.1170795992045874,-0.6409964113666189,0.4680002174878236,-0.9216170087037043,-0.5942122309006613,0.37686677739095253,0.925055003001272,0.07088300258129147,0.40088255802193123,0.2473329951316344,0.36128364179313865,0.8045278503321907,-0.16538561869924506,0.7814730963215658,-0.6145238919158592,-0.9689150241880125,-0.8790206437709946,-0.9371304749403514,-0.8236515080545277,0.33642778022182007,-0.6606520465514593,0.5211690886372926,-0.5974185197654565,1.2199420013464666,-0.2964467708302132,0.32269769818893534,0.3005621556045924,-1.2225851475595968,-0.16684856060852035,-0.2634424864745296,-0.14071441282650152,0.7062827632671954,0.1450418129821784,-0.9146705194429327,-0.5502795151127713,0.5579546460598056,-0.7659336553516909,-0.20008710599447518,-0.17788466344009424,-0.6461609393396937,0.5954006299823715,0.5075716922641874,0.9469708093018064,0.5479695794647137,0.8350514759760692,0.0583229875846471,0.47775434055495736,0.9884055443130758,-0.056551182279884225,1.1065652693654442,-0.3741869968788281,1.2974714994942207,0.4024898845705111,-0.5978105329955898,-1.368326499203152,0.26054376062874074,0.49795767920040207,-0.9733236434627538,0.6980132562481104,0.5049716599214457,0.8203145358714279,0.17751186803156332,0.6876759893934193,1.0815387057191639,0.6284672205210922,0.34214372581139585,-0.7275402920131782,-0.9709981606422284,-0.6833166767745714,0.36226057943698886,0.41771180492975324,-0.25596421272757697,0.24564656126760098,-0.17186727368487498,-0.5474174928017954,-0.9454899191555151,-0.30711177143309976,-0.21427426282297501,-0.4543784483600552,0.35990893398675206,-0.35934549328252907,0.9014282168710691,-0.3755156828941644,-1.0507970024361994,0.37068652647955685,0.5923708871387495,0.21879259665849543,-0.050961546294852285,0.5673251913601052,-0.8041897127618824,-0.38572256132590177,0.1714573136525967,-0.0754227763686478,0.9928799469260515,1.0298176269774255,0.08581348539905119,-0.5066016868428213,-0.8496872697564055,-0.06754960125178489,-0.9278399039366274,-0.7666742141418086,-0.30455082321656496,0.3221127427051232,0.5590334713935823,0.5896459588195931,-0.5506920831920098,0.6742836028380268,0.036777378746000115,-0.2617197441672077,0.9270396499648825,0.14940985540298204,-0.3894317965978397,-0.8996319288914437,-0.47682458801066596,-0.4438657099671353,-0.3689210445517244,-0.4578493266089681,0.732786990211217,0.2034510034306572,0.02958210243894263,-0.0401462157517492,0.13594123146505271,-0.6838345786918841,0.21073125610725027,-0.34535535791721805,0.5728810498948708,-0.22839392397457983,-0.2011001663135934,-0.10902895192277517,-0.09863781213338421,0.6117986206418132,-0.5406346049722973,-0.3078465247920676,0.09204205616009599,0.19486915064380994,0.45433781048481336,0.6544202745933206,-0.8879400441537785,0.07622403608108085,-0.90593753977046,-0.6638004216821694,0.16992366653006444,0.6000499151080715,0.8556826619952969,-0.9472324466865732,0.770297290341106,0.4330758755338824,0.045060557553065345,0.8663854658452737,0.5849908689746633,0.4144251997562801,1.0004744226513647,0.11440689341324761,0.09620218638690331,0.9723563204444966,-0.9110461608324627,0.8855037082644193,0.561551694005701,0.532216315132055,-0.545391808159919,0.5318022216071847,0.5979268101145374,-0.8044133801248853,0.7097594201217475,-0.23240230030136677,-0.4901914079156538,0.1076177823587993,0.574375049909722,1.0075817474696926,-0.3909840736664178,0.48123567315709814,-1.1440800736556935,0.7414496814396272,-0.7889908063446794,0.4609043994727605,0.24025605663239719,-0.3388603027244874,0.2714020507538153,0.21040613606194072,-0.39624536192001936,-0.6827598974166876,-0.821952880570893,0.1373433230899859,0.6173465874129169,0.01218692675471494,-0.2360337907292756,-0.751906112025122,0.28603110077249744,1.0204204511458719,0.9061890629099113,0.9211402790061866,0.03446725895654913,-0.7341736150348758,-0.5145228121781342,-0.875727219496455,-0.7582948113892553,-0.4742257004186378,-0.8414560123425092,-0.24861792757336926,0.3986007077637782,-0.23359658110278964,-0.21851593720365822,0.8822208890908803,0.6784995762245546,0.8120171427094921,1.087489342235576,-0.526565369382337,0.8120326430870315,0.3879556886076533,0.38912184834902874,0.24345253294070934,0.49601355779505385,0.9524754575959649,-0.7641513742983072,0.34314374166270417,0.35698527404975366,-0.20760123880282363,0.4806175286963681,-0.2929220621302882,0.5779341024683774,0.6667758839429145,-0.7540159891521542,0.46390800555898043,0.6743680680491159,0.18417005808609968,-0.34779900182430296,0.08609430008182754,0.2737558148352269,0.757420613903465,-0.4463977863672134,-0.41610131333972983,0.27156160180621136,-0.10620511617882597,0.4920095134671346,1.0296688570809605,0.1306650793594493,0.7363874393381529,0.22170871983156767,0.5730358404985174,-0.29164024808433003,-0.4490158988885011,-0.4013950480161056,1.0634643367292425,0.5875925869989923,-0.5562278681045723,-0.2086945840492107,0.8433160817719874,0.6633458407460362,-0.75299764877811,-1.260273614847568,-0.32993432029388475,0.15336686875334854,-0.7447230054121763,-0.3979564463804782,0.5448108149800042,0.17311833763916834,-0.6658468682794482,-0.18391503544648158,-0.42561580041786834,-0.07979883083648626,0.9136340246267847,-0.3044132236529023,0.9137844078174664,-0.05284768926130427,-0.8080050640246619,-0.5579397586401443,-0.7256206920247723,-0.8471793827664279,0.3680234830662668,-0.2892220074750391,0.7458427490282787,0.5698959383089284,1.2190741455759404,0.7091725263909417,1.5390938761874635,0.5135417444436124,-0.4872177665217845,-0.8456444709261209,-0.4834546317041017,0.27446563155405806,-1.2990967910053093,-0.1646636413037293,-0.7192012727989138,-0.31512167366472027,-0.3363028656249252,1.0024705662136497,1.0095655672769652,0.7096051873483542,0.21016323225536102,-0.6060654490937547,1.2124794155308936,-0.16963188409858557,-0.6428156242117157,-0.7807244229134342,0.35287723064896404,-0.972564050724652,0.8201623862237265,0.9556883659724323,1.0225513658389245,-0.35965324011677635,0.043854743276775375,0.5884349493983696,1.4696080270592216,0.6121615123954348,-0.0689707282266063,-0.10207978578359657,-0.6264104899716243,0.06804207321479148,0.45313569796548137,0.46569311489590076,-0.49308464757303044,-0.22496137743376196,-0.07531992989844218,0.0924933976797113,-0.47761381091427885,-0.23323152513569015,1.0194959838137483,0.9561433921655207,0.4001863391113366,0.9865345969802026,-0.45212270494618767,0.41324145054905465,-0.3715076505872565,-0.3580384874951523,-0.8917412216932845,-0.5249806172301426,0.8674304399126747,1.1128994061100899,0.16480873117442202,-0.031201260848026713,0.7950708046226874,-0.39889963520412136,0.06927813194966818,0.8923065769326494,0.5888059346347659,-0.3189523056058786,-0.6663079928053666,1.0560621900668183,0.42394499032740945,0.7860502575637942,-0.24079411194927314,0.5619642639663271,-0.07699972142672737,-0.047562561802138366,0.3443894069967539,0.8511585073421832,-0.3430781523485665,0.9954404858405063,-0.7331840997082745,-0.551553015869483,-0.5244429733687054,0.0019685320608195944,-0.29416256884804953,0.7556682823675236,-0.825528337087881,0.4848906922445383,0.299790385985831,0.40441403584250346,1.1260147727283134,0.958037349635481,0.08844845725700257,0.9964486858242743,-1.0121304084288585,0.9648518208617689,0.37308095525998497,0.7482047427576355,-0.6834441668739007,-1.073518427543998,-0.1505408389361357,-0.5793458341256527,-0.07430120919325779,0.3268492130726289,0.531028235728547,0.7576720215269811,-0.23936287170460507,1.1274707468229592,0.28642854121279476,-0.8285829356288863,-0.029121194645705402,0.5744268183820709,0.027803824604069157,0.7577673406660882,0.010916331417227906,-0.5272799779604077,-0.255826324561097,0.777780217251814,0.8122898107019463,1.044710328206897,1.1388056196621923,-0.46181676522065124,1.1207955456290914,0.6407994308185144,0.9689314957479309,-0.11623206983592133,-0.7325282140970619,-0.7972157311036356,0.22820655178047325,-0.8285053088030783,0.703367973218849,0.17655819418685928,0.4110144212954728,-0.22955509202030924,0.5275671553788227,-0.6719436158585576,0.12302245262178366,-0.891019708444437,-0.41398827680929906,-0.5954855801151622,0.6699027464576169,0.19004479192555532,-0.8442333240399711,1.1214503439711225,0.9685227295942876,0.42303784886846585,0.8965068956609048,1.1144396201526634,0.11217797392624725,0.7686184084711136,0.6965495479959771,-0.3691832434627996,-0.22443135067925601,-0.1001639352568305,0.42818118684516127,-0.7571458866313343,-1.2043794977543651,-0.37805820900738146,1.0070326631074766,1.1820007390539475,0.6182819314351584,0.7372170342416066,-0.10018533187024219,0.6124253344038761,-0.4396815971026862,-0.9886686612016229,0.7397474073787774,0.0439291937130708,0.8645490783086127,-0.9600705624945518,-0.42187205576982034,0.3371741261272922,0.20226702980540126,-0.6997000803297271,0.16077025374806886,-0.38775333564283143,-0.3056640622462937,0.6024793766514746,0.9148443030286322,0.8768212536366727,-0.1597735642518843,0.9042556394276903,0.28153867072063815,-0.14752148366694715,0.17673222814069386,-0.7899477460146437,1.163958075909928,-0.5596646300947472,0.3842741621598168,0.0705769242876385,-0.5775223916808304,0.7773655024329347,0.3504297224288326,0.24082249193563388,-0.4420123065416662,-0.7103462232710882,0.5855521809621482,0.008860856775797548,0.8976622489209203,-0.20293709711229616,0.6413788296123152,-0.2787337174548339,0.001980922555028258,-0.3888125119123363,1.2454301625797677,-0.4627242472079762,0.4588262553124269,0.18088278362421303,0.34625300945044324,-0.6197835447943802,-0.4602338600984602,-0.7808344582570484,0.9443454080307041,0.5838055683613935,-0.3192222449331825,-0.4422573606749649,-0.03424123326628781,0.5840012384863889,-0.6532379942955941,0.31109448070692275,-0.813242557656064,0.5666387934294969,0.671710135362378,-0.7640385527547999,0.9700791429374801,0.6253809332567029,-0.13665459764931984,-0.8199441294224559,0.03783711059004529,-0.36132805666197193,1.0601675085448656,0.6672303351026293,-0.44789638858687175,-0.41939562649553774,-0.3542211804303355,0.3429974575250955,-0.5951266221277992,-0.8092003338252041,-0.3638931711559098,-0.43860764493487814,-0.3489370116653902,0.19632554997370416,-0.041069818452632585,-0.2410793734827338,0.3575528006403442,0.26428489752414996,0.5592012242078321,-0.11754678405892804,-0.05451848683731608,0.09512118052084773,-0.17264719898534278,-0.7358601683757322,-0.8354116926302438,-0.00460633781593078,-0.8172899944360061,0.6417384492244261,0.3486131701869017,-0.5536906292830105,0.10693236036820936,-0.10809601139440579,0.4662774795663285,0.46710056712260356,-0.006383110190842334,0.021236834231683044,-0.05890487968937214,-0.005522127483725393,-0.7598969462634164,-0.573617799273443,0.20593176081180237,-0.4513966616945804,0.6630965908762336,-0.5736838128852646,-0.1918349486445127,0.43832675912315366,-0.6315704204349248,0.8507246362354484,-0.18745359768356443,-0.558691541841186,-0.9517395124601151,0.8998801123090234,0.5192127718046096,0.944283569570512,0.6083997687915013,-0.08078198169100853,-0.35963478370229285,0.7089851100414164,-0.6675691880030361,-0.5033081355557688,-0.3434992753289607,-0.4866670410252727,0.7513250624453675,-0.8895226362464496,-0.8932421674426372,-0.7003271657393713,-0.9501043720367461,-0.23504259462024346,-0.5601202655615952,0.6142271457481835,1.0297288029677554,-0.67230826145307,0.5505529760061783,0.6718869156646172,0.05801040682121694,-0.9455255418994928,0.45908252486342016,0.7583927497728704,-0.7976719604768401,-0.13049659902089594,0.41629404193061914,-0.04716435207198445,0.24460456001339756,0.3050164573241934,-0.6358067482990738,-0.06767531199596026,-0.16836711264587517,0.6919100067408501,0.9342724046131974,0.3310967171102238,0.9246161186483832,0.42469279719359654,-1.0109705052578732,-0.6279566863617654,0.23425031739606136,0.6124824323878817,0.8416256739844298,0.3397375944763469,-0.2586352167220324,0.7109540275807211,-0.8828684191527368,-0.9443393692725909,0.2164042678345902,0.4122085119333257,0.15607175937676365,-0.061383870106097485,0.6722944358606395,-0.7591839572616479,0.39220106129302934,0.2288816437758734,0.8031165159117288,0.1910774025046354,0.9912785664543008,0.8220133438038578,0.25960702230317,-0.15383420305370807,-0.13119094014998092,0.5910681012792801,-0.41058744263376,0.2786432268195233,0.006619090164646335,0.6399489877610143,-0.8782968946885154,0.1935211978886631,-0.3472142354150329,-0.4182789270163167,0.08964913339655559,0.8432762649115259,-0.9328819938904915,0.46728142303241105,0.5798182939289726,0.6623059147677598,0.8567784633054133,-0.2103811833114464,-0.9706946504562661],[0.18114249105956845,-0.8908727482043788,0.6887193350054552,0.2709714095083062,-0.1726465044257406,-0.5972448834350106,0.8214647618788699,-0.6835228738187655,-0.3677253543409404,0.3478198239082934,-0.5037778594837936,-0.7552966947773083,-0.27669167567671193,0.9003115335525921,-0.8507054515596839,-0.06680306372615352,-0.9717933077830814,0.07952035629854078,0.41231885254086414,0.7440320823160181,0.23667041961019744,0.13179206821776104,0.35391274095308534,-0.5365590985533402,-0.1427369158280425,0.5285712678480894,-0.4786222160977869,-0.4300756958264178,0.5539836405338985,0.4617133634256354,-0.25835534639356617,0.9761684173872558,-0.7715616830390926,0.2902198479714162,-0.48919034611409806,0.06306192265426408,0.9116538159658782,-0.9246066702714927,0.0337753638117357,0.6122795188883731,-0.9417873064715306,0.10390740137349776,0.8872972782065476,-0.35740660014765396,-0.22842774538981694,0.8320140493926003,-0.2726200358150068,0.697065159724189,0.7565635191805793,-0.43135046888585743,0.17814427051769868,0.6298155920291268,-0.539467457083397,-0.856383092653997,-0.09721389867317587,-0.629213259927508,0.459965681757347,0.6077199805162223,-0.047797189297615006,-0.18264583059008865,0.38791361530423174,-0.5882029705188705,0.03797030141347206,-0.2688272377793544,0.5695194460057655,-0.5366048861135707,-0.5151405226350744,0.491064341586599,0.5015784775085345,-0.3471939195330496,0.17570250565514708,0.0183616787105696,0.6153616762619037,0.7940483435716095,0.5131626273438279,0.8080818630227281,0.6907998610291678,0.8880186147000023,0.8651417612613791,-0.7366344345368838,-0.9589419865205584,0.1757833235482016,-0.5521121820589716,0.09303501642977485,-0.18977193065385078,-0.36541754250142366,0.7988593138777009,0.6734932508267261,0.8751161250168702,0.6963138186528847,-0.9729104365583997,-0.7565033423822151,0.22536464835719405,0.3582748587118355,0.7162227833151812,0.37957938722826834,0.4235500483617478,-0.12084690002753781,0.9640278759081753,0.05768076478749208,-0.5104032191121397,0.6835230114764139,0.14934237391484043,-0.24454788519154935,-1.0349498755412565,0.6553420797010722,-0.6431891982210637,-0.7222055155855052,0.8293307843280534,0.2494947086386032,-0.5363158067111735,0.44380191310176187,0.0457260667412136,0.4105619281529007,-0.5890405114073305,0.7146447700690851,0.9758552142054129,0.7794751572895794,0.4181546489537588,0.874239521841222,0.2430785986600901,1.1223038352337364,0.5409212948169796,-0.5807716041587146,-0.8597144015183725,-0.18325741434207593,-0.9260272908352016,-0.6157512653250238,0.22454010118502485,-0.19691419722701944,0.05195676789583717,-0.25391514285702377,0.32106781510054655,-1.0536043089434302,-0.9564659705008535,0.8614741608723427,0.45485579082031724,0.665360648188814,0.11570516046914582,0.7642790652635023,0.6312796471508548,-0.47653998237177086,0.45372251639968203,0.15122774222187887,-0.025720219958810818,-0.175571771146376,-1.0189396784385483,-0.5176457223518981,0.5378363380039787,0.7987630604173012,0.3621617978975079,0.32852581286607924,0.6976901875656673,-0.48343527521406676,-0.5611075828004021,-0.7784846890656668,0.05057416040059607,0.5831753335651044,0.21151131669416967,-0.5055321555657225,-1.4310621646795816,-0.932699800727778,0.21190930407087277,0.8828623352178117,0.7319278979086785,-0.3658662564371579,0.8675804323222075,0.3174305671160423,0.8468145636659941,-0.48187136029530303,0.26271630797194134,0.7413162722111037,-0.22745769334547075,-0.3742061362508514,-0.3852786331041738,-0.6820591763799798,0.9996086089546103,0.6001271829947488,0.6569139402728555,0.0874768153147135,-0.3562688545702129,0.10954590360154359,0.24688279162396712,-0.8031792068346504,-0.3650351196923576,0.19121230936506722,0.2510772845456593,-0.9063250702124216,-1.657639558282219,-0.6134299981583328,0.3328663761763808,-0.6993494269227429,0.3921068723231252,-0.7037808110880135,0.8549846840849478,0.9945025962391979,0.5836214684852106,0.12731329316899875,-0.24274881927064137,-0.11073786608952557,-0.8810510506024979,0.5607446389419183,0.8953889117455196,-0.5312824829075966,-0.8702634928137835,0.346779832656623,0.4760905583579037,0.171345696839488,-0.614322001698911,-0.6497171319594796,0.09759090488167152,-1.315161064293482,-0.11173926407249415,-0.30361563482669895,-0.9132591150553946,-1.715706411223081,-0.1199916842688161,0.05132805415217856,0.3121540035195709,-0.22654506441297562,-0.30071853173118673,0.5294703131316103,0.25802006931969124,-0.361497192465619,-0.15557032997270026,-0.29442041699597493,0.26965789469270846,0.07879033189898986,0.3389410665805471,0.5388232337540787,0.12772815327910542,-0.01706686637351369,-0.20313714714832795,-0.5665685678667486,0.49224136508537714,-0.07316238921122073,-0.6355546353602521,-0.9780755904479477,0.35713733396161446,-0.11626090668888626,-1.7501544647269147,-0.4168695545971514,-0.12496414335655827,-0.4226728684584916,0.44516542899463796,0.47638547584811763,-0.6958929665899416,-0.28738102392867826,0.21236385385678358,-0.4141775200731978,0.3341166822414961,0.30341707815678864,-0.8726453413067672,-0.7832101113582246,-0.13078267116108178,-0.06114057146377515,0.2523368794329341,0.37179781152280567,0.22845269568570292,0.3225237417715374,-0.5252038658766575,0.35821379552977844,0.29179693732379824,-0.3341730733297072,-0.5575289251707023,0.5287329725133622,0.5370231706024103,0.2573544595738102,-0.19387465752020666,-1.8683655652959161,-0.6228945099583153,-0.17651228251180665,0.49703953159104236,0.4500388967199187,0.7206560166765402,-0.6897682381272935,-0.28442921561051016,-0.33768811155548456,-0.6055118369723966,0.7159578266582726,0.3069764117571552,0.39007861941607974,0.4407404869381935,-0.9522347162113002,-1.2907916139075917,-0.7805230461035989,-1.110375551777345,0.9477523755550955,1.2727875565571618,-0.1793674818506768,0.29128966942869955,0.3718474328349571,-0.2977062665300547,0.8229930613389344,0.3771673171921196,-1.1090400972294945,-0.5511194029969059,0.16632508280988298,0.2131589048167475,-0.06238314740123957,-0.27338290830242357,0.8815084797573967,0.1876272346886497,-0.10137276544220658,-0.5795217508364983,-0.42133724906539444,0.029475843379118752,-0.7763210736140742,-0.150299525340432,0.6774302515388887,-0.7504124442103712,0.40999454234977317,-0.5712556163649255,-1.7660766208755625,0.24974062698403465,0.7633978956466764,-0.014837555322705562,-0.22650472276217312,-0.3549040126852405,-1.0272641519549053,-1.0025374728213825,-0.968308653018324,-0.46896817173292693,-0.921745445058603,-1.1992081290269465,-0.4592884124493551,-0.2434267771157663,-1.0576485909828648,-0.31845109486871276,0.34713618660117906,-0.6318758582597582,0.5691916126454355,-0.8126040816324281,-0.9025017719017827,-0.2630666484269,0.49307930191284827,0.6446735865651818,0.8876584377071992,0.08268550312610753,0.0373312378076062,0.36217584094877386,-0.18691780870575297,-0.8250905987941745,0.5507701463477936,1.061260013556129,0.7034123662331923,0.12968392258942413,-1.091956544544565,-0.9547331369865859,-1.4134342401216118,-2.1077295755226153,-1.9281217014244274,-0.9176993108923871,-0.7967336831630311,0.1456555174625884,-0.6126253842718061,-0.2564917205514361,-0.14029984018284267,0.9674341348532312,-0.6364380202438568,-0.3830266841564509,-1.2462488638549072,-0.0013239944237591027,-0.16628230190586038,0.3815801794414302,0.635177088674971,-0.6704173305155695,0.5671123449995326,-0.6358352142326746,-0.8163429261616529,-0.4684781124618769,0.446189267468109,0.4288514006429123,-0.33189779358507754,-0.19407946732647713,0.28160809130919945,-1.8190930160625387,-0.606229682397978,-0.818755405651316,-1.1690297259121432,-0.2518052201981586,-0.7301248835257835,-0.631453102519877,0.6873987746519779,1.0655129705659734,1.0204602575027197,-0.07126238795444499,0.5997803554174217,-0.08940689044602886,1.0919631357490072,0.2343218446630899,-0.4959300674082276,0.4688637626243462,-0.5633475903501532,0.8306824921404174,0.4839531251264713,-0.382946656902839,-0.8331353376633241,-0.5313984482669479,0.01866315387132762,0.5850448317065194,1.4616945949713396,1.0948209221476402,0.8726704136763321,-0.6717285503008916,-1.2719742671942302,-0.915209925602449,-0.27811238756603845,-0.3079709562436605,-0.5442417797099018,-0.5867997278075989,1.0086864410660683,0.3603638807740492,0.46080721454922624,-0.20495641436053996,-0.053722600774421966,0.5197486177314125,-0.69610484820192,0.6680937287231635,0.4834208456123092,0.47039051960977596,-0.3797421481708994,-0.4464401211724148,-1.0850478517379134,-0.19407767467578,-0.5445477353198668,-0.9264301358283972,-0.022048294956535687,0.21993314500509856,0.9249220984128567,1.8510728798371265,-0.12169322817155474,-0.6581614901872285,-0.48069041772651394,0.17636722761183862,-0.18593824458034874,0.15775400442682594,0.7435089792378453,0.09060604454500434,-0.08696122748599798,-0.44610833406095995,0.5600300979390821,-0.29055028325044985,0.05477695200839553,0.19463905057966094,-0.29822794572065825,0.583258651510809,-0.5443450260064312,-0.5681121682000058,0.023596446958746783,-0.062473384190072465,-0.13948827204662145,-0.9060544637890643,0.20886924520999808,-1.08838527180967,-0.8910083284316898,0.6033659554498756,0.761172256500059,1.258892372193984,0.4361708785843711,-0.19462602426313266,-1.0856721026232379,-1.1963469029369287,-0.70840580010377,-0.905416586085361,0.506239234738173,0.23599323650337958,-0.5332651435378237,-0.04712999082730249,0.6349520843371104,1.0225889606895509,0.8108970451984127,0.6288376204021527,-0.921713189950113,-0.4053029981552997,0.6131624199426159,0.20650754576368202,-0.46232609859615376,-0.2526620148353459,-0.1911395318522659,-0.7119048667309757,-1.1334452502631476,-1.2938286036557611,-0.4639377097023356,0.2670499642726307,1.472024521141861,1.5368556747977176,-0.49451623105273423,-1.0159835680258125,-1.3232562509113108,-0.2818666687030344,-0.4053336197270676,0.759609698133649,-0.2183325728751095,0.5660974627909373,-1.0384931426717037,-0.7793102460628434,1.0826545802499568,-0.15446784059932858,-0.20092723583275235,-0.4884696051206591,-0.7467016513394327,-0.24202179563230414,0.6192945973967965,-0.8574560811126575,-0.23388562031544605,0.29828646072112136,-0.02022503338533544,0.3420240238639991,-1.4412489320246926,-1.0551486764353242,-0.026802139843091616,0.4637998252208084,1.7714056085756205,0.07117531034616636,-2.048795669680001,-1.969310007139292,-2.175512256805769,-0.3300941147677156,-0.9386668028561084,0.3941508219698379,-0.4181652069982664,-0.653365198353537,-0.3193321778946185,-0.2581966958351018,1.1092237736582211,0.3473224637694195,-0.9189476286144352,-0.8498354589336684,0.3274886024237133,-0.09672873873001711,-0.7480522857943629,-0.35233732517127736,-0.2837159074037606,0.046449294310852825,0.19146214597721067,0.45254416630632166,-1.3718864958596697,-0.7066371251515893,0.8481005980859756,0.039428165441523506,1.7661934001294217,1.2885807161917058,-0.7061819345609377,-1.1974756910411326,-1.6083010355026797,-0.5055809135222602,0.5852284677435924,-0.62424477163852,0.03630058163174283,-0.2220253750422522,-0.2944495087367604,-0.5900743739221923,-0.5926613364793543,-0.007154145010288929,-0.565805495982374,-0.8723652579110484,0.3118591978295317,-0.009420199971478839,-0.7043667370707241,-0.6285015596188628,-0.9219113536033073,0.21130981479798358,-0.7984897099739693,0.6457794461789934,0.029923157998215284,-1.6146485137769095,-0.3631459586426195,0.6894597871201879,1.488946007598442,1.3141671493587954,-1.6506777265702373,-2.231341486510585,-2.1504767708702626,0.09623496832523107,-1.045540603354684,-0.9235699258326786,-0.5165882101191004,-1.0413249478561981,-0.38891689124327417,-0.6571103244304436,-0.19026204339886732,-0.5237843712788649,-1.2805183588409197,0.4796359335791848,-0.39503649397871604,0.656208825888691,0.05289602163233078,-0.2819070543282871,-0.6503017524711353,-0.6957237627911471,0.5379569642125348,-0.6379690129189585,0.4587339810204136,-0.09766436956854396,0.5983572708202823,1.3401005155483119,0.9860772769414837,0.41634319564989847,-0.35628947926398824,-2.102783551167852,-1.2958969151109854,-1.6014835648246009,-0.6079338702671296,-1.2967051155935962,-0.9178789322090962,-1.232618024588962,-1.7042217634076922,-0.23293570170009034,-0.15299396387997025,0.4982211328070551,-0.30191873145275433,-0.0016849097632599408,0.018025964144957378,-0.9569957441693052,0.9171034904699124,-0.48581439336887033,-0.10747860771925032,-0.7998317922650915,-0.6096340721327876,0.0893172544292596,0.32118376608838706,0.4233744533999806,-0.08691382278034897,0.4595847660045635,1.7663351493816901,-0.07741601207874944,0.08650528597615875,-1.1324595136169733,-1.7165881065925954,-0.9176369666114944,-1.206139934380224,-1.5624983331351505,-0.914991071703313,-1.3201333307071614,-1.7992590828583248,-0.9690487801058049,0.09175829225948165,-1.0052101022675746,0.6139971261576633,-1.1008849533060294,-1.1718871864094862,0.39165370462092775,-0.7799462024434887,0.38498475031560453,0.5682211928279726,0.9571670653527607,0.4100577544317669,0.20912009707279236,-0.4100753220607823,-0.808065917377713,0.957893623417872,1.6249874870411245,1.6029338181658501,1.1491548241591685,-0.8920127776081148,-0.3622356381529307,-1.8903075109126874,-1.5134392704418451,-1.4704554630154116,-1.1407079202567152,-0.1226466350432287,-0.8224132351085284,-0.8155476805936364,-0.6319372030962381,-0.6251657034157511,-0.25279763925048093,-0.522133117657953,-0.3594643773582154,0.38781147552524725,-0.7771448030290729,-0.1531773729845526,0.6559650007427607,-0.8622737679142514,-0.09463085078511416,0.67493852348424,0.26256762147281487,0.25027980149406914,0.24247929137663077,0.871489548425967,-0.09811378489664505,1.9145155442447117,0.06965555807821017,0.46948985997846004,0.017051766909261183,-1.4791047960532109,-1.2601740942551096,-0.7564056929887489,-0.7245559191289735,-0.604549281813694,-1.3700404734706808,-0.34874849171884537,0.019188803265420856,-0.3420664401304978,-1.0980859039747828,-0.21878003247288075,0.09543262338544144,0.9673948563578154,-0.6084972304083541,-0.88457621956767,-0.5150988091825939,0.526102527992176,0.9950696261592005,-0.7663553563725055,-0.5313775253466327,0.9764346153227041,0.4398901545912041,0.7540625902571554,0.9260296230872329,1.5097541714325862,0.9523072743331473,-0.3260801673119844,-0.5396196199609006,0.31334258141930377,-0.9336762351670329,-0.336565849949777,-0.3256215740041036,-0.25047328995559565,-1.1756462275717097,-0.8677049320672084,0.13793570366476782,0.3818497854907956,-0.3232749080087001,0.20280192309900913,0.7233314006970026,0.012993840972277886,-0.6021824185497285,-0.763239699027543,-0.08876005557974942,-0.27218026689415487,-0.017373203684670185,0.4579364975889919,-1.0105266816443002,-0.19507182085388555,0.17112869185542676,-0.01221396605009843,-0.4684926819556286,1.1010773062931813,0.631228249085214,0.5105964028852144,0.4461398035935598,0.03986226305436076,0.902879885273584,-0.6268281040450346,-0.3365255647951206,0.6350159659557406,0.5020672530412132,0.1581931115191631,-0.30614950241231054,-0.8592846839565785,-0.0323824564771003,0.7728302950423244,0.06398006184239549,0.3796208313463622,-0.33405924028499157,-0.6441143079107658,0.863051078080022,0.4445577814002708,0.713844669751234,0.31021027424074654,-0.1265105999278443,0.8753906037116386,0.20592173750905207,-0.15393547078797812,0.4465679981451502,-0.7094376171546948,-0.8017350081616408,0.6518314617235063,0.26689804401061773,-0.11050989413966772,-0.6907534804565969,-0.7107951897702781,0.19804752847667997,-0.07120170698123958,-0.623091857345394,-0.6351854744692477,-0.008628575019136152,-0.7572091932263298,-0.11278205957778688,0.04661009381714314,-0.8294231495231627,-0.41035911281246873,0.4442250490796904,0.15399488812731876],[0.40347586240820715,-0.43717136104206533,0.3473873945390862,-0.32194550082210993,0.13227162726784503,0.4928585106479023,0.13648201577933708,-0.11262327982699848,-0.15940053595336498,0.6441577990106678,-0.6413337979485155,0.6746658223099776,0.5507818305580713,0.15983485572723455,-0.7725922759438849,0.6179277822535653,0.3393084228670039,-0.20129298987735045,-0.02716373486416987,-0.5866076878227677,-0.8761082895000504,0.024663627009294992,0.5181856888451418,0.964674646041393,-0.5979545019809605,-0.5980417770353115,-0.42934482446302313,-0.3206629338206133,-0.3741556854070649,-0.9757246915674833,-0.9821130472304036,0.6003753668936098,-0.9929035171083762,0.22222836338933005,0.6553099895538677,-0.22153716768364112,0.6676991663945976,-0.892773484720772,0.2589856241624149,-0.8293803755131981,-0.27050461091738565,-0.7262796190595266,-0.23441811043528457,0.0050859342968535975,-0.5934304891777188,-0.23243121196606165,-0.7004613397205716,-0.2448236605420488,-0.518877305185578,-0.2009224140268814,0.3217773315938439,-0.5697593759189892,-0.5519536366765254,0.16027965658404675,-0.7425049420842007,-0.391100412694358,0.6601836024970145,-0.8590661180392503,-0.6563205891608423,0.11051910354151051,0.5630596706572337,-0.6675831258920333,0.9848170546505305,-0.8421424718755456,0.048007247295214106,-0.602043586357518,-0.37987859745246455,-0.13042643757287506,-0.6776385227768886,-0.721437748271072,-0.7391790373011551,0.9839757991605995,0.20612373868819117,-0.272162874633579,0.9684285596026051,0.7094043976552653,0.028631227507148763,0.8833817628417835,0.8284448614040624,0.3923319961731764,0.5634449870678884,0.5774573569769101,0.81821415695534,0.3535980098659084,0.8460055977930847,-0.6624757254302818,0.19731983374321468,0.6901382003571089,-0.645185607938645,0.4219809697691632,-0.976002161908614,-0.9610632259835218,-0.6116528038028378,0.9442252960817994,0.20707304315536235,0.029904665527569676,-0.9950618387019219,0.5029307114757244,-0.8855434858692702,0.3886490386000611,-0.306420258815451,0.22094640764947648,0.5180659875228086,-0.31495904032843325,0.4910198899531453,-0.23245867031349424,-0.6182133571357116,0.5660039736333294,0.8838550782732155,-0.4891448196989377,0.418484931652086,-0.6599383657299844,-0.5804028737375226,0.004749055874100794,-0.09991847612083575,-0.1442690044093184,-0.01680046447689547,0.3550140412504951,0.8086132329085395,-0.3598153587471698,0.749557580160597,-0.8202880406910165,-0.6369010636706598,-0.9904475236076546,-0.08652917640748078,-0.9446861247768629,-0.26996430699166324,-0.9122666635206159,-0.0444654632874142,-0.40523953108129224,-0.6216948470386201,-0.20694176729485048,-0.478201528933645,-0.25365762553368854,-0.1576520416489522,-0.9292297256989587,-0.036556687339682696,-0.5480394880128442,0.998393322918221,0.21256312693172852,0.023296093709209487,-0.5525467106910388,0.21772021116473422,0.6598237244009204,0.7870754163383654,-0.4517259753800566,-0.5811287125617854,-0.2248489200837568,-0.04560292893290148,0.5168281952015483,-0.6432118538531937,0.20681610165945952,0.0024970759549726657,-0.0436823164151718,0.47928144261352207,-0.6082794294580178,0.06674226591673925,-0.09160121586643404,0.9651220948507155,0.021205134455714078,0.5432385673665356,0.10294462044068015,0.8171795830144276,-0.4540625524253402,-1.0316284526768071,0.04682287239710896,0.040227524809009554,-0.8393742158725649,0.9158137825447281,0.6326646161831534,0.6316369320059448,0.05810804006371951,-0.11634433055919614,0.24035026058817668,0.9089251208149809,-0.8209359105184054,-1.0918820285283586,-1.2125427012384087,0.5600183603867993,-0.5523300234251494,-0.47253959234131176,-0.3926865168511185,0.16241112913778796,0.68623711718945,-0.1886609824907987,0.9028388483911787,0.1567289578587361,-0.28219535049947164,1.3110975655847688,0.9508173706588356,-0.5927398949056161,0.739197115823316,-0.553274291746604,-0.5263492606218422,-0.1422311651769556,0.7037593208581365,0.4198627749029389,-0.8490658301345084,0.7585979590657778,-0.043858436339094545,0.3448877137847902,-0.7327790058399519,1.1372173781107022,-0.23106942296084018,-0.30779499157347434,-0.23577775426758477,-1.0603316226354478,-0.26804123065871444,0.25785809714978614,-0.19139373536908125,1.2377711364600492,1.0089957902509281,1.2526397273469803,0.8505812062790593,0.17799978005365336,1.8070676709129352,0.7918839621050414,0.5066520685174665,0.27967807022441127,-1.0883909413452606,-1.0477071962091078,0.6195600735785547,-0.9544749374679851,0.5378569816524736,-0.03177219820412702,0.44378165313726053,0.26559806417770754,0.054447391535116095,0.9088171060975795,-0.0741120098850677,0.08231665190852507,0.7594165023804753,-0.9092175380711107,0.707780752969635,-0.10481803111001055,0.2518976161023435,0.23763568765065926,-0.5091893385623085,0.8516015872896032,-0.07968764186536845,0.16255687573519825,-0.030680495960709323,-0.10295626512660068,0.9374963251518624,0.1982009786147795,0.42595043764082174,-0.6036170047934951,0.24493144988782573,0.42336534598527376,0.8451825428121715,-0.35865899258155365,-0.7059560464706782,-0.49979110452496744,0.81858125506906,-0.7248135139544586,-0.12506213709274003,-0.5354081543648651,0.021847688371262386,0.6825426653181442,0.7078783969846407,0.860377619422308,0.29631303616265026,-0.1750449467525469,-1.0960283973481066,-0.16865264249839468,0.31996264958668047,0.28556824835598266,-0.36072222792781194,0.8490354368382472,0.46719128147240485,-0.15045279994241878,0.5704785948545039,0.41722815916689926,0.04207523941942672,0.22489700835731363,-0.2927173924335088,-0.36222261475130957,-0.8281057181899816,0.4639760008399621,0.2988770730146241,0.11346401642208992,0.6899695809378361,0.41881657392028987,0.8325695092392722,-0.4147456818545739,0.7808735509181328,0.6192020418585927,1.4268696757207702,0.11957180234715092,0.161637815396154,-0.42049199078256166,-0.7265184169196016,0.2672645929011333,0.6365758254673177,-0.29241231756922115,-0.7864149253625886,-0.1907307283504555,-0.4405796450994984,1.1970939902239734,0.11146753537154364,1.006102669890123,0.7389215077561468,0.9371750437559817,-0.3861370557486164,0.9924570025446913,-0.20546465657227114,-1.0125463723447443,-0.3803998988968966,-0.2870848062848843,0.3417025403960658,-0.2579941895425002,0.1440012888092296,0.48802914886823817,-0.05619820606691318,0.5842989029734658,1.235755435060073,0.841289551289026,0.9181229330028424,-1.003232002382997,-0.1196975799790892,0.611113708628905,0.4813417761209794,-0.058752304084921214,-0.9139340996203789,0.7230186811714466,1.1052681944560705,0.11660779845368018,0.3095772520849,-0.2848017800877871,1.4116714011878315,1.1321458693262216,1.1503984760667003,0.2998791735152355,0.04709694865949667,-0.8241272307599065,0.518733473315685,0.14644849270008686,0.5540707298504886,-0.3673755057024065,0.22879476007701158,-0.5945629662388409,0.31331725535754157,1.1513242013713663,0.5672341411798346,0.5216399961656589,0.6487083797069294,-0.6372214889121918,-1.5946523120865377,-0.3681861846459803,-0.28692854088181424,0.7922318156671688,0.20439684890796442,0.488325773469022,-0.09028233700907368,-0.2707853454447944,0.9422990334994457,1.3911689203213176,1.137479287396138,1.2940847128817443,0.8409167239849924,0.7388331593318238,-0.3051109378550454,-0.8711913181225818,-0.9541688387642064,0.7877973810299463,0.8801924326528683,0.7377436815268285,-0.1923365752626993,-0.49213197387358704,1.1431647767047133,1.3278847950055925,1.8063397055589345,0.037330804795266855,-0.14939247706108202,-1.1060576093253454,-0.6592799388174495,-0.14722763168255448,0.4962669362685006,-0.4543675290374912,0.44837018928449535,0.35059065580578,0.7030438974205772,-0.11345569190330228,-0.5195254192349437,0.2582190132247711,-0.44309512343845764,1.0321644834566486,-0.45951772009501074,1.0529973713740184,-0.6705233420402655,-0.9184197353672199,0.17024642590528638,-0.6804673534635558,0.7786761271020666,-0.9663950880493591,0.2688824887826965,1.364396410604197,0.15434411993663225,-0.15357967800351002,0.8812299511878378,1.7265271673144555,1.05237770478782,-1.2156245285566847,-1.5088619819137052,-0.20795707047435597,-0.36396483030824367,1.0366455390180274,0.7084096975006161,-0.2818187703474614,-0.7578518812730314,-0.5528035971871148,0.7586969008138603,-0.5029352487822558,0.30502868924049703,0.725196145634706,0.6743469304928037,0.7751019944876798,0.4878775559664991,0.708665087162144,-0.2438028198325145,0.6465288019046158,-0.6874969146432026,-0.4997705387128642,0.6465101978887492,-0.33975769543759093,0.7513191122473409,0.6224522413436536,0.5118681542355885,0.7689826132386458,0.5448236477486924,0.027257948310461435,-1.4526833255372777,-0.3615763304412958,1.0961734300742165,0.7307288306061565,0.6269110293708521,0.7469065567811985,0.85799617871042,0.05974311790305551,0.49562912652057933,0.5865827169475722,-0.3263221124425239,-0.17413092958498183,-0.685248192331326,-0.9838910838460055,-0.8925899609888632,-0.5530293461126568,-0.627412060737844,0.5932785786831978,-0.3407649959656036,0.1258364665974766,-0.976945941450446,-0.30209391866775653,1.5122150883517742,0.23020800841398759,1.858681067813087,0.909417620500955,-0.424006128064972,-0.021086200318237557,-0.07149239757489328,1.1087819883107568,-0.32117181209443874,0.38449590684363444,-0.020251948655548982,-0.719299022274257,0.40158957886515473,-0.24179384068524892,0.29862018753143177,1.0168909468363154,0.9488776834873135,0.4422469715456338,-0.006063989021868171,0.5286532184359778,-0.8144969946887776,0.7715543617579156,-0.6889308555228194,0.18725211002594921,0.12306588122631541,0.5889572053799403,0.12116033675791907,0.7874679455914425,0.9543413470899945,-0.06992521208280371,1.3092151849377425,0.3687969584614943,0.7269123128175313,-1.6163576562687008,0.4746105162271539,0.0972937101000934,-0.48823028001316165,0.004654827744892452,0.18156629401676996,-0.07507906076857902,1.4208491883867023,0.3234135548439053,0.11929225365702709,0.5119192694619842,1.0174527795924384,-0.6591935627305252,0.46536903509504457,0.3752307919274789,-1.4467078125411161,0.01704963912831037,-0.5648609210715285,0.6250811189475649,-0.26067652260547364,-0.45211800516595546,0.3271305326010926,0.2560538068300667,-0.1178657686529196,1.231561647637206,0.18732101563115316,1.7707586196827125,-0.03809362490956215,-0.6245924049268241,-0.31411212057414384,-0.3952853963570381,-1.0212831461740994,0.3079311286065944,0.16221054996200915,0.3659047079135111,1.1009215741239777,-0.5538838098150837,-0.9448680211205823,-0.2819392867137143,-0.12328809946881247,0.3953877700269473,-0.48845511981980544,0.6571635156268745,0.4125214420507429,-0.23828978891748165,-0.2937207037393725,0.9781914051163523,-0.7364080264052557,0.8324740145466146,-0.14773351381232158,-0.6753409745189396,1.3491339041149877,0.18123526780805177,0.9332526037048758,0.32445290548251093,0.6391160709297876,-0.5445740922975089,0.01580324331359803,-0.4265831570467084,0.34149910088210045,0.14475128876013077,-1.132607265409012,-0.9221638057315645,0.6691353504307223,0.4778388250975361,-0.3751753939794868,-0.35032969291441696,0.4156477309674762,-0.10174347503679268,-0.5052264313861496,0.49321097290695004,-0.4785854454200458,-0.8304221536676641,0.7913831037140726,0.7952339475270715,-0.44621996192390995,0.6605221877895736,-0.5255727524447958,0.9654174941203074,0.8822056135261878,0.14369788332885267,0.4453973190755222,0.25926184471534247,0.29949291643556497,-0.17634940659863044,-1.2547284340944205,-0.24371480021726566,-0.21514433939746222,0.1447046578802833,-0.6562502189704917,-1.3075311568496468,0.4834216725247394,0.044625310397370714,0.658268434295129,0.4956653624064563,-0.06476012329100839,-0.014892770938689565,0.5401250589655049,0.6604682570119597,-0.43255393438939604,0.6047413531115212,-0.5669955480186396,0.08115369586929955,0.3660362281821094,-0.6736399403570968,-0.6093007157271358,-0.10003412140006998,-0.27442302920550227,0.21868907977009816,0.15248983920372866,0.9132037315875196,0.3939345868248685,-0.08887570394227814,-1.3888187898700206,0.009964376416804565,0.04516242591612102,0.44687931505187906,0.12267026123044679,-0.4707838463218816,1.0922719168163295,-0.491542711798608,1.0560912391286195,0.19732969560565575,0.054814078383610465,0.9988438179364432,-0.5306166699060241,-0.6563583179032488,0.38633614513414866,-0.06383593321464685,0.7612941777695429,0.46668794809443703,0.7183418119105239,0.03873690947028688,-0.42978570744383643,-0.5704637177300381,0.8812668989918543,0.8156037966162738,-0.2708700971284,-0.03718861640131473,0.6722442130383893,-0.14091874340489174,-0.4733406209580878,-0.841844981931611,-0.8099763505660009,-0.5800983225030992,-0.4718092151000181,0.49560619665570915,-0.44800000583931976,-0.11822400227687736,0.6107737394712095,0.4262307875795791,1.0270180091461345,0.46681859397932524,1.0263122870451384,0.4783110337458076,-0.754575929908506,0.29404513300277013,-0.4882909514870116,-0.9989612370963004,0.3381959399953844,0.6786589192763837,0.27491324998920375,1.006704282104907,-0.39390617558992813,-0.1126679344682873,-0.24854531824440051,0.6872261069712979,0.5388524395384363,-0.13809547418150628,-0.7027086979020576,-0.13544013947375497,-0.5037436558412273,0.6201369799375825,-1.0439919496956698,-0.5439940340166654,0.3563531435630059,1.4025920712416995,1.2822247856775972,0.16192686998053615,0.17303438068538968,-0.3896298960924487,1.1033517714395673,0.24652958310127074,-0.08563247378765175,0.18389224572380783,-0.8525576706016523,0.2951872677864178,-0.8921693413492309,0.20460840115343262,-0.6944364828892181,0.9722821502836545,0.6919170728407679,0.6867604404496868,0.659048366105041,-0.9363477046388724,-0.5308743599421407,0.964518199546616,0.9058973005281664,-0.4177149718982355,-0.6998261836511779,0.09833220381237562,0.4460697132317445,-0.03388215485508003,0.6360677231589311,1.3927970774038,-0.2020375741547489,-0.26418358290898447,0.3072979896324628,-0.3186994713811158,-0.879941824546453,-0.24265869066989387,-0.3401274799271002,-0.385654559776798,-0.43811877963078655,-0.7965950682340943,-0.7727057189058333,0.9966069183214741,-0.8437253211685035,0.05988808068036647,-0.29023065403536275,0.5194448968372521,0.2638448434922636,-0.497245022625937,0.22230000539433198,0.14565204691782827,0.5169639635840129,-0.38482845262986287,0.48517724383003324,0.6239455143503322,0.17980684958294516,-0.14888836442658612,-0.7142781951640171,0.8593572737083844,-0.3505173990310228,0.5623101682468605,1.0577069083594461,0.8076938556312131,0.5387782745486713,-0.12262206646710193,-0.2612677201941708,-0.6832544062523568,0.7723025277747118,-0.7803612139763083,0.7811155591488137,0.5052416918455386,0.08842584691435806,0.7377726181966827,0.771810067251318,0.8745594259124051,0.9365045020669145,0.7742387670414116,-0.3049885302852153,0.502080111081961,-0.017727918795331785,0.38350357368433513,0.4459222833983302,0.4837583013804262,-0.5200478928261852,-0.04002124492036323,-0.3653719464236674,1.063969268542607,0.49562109980229185,0.7344059855233194,-0.32789434748548024,0.8456370746832815,-0.41485912859930657,-0.8583142459048042,0.2903754524061153,-0.3523125893606168,-0.7672319616858014,0.20873328075637865,0.049187899767671794,-0.008064178707155811,-0.7244427539572333,0.20094658459385126,0.17459221752398088,-0.3526522323949319,0.5068810783507771,-0.6800353519554215,0.40475191239917074,0.6482138101429386,0.5868173335147637,0.2754944605271641,0.7778748224004205,-0.34289801551632176,-0.4569743770431928,0.49208720751595103,-0.09084502383743301,0.35662541697008204,-0.8939179672349629,-0.06646107165929364,-0.22942021702583298,0.9128040259604424,0.9099547833733627,0.14524274543574886,0.6599910633138003,-0.17492862095950068,-0.6062348936398965],[0.7996807373786432,0.7978389730570279,0.36599294706707486,-0.33470985485719096,0.8153374378322078,-0.5503030921750359,-0.17812908455030163,0.6391098664599186,-0.7981825982790626,0.8108644391707922,-0.8982331485350414,0.36140370315727316,0.7514680283091257,0.5595483345148355,-0.41101245569189654,-0.08182535171719399,0.5826622281219825,-0.27035607505903947,-0.9227555769139236,0.6684528772504874,0.472888377252134,-0.12120721612363289,-0.48582349986132306,0.8363213190138283,0.965423421289207,-0.925536609173359,0.07886373252664791,-0.31331876995189845,-0.526593475231885,0.706384823742535,0.12212858472729549,-0.026498040822316327,-0.09887790693050436,0.9937155723824382,0.3096638133527527,0.8119597404704035,-0.15470754874798406,-0.543052850608806,-0.5021498250532439,0.985185018078586,0.05911619032192083,-0.8527565348652013,-0.33812869325329714,0.2387145503755408,-0.6514496458265289,0.007854032552203183,0.7526077094938908,-0.6842204842266424,0.3101242627466654,-0.5536156254476534,0.01972130800364142,0.3109381463497498,0.805515947118224,0.874381705407056,-0.24891748202247355,-0.5805512122133649,0.002392252780947235,-0.19728164071694287,0.9418387697051758,0.7715314598192471,0.22946846696718995,-0.3586141639156857,-0.26584182423971686,0.8753570226582263,-0.7146627142324131,0.8143309547763642,0.40392466144702516,-0.7318610155446736,-0.5388956294349104,-0.5236525475224717,0.8526625457150953,-0.027996866620461896,0.8033602627734353,0.3236587606730146,0.6330010592004713,0.8189188874489952,-0.7667934830058515,-0.8588424259503668,-0.38368886210502606,0.888185900879058,-0.45116449047336404,-0.9279606949680752,-0.07586569227522588,-0.0894262678955795,0.9763984663776579,-0.3917339391305692,0.10970325252884731,-0.39503728074428396,0.9217634783726839,0.8242548330777403,0.7578392760929017,0.1781443675342719,-0.22096155601642856,0.460170323075873,-0.28563581007571376,-1.0790709606943694,-0.37141155703089945,-0.7806694695521523,-0.45389675177838307,0.8847831058768489,-0.003713900438017346,-0.8167796323948261,-0.22099435014105717,0.9203135541431751,0.8630154327298641,-0.6918661678576774,-0.8150337882456848,0.17200203510928921,-0.9946405184616346,0.12757564549302677,0.19181228472307277,-0.5451464179149044,0.6586834108239796,0.6163165872716512,0.4942709560582796,0.32233522170927836,0.1611240829770342,0.7858266704702018,0.1731141406091674,-0.2603016646226527,-0.7859063096402055,-0.043233366734848185,-0.5649667276850111,-1.2292121422797664,-0.9395871124479723,0.7480103285616292,-0.3053601489964184,0.10227506797140283,-0.859423569788014,0.17206196035177213,-0.2745292807732892,0.33185979434487656,0.20479013344358662,-0.977648390769788,-0.4395313894768548,-0.24091742977195585,-0.589626638885159,-0.288854932576282,0.9703366288880831,0.32723308428835995,0.8367726197301186,-0.5138798982338803,0.45971812855686695,-0.3980776098433424,0.5644415637367768,0.8687441399697192,0.3805761947318236,-0.19596441787387006,-0.8709885554216081,-0.4642821772908599,0.08078427152745885,-1.0673782798037132,-0.2896017152117365,-0.8267339240511641,-0.7155105045612198,0.15581632178115307,-0.4727926856811546,-0.7745017301696641,-0.9747157596113404,-0.0928927422921157,0.35946142154808863,-0.16209119935906094,0.735397833061841,0.022815579203182907,0.44987473202701256,0.039893575441026036,0.11580634000520247,-0.4700226925856187,-0.639299872019345,0.7538614103493392,0.3776178138673049,0.06136040318966446,-0.472633826894342,0.2906607825584176,-0.3930946265100618,-1.4692499958324223,0.3413331691890203,-0.24692035025584763,-1.2637573530023078,0.5561801476801234,-0.3097800816308799,-0.965525167286142,0.23336394518491832,0.09868950956868865,0.48501640668455104,-0.9468258668812449,0.7246893156819202,-0.21074807077842095,-1.2478222675033583,0.003562033922796134,-0.6128959682323676,-0.6870529108819374,-1.279825456698973,-1.1584059957827357,-0.3742512160311868,0.916456823861559,-0.9130240412037121,0.18493202246292043,0.9216204358687855,0.6144106424700365,-0.1455260604617298,-0.13616964715990154,-0.4909623809684307,-0.5595418046347184,-1.2303004142579141,0.3196971666325204,-0.3089276639434966,0.8199055152782576,-0.10916053945881642,0.4996225224089744,1.2806190480118043,0.13136327918614757,-0.4563532668545909,-0.11004915668542926,0.08315550100459165,0.5726121015729717,-0.5754479866740944,-1.2482513619093343,-0.10995747444908044,-0.42687220893950145,-0.1350671340019803,0.3027837066340125,-0.4131998912114027,0.3108676988476579,0.13890210289621763,0.4973464177966869,-0.6544958742259629,0.6415360600861402,-0.6818205117774137,-1.0547716886491807,-1.2039514015678159,-0.6391978429700065,-1.1936131403573988,-0.49740275188700894,1.0041573335172609,0.4480397689805962,0.6779090143133493,1.2636115460294277,0.1448661264073828,-0.23606579065510902,-0.4367840308274253,0.258166999852805,-0.6641154311920774,0.6246414541557719,-0.0362800920227913,0.38027685749743195,-1.348603498055183,-0.5804802473057586,-0.2590377341467257,0.1071286698612465,0.2687072745059104,-0.9642724348400937,0.007471367888499003,-0.7573319822341733,0.6725424452924447,-0.7882041206750309,-0.7810865254677106,-1.434173938218827,-0.3676044028603641,0.3163077791328459,0.47072812529899766,-0.3658297582319239,1.262244277024386,1.6126714619480673,0.7687568741407693,0.46388715687491094,0.015124332718094064,0.14700443862548754,-1.010743949428993,0.4687904073668156,-0.36248007460754245,-0.014480407306405598,0.003658165287910178,-0.31473930907646863,-0.6550567676015542,-0.7460236824380564,-1.2630450436749612,0.1263208845922483,-0.15933931569410564,0.2428155212329328,-0.14363780757184452,0.6068909439601715,-0.3012611058559569,-0.1801188006156695,0.3110826056308153,-0.8380493356082191,-0.8932829695174274,-0.6356475501307898,0.1633293280927763,0.09688351478645046,0.47369265548340306,1.2346090743872689,-0.7642351524234582,0.6025522523546124,-0.5092674502457375,0.4568717947445015,-0.5601317640582958,0.3980172986181855,-0.742257342809487,0.06326531413107384,-0.1427834063634582,-0.5189874998734255,-0.4196062098609127,-1.0958848355509165,-0.7211340830417894,0.01778027611226644,0.1637439196727265,0.19864203826940946,0.8935088690252302,0.9017451279668124,0.9230726739958659,0.31783590679351753,-1.4891164109158952,-1.4295549453814689,-0.26368116280874204,-0.9854406275597188,-0.2430277371904913,-1.073700385012362,0.6035378494255575,1.1562757630140479,0.25365761919852203,0.39699875984066585,0.5665042264686146,0.5171531333654187,-0.8197616815909057,0.7196627796935404,-0.21030202721830582,0.04695787437806954,-1.4112547122606365,0.22430514831804688,-0.479987789880463,0.1569685989519179,-0.5415983139448115,-0.9447474456663181,0.33502174617556335,0.6702330314163509,0.4499849540085914,-0.3101767586122979,-0.7318689431185048,-0.817643683453599,-0.2286422406203916,-0.7152404270821979,-0.4241007840351233,-0.3006782238249016,-0.6427897024427811,-0.7154510261638436,1.135394022771858,-0.4064779039155438,0.7378340201475306,-0.48961502927206285,0.1615598495588934,0.1466861386861462,-0.31289656053874976,-0.06542085203288336,0.2172018855982158,0.4736774934286326,-0.6426639543260366,-0.9666771153936574,0.3222224220225798,-1.2626071653291513,