{"layers":[784,150,10],"weights":[[[0.09486150155014862,0.7376308456296843,0.24255843205477534,-0.13217540229983182,-0.15604910616032575,-0.658335886277845,0.9550766325660867,-0.2077856763372279,-0.044200445469522176,-0.004182249052520959,0.9005029111975831,-0.3482647246234949,-0.5697308562339818,-0.11819891406535268,-0.7518822244811201,0.8792328020821714,-0.9056709075996601,-0.8404262280496742,-0.23787153330543953,0.6648575374700063,-0.5838609916856856,-0.4605887780595146,0.17082307261753282,-0.09659537351306069,0.5961566364346136,0.7471090259969637,0.1899875511810798,-0.18708033860769557,0.6412403902798078,-0.26228144350089755,0.3186133249608063,-0.9912304955251292,-0.10870626963621577,0.6941318111685164,0.4715508367961466,0.13697728285632524,-0.5727361427237188,0.8078328937584773,-0.28341540807112703,-0.9585734240260804,-0.23574265800555966,-0.9662597647407974,0.453554444324769,0.2597809724417768,-0.7131498083484572,-0.32537653879260825,-0.21683997055397647,0.28055205519943444,0.9214885292982335,0.6611375491969672,-0.21089861848404898,-0.5791770512446844,-0.9489404250058672,0.0742387127398767,-0.6330521982678019,-0.7254854400103663,0.9213383125206938,-0.8461466380531681,0.4129000478661444,-0.40333082144286825,-0.5945417745140043,-0.14616032669075135,-0.2736021061965485,0.37241524507763435,-0.32039288474901984,-0.1085563492036523,0.20162281423939,-0.27656628162541314,-0.37917476601362443,-0.552791621004341,-0.2691855395644425,-0.7900354408414046,0.1638940502438462,0.09777273245246464,0.4948140666096182,0.9460267524305075,-0.9614305206680166,-0.21675756541246957,-0.5971077531994587,-0.7416986348847495,-0.40549119907794856,-0.8873195298799862,-0.7912006009885323,0.06832947993346927,0.9821637717003346,-0.40021390299990633,-0.23533134109059084,-0.36841788178723556,0.9703291015973465,0.16039782368316016,0.9481349964470589,0.2788240191211487,0.11992038034838921,0.5292992159410999,0.18034714001975483,-0.9775454527901555,0.4281448503368509,-0.7568020053699217,0.3465844555362277,0.5818395195077801,0.6279434155384804,-0.7312301024395457,-0.06984116979732485,-0.19762737785161474,-0.5850933997439515,-0.8964261714568021,-0.6505068405083608,-0.18092903114319514,0.3267702771357477,-0.7153029724643368,0.1670685315796681,0.40472112309551345,0.6577052944346726,0.8013743175582295,0.5150053792989191,-0.6928531283376066,0.43817560007265266,-0.745867868946905,0.7202603448833673,-0.34304278465624094,-1.00016213031619,-0.5241337719771761,0.3009180301292753,0.15689865806353281,0.6756909374114545,0.7043288553238278,-0.06013708797854865,-0.18266666083214614,-0.6617500382630033,0.6143325108757234,-0.514461590536208,0.0711277941542711,-0.5800883403851862,-0.18104881916671023,-0.8150829462687678,-0.5359458359369267,0.1420170972132582,0.9521032811872979,0.7926400026324842,0.050385085857417175,-0.3807353250947004,0.6755502514468485,0.3802504929537154,0.7787838007751262,-0.26540613768557103,0.3376961573846107,-0.17617235682218788,-0.006320270897060957,0.6603723531918373,0.252971579246244,0.7271623406713389,-0.22628828852753644,-0.7934235214559168,-0.8069979467803241,1.00048250659648,1.3492170120441118,-0.7637896122014239,0.4383060447920339,0.800473871790534,-0.9410966299699692,0.6321595189188658,0.3917611071403393,0.47718110834395683,-0.010987269382373892,0.8965966901085525,0.09905305101256091,0.9250180805699633,-0.25600779066895035,-0.46964693801494595,0.6331765181882405,-0.2172580884043263,0.8394930171360275,0.29777100572992926,-0.5249324636217144,-0.05191291934491332,0.6847025344337282,0.10770463495849908,-0.8708543436407109,-0.9177505747459369,-0.6387562160408551,0.7748906525231456,-0.09950748417451853,0.9545157703359314,-0.6661713967708988,-0.3582321290862656,0.5433106998888096,0.08809984035767676,-0.6914459667650524,-0.9051536698213479,-1.1554544681399375,0.3732447087798109,-1.0045264682106856,-0.685085537556633,-0.044579261606748466,-0.5886476424774799,-0.5268922163041241,-0.017596736225782016,0.8089906343810325,0.039050965190104196,0.9158286653999823,-0.0954509263955204,0.9350972151194017,-0.8597590488759349,0.062151246686738264,-0.3081088364049823,-0.9965434643329125,0.8157059381872792,0.5843015488223692,0.29844981861325176,-0.4209418987192991,-0.005053720172476205,-0.20568470281652754,0.7548010047882447,-0.7115638362416853,-0.2624627025587301,-0.5528203185354521,0.6134986891233776,-0.1471660803127224,0.19138225003278714,0.782052121376043,0.43441668146326184,-0.6941913471035316,-0.8302029391946266,-0.5388177792186194,-0.48594328803762804,-0.47197313088370424,-0.242493897179128,0.35708021264492895,-0.5786717359024819,-0.122747060823087,-0.9775279437863339,-0.827794251619662,0.14210257129682255,-0.5416391861448441,-0.6796702827706532,-0.6085804159051205,-0.08528531192113832,0.26810053924692506,-0.30537650480299555,0.3857279378560735,-0.5477482519064253,0.10745471802676444,-1.2271563085593469,-0.6697208310147686,-0.5619100926525838,-0.671419831393586,0.7109591198111616,0.1393998367595088,-0.10432682384563134,-0.7150410038301012,0.43131269066433015,-0.7288685999500027,-0.6412942655934867,-0.9759201735303067,0.9189682360776728,0.30135376879667775,0.11968113227395703,-0.15021672937107844,-0.4666880420796809,0.6700392769635227,-1.1390678169832529,-0.285008854974223,0.599485055210293,0.6762024453049474,1.013995774232637,0.6486322865792474,-0.5160437391948621,-0.4361495387347109,-0.4981908724634218,-0.8339085524735366,-0.9767848236171375,0.21367163471104803,0.05319235454141027,-0.2899356832686797,-0.10521589900090922,-0.3436306638179522,-0.663337740239651,-0.6317463248171555,0.4020597583186553,0.7584844438155689,-0.16571468408895096,0.7461378782445424,0.6635801002196505,-0.6880502818501656,-0.5605151003233124,0.628091043851265,-0.5442267556636028,-0.9799473224107963,-0.7630855740619167,-1.1974085232950533,-0.8244975267667165,-0.7141736887768232,1.0829501294837716,-0.8210376282315994,-0.29681847492444297,0.3175033028030363,-0.5246613267000199,-0.0284744056292214,0.9040549604443867,0.7455614389629283,0.5193329168393986,-0.12842657673383137,1.0785882301472662,-0.5263165367921812,-0.05393274058595251,-0.7178215792015992,0.09940887726632755,-0.6790798329077574,-0.49516325652531124,-0.3679455711175455,0.8468701819811507,0.4013098158675083,0.687738568812881,0.13438289115107044,0.5990461265277974,0.16337787302134843,0.13932728727053278,0.6716925517429337,0.012037345750276159,-0.309939772962879,-0.09346795996311337,-0.736494684222379,-0.23021180457174698,0.3025399946718043,-0.4064178245541054,1.0010146599501477,0.2768728133360245,0.04268536898087792,-0.5941979502687421,-0.4312631066587171,0.5938829830849262,-0.1269487543417489,-0.584768395629633,-0.28985593576594065,0.8199850309756087,-0.5097552325501334,0.8552346047642565,0.9453329555033694,0.4073639784859629,0.8606786398573213,-0.16442124869536087,0.5821079579828887,0.25586691853556603,-0.850819415561304,0.25450695272842266,-0.8243290393264016,0.24258188121458776,0.5380389126194164,0.9848092315923863,-0.8868472670674021,0.15392426058363737,-1.0900689711830476,-0.6576280384091984,0.8474633009859814,-0.2689308457860547,-0.48954733434315995,0.35003805695070983,0.21325500506940878,0.13783805411200142,0.07416209703383896,-0.7519596170653299,-0.05628452237401765,-0.9708900365794871,-0.4291599847257296,-0.7853147484450936,-0.8447475188770768,0.40996328987027253,-0.6772788776181597,0.9693678030579967,-0.1873249172668379,0.38545650557361866,0.40969891326798424,-0.4711469680118055,-0.561925757596918,-0.8494983694545786,0.8241143427243967,-0.2632830439391341,-0.7590801346952606,-0.37202460989655295,0.3984191526997221,-0.722879472323781,0.33137862084747977,-0.005074959393062937,-0.7146010784215717,-0.062354089278636456,-0.4041158180219687,-0.9497230072400118,-0.9478012357523131,0.39234599719829455,0.9106582615918353,-0.2724493079869466,-0.6187870335232916,0.11413199254845767,0.6743610664238067,0.23959988455355188,0.9698910421641734,-0.8859939072743444,-0.3687580715302004,-0.4901308376969284,-0.5604901013670911,-1.0130642935633325,-1.144381906050167,-0.061433090265278406,0.6276685195584304,0.9089332218542299,-0.470433909240761,-1.047168992054913,0.31915224467823156,-0.7539834481380314,-1.0660561924314442,-0.33823373477214486,-0.5598116876476772,0.5080047458858693,-0.15676278607522837,-0.5798408933227829,0.5052407601217241,-0.5506224820539631,0.03162705116756872,0.3823621640063577,-0.6292183516749731,0.0801052329736705,0.6142776105601316,0.1798785068221568,0.05882603919451099,0.327913172349314,0.5849349335710428,0.6997912810696763,0.03388730067922406,0.33787185709202655,-0.4563730523442026,-0.4366321538126992,-0.4126986696461424,-0.06582114463316531,0.2286818963639801,0.1662707256594515,0.9546785304008979,-0.016766635743667397,-0.06309285374472605,-1.0772224625468636,-1.0047486059472415,-0.24246027845444593,0.015834442412200604,0.9739414353704864,-0.631906086818559,-0.4676275493292577,-0.7480914882079099,0.4548898206151548,-0.9005911877890632,0.22436287739314012,-0.03141958651021492,0.14252205338594556,-0.24535242474755004,0.6461682312953205,-0.7621496344656822,0.7678971710445585,-0.4038090190048547,-0.7451919082185264,-0.5165714887530125,-0.3470300351040511,0.44849039167457105,0.3347647792411021,-0.3129996000077361,0.017453499631083096,-0.006492089287496849,-0.21887913351448512,0.26715333876249187,0.3390984653619467,0.18207564127993792,0.1953107937424303,0.9105853209699447,0.3568832072178689,0.08534173540662501,-0.7549952633989546,-0.6386591603750439,-0.8273576913907266,-0.5586187091632046,-0.012664359867634426,-0.03872317287275573,0.7805920954365426,0.5775473318408675,0.761201438615046,0.4375661690430427,-0.31481410100747664,0.351471567418391,-0.40285287288894533,-0.1514812249780861,0.07645318434922607,-0.8016037286586861,-0.018717327989737045,0.867427364597996,0.11827121319912337,-0.0021257522541776627,-0.37420874997156284,0.43337578067368904,-1.1946075318219846,0.15610208564640268,-0.15662191404447887,0.8431865680247924,-0.5630659243676639,-0.8429022103460722,0.9358803585241955,0.17189692682471647,-0.45238456022506146,-0.9565770623643616,-0.8518545293309506,0.7816240288068117,0.053037604724138675,0.3749465630043118,-0.08491221336087915,0.5399413514187141,0.5389595397752505,-0.5066461634572547,-0.4544820556123192,-0.22148411289388653,-0.6832651497223968,-0.33386789154726115,-0.14633697664883902,-0.6782266725805812,1.2487296543690134,-0.320240178835411,-0.9406353641112518,0.5793115411520761,-0.4404263874631483,-0.020441465630826425,0.11911304725615601,0.048948166862982305,0.19745004377922062,-0.7434945001859362,-0.7920764323170314,0.9076837463970967,0.04176186541333297,0.2887297399371483,0.7335902741534397,0.037612877179566705,0.3636487523834517,0.2742848137974618,0.3152059428525218,0.62596746711578,-0.4651862685429666,-0.10376276989328975,0.6362754872841326,-0.45065260873738017,-0.9811795497983697,-0.4006816385747968,-0.9963033035149549,-0.4929739013758538,0.3045565296883635,-1.0991583842439037,0.4068994124007919,0.6818229718031281,-0.6977102744875967,-0.29799650278214246,-0.4199318238074751,-0.3915342107203908,0.4709280936556429,-0.3044439165022484,-0.10534893794840428,-0.4347079759548831,0.2338474415872216,0.7438048132890539,-0.929986013162383,0.28859649903787554,0.44492718249264535,0.2930931861549315,0.1517317619736947,0.46395467233589277,-0.2719387299666016,0.4031847998856558,-0.8596418093359525,0.3636638802088172,-0.03619240540851116,0.29955975666961676,-1.0962840195686945,1.1297224147420883,0.5663843553824617,-0.9804643629719503,0.8315737332127799,0.7379271907109326,0.6120602655194823,0.46006174173711684,-0.026205909717581192,0.5635005462290494,0.6247120638841228,0.1549653639885598,-0.312715746781053,-0.8314099691153345,-0.6717034557999239,0.901101455526442,0.7887539098864516,-0.32059367807851913,0.5451994954531845,0.7581311915903934,0.8301342991333579,-0.32564958582632964,0.6062941495038658,0.04374488654983635,-0.403262460691204,-0.31880061539975024,0.2589009301138676,-0.6375469237690466,0.026787110301290922,0.6001664893304391,0.5505006334316734,-0.39717500888050916,0.8132083682329143,-0.3593816145118494,-0.8773160121522152,0.5452070425917148,0.7333526525979893,0.13908938723967101,-0.8440650393205513,0.37992070749755924,-0.7024245937765806,0.3570974398842282,0.3228471163735237,-0.34536767240794397,0.6752994651885337,0.5535928440782293,0.5813318858443799,-0.3009409620369444,-0.3451124944261738,-0.43915931654689183,0.8908769050695481,-0.7177026160447794,0.18305802209623248,-0.9114251029329603,-0.25632734815095193,-0.7400395973709454,-0.5425280448644259,0.635542131062859,0.2797153515153654,-0.5828661707716446,-0.8860030947570796,-0.0943261752318257,0.27581296108953585,-0.7186485918885323,-0.11724349379342404,-1.012145859701926,-0.16509700176745465,-0.5679223779432541,-0.3887352995556117,0.5790943023998353,-0.39839114343220405,0.7080968201810895,-0.2405626541538277,-0.20581916143349277,-0.2582913987470379,0.6326747411456001,-0.9054607731032444,-0.9832956936810999,0.3031653423007928,0.38059875539322907,-0.20690152770505496,-0.6495526411078343,0.6070298737735705,0.8251439837572653,0.02512904300020062,0.2338285356755771,-0.4858850274003674,-0.1519212293140358,0.6053532408501008,0.5120157331292429,0.4222742714748364,-0.6072907520093767,0.47187301275301896,0.49998096907748024,0.09235387084924233,0.4062359957307086,-0.6084431940043667,0.4598890677796484,0.20234289689849672,0.20878640046328362,-0.05702627084269585,0.5917601973795397,0.19291881819789936,0.889634645349337,-0.4687934646861262,0.05503851202152364,-0.3104747008649535,-0.23309467314286683,0.5218631868266791,0.454534299383466,0.3112547835900419,-0.5546979500168533,-0.3808342740145713,-0.5275135320861618,0.020355177153176585,-0.05361976857445487,-0.4402247558515817,-0.43856008385558526,-0.07583648426953538,-0.8262024323371854,-0.9794396527872743,-0.19085671851713162,-0.4497246464998341,-0.568593051408903,-0.6842142548724183,0.8554996866251283,-0.866567609370473,-0.20167777874471254,-0.6589252086619464,-0.24452777467074194,-0.09301418157976071,-0.06644870010462112,0.9539550063232273,0.31316999297230835,0.8154300815180436,-0.015087328255953871,0.32570024130813646,0.6381235812029769,-0.8168947683179278,-0.7535545114212261,0.6328646816176076,0.889111737148483,0.5551915512095219,1.0626349812970775,0.7750191465416506,-0.7244269843711244,-0.2519648278261985,0.14577179674198318,-0.20551245160766068,-0.7332004718081822,-0.3085076140750996,-0.7653038336325718,0.6803945574530739,0.9781368905541901,-0.6820259117872787,-0.8669246177560106,0.5980083841764485,0.7958050299137494,0.04814545763219247,0.9380902311758028,-0.683943420970544,0.8377732303146778,-0.8531189867360801,0.1449706109029488,-0.6094059314010148,-0.14043915304103566,0.9190587053007612,0.43566415547221016,-0.7911651101205383,-0.84286658692016,-0.23987554965942193,-0.8155746572893748,-0.0028890024886142856,-0.40391012378901203,0.9516801872474074,-0.03633642030707847,-0.21268474623634626,-0.4965099637753976,-0.6464433256046425,0.12515035153750345,-0.8951336638249261,0.38316137763020336,0.3424995188952948,-0.6012844649759281,0.23271012780293265,-0.05268696741511736,-0.08659897708686737,0.5715457839094396,0.5597182460141501,-0.15792440795180562,0.7730800206590903,0.3702924536762982,0.5358388998762164,-0.9842363385014684,0.5115953631266373,0.42488859343065544,-0.06376626757602578,0.6997561299152982,0.9861883113842629,-0.2398747649997714,-0.055710444883880966,0.007135076754770076,-0.38612771791300105,0.6757912051244535,-0.5103953025014847,-0.3534038746287168,0.19225816201077783,-0.17666538615149144,0.5073877417925512,0.29483104880705246,-0.777683621986256,0.3561928461940074],[-0.9515009007135584,0.5383435331245954,-0.11309177881191079,0.7799118372867286,0.6074689324734717,0.016804855502676297,-0.4831354489448052,-0.6352889699608322,0.3494145276487761,-0.8354555153316836,-0.7770980249696433,-0.6849095506363359,0.9700419390233175,-0.640129799628584,-0.38242767080230633,0.6812104298110738,-0.0500871234893667,0.220501946861269,-0.9794860118433264,0.4874861547610667,-0.6208988313883759,-0.9550236359859925,0.08623522362338765,0.9510368029145546,0.09186672553236974,0.6099879112369915,-0.33089493173152906,-0.6573310639433894,-0.12039445439776264,0.677557600605295,0.04466536976935309,-0.7858509343178581,-0.45082668160597406,-0.13094325165878773,0.5791273004216809,-0.6041201543244379,0.012863957799622787,-0.27590885267059995,0.584306400805866,0.7416898320431178,0.24398886920842064,0.4754662654467237,-0.6861024550420457,-0.49234450523770656,0.11166650871197267,-0.6578536019058561,0.049782474197122395,-0.7655758056656784,-0.22912980192483332,-0.5853497515261776,-0.994319426344226,0.9247181225647373,-0.8498980463938427,-0.20916807627907108,-0.5279371044758636,-0.4053427974835828,-0.8759492639732058,-0.515361430160314,-0.36185446355878215,0.8691235786338507,0.5485498075309969,-0.14710690137251603,0.015585582843847647,-0.9077799775338181,-0.09468537591044601,-0.020075429489020483,-0.1700741521059284,0.4435369175353773,0.12369550141044437,-0.860431612045288,0.6426160156446648,-0.4142522455662695,-0.4931758232047792,-0.5405986559258779,-0.6055464905621631,0.20567468686146054,0.17713437130040396,0.047554033133871666,-0.9231893111969783,0.23823200864236416,-0.1654036187008303,-0.22730621918532323,-0.5186879004031048,0.5569840895141414,-0.919132485477975,-0.46517120915906274,-0.7181617224124306,-0.354534930971304,0.03830103358647862,0.5791719111391129,-0.3272988437109211,-0.9939762363242769,-0.2753436080511796,-0.3848617170016177,-0.5184920692331529,-0.022894692904983624,-0.6553841389573564,0.6353185673310143,-0.5240017162017432,-0.8619451351727456,-0.426111362086276,-0.2141357925455289,0.557233747733235,0.16681577573063544,-1.0761448521760184,0.5373618893817337,-0.3698722468152212,-0.26571741683115463,-0.4299112376122391,-0.11055845931951731,-0.9747489752000675,0.6936284706015529,-0.10067129090128013,0.9107775303547818,0.7626854207399403,0.27358542303543,0.8228370027740791,0.8572085159257088,-0.4127532245032516,-0.31783703133799257,-0.3078739828362394,0.5348593627653639,0.48174361752748984,-0.12261424840885918,-0.2415809727682866,-0.6729332574037952,-1.3791115409039874,-1.6992710491666076,-1.9030447746459764,-1.4362752052807761,-1.811317487623074,-0.3019618944850214,0.08801351016229103,0.17365469797826863,0.43170503348353123,-0.1539296734353542,0.34630176343087327,-0.5220065187671945,0.09035436329822864,-0.5626007596792095,0.6651185404816791,-0.8421924198724842,0.12621887141001853,-0.549236939738925,-0.2196029983426729,0.1963415623497942,0.9566687890152785,0.6284669826573726,0.09724143094031588,-0.06250915207432893,1.0778881783003675,1.1564594634835708,-0.4296580702593395,-0.007601324191058558,-0.7242094304813272,-0.33394247446958897,0.12117189543257866,-1.7251032192900864,-0.6161991930872439,-0.09071916172346392,-1.6771297615236718,-1.4373259983363376,-1.3710485744481515,-1.188809055575735,-0.7357712932413624,-0.9430217155578455,0.7547166609726214,0.8873510452230726,-0.7759657140192908,-0.017127379194368242,-0.8008945509116822,-0.8475824080378467,0.3622675117506448,1.3094907256760893,0.43868977703471723,0.5643149655589622,0.6752835393611891,-0.01933841978051809,0.4375566498675738,1.1592092539960015,0.40420867757959317,0.35282883183961405,0.34689397291936,-0.31935324752738053,-0.14990442392594783,0.17637494267724885,-1.1671637327314246,-0.3057519845224784,0.008484627975991239,-0.31258029328108083,-1.3735471534881158,-0.2585997413817665,-0.2047680730484368,0.26859739098777313,0.4760087014354834,-0.44316612855945764,-0.600549348996652,-0.24515483264312007,0.14446104166815804,-0.04199810900847895,0.1351501900863783,-0.4167707227778611,0.9622401889181245,-0.18400106049015313,0.9337087347841271,0.5636903561343721,1.155769881970523,0.95174993300648,2.405968337228372,1.3202594550176585,1.8477164263936845,1.1178180252280026,0.732881286696826,-0.26254091381788125,-0.6082957460681163,-0.622609707083177,0.6959207518123317,-0.518599844341895,-1.2998619526797162,-0.0224659871952193,-1.205261717798753,-0.6512221550126687,-0.7164609064684797,0.2431664596399735,-0.06603341659208076,0.13124739583838366,0.837731128481544,-0.32367629473074394,1.0603205075368558,1.1630108146300897,-0.3114909904751827,0.8810909863714512,0.5482870127877327,1.2898293371889582,0.6304292495224146,1.9659615335710734,1.981066535310148,1.057305705213071,1.1002384744669191,1.736682050213736,0.6956722480816551,0.7924248556392416,0.7771397218498224,-0.07053993138273318,-0.2560740417155381,0.49905350755470834,-0.8386960252513321,0.7088439756696792,-0.9290356670411362,-0.7978423223049421,-1.041412339475957,-0.39730542135070773,0.849795528406787,-0.9126207941089864,0.562549167765574,-0.28732313517360125,0.9228023024555212,0.3635601239893948,1.415505239395833,0.6836012537945173,0.9880642239898758,1.0787396872070547,0.2578983819372516,-0.4594493219191449,-0.2619377095617327,1.987437527719492,1.1817267120069221,2.376031195765735,1.2859148382564716,1.1841565652963786,2.0973908346135164,0.26757067727298256,0.5994751680465557,0.36255531529344126,0.26278842902405253,-0.741427985561494,-1.522936735100199,-0.06686067008398966,-0.047177095098576656,0.49312690921176416,0.03576226403157234,0.12087227749460817,0.623714191158907,0.9070114537731406,0.8584729722390056,0.1650166134039965,-0.07237936635722962,-0.4308817723935193,-0.7163745653254825,0.27396369189824726,-0.32272464756176483,-0.5833038798181647,-0.2240831351481026,-0.7144163314035958,-0.18768353532366444,0.7552168573322268,0.9046558113349107,2.341017842474583,0.08673841339082944,-0.06605278262284943,-0.3289694827931234,0.49483639591275136,-0.2547910466771111,-1.2582898296110971,-1.130626677007882,-0.8741373681034672,0.8498325422715841,0.7396056589651848,0.3241822766992641,0.8983276945981946,0.5908862889240245,0.9182534204243686,-0.522551644128758,-0.0472180629332958,0.05853045873659067,-0.20376093900400977,-0.6528921097227811,-2.2430493119305073,-1.901053683022768,-1.2518134053213297,-1.3598951456025024,-1.7609299438717088,-2.0652664019571128,-1.0886932485834402,-0.08949701451510095,0.5305793015687053,-0.6145080357087486,0.5782264018905302,0.6628829331525571,-0.1551038977450569,-0.057874592580604296,-0.8598664374571463,-0.9563054396679875,-1.06531530198835,0.18182746147787382,0.07590341620003,-0.18393860278928678,-0.367799284768355,-0.25472557676274676,-0.4715012248018427,-0.7949203760000209,-1.0546979082433925,-0.1274014859376361,-1.4868727802697657,-1.8030449823724994,-2.3121180591044257,-2.59364391635523,-1.1725349733225854,-0.9516793028354179,-1.8068496385508646,-2.1839824886460852,-0.6893410510460437,-0.8258144876582373,0.6346466371679275,0.5043050629061459,0.8152066796689129,-0.1037639395052784,-0.6954135091292832,-0.47946795325078917,0.24388928958759626,-0.573872191856925,0.06139715543279414,0.6558369068902205,0.5275016624842812,-0.02175577238089661,0.430499070322774,0.8665311118529448,0.0654380150799286,-1.0583322733152822,-1.1309086840761833,-0.5952838924308882,-1.7471309823483867,-1.8385565889603055,-0.026472802628430693,-1.1024164880509997,-0.7572385148484746,-1.0491956722262294,-0.37009724856046916,-0.9312414207215514,-0.5440327966767641,-0.7995693299935847,-0.5853125986318412,0.3635665400043512,0.7183845355569806,0.46387637621495403,-0.053942056638621436,0.13644580254493774,-0.9572255392231259,-0.6673477528548475,0.8537144335320637,0.43928999300461463,-0.533663451106871,-0.5260601090647735,-0.8881905491905572,0.03751082733030927,0.8261990837513525,-0.9016783247413257,-0.05990004590098247,-1.223470814465845,-1.2889487020517665,-2.0182147490714444,-0.8318129452645783,-0.46675408165491317,0.37944915473010893,0.6914192915206205,0.2389755231948419,0.10978478304957703,0.07863252919106228,0.20871436301287535,-1.9581363329878083,-0.7347173454303954,1.040579294902391,1.6781446661109527,-0.20457872793659929,-0.24635062684453882,0.7635140599876442,1.1139953961372606,-0.4653772141811946,-0.041154248307883584,0.31732459513756783,0.6596593059720283,-0.19967421450943088,0.6262415205851638,-0.29460070017908474,-0.317269906882219,0.09254878862692398,0.01022514710550808,-1.7039042266309326,-0.7948856470726146,-1.2737948200007558,0.09638013971676845,0.3297160899527929,-0.29834262248291094,-1.152849672051341,-0.11356137346971441,-0.26494159978737236,0.5243150116861046,-0.24371445720475018,-0.24478243248179213,1.025801978896303,1.2157034985113049,1.7701894606707742,1.9841526554507982,0.7289643830098866,0.8509887203298889,-0.40592242487728075,-0.7157503423741828,0.06130866891939291,-0.29020373351675904,-0.6939999266888008,-0.6685426168857852,-0.49127743514537836,-0.09588526626363708,-0.29564245887049867,-0.6058527297762297,0.6985681847030732,0.6878289728232287,-0.4807876585356417,0.3361145329612593,-0.3598545074604104,-0.7513720266320155,-0.8417395366199845,0.06335626408678528,-0.750751468039906,-1.41485216191039,-0.24278824486251865,1.1155625976666756,-0.2897057152555145,0.9976068123798906,0.2626341488648959,1.6342653745054403,0.9931506371193245,0.5105838471422214,0.7968652783020456,0.49582798250532467,-0.3558434439287429,-0.37828283810796254,-0.8132018832963084,0.339512996935971,0.10179503122202276,-0.545127361940186,-0.7842946253979329,0.6444369187007775,-0.9015741874930939,0.3732927285255761,0.9912165582465617,0.516859190069532,-0.9222367621730009,0.5001835449602885,-0.6065752564862263,-0.5802661989113264,-0.7160648966101809,-0.6084912645247916,-0.3406912694096321,0.06903976584896089,1.1840066096388195,0.34490904893457497,0.8393141699760741,0.05235641511287807,0.36704930835002453,0.9882130714016966,0.11830489774264057,0.885506835840519,0.24105737312014866,0.35135750891281703,0.695940610911057,0.8338297180151514,0.8075956056043444,0.11180175018949827,-0.4649279234941829,0.5241052959226736,-1.5570069360729883,0.20352926437451782,-1.0965789556675896,-0.6485213033341951,-0.964088032969739,-0.6100891323563129,-1.0557550978745427,-1.6192294112433598,-1.560721710859825,-1.1235945202320303,0.1252314418795868,0.818057838918318,0.26455231589142647,0.7979907281624126,0.6200016251924663,0.45712910862769535,0.7422001847396921,-0.7986088404137945,-0.5132276674814772,-0.10699789931555544,0.571741262830816,-0.4016959905244512,-0.8750258879193527,0.09447613545474652,-0.9136081964014987,0.5422150368919753,-0.46950671304281916,-0.47124306572188657,-1.8120976761229646,0.13800931847357684,0.17907011904799036,-0.2632883254155339,0.279426273907912,-1.3210073699359308,-1.3291274826597195,-0.7159606139373633,-0.9556070535917752,0.5343339819311218,-0.9042555909330822,-0.9609034739047041,0.8144557661175004,-0.3370885174899146,1.1969690976912795,1.1989369630598927,0.6732356495597377,-0.13658910462032195,0.588438310921482,-0.4287678867424369,0.24048043639054545,-0.6872743315545169,-0.25546014049625887,0.6371710535119002,-0.7867545584035066,-0.4745614561663099,0.6770541435898697,-0.985685868439393,0.05131126921972395,-1.161405707327432,0.40164629591842327,-1.2045437624118456,-0.695626756192562,-0.18322786804216015,0.39795025025398356,-0.21769280825972237,0.9784995263637736,-0.5521737062024359,-0.3193087786151547,0.10691495867519697,-0.6058737550458917,-0.36267215151490223,0.5417945476937263,0.5721537920261743,-1.4427283647708364,-1.3230355857918874,-0.8440373064034696,0.5819044132437688,0.06485307625964891,-0.8739005988645457,0.9173862002586692,0.30982445751835513,0.2176510189324354,0.8365354842836036,-0.7218039923036018,-0.12532462024095856,0.08103156317367957,-0.630051892201582,-0.6313311854747471,-2.036505634105421,-0.7244698767012827,-0.1678253223710249,0.3189906059144942,0.9805635751606523,-0.2826188613168934,0.4394315683172619,-0.04663115232418303,0.2321495818780636,0.4742356025970872,-0.2671254465556742,-0.8917558990287802,-1.508400628309669,-1.5046070066686557,-0.0061618405047319915,0.34228940722014933,-0.13997423604625278,-0.12615891659434286,0.7589102179652621,-0.43062995919269265,0.4367370245163283,-0.4623034205051654,0.5904695536216977,0.25673041392517293,-0.5563193743773258,0.3393523437342383,-0.6725871526038858,-0.1267568435825178,-0.7936731570595603,0.5587420602541399,-0.2892248102739119,0.6340817730151915,0.11712074326934334,-0.9253001061317017,0.7943323070596521,0.9695505023122453,0.24078211079168046,-1.000580150618431,-0.2614607977315984,-1.563907418105629,-1.1586638673257246,-0.6116776192395819,-0.20216899989748333,-0.03788709980465467,0.029079811558811175,0.5827081396802513,-0.7527540125320028,0.41982755130085936,0.7714307984833528,0.5122360729024186,0.7261638271556357,0.643769532342151,0.14474785846973826,-0.1834256265732409,0.9097508975710179,-1.1142936801740402,-0.2671531670408269,0.610823615460562,1.1968519455430833,-0.2303072036278876,-0.35224235891862327,-0.35001849173004973,0.6049753583346265,-1.1464576441322758,0.07866436101152086,-1.3837732755375418,0.10908097694045014,-0.7228181837941022,-0.5799194375657063,-0.8141158499763693,0.14562182541564664,0.13452014654096853,-0.6060381850831895,-0.2911522790345993,0.8757683070616276,-0.4453153793837088,-0.005547574093183183,0.9467939075950027,-0.7401407000445387,0.3436995222298889,0.17287426835038613,0.290922124120832,0.21120221919396417,0.5316279335540797,-0.2752727616288645,0.17488394416518338,0.5631042754095605,0.8128633649160958,0.49802779677012027,1.0281183787465002,-0.8525382786152865,-0.9160194352739488,-0.20170697362260143,-0.4099212901705306,-0.5471609079018617,0.5695654598059129,-0.5185576771718293,-0.5857489452383186,-0.25116776810174696,-0.8970429283486098,-0.06982103295223656,-0.21572316861031637,0.8621866633407462,-0.14194824623008095,0.35632066249368277,-0.8224662154546235,0.6634168198450107,-0.082250720970133,-0.5948110128323869,1.0404042498402226,-0.03939987435826036,0.9647924611848031,1.7758359647083584,1.6503269860501153,0.4266716585379953,1.048322463077613,1.2705843586016254,-0.1249054964351259,1.1348123458558736,-0.46451156513520964,-1.1830314585990895,0.9256366257118864,1.12701493618242,0.02391212866528708,-0.6611180212001667,-0.36704349526591024,-1.1215734405464508,-0.29245251410422773,-0.9478822254222431,-0.4540220391597811,0.9725486625717772,0.43865967024800234,0.9995931942573866,-0.08794398287578886,0.758209187460019,0.693270471245611,0.8038721198825355,-0.6068406037681994,-0.1517732839664824,0.9313784806202318,-0.8422564837823968,0.555095445878567,0.7152665425768273,-0.2390302973868203,-0.23452493853308506,-0.5733933208545712,0.6497967969340009,0.31244658619006216,-0.39832655951691986,0.35154672760839306,0.9837523940494871,-0.8534162150444292,0.07371056058580974,1.0201766513917958,0.41368948324981547,0.7497294801311356,-0.27958566987582056,0.7533374760650542,0.7991002444900346,-0.08401883849211744,0.6797462147353808,-0.5261090708987912,0.6119916792825126,-0.3210380244219522,0.8598072335923514,-0.8691860048374574,-0.30422022754336264,0.9636161607297546,-0.761892040588336,0.4030779117234034,0.9320037736481294,-0.13844626259227583,-0.7874912806643034,0.9621402488052669,0.7665864655767239,-0.4231280993112779,0.8556942310088902,0.429121224701903,0.7896395176267391,-0.09986067165889155,-0.23446590490326805,0.10326459501656785,0.2966975719510716,-0.6849629861909916,0.11002445561601748,0.28744578599160775],[0.5584401913510061,-0.6937941866926747,0.028390500611006342,-0.9806416864392502,0.7012036667195476,0.7881105536216126,0.7223574829692954,-0.14898649931675711,0.5645497970809541,0.9541150019978559,-0.38384783571629955,-0.91066223423213,0.3677181998508634,0.9401351777976906,-0.3726832173494547,0.8299683845711616,0.5602475926101329,0.3249689378533205,0.8830019525800017,0.4869637254537271,-0.35142538292440006,0.9532058456188306,0.8960629363600119,-0.20630134907162123,-0.9573877879238246,-0.9257551642246917,-0.23588885624881595,0.5847152793775399,0.492008706452538,0.67862358963177,0.9154869588441903,-0.1010526857456413,-0.291972997541762,-0.8372328970657316,-0.8496657389124969,0.03336945793822976,0.05620379256331178,-0.7253771024349415,0.058036380148517634,0.1995713542901173,-0.6363564275843332,-0.46360657468034744,0.30396184513316626,0.8347837691758688,0.8813577234995252,-0.4412430324991463,0.578275003049257,-0.8313578556833617,-0.7462247701409139,-0.27654628001261755,-0.625686306961191,0.7097662170816746,-0.502559415968963,0.9903476516267271,-0.29457459295241417,-0.34806276114919843,0.05891384063473426,-0.4278865775423588,0.27416787822937305,0.3846910587743345,-0.1614143282740793,-0.8341094418357888,-0.12493255600753599,0.8619636476823975,0.47591166423492803,-0.5832246026954773,0.24421973695389768,0.21010172526153847,0.7372070414238125,0.5724272468143823,-0.7065213775547012,-0.123903728029506,-0.22044608733175947,-0.3959355229563995,0.4230272251077261,-0.402911187584631,0.5224575865884714,-1.055599342371005,0.8966734191657291,0.5136188188458332,-0.909435516104194,0.27057281111138193,-0.8610395646372739,-0.7276042539233538,0.3358706477501827,0.5120664328976932,-0.13746785645375148,0.0012698205094150321,0.9480808744159508,-0.8812132558308425,0.6586988575083981,-0.06529044114350319,-0.5564169520699622,-0.2994086241071756,-0.6560263125481145,0.7461864088496366,-0.5790504560529744,0.25435740629148046,1.1153628228754626,0.3246331351974649,-0.2529226399533103,-0.3104494458734487,-0.1302813881261452,-0.47595664697535506,0.16726644234878116,-0.9980866382576552,-1.001749339862141,0.461076910234227,0.5666264639755147,0.3621271307861483,0.24247375833884854,0.6836794394635528,0.6326283449740777,-0.7993478487853269,0.22662409471244715,-0.7682877888003591,-0.30275730856193517,-0.7163269440721133,0.4849608833838542,0.5972057907570857,0.15355404250443971,0.27801317775523327,0.7646272355978587,0.13320819918575635,-0.13575277299140623,-0.028994780044620146,-0.24043911192377387,0.039167685843934014,-0.49310739843524215,0.1841537076445292,0.4171824328853087,0.15716073418116028,0.15233468282705423,0.33887298626020074,-0.17208948079140832,0.16366924454449772,-0.8648877108086576,-0.6558962155402568,0.04761547655962876,0.5125191619174642,0.43777990111420795,0.4660632153892954,-0.3948404182111056,0.17671718847004167,0.41319881163834365,0.24750238998344246,-0.8986971995678906,-0.3800240320246744,-1.0860762073979155,-0.6810258667842733,0.07551489331075449,-0.0680617413248178,0.369850494711614,0.1278726719089076,0.9479338691268385,-0.4180657969552836,-0.4672024587104943,-0.6636732822960357,-0.2577948248510599,-0.04743595765787237,-0.20213838996296632,-0.2729857438633054,-1.4983252922882961,-0.9532190372963251,-1.1027775900102315,-0.9333831271802594,-0.5167814978752756,-0.9253831762340389,0.8241728322875367,-0.82678295267849,-0.0984190836784684,-0.5244169771918543,-0.6345939937361897,-0.7923309873744643,0.2081917450299238,0.5983566644415138,0.0767442136069931,-0.8205451585951754,-1.1280566493657183,0.4731575775610987,0.1765452992728269,0.3742805389876905,0.2770374788631868,0.6006576610211072,0.6491086079639494,-0.4891854671399971,0.6710947106425629,0.5662632555149748,0.28155942428811725,-0.7174683169322633,-0.5518647585125341,-0.045676514647892866,-0.20535627187613092,-1.6061241032367857,-1.3235439381505376,-0.4524776555214162,-0.6555486630050672,0.6324379543539603,0.31092407090349305,0.9839463875650791,0.03311337296370335,-0.6077231314112167,-0.16404502683679711,-0.4203352889691269,0.40960067686969037,-1.1027892632031226,-0.3896064543952854,0.563073944167261,-0.35637812925084206,-0.7086141868929137,-0.49044507498699186,-0.041729389121870034,0.13839123514740975,1.465283219960836,1.3538261546899206,1.583343014507501,0.2600535615146951,-0.16398632827686577,-0.08807796731466432,-0.47537785980737074,-1.2575308783980454,-0.062150214389817694,0.048690168832422026,0.4994734938996915,0.8336040628204038,0.8766815423111197,-0.6784444874164651,-0.5800530468147209,-0.5722547886850463,0.5244680900694537,0.22987965297276033,0.83538440584499,0.08860517005225803,-0.31125392637285737,-0.4247721050780746,-0.6838471732434037,-0.534553826582932,0.06310403911036215,-1.1282902063551705,-1.3568549943191304,-0.3403224604000629,0.35728527959924544,0.6035002215307244,1.0424382238507157,0.7755658247299184,0.3436667812167773,0.4031853294474297,0.17275449381100486,-0.22572063963477226,-0.128623523231048,-1.1073342188186381,-0.054632566429369755,-0.44502000996493224,0.48715383596516526,-0.7080656560369464,-0.7689556026794432,0.73790689274477,-0.3718699424933006,-0.768637545813937,-0.13578470653566793,0.043483500990499024,0.2505957525356525,-0.6909436332628733,-0.20412151802467332,-0.008489661228324917,0.39432743558572947,-1.3798993387147485,-1.7009263981351523,-0.15885289301343167,0.34994830314003733,-0.48762191141684424,0.8051150645588258,1.1584722174664412,-0.17025028301405895,-0.6100420146011948,0.3419872007193846,-0.7870738180217832,-0.5439730646749904,-0.3822760622605115,0.6431471513970937,-0.7809678122650937,-0.05695057085663317,-0.8393768201237392,-0.037667401992069936,-1.0480995293069932,0.7091983043918358,1.2222461502400868,0.11387157972021725,-0.8839413864296074,0.5399538983020906,-0.37659751744975917,0.9440211358347639,0.6787854152638744,-1.2506930813932142,-1.8030112789897086,-0.18206761048553596,-0.12867277128794535,-1.6598686091613972,0.011908110075003666,-0.42501354435263444,1.4190722760137602,0.08375745539471818,-0.07301297993087716,-0.281887452950695,1.0930177097150209,-0.7844423070337915,0.006353234463660656,-0.2825247128899136,0.4034228433196725,0.6751824664625176,-0.19431776260440142,-0.7858281195507365,0.15211610996000327,-0.6657820464398708,0.5342964984762727,0.6867934298860611,-0.09908159629229028,0.15116959954610992,-0.20829619855870482,0.9186518410654481,-0.009502107036075874,-0.12988488299551917,-0.04112417034783336,-0.14231205316183426,-2.653700815176718,-2.135827768021524,-1.595978926877916,-0.8400232990782539,0.3217624378415296,1.490716333941295,0.7182601376643346,0.3811497567946039,-0.12085202974724642,0.06713271610378337,-0.9798175874621234,-0.3899346928670229,0.1815841124076781,0.9217756803818409,0.12993118081327495,-0.14152456621258794,-0.30422923730090307,0.510042006095397,-0.03922665591829267,0.6240195861969967,-0.8403852824397353,0.10624298812646141,-0.7140037232139053,0.33633441794288965,-0.6766779954700547,-1.7379626666431676,0.47166542993167415,-1.3026929075912368,-0.866236114952077,-1.7257266773326498,-1.2823680328113032,0.17022179867987056,0.25433884949464164,1.8744964197251925,-0.07817050287426501,0.9310672197331268,1.6323667351030005,1.2699875015617117,0.5798431353472264,-0.4662128614715174,-0.4084333049833533,0.6770959279302169,0.5419017218227363,-0.2122604443812946,0.5279482001200215,-0.4840798054695882,0.03376862582978653,-0.46519781747673444,1.2096113489197962,0.5854918418660133,0.9006112373693144,1.7280446023831768,0.7013525768797884,-0.0078102143791586925,0.07693557062989419,-1.8187754583615545,-1.8399360240555902,-2.8233400391064674,-1.8294667705870091,0.33043741494717954,1.7367672961904341,0.1585402672775152,0.013739363734362822,1.3885388945623494,1.591660411697055,0.9343249130743778,0.49962283514368316,0.36956641089132325,-0.5648114772766737,0.917495903701078,-0.3535555867306428,0.6957884569319358,0.3358300378052295,-0.3661225507435682,0.4103990247015419,0.7100018847367775,-0.0562510675403516,0.24840140453464532,-0.7058864344203508,0.13961954966683446,0.7882245005036606,0.8340846264647553,-0.02822078868283572,-1.6371196250712743,-1.4636228550563253,-1.63764818333768,0.08452691416431751,0.22100687046627807,2.1470466090959275,0.518231243989875,0.03777442056896281,-0.15330040813433496,-0.3939978733158473,0.47805215183010147,1.08230616024112,0.4077104640247822,0.593719632070535,-0.1768706533749905,0.7705898499230736,-0.11791877129391869,-0.43711067292761224,-0.8120865808823003,0.31312974977000635,0.9551321963140031,1.2377160589580114,0.3918962776241098,0.42074736345654545,0.697966591682532,0.24215615576509392,-0.7715410000339918,-1.8779959788962644,-1.3502951916617305,-1.2967714700939537,-0.3845126448444012,0.4922892450495799,1.2806719702640026,1.827208695246906,1.2071319437018704,0.25467504738073854,0.1570840652550631,0.2886109299741022,0.9563461638791574,0.656341670969748,0.6792434105370619,-0.077682504874004,-0.8460849016783042,-0.7068702384278785,0.7870075412128047,-0.9807136944000553,0.06867775291515152,-0.41797557559285536,0.6660122722616403,0.2174190799818523,0.11873115159979933,-0.0797392797781031,-0.19788493994557327,0.22591357854506863,-0.867499034616397,-1.4898607428730914,-0.3192873696657203,0.3321701938207552,1.3740281502601055,0.37093137516454916,0.5177316815378753,0.2894319521460447,1.356097367350509,-0.08185350570406455,1.0049304233438467,0.8947829274165009,-0.2711185117934159,0.15832850321088937,0.3544459687244218,0.5582977665494593,0.4514984864007774,0.3917434106837105,-0.62453557190326,0.17851376390922744,1.1868500187225055,0.285043618390218,0.7616927297891287,0.648547283638493,0.5149162920249984,0.9297511451808546,-0.7239435429432948,-0.5358424835600815,-1.6953010681954879,-1.011310640711882,-0.3587631479403649,1.966146600150134,1.2698644404610593,-0.41179970928035214,0.4595275403720871,-0.6405004501821357,0.9742413405885395,0.7941428775172515,1.501974785860183,-0.6944551982026577,-0.05135966841915537,0.6585354128388509,0.9988064540237355,-0.08989309963465962,0.8673807308647694,0.14042654628433193,0.45374680081587715,-0.8287746883309984,-0.4276127495623128,-0.6021615253054451,-0.1347260842855611,-0.4386834061625767,-1.2036352790613631,0.3868335647987001,0.83491576418919,0.10072683965470662,-0.32796548165007877,0.17813587652963175,0.9650138790220356,0.602947656024697,-0.41809087766485215,0.36088516795077086,0.6045984413024633,-1.2300587579455382,0.3345819479016232,0.8524847332678889,0.7924231705618449,-0.7276790818229426,0.01355507407350953,-0.08134706053779836,-0.01201518709638417,1.0048481012925161,-0.046788942000093064,-0.45069697890978005,-0.5752168594480919,0.021045441558453,-0.7660368515758058,-0.11420006461842906,-0.7388534746555269,-0.4829721707123757,0.10651910480818055,0.646356227687358,-0.41849843914520923,-0.7194981153192254,0.955604206681829,0.3121825137776362,0.5974679074394775,-0.007484558858934717,-1.184486989655148,-0.7998967888387085,-1.0502282828446567,0.03359641738945743,0.9981814431386914,0.5461020219075055,0.7325144541522598,0.5693166283242717,0.5695139160278998,0.06872982393407319,-0.3717589840516649,0.24304236446380914,-0.0708142162961054,0.20745489762345853,0.32172785198627973,0.1593654708111204,0.1277388867665207,0.4875784628280793,-1.1257764064523959,0.2077348388429776,0.3090532569674396,-0.547024788816804,0.7552897733827275,-0.4862837180652863,-0.7657815355068274,-0.07700219855609196,0.3471414616732923,-1.5881203979871037,0.23911303797121852,0.16579869857334228,0.01247734208019795,-0.5870298287814972,0.4586157555061434,-0.008591830760176512,1.0144099191383558,-0.5084320503352829,-0.8485337561047942,0.9579672649935941,0.5984865453948328,-0.20298342733177055,0.6204148254867281,0.1015596849296592,0.7784006715825212,0.6926572987246129,0.30749191199937304,-1.093932750621179,-0.919930265024107,0.06426701356787257,0.3278796101155756,-0.7086038154666398,1.3683075837907432,-0.08032664769253661,1.6444872475031878,-0.2164546528982944,-0.9783706312836628,-0.7887337226008909,-0.8644000395726215,-0.708937029059612,-0.5414271279458752,-0.19971366413289018,-0.37211416098736827,0.08744202504004832,0.595161110419821,0.43864222602080966,0.9653663980792112,0.924028394569145,0.7051382728467954,0.2044481113849213,0.583336480934129,-0.4073324355547782,0.936542423099227,-0.262019251806818,-0.675520082998724,-0.6630806214691671,0.37489701722783836,0.6471114318945749,1.1545169522932142,-0.08321452352689365,0.43609908175993506,0.9473059322959557,0.34640597886960445,0.09268137479561746,-0.7849719384205779,-0.9871726642145597,-0.7991343906003123,-2.0144751502834666,-1.2579840965808073,-1.9455542892409459,-1.5215072386872148,-0.3606176070230168,0.6093526549888129,0.458965885644011,1.0443325457720019,-0.09467484789039558,-0.22881382966365657,0.9387348017903269,-0.23001194705826267,0.4690821530667941,-0.37021469395430656,-1.0854749733231186,-0.8031901926893011,0.06222468909602725,0.2258594710460577,-0.19349284707595424,0.43146918459951317,-0.8533943041009807,-0.23287202477479077,0.14582762566498372,1.1005017093214218,-0.5678263225476735,-1.1082921247226494,0.041271488932116664,-2.0518856860740167,-1.6429928155782934,-1.9379162653310091,-1.013508719099553,-0.38860253721159116,-0.12771690782578052,1.346505167745481,0.07677880709415795,-0.12406409319251377,0.8067911404853778,0.2849928761740178,-0.9911354954511409,0.20591953924492268,-0.426088375926033,-0.5053733210893631,0.6110474756112307,-0.7548025407950409,-0.7677073226454979,-1.0196676769182318,-0.5755965854275397,-0.14022788464657782,-0.5288349865536465,0.819779772126163,0.6814268227125957,1.455034706474526,0.12964418560152816,-0.11827964739582209,-0.890921155236865,-1.6002674310632343,-0.22295697671154355,-0.6155754073911763,-0.7259159640448133,-0.3408811433894607,-0.4005027929945874,-0.5292580737281817,0.9037790744047706,1.0154119073736556,-0.6044623875205146,-0.1250551663350916,-0.8612553360078543,0.07548474481537282,0.12878037250160101,0.8536275249291589,-0.4606588907042775,-0.8653576260138653,0.21087080624408516,0.3762083993373455,1.21867385431082,0.5611059971073893,0.8792802579282196,0.21954341665938254,0.5943671193549764,0.74888581434266,-0.4204656357440403,-0.9707598946910212,-0.5478325106382205,-1.4882217671274496,-0.5052029076380934,0.8146744128032316,0.1425741242681819,-0.008145644118806222,-0.07360663475253071,0.32840817250896803,-0.26848476596119736,0.009022347721723152,0.9004316793027153,0.2702112927383079,-0.21342463281443225,0.5000801144415337,0.004563603761088775,0.4883205872839058,-0.823716317374728,-0.3099043934827879,-0.7039340301586423,-0.646340412160694,0.30945981032378717,0.7780702718279424,0.3224693205639856,1.0844855089661107,1.2441261832199448,1.4468854228667722,0.217925429495389,0.7869865203414156,-0.5693451824081055,-0.33003521229947347,0.2628218357022579,0.08840091842104329,-0.9355291719127771,-0.4009717191540235,-0.1537994062283614,-0.13332556965777087,-0.0874960576547326,-0.803626811163718,-0.835126128736743,0.9136094984329737,0.34132511388309217,-0.47262260620265106,-0.05080638704098561,-0.5770797609714808,0.8904504167405474,0.48651755573635685,-0.9517378914639325,0.14537244039270592,0.899154928426591,-0.8070853473489588,0.159654434803828,0.3205833129569632,-0.860233370032829,0.2848044943884702,0.9770809205650735,0.6151242613671604,-0.1386322610735721,0.2805343530308229,-0.5981360183959208,-0.13221643257164456,0.19258134967849277,-0.6853937502287623,-0.11113922871585966,0.7095861148066858,-0.35858469565040424,-0.38757758775550544,-0.6472336788058586,-0.5824407728285208],[-0.04931249951511921,-0.533986457256916,0.8335525176063991,-0.2851229807458524,0.6015921795639967,0.19675447017250036,0.3820044740935926,0.5530421575559323,-0.2326443008237633,-0.7923398628830269,-0.517251426911947,-0.5337924687681208,0.82843349540821,0.8652272640035615,0.6371461624205199,0.4908200513773573,-0.7547972057867257,0.7130756468436537,-0.1176307901413729,0.5212067151509587,-0.9936695820336783,0.7041802633156737,0.16303498875553446,-0.8192617056246085,0.7654200513105005,0.10424887716129394,-0.26666255155771346,-0.04010804522903921,-0.3087662463296068,0.624241096203451,-0.08112290314987414,0.7063957155390308,-0.41944720808093905,0.5120482444966469,-0.910330041912336,0.15670246960395265,-0.6921892224627717,0.13244519884680153,0.6573876268803601,0.6650433603493757,0.1362275703033488,-0.4986679736882788,0.06059736257305833,-0.3132731820596855,-0.03471214264683542,0.09625292247914252,-0.46052858048830836,-0.81676672698083,0.2775188949243279,-0.45179758419050176,0.23139434414216445,-0.012922153883338823,0.03045182622331685,0.5596046994229091,0.33689449664690585,0.7475802181833262,0.034326300763854345,-0.09331531836353602,-0.9442029080280396,0.6489644181671448,-0.41931353677986877,0.7979906205958365,0.20588087796994514,-0.8030914095451419,0.3010169550290088,0.880055290562681,0.8060056528275699,0.5413403504735014,0.6133243136453932,-0.10760251900425846,-1.025474461450373,-0.0896033789289325,-0.8061093425817122,-1.0583264286245793,-1.0167411355954885,0.002260447647940316,-0.588904605303995,-0.9398449768819046,-0.5940887406828063,0.4361391634532572,-0.58459770294224,0.00862833191587551,-0.7275057374694475,-0.985724055420953,-0.5205492749644387,0.3497294339417474,-0.3767142609183298,0.6210944005856962,-0.6019594441008517,-0.3817999784585785,-0.067415707807357,-0.15579686413862792,0.3629970385180891,0.1685718157486755,0.7374788406584578,0.8155752372636498,0.7808164948568088,-0.30485495081108,0.37683293313009475,-0.8136303347967766,-0.2952743700814548,-1.535822107044454,0.15620104444031874,-1.65188939664019,-1.34076197921838,-1.3139771217877299,-0.22819772372077946,0.14083338650458357,-0.024126041041685066,0.7732718298716004,0.10066269704440692,-0.7021276092076456,0.05465273380533331,-0.5019651359176343,-0.5629903143734237,0.11980446177452928,-0.8144518090931011,-0.830538133993505,-0.5139870025416872,0.22149668762777183,-0.8546483808445325,0.523628224079781,0.12112649930423706,-0.3728698629276998,-0.6473032849257533,1.0073895265031652,0.16526036404696703,-0.6795930379862588,-0.4984752824251007,-1.3522375902681678,-0.7532018217888323,0.45615036782030727,-0.8003619680028246,-1.185602916889453,-0.7879649974113976,-1.1736637075912828,-0.8231813834978903,-0.6139511940673448,1.0091290642204087,-0.0037550898099961154,0.8958638640515572,-0.9682084408847231,0.7295527855528157,0.6055770521878363,0.9546605637987192,-0.40101706987324864,0.5536332566466304,-0.707887454015099,0.06668385536681307,1.0509232707843728,-0.16686932464324747,-0.26055589675749674,0.9975883262765121,-0.6285589294177724,0.2043258674004461,-0.06878367098731707,-0.4871849234388498,0.9445241023569994,0.9597629588831809,-0.10032770034760262,-1.3383470233556323,-0.47591569088927904,0.2106186490267639,-0.8600245543696777,0.19845273891504636,-0.6634046377804341,0.751931229178201,0.7241675341619342,0.754586600227984,0.1024588472947987,0.532225440231493,0.6992915247553689,0.24555755990811912,-0.5507279890818575,-0.12818129408718132,0.2115479333169196,0.1804615978260804,0.41935702636071076,-0.5064128133605615,-0.7494256805939332,0.626560600557628,-0.7795279821882865,0.07706728367275992,0.8104513892717006,-0.3909143419437633,-0.36088330714794187,-0.5760581633324647,-0.9336092021268538,-0.25360416649244266,-0.07867207640845213,0.6077350069620778,0.9520473823509048,-0.5323938403567049,0.15618273192652907,-0.990212253113002,-0.5791963086837344,0.22604671911603957,-0.5179920506903026,-0.7117393572708567,0.8334250550782725,-0.2222495389371268,0.8178806920513947,0.2000518446081856,0.15094273451466556,-0.6790770730554861,-0.9787375368427578,-0.41909467422056956,0.8614295730041645,0.21171863519085068,-0.6830162761088867,-0.3644641812600173,-1.1301392417463327,0.9531007026527859,-0.058882443031470784,0.5290966723851864,0.5742145029923134,-0.5588178910462214,0.7250863687782723,0.7412401473374618,0.2096997487662315,-0.5016640455188546,-0.9041204828133634,0.4653709778638673,0.20230568003256094,-0.28186563589559294,0.4944041924618729,-0.936214049017454,-0.06681571582569333,0.5732569513768689,0.6160679530237412,0.7699000428842743,0.6977620341097783,-1.161994803185147,-0.8241116183068986,0.8202992467020651,-0.02629582347179648,-1.3196421380642085,-0.948503315159571,0.33704810125186324,0.16259804717522455,-0.5688581789520611,0.6447810795038204,-0.522409418025372,0.8857811424698087,-0.5117472676110796,0.6750619862375016,-0.8834480256848312,-0.811200999875204,0.24464823816410447,-0.5772302965498829,-0.3468681770583037,0.11430191421597716,0.4472520126844256,-0.3017136499500523,-0.47870206004206756,-0.4970183984744297,0.24820214418972916,-0.40372332160171337,-0.42055870442619303,-0.9733939942095509,-1.0977097613916165,-0.6464638737484109,-0.24286674994121688,-0.2525430922227087,-1.5652653148324807,-0.683886589231916,0.31073994104233327,-1.4036845347606461,-0.13206460685536056,0.6285251050333392,0.708146797555708,2.0093618321423863,1.52555752760824,-0.1535096265543586,-0.612628112244847,-2.059585178115038,-0.8911638374402403,-1.6018809533711234,-0.5218030588409648,0.6543087132242251,0.5742365968418909,-0.8864445781511575,-0.4966806881567463,0.49733393479689425,0.11688058220255401,-0.7549322299562167,0.49389676254478915,-0.05608032242568757,1.2733891774338788,1.2424871541669273,0.36925768899807565,0.27739627210772966,-0.5408009943808887,-0.2572123555255871,-1.0733335772897934,-1.2062299897563005,-0.9220201351498268,-1.0714801393374271,0.7955981870644564,2.2507767542398995,1.2320163358879928,1.6206585088779788,-0.03160188624662266,-1.3223179361634634,-2.0813554428217635,-1.0797534220613934,-1.1958925179277462,-0.32368010726549684,-0.6667412647673031,0.4541442858815782,-0.11940193147331034,0.7464658913457042,-0.0019856368821950447,-0.7997923720093751,0.09646818014516671,0.3894233730221709,-0.3862112808482037,-0.2479166739363956,-0.6552706197946558,0.5645026251103614,0.6613554443518544,0.9782635308650542,0.15091766368963033,-1.8069049291051238,-2.1852253054830184,-0.43657487800858924,0.2838431443299815,1.846130079524548,2.7064467012268114,0.7429185088923248,1.1846017271376168,-0.07213258799871386,-0.9117202535289557,-0.4267407547658641,-1.1903246716381166,0.8321666501447214,0.3067412562614575,0.22967667743374948,0.15116657773264272,-0.4722181429589863,-0.5360367413732308,0.8480959954665338,0.7565801824314723,-0.2633303412991144,0.9264138278747495,0.700641399040653,0.4014698387042822,0.3048615118448795,-0.8544825216110518,-0.29033060795481674,-0.5997911548434962,-1.1164242724020665,-1.465621059396542,-1.7197095070108634,0.262473373931048,1.1944935912882708,2.125998247988235,1.0683333156870993,1.5715938627628665,-0.4378553825410773,-1.7018075817790523,0.17668199712968946,0.5917146106919962,-0.8640494087317101,0.9523577036928821,0.2043200682059907,0.7613076468506089,0.5746307597759346,-0.29988978586677034,1.0662231680093173,0.6579297371289372,0.5473706759037467,0.9337426991608552,0.9967998128774099,0.09776766072458275,0.22932918905903787,-1.3534991586823661,-0.3455724514331228,-0.6666130005446611,-0.6148230614157356,-0.7267264039294634,-1.4745051449278739,0.32989330682305107,1.5426498564740947,1.3859152628052196,1.392039915471266,1.5711915152919733,-0.6071965048753278,-1.691491770443257,-1.1977256273320354,-0.5583590349795807,0.3694921432546018,0.903741840346396,-0.35309677227951786,-0.17752899416663737,-0.5446412899919134,-0.9357203279362172,-0.30339490799270946,0.09550305243889262,0.016278123777374757,1.1442898703885993,0.1957204793498104,0.7558195703921909,0.09321384899337468,-1.2031958354483234,0.10734707462022179,-0.2655589784607877,-1.4612786555186854,-1.3270060008905022,-0.4023740622340276,0.5943538118002796,2.0781724976602027,1.822185394588501,1.161350404645547,-0.6260499588087842,-0.2886932727619336,0.2113710757152785,0.7338006941406502,-0.09117908032360549,0.27777388386865937,-0.5489335290908178,0.2633947533836413,0.6947696242841235,0.12813373277762882,-0.1354793254414833,0.10432424972514964,0.5007827762116993,-0.760553280751128,0.6551587328765427,0.49818508883396334,0.06570320348317096,0.32417536990236706,-0.6957936377416016,-1.0583195972509083,-1.3372470313708948,-1.0088734461448514,0.17603755329855966,-0.14158364161940076,1.8254743241996956,2.0588735314429694,1.460595896481301,0.8650835300557332,0.43283570475306904,-0.29625224327228233,-0.6578402202244465,0.9357403487692001,0.4392055288430978,0.7580545551700051,-0.16331323586248486,-0.8470599010860156,-1.0017789177880347,0.49852928588609113,0.28743386164651213,0.47542089816941846,-1.3039704852489997,0.3323149646346439,0.15586037804867667,1.2213591663030343,0.7920297421343674,-0.43694860894353654,0.7484368572246285,-1.4161898708010607,0.29694932880480107,0.34941839430133376,1.6941884425559661,1.5775250333779611,2.5098762637748617,1.8416273999787927,0.6084090855241665,-0.38433045823221235,-0.3642954094390255,-0.6542908785406373,0.12631363236559764,0.026643317676508047,0.582755876681404,-0.7077644176556529,0.15422753616136073,-0.6170147187021815,0.3170770245722525,-0.24175748730485638,0.18560825527121397,0.19016904911616248,0.3857596940490003,-0.08139242180855223,0.33998868193623677,0.8933354269779444,0.8822006003906541,-1.4334078271386568,-0.7021171709188581,0.15648598121937837,-0.9627387994052291,0.5067236961738538,1.4695690848887768,1.9025625447339316,1.4478783442427685,0.5821168686007172,0.2257519688029666,-0.8125918936341182,0.4278049601638084,0.4837411718274558,-1.4742160334234349,0.2539937781252806,0.8451585597702317,-0.4684613684330898,0.4908718906044077,-0.9601222858319935,0.4331325003356717,-0.16174321768409294,-0.9094602381041155,-0.5472111267251356,-1.0158946153918833,-0.27051148170072636,-0.10972591406734078,0.7455380482507679,-0.19929274270672062,0.039755284950671155,-0.6676107020530881,0.8417127317125049,-0.06543660298147105,-0.01714532353941144,0.36415037889543145,1.004273726378473,-0.08341759071977552,-0.3989521355574636,-1.3802109282352266,-0.324652022060188,-0.4418118063256026,0.45096991000848763,-0.28504617306478025,-0.2389968454492648,0.5440696667705662,-0.7118424950915566,0.8664721842139737,-0.44724399790053826,-0.6417410844579314,-0.24707757129570598,0.1599836204712202,-0.3965823602016117,0.2888773780781747,-0.5538966021152459,-1.292746165838396,-0.00999890225295692,-0.5415676512024326,0.28485943962152505,0.35270530423161073,0.6710392716317752,-1.160138758010357,-1.135013703665223,-0.32645845029795884,0.16299854500620803,-0.31766651935289253,0.1427776341868588,-0.6136423167015927,-0.042530604489856655,-0.26566591315040805,-0.5274479340344294,-0.374465943350897,0.7385626188490167,-0.4209523821916091,0.09143824597678811,0.7299267250464411,-0.30658672936543807,-0.7144030252754223,-0.015364639302239582,0.2738159787413036,-1.103419531595037,-0.29356187030954684,-1.039156192688112,-0.3763614206793475,-0.48469161237844427,-0.5337679044111426,0.35989368213070627,0.6978523875519685,-0.9817087916388721,-1.8478850151951427,-2.216961936356538,-0.9689099943442685,-1.1583244952472438,0.005470941685279916,-0.563539897336443,-1.0944611125963368,-0.6383947855582793,-0.003688265126814663,-0.16384664500513244,-0.6833922212900521,-0.28708056229528855,0.16531353457836667,0.7404749685071936,-0.20025842907497104,-0.7104030561775638,0.8685154529651351,0.00033864121857755047,-0.1443490826595704,-0.9517867129635015,0.41695464130781534,-0.2122519283639578,-0.8671281944620108,-1.7668408047355697,-0.5130329716656807,-1.0142021610010932,0.7713881274624104,-1.7170620059351998,-1.532488138719286,-1.3382895020858963,-0.8342949432962944,0.6622510569328008,-0.6221944659189211,0.6168698610535487,0.5137590107000426,0.4713333175390252,0.22910347440458628,-1.0398438125467147,-0.2148636346374409,0.5370480301881692,-0.33284592625373566,-0.9487895057262918,0.49987021880650134,0.9367035151747941,-0.952722850834778,-0.06817998141717851,0.35743602229217847,-0.0061820115755428845,1.2284343203378092,1.2420159051416533,-0.6154458733074855,0.5520291621231571,0.39590395319138616,0.46845712032819814,-0.15851921106346964,-0.3046461577102683,-0.26479582327671386,-1.9538851868163438,-1.0413179874697327,0.07974263091223069,-0.4497098327637071,-0.4077777892739137,-0.15405302768525306,-0.5656531053383688,0.8278800708437077,0.02625439026228303,-0.19503621063695648,-0.6412735028725844,-0.4671422108159552,-0.13771953790136746,0.024755265985157798,-0.47330148696601526,0.8214135555585727,0.10706765230936816,-1.199125191085806,-0.04382144321473309,-0.8354500388280645,0.2678432733471819,0.3527462760483256,0.5400543356522697,0.939698203582752,0.4094185572113596,0.5638579558788747,-0.47896812575813597,-1.0156541561344121,-0.5757550557578923,-0.5071768249306483,-0.21747022012378892,0.30779046051469733,-1.4682806029150517,-0.2248667394501581,-0.1884499817060114,0.2103335331380637,-0.8080644554183168,-0.2648915338708316,0.8869172713211507,0.88001744351791,0.9589129248268142,-0.1991993311782223,-0.997604701256503,-0.4955055356343374,0.1618837591840989,0.6341276276739116,-0.21608271044039692,-0.8096697811484176,-0.5539793671621743,0.7026057641502703,-0.17696661204686956,-0.331793307337056,-1.2697259468591804,-1.312792888013383,-0.2017790465710724,-1.0716539916514327,-1.6208039793064142,-0.030233904515120532,-0.7211509070843413,-1.1448210688241456,0.05233394870913037,-0.7971010325178701,0.32913640540882916,0.7907781698510106,0.8459933028398225,-0.160153721350397,-1.0290272794943893,-0.6478757247793137,0.5035828100517741,0.5409365025233099,-0.08818901899647402,0.2999317868930449,0.9167232652541314,-0.31088939857974274,-0.7257619669258424,0.7080653250165878,-0.5308410753475532,0.20790949099051567,0.78161883891591,1.047999845049609,0.497397676083702,-0.8894303662534278,-0.2827838081955999,-0.5008286324983381,-0.1790603178396927,-0.4970246258711331,-1.0242166194789604,-0.903788858071543,0.18420803246130574,-0.5393518196268613,0.14864895574754355,-0.3754262631311553,-0.2091338771210226,-0.2510275171415531,-0.9974440666254917,0.8653908316326026,0.012166811863366038,0.7335418921316381,0.026840179262935138,-0.6538986090784058,0.12436941339345964,-0.7510585649694175,0.7377060805802289,0.7358753593077063,-0.7647056810682867,-0.8379495346038307,-0.11016031988128792,0.9452733643442305,0.007038729665922987,-0.8717618470670826,-0.3541659273608593,1.2862884419983456,0.5966406795874092,0.8769137873156171,0.6306052520013065,-0.28559216105042595,-0.3436416575414247,-0.3362890528838989,0.12375737510105708,0.20770659815725165,-0.968129072906222,-0.6714889973022223,0.44551797244507646,-0.989304882722374,0.5273336126862325,-0.4351109169075489,0.44633226289005323,-0.08136856092123601,-0.9802656637544276,-0.507445268219676,-0.8522003087369753,-0.17296786232802805,-0.18147224167570356,-0.5230646884321845,0.70488286815411,0.7579658886833681,-0.7288057023327472,0.40071844386127853,0.7249435962402396,0.9880535715657909,-0.44985871523865684,-0.6651681688259408,-0.5262011419587721,-0.9117905502736934,-0.5950280809760035,-0.05623108952369556,0.5675021905130758,0.5330137639895445,-0.07996893256088194,-0.5904162468721937,-0.10012502872898787,0.37358162605941914,-0.4287472759597395],[-0.2668648952979917,-0.2950918569813905,-0.34907213902436895,-0.657204118981833,-0.8486505933744808,0.6824009268571425,0.49686061928062175,-0.4472691579790191,0.18226896081672717,-0.03876717864953605,-0.5841427208815442,0.4311318333351153,0.8885797147273635,-0.9988458117775569,-0.8629477749322666,-0.3022441284152532,-0.6104581523978028,0.41313334969984217,0.2729967011112491,-0.08173766396944782,-0.4822836916537767,-0.6708452422872693,-0.5368746936920057,0.6664649882904947,0.16891252584018313,0.8962413542048511,-0.5684596746200357,-0.6881840504455456,-0.8230533539786644,-0.627572746117731,0.8424553450606296,0.26937351191223957,-0.5555869477761144,0.5354408871280906,0.29924723191548924,-0.6443258091609847,-0.4344984435080546,0.26984509713621185,0.7299797714226492,-0.5627160758211738,-0.8930060277521943,0.1641570635809987,0.4520595215693447,-0.6806815410886807,-0.9804393630032859,-0.2223435766874377,-0.043404464816733414,0.306092256094647,-0.8565431308031798,-0.8676537794350351,0.12644089500652247,0.7555560772456898,-0.7784491135402063,0.04236709473247746,-0.9077964844719064,0.9794834740420466,0.3425391589218525,-0.2592337053842879,0.4395991091643996,0.018384706776702547,-0.1873729870031587,0.48871689105480315,-0.1069994972875837,-0.8389520358958645,-0.05620022016399968,0.17022838172029137,-0.2790172437157506,0.4703516388334851,-0.3157986771106539,0.03134948821701059,0.9777513276146018,0.7674568875991898,-0.5295968838385671,0.3396621532522848,0.2502131352199755,-0.5312726900459692,0.7691092439406346,-0.6743329568835393,-0.7217892685631926,0.23635486835879332,-0.7682482838094228,-0.42251922165046346,0.5915436151316946,-0.5993304973016871,0.28706654557212463,-0.9137607542867956,-0.19962792678512953,0.28590506413548067,-0.31765157067242566,-1.000663677018753,-0.13012266574421025,0.04649415152039445,0.044119256907085846,0.6601355113648799,1.0309574351492234,-0.6602598167001908,-0.12466818925744634,-0.8663550900133679,0.22583584761462672,0.070931171067861,-0.7768173137940324,-0.84038962023203,0.715546347563693,0.4271088116370489,-0.5996153426289692,0.18936743280276291,-0.6233758973231276,-0.694558118923729,-0.6336197343985163,-0.7740653136414606,-0.4723541824941933,0.36674415889731155,-0.974418895107755,0.7971163500950245,0.9413906628936743,0.6408281442537502,-0.7917993582198369,0.1476583883551944,0.5738568936674926,1.0792952021708908,1.1784133912073118,0.2792660987698905,-0.03745712136430715,0.8634128646481231,0.2200250172047478,-0.7525009793769664,0.43997678533033807,-1.3851584440423605,-0.06458023413134747,-0.14930493622844268,0.15723937309709354,-0.03953228867515286,-0.38333302353889687,0.08448905804305268,0.4891660706963469,-0.7264585703274494,0.44154996238432803,0.835483360457608,-0.7942556697583412,-0.04809260502019186,-0.8462192200317313,0.24370073273108517,0.07757044345790653,0.4265169047536944,-0.08143577781009148,0.28016165821016936,-0.4980905513510646,0.43693168657788184,0.02237979293778168,0.26043380863943644,0.1423317168603574,-0.2418578250971515,-0.7622680940573339,-1.067687140456846,-0.7493586075692268,-1.0680203682968814,0.5743129302765315,0.0681186501208644,0.5370582164122313,-0.11456646327384445,0.39315826572495016,-0.5547450613425533,-0.5538342682383123,-0.37748841454622073,-0.5490790953235184,-1.0386882957430321,-0.6985246120675186,-0.17614290841247024,0.04358275501778336,0.9545598240257971,0.20776230586554076,-0.6663939770171656,-1.032503459880012,0.6401116331699631,0.13477451765404852,-0.4580265264074692,-0.9218658666724198,-0.36731413002446417,-0.7381605116655962,-0.5708707147442278,-0.03516625618555454,-0.33361014056879856,-0.3509511073682969,-0.36627739236292955,0.8941245686819314,-0.4025263576060946,-0.7686812322661559,0.7893203334099282,-0.027977492740423895,0.4310033020485218,-0.8847923224536,-0.092249078050517,-0.7670905139476172,-0.505506304133278,-0.6327312776104081,0.21125248740194685,0.586223133557782,-0.6061945622848707,-0.7591035261121846,0.2596190394060604,0.20071004152169444,0.21752193668350236,0.4201199166729078,-1.3701463219610144,-1.314957538346749,-0.9937523385457503,0.36763139257993144,0.032025686792313816,0.31131731622049297,0.6512428085536721,0.9973040083427858,0.19989791224337441,0.060701202940294366,-1.082329743886864,-0.6393538987706152,-1.472682276384861,-0.21670975815665386,-0.874949233013977,0.2735257807233655,-0.8021101545029615,-0.023239843786109774,0.2803926685010417,-0.7798374847598678,0.13324469333295244,0.3873811060783683,0.5518153031157532,-0.7205579802195967,-0.5338416214276962,0.7604274710735008,-1.0674614128761102,0.5960577139705159,0.517487266065885,-0.658054732160911,0.569842083735611,-0.06722673537267557,0.6537586469951585,2.4369137134026992,0.8580032571946032,0.48339635713402046,-0.9457683048618237,-0.07337727811732257,-1.7743885854171688,-1.263208221886,-0.2812703550890298,-1.0086679500759845,0.2780762731955337,-0.9421089895803527,-0.6900330901807704,-1.2918257357114211,-0.26345562544277057,-0.9351782082790402,-0.4161122221413271,-0.17065960480693823,0.21897175376103728,0.7965737095897457,0.3737552005515268,0.30361529552978433,-0.3773458256761854,-0.8554824757045189,0.2758910964764397,-1.1961756135701873,0.2815153391779046,0.8749063156837651,1.454910182507371,0.2995497688506985,0.8587605530723725,0.12057770558006752,-0.5007867139648406,0.0012227625419776078,-0.6537147673316905,0.39698784854232627,0.06539056096154715,0.5854040457542546,0.9992178503097205,-1.0266681326014322,-0.019238339325452828,-0.659116671852522,-0.7078962606790294,0.44019975626646296,0.14269815167545458,0.8468133847965229,0.9790278942919461,-0.2618558941632742,-0.2472451943559663,-0.1995174141289154,0.2705292830428658,0.02683370746633871,0.7901945743374185,0.976636500733301,0.47012039467733713,2.3124182704147582,0.13799178910055032,0.3810857748435897,-0.09223215921496208,-2.1634919850150123,-1.452030813790022,-0.44457771156570053,-0.3715693937893975,1.366697785153844,0.370725589190634,0.1371697372955498,0.5223035286935246,0.44796134592494363,-1.182759355518795,-1.0164858566392263,-0.4382907807943919,0.5471872352693962,-0.6685405922729598,-0.0302709494514571,-0.31787069225953796,-0.7146463700684729,0.5783633780924229,0.6985453346067797,-0.3883077998788662,-0.7097948291070544,0.9191244454416546,0.9765116570427016,0.6394388843038035,0.8874575486721535,0.20548808390904605,-1.2449770505115212,-1.9400324542104073,-2.08791275064411,-1.0996262949066669,-0.8094341839917666,-0.281600895410943,1.8136331177158693,0.19778821876602076,-0.06989255608164897,0.10689307831655248,0.599891628340848,-0.2950637081905669,-0.9299421045355152,0.5761428707035201,0.17713720435535257,-0.8920800944261235,0.6053126929118895,0.6657643640114608,0.06433269159534753,-0.5166358945071565,-0.17793445815113917,-0.3497880535216558,-0.21575389973642087,-0.0841820652332587,-0.5491608736130019,0.6368377826803815,-0.05731579336724881,-1.8754636161737115,-2.834096672813515,-1.0563689563782515,-0.18471045884960338,-0.7354474607414551,-0.4252825174093653,-0.379838379977897,0.8289931050229589,0.8023123087727,0.06298191419442614,1.1949139148357049,-0.407251392742541,1.0852867084628308,0.8177334107943269,0.7696509200756688,-0.6153826135588467,0.680121026723279,0.20883448476935368,-0.2552900101419138,0.9683470198789904,0.3013178617697545,-0.1880416752999068,-0.4819009498125324,0.146747608011235,-1.2786801845441393,-0.7331887577341301,-0.31325006916456405,-0.886872806922294,-1.3840752644236312,-1.1424883192541688,-1.423132061439789,0.24100718611323485,0.4450516824916593,0.0687237950426828,-0.73171002426412,1.3763846402283268,-0.2775720112117979,0.7810914445545712,1.1034081159277394,-0.6600832620692868,-0.8855629179512673,-0.7306845646018705,-0.47127432335371566,0.6583886961766268,-0.3634788908736513,0.6168597147463231,-0.836158858304669,0.1523081770259321,0.5932730635899685,-0.37199771847072616,0.1796440295863176,0.1653881084248965,0.013264724971028336,1.0236501433673642,-0.9572104389602045,-1.2898787089135837,-0.044439222544310264,0.13055686328156582,-0.13951619987108216,0.448417020580649,-0.2944671718149623,0.5019924484042579,-0.1823535694250933,0.5757617325536887,0.7621494176110882,-0.27166692033554923,-0.5528915022550792,-0.8962679765943956,0.06327280930995965,0.06775880885545346,-0.9725545366614806,0.9814377221783088,-0.3759306851889305,0.08617904065437779,-0.4903095228139159,-0.8075970514793445,0.3069397305012808,-0.08999560637203527,-0.5425838358801736,-1.1320707257145974,-0.7442741803432056,0.11220272175013762,-0.6878624201631287,-1.0177261836929918,-0.2634399682131749,0.5202571829558833,0.1058007179137255,-0.6654579928215445,-0.784999017623058,-0.3178229426394651,-0.46676307603139205,0.8784728530164392,0.29812570241168024,0.33637626948824445,0.5926095164628132,-0.6799698141939406,-0.6074244113073324,-0.0106551092856849,-0.6880096359972276,0.5822701155737294,-0.48421377966214707,-0.7993830621503174,0.9846836050893046,0.11615335633641631,-0.6203969129810953,0.0243799035966569,-0.6837082727733286,-0.42072344119967114,-0.03711071122704513,-0.03561020418726789,-0.32834710852360494,-1.116997996095248,-0.2955589189949475,-0.19292476786640952,0.44146073083426446,0.8607455127264538,-0.20499934412835663,-1.5527577302103637,0.33859668843775964,0.3870055720746185,-0.5088814650942953,0.8624377091456598,-0.7376548543688536,-1.1431807709557957,-0.6398161117754086,-1.3442485128010886,0.23493444347326567,-0.3777509229439516,0.14209095293778384,-0.9531708632503402,-0.7154837369697074,0.8504007425288642,0.9945250386386526,-0.36122753820321296,0.9699323064890543,0.47804941628745334,-0.9787127160764485,-0.9648634112551674,-0.40914229936667706,-0.45743475003256295,0.44863775373730386,1.153950995967264,1.396924280549787,0.13587874125048954,0.0009773314350463459,-0.4807678206492443,-0.5738506469221472,1.0722811181966234,-0.6050754622521575,0.006142886917133406,-1.3171929733645198,0.2601693145841045,-1.2351907259220662,-0.9150133863100435,0.144058817622843,0.11066799806779501,-0.3341987395564722,0.023620149089423344,0.7592136972803395,0.2375751814490411,0.9740933516901976,-0.2811046260969998,1.0694847691938658,0.6064521318908155,0.4112348985533622,1.0972954669525592,1.0969106431977143,-0.613170690210248,-0.5903992045454388,0.23438798536084096,1.8181350738567847,0.8294055532198896,-0.4818112298394559,0.23834547245420049,0.4202862498210146,0.7294548506947945,-0.28565553487594164,-0.6951353285913581,-1.1103448718473339,-0.49522246328923747,0.3571320898994279,0.756690385652454,-0.48748873363743855,-0.3959104137454844,-0.6763978743840381,-0.91126282113607,0.3416355910338269,0.5144956198707511,-0.8679202439319215,1.0612042300492337,-0.22133490430200162,1.181693738417803,-0.6125268234916883,0.10305888066320018,0.7665967255698686,0.10794019638147179,-1.3885948516717552,-0.47213363815793236,-0.4461454081819371,0.8019682309816408,0.04607180228955215,0.7898891597879396,0.7249705107147257,-0.04363300656109181,0.18320349448601972,-0.04989967468373176,0.056701574228740975,0.5380430464006498,0.24444362527966515,-0.6968282312625442,1.0451866373071128,-0.2589095492730466,-0.8131611263128153,0.3536390327967532,-0.3269286329501875,-0.0516523266871542,-0.27993943430436186,0.9467108413372565,0.7555932970004314,1.320950762101715,0.7443374885731835,0.7134481243494075,0.6218111555715999,0.6056687613499886,0.21415759462939887,-0.5156165559206658,-0.7953520108823087,-0.4166153192549364,0.18122174768626226,0.8181599946442332,0.8903170474717598,0.09665669505929961,0.511835073560538,-0.2739449278105065,0.6540795389077642,-0.614516848078756,0.0396527535082889,0.6135835895048322,-0.18147383844059983,0.5665631187387118,0.8111816388360472,-0.3901654485760153,-0.8650413239796375,0.7045029752930931,-0.8365870977840312,1.2107847144367065,0.4703278251232753,0.9891556290292733,0.7765943087851143,1.5648646614927584,-0.7606794648134159,-0.9336431753237961,0.011707634873199795,-0.20962800165735182,-0.5630550179078413,-1.086753190728506,0.14590264013691806,-0.6656015191838655,0.7263561421283019,0.13306288222943813,1.320245315178725,-0.5564811803050601,0.24787507043561585,-0.04534254659773313,-0.32166471264989105,1.2862872192259789,-0.8601621030146781,-0.04656000822213698,0.6210499119616683,-0.680044277757264,0.14386664542546576,-0.2696267886560637,-0.9477315438760245,0.31795557164858085,-0.2547403297019309,-0.2400666011583289,-0.7388640167072991,0.10811261569197926,-0.3256719466145243,-0.3611027790137986,-1.1244035602769242,-0.2799196787670004,-1.270551768595122,0.22749668292893674,0.30245983341565924,0.6907131700754585,-0.23906883610548216,0.654933215915384,1.1471623285485235,1.123308434026342,0.9759971727988613,-0.11456682509749742,0.8545353662621074,-0.712169506251065,-0.6079581708266648,-0.11250085547551207,-0.02162782181276623,-0.33779805283015674,0.5313124485126077,-0.9534934561719672,0.7832474144622993,-0.5242650267566381,0.6474236278545802,0.05416645694250286,-0.9818654878823442,0.39668861296155106,-0.3528379806876595,-0.39344541950400375,0.2796065755800818,-1.1588324055226138,-1.0731337153355878,-0.8555145319115033,-0.9619085073071358,0.9260678377625415,-0.364897026361487,-1.039771390587212,0.47207201801166515,0.05847132601012915,1.1349867166384304,1.310129769938676,1.1216042519801783,0.06795683474693132,-0.7513856055796291,-0.02311476175370051,0.923380977820609,-0.2340162075733061,0.03363968466011347,0.20005547988179861,0.2829430626610817,0.49195590116056903,-0.1353883845687344,-0.35584546646098786,-0.14932762064241853,-0.5436615886033521,-0.6384074738354859,-0.5992133763863715,-0.9278476780222179,-0.3907635021081196,-1.1127957242640425,0.018015021017949384,0.4459280316411663,-0.17718144949660183,0.42901965627711053,-0.06973499921011658,0.001529901571208585,0.8920153850428338,0.1525621719259751,0.6125086272900874,-0.022411334956938124,0.18734137476302642,0.3859603907719848,-0.501004484125214,0.9146120976152641,-0.3010798480386234,-0.012776654696739165,0.31852115684245197,-0.1738521233072021,-0.3318251954203212,0.013698592189889863,0.6583117305078626,0.2879256859311714,-1.1583572530228077,-0.8036377522161865,0.5018942364668185,-1.0101012226541373,-0.6650489062242645,-0.4857502271084727,0.4891888990756803,1.1241190362576612,-0.19328816869417478,0.7280765219791058,0.3176256978394877,-0.12834377793114904,0.11328214604628994,-0.41556830189649047,-0.041412481967253854,0.4316598066301986,-0.6573693125311503,0.5860345424669853,-0.8073277362463773,0.9056609123395716,0.3562994685513763,0.1077205718467269,-0.2604230651901709,0.29061829142003237,0.5839236055430339,-0.24385448238552185,0.7311120649166356,-0.9108794811163325,0.7411511077120355,-0.12422545582130133,0.34864511160461964,0.7567455476879992,0.8716978587617469,-0.15800997701176708,0.42652655372128795,-0.055959888000097775,1.1031800748366638,-0.7440116617006498,0.8126569437739585,-0.2308688950161329,0.27048682343129604,-0.6926473486691339,-0.14334339456992026,0.07138561263680587,-0.14935695273991248,0.4800549158531049,0.1954904543148091,0.6587960574872507,0.427243467395813,-0.5865146312220886,0.7279702121618183,0.14830147775058133,0.03361649400912459,0.6977798508831874,0.9847156672798104,-0.23830432782019859,-0.08046313103820917,0.9458192517439682,0.6004610932442713,0.4451780635965337,0.4428464272417679,0.772140705328427,0.8018128985817115,0.411249901936961,0.729583376277722,0.6521820766925646,0.8617152801301241,-0.061044619711138275,-0.63555738590034,-0.291896140298489,0.1685105643783206,-0.541311233905089,-0.8674835172092654,-0.41589727783735864,-0.7713510324807058,0.3890912293360351],[0.01615537663359278,0.3657390149749258,0.3250314047145668,0.1436160999879883,0.31896724102018714,0.5886893141282399,-0.8733002061553092,0.5098784213706509,-0.2704070693902558,-0.31254749384696767,0.19811715537387808,0.8325159886519988,-0.2832219224242336,0.363997421615269,-0.8764981153884217,0.30698614075227415,0.9251322056725171,-0.22051401165776285,0.5288136807391015,-0.3944807220543809,0.17449619657483995,0.4107163988754361,-0.8529102354496878,0.6212023289492845,-0.1697648250662489,0.7415484145093343,0.5311978974504408,0.7861680925868386,-0.3281499271968129,0.1968500990631692,0.8913794149032488,-0.9628151805060363,0.4306185858012168,0.30089500215358506,-0.6750566379324225,0.48182340615373115,-0.7492866632530292,-0.8575934079977541,-0.817699480512078,0.05602483496657055,-0.5383392681644185,0.6813096730175127,0.5025580872215148,-0.2842209359011782,0.24069655837782825,0.7801399920116232,0.9859987321776584,-0.8336554250816893,-0.18664180817998605,0.049266620625754876,0.5149984987047851,0.7518507011876464,-0.6315912114720147,-0.7680330451086821,-0.4457677711044141,-0.32345150611566575,-0.7406816022944342,0.20946310218972242,-0.7327786443824307,-0.8576088745821348,-0.6116697119154619,0.4762980791700043,-0.6479174935605027,-0.19439184796934936,-0.02887555322517559,-0.09540156902053284,0.04135103546773519,0.7088951901005988,-1.0936870703430224,0.7973768834781554,0.6005700487097313,-0.11863924711638896,0.872027855304084,-0.2530411204456104,-1.041182459637909,-0.8043402441712643,0.11854441411704537,-0.7363420290825536,-0.9617124080747134,0.39510029813917125,-0.3721045335695829,-0.6323864980881893,-0.39403973639647183,-0.33512063631821576,0.5448331508833908,-0.6924431994789457,-0.3441751738375447,0.40020711818335464,0.7003386799375202,0.06708424055874952,-0.7610513494601647,0.542746786671396,-0.9923905424272254,0.8413433821450298,-0.05677408388763556,0.23422672543294693,0.2969258657113104,0.15553058790239255,-1.0849777313945435,-0.8520633238508127,-0.7901593872224807,-0.45515750096894725,-0.21354094065740206,-0.4674954561245528,-0.2211842034021223,0.3561634078299239,-0.39090220575355766,0.14485088833627782,-0.325420110593483,0.3977541519064308,-0.4620663186666037,-0.46204128619188917,-0.49449051420848633,0.43471759358681306,0.1388209823766353,0.0011141655089204753,-0.03618826492317006,-0.7760847256103305,0.25243726901844493,-0.10876840516695561,0.03369464614551554,0.20667696951793993,-0.0041219384299824085,-1.4731922877968515,-0.8348907984195115,-0.869112790708876,0.36735309674109384,-1.2345441854762667,-0.9692742128278183,-0.8886267850596201,-0.3860930347979163,-0.09526796063145851,-1.1183145468658828,-0.22482370189208312,0.3518091633580304,0.02066641170471809,-0.11261129077061323,-0.7915359694430448,0.40308541911808143,-0.21653029378991528,0.9651587263312276,-0.16057587894498893,-0.5738895816180709,0.8828299861784783,0.23621205623723818,-0.5104574422387208,0.30393447949029156,-1.0920652626801697,-0.5664791431475039,0.3209749081032556,-0.3496200047318449,-2.1978265746485564,-1.7648700687628665,-0.1158489363772667,-1.4989198705819982,-0.9420775984661229,-1.6573106671873872,-2.6923112710995225,-2.2397087118876877,-2.239677621387614,-1.1107712568045465,-1.09962596562142,-1.5753778292537846,-1.1660997801351374,0.3270508203476618,-0.2663445586820954,0.11218077162403055,0.5566666420259407,-0.07352584513103626,0.8243976447364081,0.8819168642634423,-0.2960617736410701,1.0837878136845702,0.7313258866874346,-0.4248204760426764,0.7795040474423762,-1.0572803859349282,-0.8155439113915633,-1.5722560170589883,-0.63709945854764,0.8040971219491722,0.24566872557118907,0.006067454442969394,0.8542497398059791,0.557216897007207,-0.22158076095209214,0.5216141695140128,-0.8334887129369589,-0.702024644227858,-1.2134253425989239,-1.091707125231874,-0.6572842255121366,-0.6772769270784396,-0.22331761444698128,0.7742514481756463,-0.8681138829225368,0.13601110779530778,-0.9903414947966548,0.6988467644539225,0.11969833402893172,-0.4018173627625997,0.6245337299911717,0.5107886507643976,-0.04930386713642209,-0.6264739866893205,-1.112431283946805,0.45797341011931925,-0.06053863280963939,0.04162339602325098,-0.09326052706903705,1.025522175394139,0.514499349549024,2.593827653289685,2.4217159119177762,1.5965105553092673,1.1349775173607153,0.9625448173841094,0.01800020397973945,-0.3161454758870775,-0.8302659801148704,-0.4368293842295824,1.1116840976372675,-0.671080764127059,0.5227767144460377,-0.9006544088217074,-0.5116897302189515,0.19432299679953274,-0.3575387322591284,-0.6645288002313472,0.8223059907447525,0.13689141319160486,-1.0986301272634695,-0.5522215038453226,0.05353152612494351,-0.10576863916019832,-1.5891624758880354,-0.17133913098985734,-0.2318228921984415,0.10268130432170826,0.677166348850355,1.0918611477564146,1.5222139938446528,1.41861268084961,1.4391719735488557,0.3556626409471906,0.5626390142612319,0.8801367807219884,-0.38567511764133733,-0.39398014488538685,0.32344709913863967,0.7422021231818795,-0.029654768933112394,-0.4347840281624752,0.7021012032674837,0.8157632086697173,0.6675283665643628,0.7592730144577011,0.6622076022137858,-0.7142070450622735,-0.9673303344356334,-0.6389400192464745,0.6051066747788955,-0.2171025007687301,0.17201420168343026,0.4224799547778388,0.20992651391487455,1.3392103829473696,2.1484156046301273,1.9287820936747178,1.0424768199166703,0.7612108131111501,1.8778646730163397,-0.35182459097451335,0.010934709183949513,0.6413134164693397,1.3726837211394296,1.0627314462969693,-0.21890201898298708,0.1523915475490717,1.186167540257831,-0.44749544460051416,-0.5337649709006356,0.6306624271798993,0.9767746717402902,0.3454484904211517,0.6760591427130465,-0.854309570253515,0.9007952790888887,0.7380275738493518,0.041665228362639056,-0.7506920846134966,-0.5024117653824287,0.12286698584759427,0.06594427997313726,1.8249240009261742,0.5073359213316277,2.4090869589655273,1.809090904826211,-0.3323116118544795,0.5390252213546834,0.3930988389562269,0.740201023531871,0.6025928565979602,0.08241297110334667,-0.7762209137789962,0.5386223926827988,0.620445325866053,0.1764811492045024,0.5050040526646857,0.32349398753605635,0.19334732849441916,0.4946970169651778,-0.6891750257201126,-0.583786547392249,0.5514779579949689,-0.2762449368841458,0.16788444595149424,-0.08750505623167347,0.6067946518392195,-0.5369524524410538,0.08145106696449608,0.4712846933166079,1.8157249508935436,1.4998829881650784,2.1045625417805804,0.3922277761418849,0.7098618524975799,1.032907927868272,0.07573243468485605,1.6270878992839897,0.8929311816141098,0.5728350925424684,0.07488373908408814,-0.5043482040430369,1.0554081463427636,0.9535620982898527,-0.6367707336259733,-0.28728306452204294,-0.2744029631164672,-0.2910316998118753,-0.48014051231448157,1.0719056753440905,-0.10039061727808946,0.23357347756883132,-0.4575669646356505,0.45605317353508096,-0.18993947229189864,-0.7873235901835984,-0.542026709714883,-1.1759066908290292,0.5496175322245423,1.062560657775611,0.29566952337685554,1.3989878284868933,1.0087618935946028,1.1905768586268994,0.3599316284687198,0.933928508690012,0.32229567427495404,-0.5468895209568644,0.5779872441522953,0.1052736297984246,-0.6068237088931739,0.4501840201675236,0.43064240464968223,-0.884373058947709,0.015697088506802674,-0.7640337481414641,-0.508413233989516,1.4868929727370979,0.8282017845164266,0.5921534857107228,0.40070485178259874,-0.3003705847941208,0.6193998519670527,-0.4143353782506148,-1.3253148651021436,-0.9172853813659035,-1.8061889128049797,1.1159069741292145,0.6654548097490578,0.26347076838887573,-0.5668154199917593,-1.0743986083020673,0.6672440585857603,0.12716592369107996,0.9787869520766324,-0.7806876888839394,-0.26673014234645426,-1.0214241228582155,0.3689228698407983,0.5204499201700952,0.7054270685992576,-0.21453640496396603,-0.7992962179678962,0.2645726529190904,-0.48106221076976746,0.7600615521262906,-0.8445782605425927,-0.20107773537226598,0.626336127567123,-0.6369728030956942,-0.28484321102368615,-0.8065223423363735,-0.25101497356989305,0.3920518519852599,-0.14261973448359347,-1.555678239301968,-1.4992895267650712,0.3122141880773647,-0.5844764667993854,1.1974569426266382,0.46088912441828334,-0.5117251463683059,-0.0026580168003293493,0.3661003197352735,-0.11467402824982897,-1.050773514833014,-0.34785866590667436,0.2155713867513693,1.0022794951373954,0.6262285929892178,0.9665018846686325,0.19469357205257842,-0.8526897782245558,-0.10143059580364118,0.2905744986773953,-0.5953732148667935,0.10273213563254271,1.3798246097817501,0.42296834356957946,0.8168855216229021,0.6888238862468926,-0.301123412035832,-0.7682114498189909,-1.1805522411318239,-0.6961312272536256,-0.5081567764595245,1.1274749824028794,0.6094435068490326,-0.2684183005629715,0.17053403806682907,0.7931313630753859,-0.5711009156724138,-0.5002660191814903,-1.1961401242090217,0.263728992833976,-0.8719115656770399,0.8623523812921388,-0.747789059391468,0.3621509224393079,-0.2109477650891666,-1.07386166285869,0.3582160420493825,-0.2131338401733657,0.40613484892462465,1.2793318711044956,0.7893876991603755,0.996573638218895,0.17894451161874303,-1.0073915001099063,-0.8054532861254784,-1.0008683891148369,-0.6557599314108494,-0.44686727855961766,1.3339342562194407,1.388035570927081,0.5499449751162138,-0.21434258603408457,-0.7878893298943519,-0.8015570353404113,-0.6093284744534566,-0.896476817830824,-0.884500752584352,-0.07079736488896678,-0.35258277536180743,-0.15441074107744215,-0.9770915046138224,-0.5363780608828039,0.2420113585205348,-0.1590625723770497,0.2946792856769948,-0.35585291116981144,-0.559029709785551,-0.8591037462133462,0.6784803694581408,0.7312759165744032,-0.29676838833000385,-1.2070394355301697,-1.1886148258108002,-0.21847574075269122,-0.3035598964909307,0.7400141902145316,0.8634709922214339,0.402347488705075,0.1886012414671632,-0.9146935050388565,0.2611318133754014,-1.1004225570641935,-0.1273351124354746,0.47085590303459324,0.5879285858865186,-0.6795010880706022,0.20850356003139917,-0.8470140091608831,-0.4560486199707779,0.16933738642404556,-0.5956615207776301,0.47451258590186146,-0.11271661857951015,-0.09792189066378737,0.39634333304133557,0.5687051837414269,-1.008447687527509,-0.3810535430920808,-0.6188494464314873,1.2153254441481693,-0.32840134237825674,-1.0446683290919676,0.09987971605903617,-1.0573947958648628,0.04546005437828776,0.1881534361907509,-0.30737493999456955,0.7124248373597901,-0.4146591745928735,-0.538838266083092,0.30830235014787155,-0.8306526741697788,-0.22475234818664205,-0.6396452167058841,0.28348154348364407,-0.991723399667491,-0.504661962124956,-0.7944797313300198,0.5209589989159067,-0.16471438098329869,-0.708065749504676,1.0373627146912332,1.3586041121931705,-0.8758232687595263,0.04213417435952824,-1.442993445079976,0.22442220213166442,-0.5467506112794541,0.6036801327719843,0.3166497551746878,-0.9341870861801089,-0.5309595090096895,-1.0551069339735937,-0.26631703203441187,-1.1529155103610826,0.520169849212982,-1.028747730082529,-0.9713481139809341,-0.9635824331179255,-1.038336658149224,0.03868622811936172,0.9427913265060789,-0.4320519808127464,-0.27657164806366075,0.232902555884682,0.9222443933583094,0.6358151050016023,-1.0195428309577097,0.4441940193445985,-0.34112628120153743,-0.10228778898578199,-1.294695218274761,0.21369860666812576,-1.7250497179963429,-0.62651112668388,-0.9109627210277027,-0.3579450741286083,-0.10082846020738478,-1.4118493656079667,-0.8186162844816626,-1.9665011342791439,-1.5349476655072738,-0.23447714126164396,0.4002005194272355,-1.538482782451597,-1.4255644085981494,-0.46290781326569025,-1.2785895419312623,-0.9241271360661566,-0.19057192580378818,-0.9675261607928023,-0.8240771765643051,0.3166662237281337,-0.25122709654721587,-0.5150239103202398,-1.0932618043419178,0.05098021449370486,0.539317846795462,-0.6275471934608245,0.14971367346740128,-1.5644596821422596,-1.308940759318596,-0.9118184145024385,-0.027714319557669974,-2.2973566176690845,-1.321152623711655,-1.7115859377115556,-1.0458189994971716,-0.4618298842006999,-1.9605148984838743,-1.396643565370377,-0.6638256747934657,-0.8803894164249588,-1.0927629070611014,-0.3973252971286587,0.18093648737308074,-0.25451738420273007,-0.8081326165235506,0.579025104397324,0.803304249122099,0.5756286512445931,-0.4216507527021883,0.5608206581435191,-0.9238489363541766,-0.12123072240574453,-0.6340223749864516,0.8132779366077284,-0.6407874201501006,-0.3535249597995295,0.2828446358161501,-1.169992135253041,-1.098580575866768,-2.060882251700789,-1.8167391298676525,0.3403709656153093,-1.3138310857359154,0.18719767118902678,-1.0264061608242785,-0.5610082593490979,-1.01505761619329,-1.299287066425177,-0.3616807114415526,-0.6816419581412103,-0.051682117555986694,0.3413200266091765,0.262078269692335,0.22137912223201964,-0.3834380472410538,0.8775832999467816,0.1690106793443813,-0.394086727843196,0.7968453077833226,-0.6285446264975487,-0.16226473982457018,1.1192181173289508,0.22187768302408384,-0.8176920939137554,0.4971766391080855,-1.3079125789448232,-0.8056533189068628,-0.6569830332072284,-0.372525180342287,-0.9807350894540652,-1.8560728256023913,-0.17578631524191826,-0.3711110717290174,-0.10006603251805589,-0.11809503064546505,-1.4424684228323383,-0.23901703876288619,-0.9854949524904777,0.49204406989208505,0.29417725460745675,0.44859697298030365,0.25418784311932763,-0.8685862506119992,-0.469603108919872,-0.283598415069656,-0.9691962466313859,0.763541595634014,0.4343330058549851,1.188967617952679,0.3436210860668765,0.21371506191830683,-0.3920787972265451,1.1814147102052381,-0.6080823921330212,-0.05141258250242557,-1.0157104388490494,0.324044911620524,0.2724837899105193,-0.7702512473062851,-1.2497669460114003,-1.412269307512827,-0.6983891922815244,-0.9130888867946725,-0.014217071417176647,0.25748075062070097,-0.6303914735053161,-0.34136185150564274,-0.0789873419273553,-0.23280210815055283,0.9111056029215091,0.2048046648960935,0.615172537741056,-0.2544450649129266,0.24294623827209938,0.8499476266736037,1.1670116237328034,0.7053598569007686,-0.2538352408729298,0.4315550967361034,-0.12354663698335658,0.636827539431826,-1.0160254149084462,1.0872368254346887,1.4808940711368865,0.0798329186925235,-0.021799986246504338,-0.029302429957330654,0.3459642035937363,-0.39729853296899764,1.103542797709169,1.2752843607304936,0.460293064457252,0.7414278900624911,0.21742834663223345,0.7435528903457121,-0.4929660943203482,0.7703756699316917,0.23105470535927208,-0.23971984345616937,0.35244544132531574,0.157067381160632,-0.13967434400870937,0.8877655368067429,-0.3791090429336162,-0.6970971994801302,-0.7524318531352989,0.18324636762677604,-0.7003586139126543,-0.548655592487547,0.05028976093402851,1.0496803610518648,1.1404822139316673,-0.1022454923621991,-0.021337516818125634,0.42009729583575317,-0.030078767862429856,-0.5957224281070406,0.4121582648438878,0.3183447010572681,0.6587315854202158,-0.7105112969576127,-0.23075293908403038,-0.24290367332243712,-0.697605945477297,0.5864800341000459,-0.40532883873936854,-0.21133926139194115,0.28806961719092694,-0.5893263921709457,0.542817671975178,0.41473275888144245,0.10874986431243418,-0.7386205074234395,0.7257602423908498,-0.23230388943898678,0.40757489995394264,-0.2897184476245787,-0.7551037257519454,0.8992042105260167,-0.06518054643404846,-0.9683170322475796,-0.846037957535994,-0.2693568748358965,0.6433330138604514,-0.4189255358868217,0.27952767339662,0.9221721143342265,-0.7205939850953651,-0.5958996591409914,-0.09924394274003936,-0.1174707140898346,0.8824920465782005,0.10674692475114256,-0.4779769782434582],[-0.9202928267830432,-0.8763675026598459,0.2069422301121162,0.1884241231606345,-0.6443953067968038,-0.08385378041519687,-0.7232753078727496,-0.7680589448431623,0.7373542494389196,-0.4410327632286126,-0.7466936767969892,0.6158513214484005,-0.7477086047183148,-0.0865713179604429,-0.9614295248288921,-0.3804127617018732,-0.6106530778990067,-0.8699547217801031,0.21523850690462432,-0.049511445219139194,-0.7528071426749197,0.9779597773463444,-0.3184114194302645,0.8056903604412446,0.8575628677874856,-0.8231177066906623,0.822325961784558,-0.768691328826832,0.43540364818652266,-0.9983454550723372,-0.333640602626903,-0.47928044958214766,0.17684317242853975,-0.23160572505639807,-0.14027175776882408,0.2640169215894505,0.8754714609406617,0.23266478913678104,-0.11262237290353813,-0.3678436538697172,-0.361244948564883,0.9244769654204573,0.5963103837176197,-0.2929009725756979,0.2588280528257705,0.43851878250514864,-0.7851096765489831,-0.40529758217671313,-0.6612477705330352,-0.27600731800794054,-0.5879056630580013,0.5988598954629273,-0.9087844005091996,0.2118457221299872,0.6182874139247416,0.840438306020947,-0.9828168987135384,0.9650855233482751,0.6673889577855165,0.06035319839902125,-0.38967316297795235,0.2710082699177494,-0.14317883866502132,-0.27521750327434935,0.07704146887695565,-0.7545071471699499,-0.7384586121740511,-0.10172242588552487,-0.9630458723951961,-0.09624460906426298,-1.052809539941427,0.3382782196782653,-0.34653142192438047,-0.029041918890280138,-0.5058603446247729,-0.7091397684011808,-0.5264765722084412,-0.8064563385511773,0.6515084850547027,-0.07480907702804523,-0.22617631408197658,0.041452415959170305,0.1521746895645288,-0.3155798252986721,0.2853778339548261,0.8182351846762947,-0.5688184545852248,0.599553150558187,0.3798209250327531,-0.8607861598803216,0.26006488732963795,0.8013963719284477,-0.7776886610199144,-0.10563284137639373,0.4006687749711767,0.6437593501720001,-0.7365437987813903,1.1135294951141697,-0.5516788471569974,-0.838904100702972,0.37557445363432745,0.1441162838885499,0.38321649471952574,-0.2857144094754911,-0.580234617004848,-0.022288394720613204,-0.7068704364476666,-0.7075450885891196,0.41860895784915225,-0.048920232209216506,-0.3380499223246078,-0.7396240100706877,0.09649372069195605,0.09805587144244177,-0.5309372392645222,0.9069337495106701,0.08984399950644041,-0.23429329585891517,0.28187515417181974,1.1463593870294477,-0.3200168475946408,0.598449709002949,0.16742919709879125,-0.5739732317173792,0.7236621432228566,0.7639069286373841,0.8437095568310201,0.3155018281353833,0.3277297899673046,0.15339182333701942,1.105946047915959,0.6325971762984467,0.38337438278422425,-0.5119017272440652,0.2414719073240652,0.23064547065238372,0.7220495241509263,-0.8927838551644581,0.40034221835439626,-0.098941183554905,-0.5996210160994733,-0.9608208478079607,0.989004315757025,0.3670246565520594,0.6136267441281954,0.8707534808161441,-1.0054347111635433,0.3323802726386474,0.5812972461829302,1.1044030703432968,0.7857371884591317,-0.3780513138137919,-0.4559155983732899,-0.21750395016002808,0.611063622446992,0.3026408261528869,1.2353907746437187,0.4955574775833091,0.5221899178071248,1.3455283263154119,0.5434596998982137,1.0119855048371889,0.028375572415345007,0.3714171887143268,0.12153691419220802,-1.212451719814185,0.5428017054164235,0.26321881760183913,0.7726138834263747,0.23892016145981465,0.4662738436878167,0.44725494070469257,0.6646936546073583,0.8780929312025684,-0.2064701643592421,0.13763273710463747,0.8182221748922801,-0.1909885663059295,-0.7543180831754676,0.33289245630517955,-0.5407005068981726,-0.4271117798718588,-0.6581585571444202,-1.3385305129151341,0.41111867059295115,-0.6630978569489753,0.4587907122155493,-0.1816734156802699,0.5323706414954607,-1.011353640950359,0.4033224777585505,0.7968853605501917,-0.64885507904495,-0.9433372689066435,-0.20798329075527283,0.6444185016763041,-0.838343341122189,0.03807814451974335,0.3910366353689303,0.5790424431711831,0.5872481683597696,-0.8337646274945035,-0.8267087025244376,1.0292493490570929,-0.7773379862537579,0.6396718652762159,-0.8287233295494417,1.4746990007234895,0.9326732105681677,0.5858515168505867,0.36461779308452796,-0.0074468498197336214,-0.4903223201123221,-0.3017975020666895,-1.4391758479949028,0.3557689604916524,0.7723598971051645,1.0876355219001996,1.1170677299635376,0.9285449282268513,1.135989836349686,0.46718818641733595,0.5277011540268541,0.5359812202408899,0.4669145381593137,0.628473035641108,-0.5320694969147841,0.9772659937342217,0.5954623509508672,0.8172732826672752,0.5964505288115385,1.1314449852237811,1.2601752569145832,0.526388091855006,1.042313860618487,0.19960506152110705,0.977294937747884,1.3239282613756216,1.4996992063063264,1.5998584036875327,0.5195200795380212,-0.7657224300989532,0.16043086921873387,-0.19379204955355872,-0.36317989373384163,-0.15691236935216946,-0.5111235861541301,0.16838125455956057,0.7407316032805402,0.08122449937029425,-0.587079531029613,0.6147706156091656,-0.04683458639168025,0.32076989419084445,0.6658263107053092,0.8381181978391729,-0.5982623836316379,-0.3124983505704021,0.9349783010155169,0.1187757205278917,0.8375901118581494,1.6786212579557596,0.25850634536979394,1.5456999633161472,0.2642553673392921,1.3488407540639868,2.061497832953904,1.2007108111856775,2.4197671228338593,0.6995233659927836,0.4992799333628856,0.10473765059527833,0.198266816494691,-0.22094109330476053,1.7309523823921205,-0.2540588957694601,1.8941649830221583,0.12013147692770042,0.30216495480069605,0.1345404194098243,-0.3194985081800339,-0.4121280456398529,-0.33436240236059656,0.3206852298583944,0.03669166048092747,-0.17357265505469216,-0.0264775380993402,1.1996663587793284,-0.03932569114838137,1.0696687643087062,0.927862158398496,0.6499077765808576,1.321946990024769,1.4274303144322673,2.9146091959701006,2.63010203670517,0.08128139318772268,1.2286724274849576,0.14666829201433165,0.3099310222070043,0.5275583207759401,1.8356901987033087,1.002651679367556,1.384102462260618,-0.13107075122275127,-0.0986604510714584,-0.15657000028232573,0.9412425952744985,-0.47227904075145716,0.27540779716142927,-0.8977364796469368,0.37344325581553445,-0.944255786001967,0.08342582618770998,-0.12799894151224459,0.12309061800247376,0.9176548977531419,0.2265003954269949,-0.8715181848737776,-0.8777953544293553,-0.3344641697129129,-0.43453129314932515,-1.2670969901614035,-0.9399336369437357,-0.7118832840803074,0.17377356437006564,-0.5368611084169995,0.4823037458032376,-0.14316542694406292,0.9942734812743381,1.257041606053419,0.17872492526302947,0.6976731653187969,0.34125662101732956,1.1948660856766715,0.012928995944598377,0.4904834433080107,0.5409592596013777,-0.9227634152891777,0.32480883330920396,0.6797645077691225,-0.2590066064204377,-0.3560181184877724,0.3422202442349726,0.3556217253742128,-0.047048851645688,-0.7443136321897752,-1.9364701732116252,-2.648804032891155,-2.691888601142523,-2.6444901936656504,-2.3973126760633443,-2.2709010147048008,-0.1574544903006918,-0.2781337134480392,0.30621868258555723,-0.596180623370373,-0.0975404147701513,0.7642449991303125,0.5485849922304591,0.3803306455274008,0.3676295009484761,