{"layers":[784,80,10],"weights":[[[-0.776351484925521,0.752111123375033,-0.8292486879861882,0.7713752008351991,0.900022510747625,0.6800310394406444,0.9628398500959643,0.17891363633591925,-0.9161644041959227,0.6178536967399672,-0.35559666546691543,-0.612935171391653,-0.5386060372576895,-0.08716866688261915,0.11203819770400016,-0.05324762863813272,0.8775562001067154,-0.1712131987818174,-0.3681353758468234,0.3783010364233267,0.29412866271967947,0.06839376308541331,-0.18572109434433504,0.2949422050576991,0.8359017735504408,-0.20751996867458633,-0.8720448911709164,-0.6849464500674101,-0.5935764198990578,0.33097641732999117,-0.5751865727621475,0.14824081842707226,0.8602622249328489,0.7412129957399927,0.9140104688824531,-0.2041884433095505,-0.7760016552996563,-0.5593267149563059,-0.9718079864180338,-0.49093787348350804,0.8244018848082132,-0.10176876652969133,0.43388748768146695,-0.07197927542023351,0.45373335006163934,-0.5357220250021979,0.25085981571138455,0.5653072178120424,0.3148140311618226,0.30596870856401936,-0.33021393898442913,-0.6590841177924203,-0.6172568063296837,0.5922858273209379,-0.6433220295789797,-0.7774777467841036,-0.6590981236706668,-0.8551575789929529,0.5753195141899572,0.35675083707719857,-0.7367346263853287,-0.5200911299713624,0.6521293044839945,-0.2542955239353167,-0.1803259795542223,-0.8483985750100628,-0.5189397830494258,0.7022119435554752,0.047215926548541176,-0.554934483473977,-0.16251197135216178,0.20611720412519172,-0.9933849984575038,0.6005930412277224,-0.9567636148424582,-0.9449652359472233,-0.48038919979437306,-0.8141602077358191,-0.7023513358868239,0.3798550377242065,-0.6852703701610787,0.030862833507912857,0.7002688516818454,0.22067422273574167,-0.025307125062739466,0.5597784885724737,0.3611352729401068,0.8584617609224796,0.19573199078734513,0.21497366220536956,0.787391084780193,0.7930556993020699,0.9208718742028171,0.19979095518762421,0.7066973664250223,0.3220201673696361,-0.28306873786775216,0.010517555574767485,-0.3630968565075979,0.3692270101034929,-0.27782066838524055,-0.6514000590641006,0.31686710527417117,0.7255141697882374,0.2855554107404472,0.48109420309177714,0.19489856813471867,0.2803801572039086,0.9633942679322564,-0.7056669615424547,0.5137288861402025,-0.7144835582920273,-0.059015127625341446,0.49628398148310415,-0.2592589704467334,-0.9448845580393155,-0.8855762437936635,0.28603042055506367,-0.8254394909813303,-0.8742173335853622,0.10085775574560704,0.49916757904850634,0.7671546760823239,0.49494230895749375,0.46892454281480017,-0.11435100255137594,-0.7478557114158716,-0.28468960458738274,-0.01694592515811002,0.792729058232436,0.7456603806673903,-0.13189061350038758,-0.5885793283951275,0.07909911465122288,-0.37473292026647725,0.38199664769598396,0.3479381864650217,-0.5209925703524678,0.7367262521741146,0.5304961536816468,-0.7361704709075303,-0.15112815937939575,-0.5687548671914044,0.19909297849298196,-0.7396516824449947,-0.4096389489662548,-0.3600966358333504,-0.22164720939775526,-0.031600572179360784,0.27211740636035064,-0.5231172034107341,-0.03470344608312878,0.5140176450191392,-0.14694721231248753,0.7738576218912908,0.19955592048147003,-0.9498997526856339,-0.17212340836484688,0.5095891484950025,0.6037052314635384,-0.1322877628011311,-0.6630630483690708,-0.13612719760920272,-0.511918155362613,0.558408779521772,-0.7590833145044512,0.5896814040283539,0.5665604068343,-0.6385311650709817,0.661857917114304,-0.27408322044623595,0.2890055609979814,-0.5145052143984126,-0.2711599187256588,0.42464815609669815,-0.419669176170363,0.3986056726637392,-0.38983233111168025,-0.005600763327039685,-0.4070217292109358,-1.11323310574845,-0.2503960353375786,-0.8695381101427889,0.936241262377684,-0.09308361913637003,-0.5189975040256929,0.2518242852786473,-0.7107496462776318,0.7032298044864326,0.7273448998214509,0.6866376348474996,0.1845992325309018,0.6268509808773034,-0.488539034881337,0.9005515734956767,-0.11251471960230587,0.7335115337098022,0.5782532561146958,-0.5868626946217806,-0.4844270177736187,-0.5162810898206169,0.8059829663414164,0.24168293805685157,0.12693193915240475,0.1232546828085415,0.9806002431305726,-0.5380725817075622,0.27386980720352894,0.16216893905943805,-0.14056610750228604,-0.12531001290055158,-0.9873606645905757,-0.34512586480402485,-0.13026422796022594,-1.2009744909831734,0.28181487835887553,0.29979512883070036,0.7159338758180116,-0.36586381067386364,-0.015777819548569955,-0.11815425936030494,0.6138869883056326,0.6350036646401325,-0.2019406086790574,0.7722431090648709,0.9789618087580023,-0.8366113507469249,0.06656256830979577,-0.7411764542314414,0.9264370783039934,-0.036913031728137126,-0.7527348699498752,-0.4023409417025466,1.0970115745940552,0.19085042981091827,-0.16874460051606163,-0.9707804566426614,0.3769273766139154,-1.1782145758065452,0.888901597662842,-0.22005285700054078,1.0051076297628205,0.03552875213490622,0.01319223290662038,0.313382542506276,-0.6662627528663905,0.39984888570079197,-0.29756737697975183,0.3485509562792533,-1.0413736613170805,-0.04712098159859773,0.10772210845972016,0.0915192420452553,0.4700107372180342,-0.2136171646146887,0.3645450174974454,0.434246033248441,-0.5529763806830569,0.0058209583017807,0.7020011580006598,-0.03638020823955719,0.23489011309941446,-0.6454936576425944,0.9062062802084901,-1.1290054166068646,0.12967638363254577,-1.042566593094759,-0.5011357826295696,0.7454313129629603,0.4562354713717482,0.7118689581720441,-0.9986148383696946,-1.0058878056684724,-0.04185792461949591,0.6764728750163816,-0.4616440498353157,-0.14202725087973553,0.3962081011946007,0.7431718868503494,-0.9381934335127121,0.9051571180243965,0.3289797225491221,0.09709326333111297,-0.6021654807961326,-0.33770870945049425,1.1055991339894893,-0.08738379843895787,0.5880012026117463,-0.3677171631432586,-0.12403830072545587,0.01888562125770992,-0.602635132191315,-0.22322134867065865,-1.5927256113165937,-0.797653089804092,-0.8967427363946914,-0.35673504658070865,1.3861675439107932,0.43108173993370175,-0.5084415539501117,0.130573608673345,-1.4284205009017814,-0.3868828480458439,0.5225653971415162,-0.21472470605511543,0.2595461862421431,0.6558393683037799,0.4159615518260621,-0.34702344183733125,-0.1341945347163214,0.1817774308084311,-0.048307734238551725,1.2890613700571112,0.6819677538503933,-0.4062701229911932,0.35009992030659,0.3511681603966528,-0.3381525155653277,-0.7587335956806538,-0.8178542984791816,-1.7903305053115544,-0.37555913984208117,-1.5521057599262316,0.220092993292566,-0.673434564607874,0.6206793032292169,0.5506975364365335,-0.7082141747753189,0.4257712310040443,-1.5762027216678072,-0.30608930931864564,-0.6821263151917053,-0.6475619331035548,0.43980255323475564,-0.8478974947632643,-0.9727211503902161,0.7152361278300092,-0.7879394598849119,0.7436535185235444,0.1602066911781319,-0.083600828484458,0.31272879808503895,-0.4397991504642479,0.7143884826421951,1.1526043245592836,-0.4164892106188027,-0.07898640630042358,-1.8168350227054981,-1.031705203640642,-0.8316889181395943,-0.3612933527812777,0.20624989431293264,0.6699648224600689,0.6994060206792623,0.352758551006307,-0.37487333693663405,-0.704366749197835,-1.4593454051381018,-0.47449238520831677,-0.2632309287755584,0.13931367008930476,0.8525986478193199,0.659960301258717,-0.5493572466040789,-0.9917552777743307,-0.8425827572097457,-0.3668088940478406,-0.3332086708814762,0.8288746969729882,0.8306219102113959,0.221355747466777,0.6158131921678085,-0.8870817764209192,-1.4173861161186994,-1.9669924865957964,-2.205763584644307,-1.0688880316751765,-0.014763588358443033,1.7386342219191222,1.1710205222934504,0.8545443495286938,2.369748064177512,1.6280801110187058,1.0718142869418876,-0.34850040788933206,-1.2006090987089983,-0.6740978038209995,-1.3476135572639,0.19377852271031792,-0.01407633181266913,-0.5432263386244601,-0.7741805605163262,0.8694938960309032,0.22138907336264035,0.007053999574209203,-0.9083962450392864,-0.2002902763201414,-0.3466968248913541,-0.5862338157341294,0.8290874970273411,0.09330635516737328,-0.7102103795909721,-2.021052508843837,-0.7790049292019099,0.07360352889774663,2.094827863004054,1.8581986089212967,0.875900179127319,2.5624202494901573,2.492555103667702,1.680202477986458,0.27236893845248,-0.5385374965822451,-0.47699458615245527,0.2068091507055703,0.3373493145139012,-0.5617361449225329,0.8033936128717318,-0.8244853086412087,-0.5868085071571467,0.7616433503260504,-0.6362107249986385,-0.1947654666637716,-0.3538319888959458,0.7144680799312176,1.2712320756346833,-0.8892595645246715,-1.2432872116495024,-0.00172984078004588,-1.3368004457523088,-1.4501372994362147,1.0415085860596238,1.328689856168977,0.6942178402237369,0.9064243258580554,0.6514908286415315,1.2181414347310653,1.012065693220501,1.2303047301558625,0.6801517382211947,-0.8132108829195236,-1.1148397556389724,-1.2151219899008139,-0.2180292132488324,0.3067404490608037,0.12250389646403141,0.892200268993179,-0.2699115260649685,0.7187048646091658,-0.7210483507317753,0.5248798686790227,-1.0937320193857072,-1.184411647137249,-0.8197570213800451,-0.7887434145763521,0.30052643897941383,-0.6979215585321432,0.23773760398720323,1.3833572583298739,0.7330845962308176,1.0962117469691075,1.329047681882084,1.7378283108533623,1.6905620843418636,1.6114525918872669,0.5577189325133551,0.5449545661857383,-0.6129638049740163,-0.8745837409534304,-0.047609053738587745,-0.7409395173432676,0.661975128058818,0.2357243947988323,0.10706471642847204,-1.2543152233323713,-0.30454826042079397,-0.4478587919724659,0.7481396980013515,-1.0626661972633837,-1.1747140169306858,0.1810610747345968,0.0861814735984791,0.9424190892899342,-0.3599054342568264,0.6528773413112711,1.051077424126695,1.2827850771598732,1.4599660428129253,1.79627446592773,1.4949724540253249,0.4944937051532114,1.7510108164958451,1.4559674361674426,-0.11360994541771524,1.0136704949048798,-0.08648274450899904,-0.8722204241561652,-0.741159940926893,-1.3585148163775154,-0.19096400425656768,-0.6055731011409288,-0.6656574826812576,0.8494836891553854,-0.21516584547100978,-0.3295104988818771,0.6705273804501953,-0.2803017008340283,-0.5755007384743202,-1.0964796198884559,-0.6395384834960025,0.11827300399527965,0.09113460996996976,0.7830697295464228,-0.45571560721725385,1.3226226001886672,0.4129107600400975,1.1971079754396359,0.9125171133101163,0.6676862083326119,1.6184808435598148,1.159975190324122,0.988718280653079,-0.24687830264856503,-0.885430850693197,-1.2550613464864706,-0.49529212157130276,-1.1473622671334587,-0.31755377285688347,0.5841656172148887,-0.653804651990116,0.046826929096129954,-0.36293553825665475,-0.9133441945526752,0.9283990304719426,-0.6549901352867287,0.47830180751427653,-0.16876967104574425,-0.1888014589769987,-0.013392632045335065,-0.5084793952667999,0.048090893437377345,1.5707138334471902,1.639082872069839,0.38767505769308425,1.0852668073336873,1.8476027351147806,0.6280925953785333,-0.09891534745628763,-0.7275665736622859,-0.5256960259232463,-0.8918432267089526,-1.395432735876376,-0.8146187730038886,-0.16886348444978982,-1.065827971437429,-0.7060026670833506,0.6637486245087665,-0.36244198613952217,-1.066870272305956,-0.7877813599156539,0.3848940545582047,-0.40733965281331286,-0.5271828430490234,-0.09715647940900758,-0.47897032559066943,-0.5277379234090126,-0.2595735126215147,-1.0038826822562443,0.3870205034363691,1.4499116389586175,0.8645939532500496,0.8696427972028044,1.5782627807882519,0.7884874084992126,1.6907969722732028,0.23382467558598916,0.7456910038440563,-0.49790495757253045,-0.7187619730219537,-0.2249451494402957,-0.6280316482112712,-0.9219492526659098,0.724379110909778,-0.2719246226360269,-0.5230831843914175,0.2146457076916265,0.15506056975665447,-0.9249404762539971,0.0024490699427492935,-0.5567018675444182,0.0005589539412229484,-1.023659187180588,0.6425279019484813,-0.7071287844013571,0.1305285746694136,0.3858863331790812,0.8556502145382341,-0.01663382118217785,1.4478964775171013,1.4221219794562785,0.6883174304526377,1.2168341106116856,-0.2831543477637747,-0.02447185466016095,0.22780240865191825,-1.5575002700831322,-1.1046107958273337,-0.6972575162863708,0.4158251709440594,-0.24184518267806715,-0.1654760947256871,0.8332771075908786,0.20947011752326233,-0.5217868757039672,-0.20627832251720013,0.794620810597769,0.05444122000888241,0.15480065495388926,0.6403212214175178,0.7334561240202214,-0.4115334110500797,-0.7276354840819736,0.14643424074064565,-0.764166247279169,1.157953090574333,-0.5608572659376307,1.0668015429483555,0.8611529530114285,0.3661853886111783,0.2302393902557531,-0.7587035874290704,-0.5576940544478951,-1.2845607645212798,-0.9666494883318011,-1.559158607766672,-0.8181450103386274,0.045082371847531166,0.2986696886447706,-0.06390980712369872,0.7466892237580681,-0.696792081044865,-0.05274646944278862,0.8885798778248507,-0.7546091093250327,0.13086140105697863,0.6863405760631457,-0.38885691246845167,0.8122709222938724,-0.01685093746746847,0.25880415610173096,0.5053988197351758,0.32907111313745513,-0.5847703662111824,-0.4833272346591218,-0.856578154024553,-0.3309362430245825,0.6175300114905036,-0.2198431539807515,-0.5353765534398045,0.0717232266554835,-0.18993106622391914,-0.5561013762800291,-0.10291520772539045,0.817597779047646,-0.9013723028425494,0.3171698547418358,-0.6229043292307913,0.10904302770227405,-0.7536445294910343,0.32796257528635436,-0.9951149436808358,-0.12253987530365541,0.17174217568048755,0.337239638043409,-0.7043350810390687,0.814178415826135,-0.9782000923913529,-1.2209954386696718,0.675878665035575,-0.8280354555030265,-0.6149323279612534,-0.043951517320408924,0.26411778215965076,-0.07216295090006754,-0.7296589012938259,-0.4211298015995823,-1.0724211695231802,-1.6635390327633839,-0.4569598014786517,0.4138806208312258,-0.7404333669555112,-0.6807759762853715,-0.011552582891544478,0.11017915323454724,-0.5327838509711754,0.6466529610527693,0.4031242315682963,-0.33959210605687423,-0.2922562218193134,-0.9641851854223766,0.9618236184813993,-0.06647812486301774,-0.1684500655629354,0.9294333832383178,-0.9010977670879021,0.6870381127792121,-0.12805902882204645,-1.0036710921698,-0.47225090285928345,0.2871982229714517,-0.5448186266551895,-0.8257380906080887,0.09437638173742838,-0.8891629712990575,-0.8238835073755885,-0.2859448264821573,-0.0014900306563458542,-0.2981423726223198,0.5345177117489472,-0.5109557883202477,-0.3484928424330324,-0.3640919311259437,0.28714567206285474,-0.11599996733985565,0.8192930120148366,0.7301193578683688,0.5562086086502414,0.5993308634767489,-0.8747491579880835,0.4115494266850286,0.7177642233498607,-0.6997706755417524,-0.146753308151633,0.03252214414262919,-0.5101683304050412,0.07771460453318912,0.4828824569959832,0.4053868442756707,-0.7031664610167344,-0.7894857017910085,-0.4097573549306,0.374992723265936,0.6157092226483197,0.8988812264665434,1.01012366799802,0.9218463869083773,0.9801293244742973,-0.49431011179829243,0.6097060785203011,0.17427610012126057,-0.34101271603784494,0.8439786405443438,-0.3961900934078704,0.23261647870105273,0.6935019584098322,-0.03407091029841558,0.9146216720882792,-0.7897602130227797,0.9333615531336688,0.37233001201214044,-0.439250813631552,-0.002237869838712007,-0.9334722247449686,0.7469703934462317,0.46613325390182586,-0.7639389705190583,0.3860417194561323,0.11047738252469355,0.7814228012605204,-0.5343924306127948,0.029673043905539584,-0.26240252400543307,0.9210802143048451,-0.20184168749484724,0.45754055099525237,0.8747023128218994,0.8885189653595159,0.6909145126123972,0.5835300144015133,0.5501600046683414,0.3770229225985782,0.9724360800875897,0.6933313799296652,0.01385751832951776],[0.34887385771769863,0.7984909519976156,0.4156868455967917,-0.9169565796590655,-0.9669707457723868,0.5927917845408713,0.40636065150673156,0.28248973355138907,-0.36337736837622314,0.6621656555615567,-0.056776212402438145,0.3795729314370948,0.07764067289280306,0.9792906889437897,-0.6849942948440925,0.16361849693920902,0.03445673038842438,0.7781722442752897,0.8993349522269967,0.8324268114128398,0.6402141221385058,-0.8954178448091553,0.04024835650979834,-0.9113436208499348,0.7302127657751236,0.30921350580590534,0.1407797121464509,-0.47444713969859453,-0.10917529158674055,-0.5454597366710487,-0.26543996652299917,-0.14409040506074922,-0.397098184899376,-0.5996095951614033,-0.645857256601865,-0.8033605808370735,-0.9020204399698077,0.8453000806708312,0.23942160042120245,0.36638882252339827,0.6334253476848407,-0.26690363770547376,-0.06024756028826302,0.5061463259341233,0.016752082215483556,0.35394309427506965,-0.7132588381181054,0.7457528926615075,-0.3201186586702125,0.9586890860064854,0.134108361552006,0.3917095304917777,0.18673603696187557,-0.9824995622326425,0.8812051760637161,0.37039264815165707,0.39669011290516654,0.583224735254336,-0.7771822466572655,-0.538011330178795,-0.9551832358278065,-0.6916303393435204,0.22300857150398432,-0.5249211941271533,0.9134194738332907,-0.8683505408036661,0.213626642970862,-0.13748573488802773,-0.20846157533672416,-0.03408244611891592,-0.9405550056925743,-0.7096138482658132,0.9863054880133992,0.4223947348424262,-0.13834410034133543,0.8651623972750687,-0.8366475303186789,-0.9190858022708482,0.9685425226539263,0.8030078629165147,-0.6985856931225216,-0.6167824405077114,0.23499549324931834,-0.14157634696464294,-0.49061472455119226,0.2669669529157872,0.5706952722048766,0.4619700487853028,0.5464704210599179,-0.29643155978632335,0.4662919694738443,-0.5517999213342356,0.39657653195923337,0.8598945360237696,-0.5093151287570111,0.11060594778244906,0.636622495981828,-0.7494637260450258,0.9771316989723673,-0.030427583612125695,-0.03682673361960503,0.7022000164577207,-0.5229698127719825,-0.042268119553092634,0.9946396693219295,-0.07565980597178086,-0.17383880692763276,0.804631696028349,0.4269840757700667,0.6614388341156869,0.2893988555687734,-0.01360581825593421,0.2932620542987916,-0.415158931509628,-0.780017048104737,0.6696810939116933,-0.8638158825582533,0.6831587463603831,-0.01035002657425151,0.28391201131379223,-0.2030938807521588,-0.1044086766556516,-0.5322098342441804,-0.12508680570294006,-0.6688460474097954,0.8658579792322207,-0.9720837430817588,0.6129839673457412,0.08038639222006327,-0.6111944942966177,-0.6486586718384123,0.6406476166057733,0.4359967574699553,-0.3873437148177611,0.6721810898601819,-0.7131040709783174,-0.2604959022468947,0.26291801711169877,-0.4982473417865348,-0.6335118270522804,-0.4828946172486632,0.645032821502404,-0.016169447680658526,-0.1674641771475656,-0.204815800083027,0.057764551828544584,0.36801778372549915,-0.3190048653206007,-0.4613292102659845,0.14933589102116585,-0.6227035737496834,-0.0679150992867458,-0.008263458062299089,0.10295763008681064,0.05030245072341641,0.3051335445658658,0.462960462758628,0.5349701222802639,-0.4832678400829255,-0.2576257294017454,0.1422051920384335,-0.41341646114532377,0.5356888191773297,0.44609761617901555,-0.8288507679999028,-0.6407375550966047,-0.543360407043619,0.4180123173061317,0.07322407388844843,-0.557324190004482,-0.7078313573344559,0.21270281486914155,0.15635401673624202,0.60619635101586,0.06380501560095604,0.7517048837217295,-0.7828441499373829,-0.3777704154062019,-0.14892881208947345,0.760247779787659,0.7873871812710912,0.051000671304507125,0.1519883708421237,-0.2556060537827532,-0.2970368349988972,-0.8833880053666804,0.013133113974793421,-0.3834033892238488,-0.38709111630677734,-0.38163182837335863,0.46211714292940376,-0.7042692700219708,0.7684179792849359,0.29088004048653826,0.9651856289718305,0.9166038473690993,-0.5533618450876774,-0.5732550900272311,0.16568178301487096,0.44727284977056425,0.3375384404554828,-0.9754045306091963,0.750604641427799,-0.34952755386790085,-0.4415187881315983,-0.7202421321122966,-0.9917430275042403,-0.13672372821746012,-0.6485265922402785,0.9178248458775403,0.6889753658194261,-0.9750434274339533,-1.2857582835491739,0.4650365774001179,-0.07740719869978917,0.20305202766216252,1.2452268751797246,-0.6198138872118272,1.1832096844064186,0.4418676726621523,-0.6039179698144126,1.0003271067648913,0.6499435782495928,0.29698409029816825,0.28234524548343787,0.1545902720914298,0.02543527533915579,0.6778621864075409,-0.4290477636555059,0.9584921992803684,-0.23931749128293786,0.8989351941742428,0.7889649421327182,-0.8090200257171022,-1.0555874936217176,0.5044476036074442,-0.14940126327767228,0.3180341197442769,-0.47367409688462475,0.5461062401577466,-0.47806571343403814,0.4540944109790746,-0.8563338812722796,0.4014055040994387,-0.02980926841673431,0.05407021830004459,1.3013913946741238,1.0367702521197955,-0.22172417904467542,0.08288132148401468,0.388200678215302,-0.17603144882330804,-0.09079629656741384,0.2562077943425521,-0.7151152969649877,-0.9340912063998933,0.3875622511821608,-0.6523772650902404,0.3913653601377018,-0.3499172148785722,-0.8442289895430577,-0.9534550855577164,0.48233538100696177,0.41466596983770343,1.4659675526803118,1.1971909558507774,-0.6823457172217389,0.7466511023910185,-0.6403937189696121,-0.936903746270387,-1.1218867307351141,0.8331342691728488,0.31476055774440564,1.1316631524010938,0.30643500674990864,0.3303058605192229,-0.7241831860582937,0.7331329766455645,0.3289507143806691,-0.28361208069962174,-0.1625948949361149,-0.33648717430038677,-0.8317424016323899,0.823645376906201,0.37041095963165477,0.1706992494466206,-0.05508716491272635,-0.5311880750594459,-0.04807625706093702,-0.23720697814209019,-0.5939455807086566,0.8696316985142373,1.7334617338200216,-0.1740891111970278,1.032547204331392,0.0769848921892191,-0.698418531196404,0.5353917997999215,-0.1977685677362212,-0.8374003492320311,0.27827469742204064,0.08280129696469107,-0.20926967198897564,-0.32695556823500693,0.2937499438333054,0.456187733582945,-0.5265135425697418,-0.4664226568357149,-0.6281081765684666,-0.2837951923988584,-0.3755325861895222,-0.47664759230033843,-0.4705169594555653,1.04498965442253,-0.9508694770712055,0.23215184694308766,-0.6053965605331026,-0.9520454647029147,0.7291843419109963,1.48854788498741,-0.01654765422523271,-0.06866691914814188,1.1612881052154571,-0.8560774792956142,-0.5483879459001142,0.42818457942096116,-0.7085092308071641,-0.7395273890226586,0.6265367514993001,1.0184555582517767,0.7774047441374512,-0.044945773747217796,0.9070392834878466,0.587645604193581,-0.1635144415964929,0.0778226881385277,0.6465585812288546,-0.111572374279429,-0.40279410906827534,0.45031045424028615,-0.712735950861574,0.9406511088907132,0.11458034181757004,-1.3607779307599026,-0.17931762916996208,-0.769750816253493,0.625322209583195,1.2787178281199805,-0.6395647539361289,-0.6609181381814884,-0.6923719424930455,-0.874602192244799,-0.04274093856743466,-0.8882953711140787,-0.1413785763438473,-0.8078681239131908,0.6498743945409325,-0.3486718127475726,1.4287516630130375,-0.3822884596402311,0.903003148080099,-0.5078284649156268,0.8178115350230971,-0.41227843828358895,0.430214818737871,-0.5817567569684055,0.8907234935879847,1.0265483675030629,0.46140595387733263,0.8676366789587401,-0.10397718494466664,-0.7064458911152232,-0.7710580991700619,0.9465732077338931,-0.10035202599972629,1.14298648734737,0.4157034994228901,0.5428230357406613,-0.2379394024502398,-0.29484476199067294,0.5110403423372112,-0.982364820036492,0.22242737175163652,-0.9693476686740399,1.3625087941648235,-0.211085422946202,-0.03739576996565821,0.9026257418679924,0.30829460454084356,0.5923731550348456,-0.2575085141992418,0.9919739353614782,-0.07928361749572393,-0.2512040549372697,0.38737778707712645,0.8752418131870584,-0.29585531227250444,0.0652734443894624,0.29311165562524893,-1.113866275856383,0.1265775048453227,0.4606512072170241,0.34136193014779503,-0.4497801497274916,-0.8796467784163572,0.360283443299402,0.777549743073625,0.004395473664227506,-1.192023596263217,0.11783699707989381,-0.31753657085310627,-0.07923658904600656,1.301377358877244,-0.26454015720206825,0.7818314239571356,-0.5982437146896923,0.7068678180175698,-0.38960602675963707,-0.8212629404697089,-0.2245787875327225,-0.25351958346350983,0.558353297789495,0.8220350152696074,0.04704813283043498,1.0152015155671836,0.7239573991037824,-0.36525179716279127,0.39597391335663207,-0.41640789908451,-0.12095786279010322,-0.2091090053806464,-0.8782760398296311,0.7748185085079646,-0.5766996907499422,-0.955770264731161,-0.2096842377281377,0.15647575195901253,-0.13672801406121093,0.12656120688782732,-0.4203694437479516,1.3982237690319153,0.3947344345961242,1.2751153247974596,0.8832606236612106,0.17284794945098944,-0.7404329331252602,0.7528733907837296,0.0838229090234722,-0.10707738113876314,-0.2508886145310141,0.38162080801816933,-0.2175567277281826,-0.47046010049715203,0.4256445830241645,-0.467592129231623,-0.6603110401999365,1.0351563574012554,0.4283464498329944,-0.586734064805628,-0.4455771653426155,0.23561743258564147,0.7138993844484347,0.6237826844803198,-0.5498196535077591,0.433153000230134,0.5885289469927769,0.1285505638303842,0.9120384823740573,0.9808120091966172,0.24613001851659075,1.4477271195011387,-0.36262373499888173,0.029401534104934995,0.417364631106061,0.45309722784151163,-0.6590122601765918,-0.02177549779513477,0.4277617069149513,-0.008533883624524112,0.6733848975489506,0.4095476099644984,-0.2775534226883813,0.6916824960381412,1.0015980022824602,-0.7163845303986867,-0.10308141828033635,0.8803276379744616,-0.7317845479938074,0.6773626799598144,0.23768242441083443,0.16888029940318985,0.3403824252162504,-0.5164530894863015,-0.32277921260660586,1.2300848844507952,1.2293185834395546,0.5650416657317169,0.06369196234294157,0.24081464453281093,-0.6920257478641353,-1.1412180854955436,-0.4206940428142705,0.6507487468021391,0.6938585872617118,-0.9577235897407137,0.9042691930551483,0.968239540263431,0.8193392049927517,0.16951306015182965,1.0900289400709635,0.9867163506031399,0.8085846379472301,-0.8307247133383867,0.34183782755287095,0.3332693364356436,-0.8094037228130408,-0.6386936283985873,0.32577907267355743,1.1273302791773492,-0.7025899418762805,0.8224562140581271,0.8638034471187376,0.5096514770024683,1.3992032503233074,-0.612187750263514,0.6545332466236027,0.4316910167362725,0.3947723579654423,0.20038214417589978,0.7695032398231336,-0.6497558994448486,-0.8038620238961327,0.8859700720639436,-0.8084227457115272,-0.8114477291561852,0.3122324433007443,1.0747397287585951,0.9393425556895343,0.3260472452016167,0.25945216682921546,-0.012362561106208434,0.2187697972067541,0.509132672728448,-0.16432238222166998,0.8262909209144234,0.6112765146343386,1.1101099430147368,-0.38710314040599614,-0.6497135405681294,-0.10391448062181113,0.4143109141410852,0.7703777970626757,-0.9054989620945333,-1.122049468408773,-0.4194660425061093,-0.0821435726219287,-0.4343260978360179,-0.22704770685483408,0.31796927665741337,-0.12127154098073831,-0.8041971890999458,0.6755511966084391,-0.1308800419657222,0.31873162639816977,0.7149655466631231,-0.0691911985049136,-0.6122455516619197,0.2921669097492631,0.28790493115969545,0.6971301674285317,-0.7572959261091383,-0.21557966874666387,-0.12226094625676506,0.06896311909810882,-0.027112420010167445,0.6350767025998263,0.8144869685287286,-1.1093638846869143,-1.0329624685462482,-1.2503480242286236,-0.26266145862004076,0.35144599354354344,-1.0481953394136108,-0.6520387512958712,0.023094736835010773,-0.5805932650626978,-0.9037800839762854,0.25447104733443837,0.10023022046590713,0.648682092260047,0.32877780768995263,-0.6122123842268442,0.8474565314397344,-0.1597147089965912,0.2738476876568046,0.25810645077807587,-0.06518314159442969,0.8867702936040177,0.20411237929272935,0.020258980938316396,-0.0946438337639131,-0.46492757319003003,-0.10957549872399491,0.9861836252441093,0.4005029477304157,-0.38942587265129364,0.4272781802922876,0.33678541755965996,-0.019901404142861116,-0.45053673387652915,-0.4056555528040437,-0.39638503352466936,-0.6933445574373244,-0.6208652372446775,0.4347090080037155,0.7428017814056042,0.19859021617537742,-0.38422746639171784,-0.060270643923876994,-0.9363775280901424,-0.1436692531228324,-0.10599165581135908,1.2835861831726167,1.180999375594379,-0.6720077539579402,-0.7469072225025102,0.5055980339423377,0.0207892672739012,-0.4984718145469973,0.14931075904448,-0.696400981047325,-0.6260969533655134,1.0087520222700688,0.06143533101200689,0.4224046915484741,0.7179679969905786,0.5952378302384648,-1.1897093117600515,-0.6798283394095033,0.5062387158679452,-0.04228520022666986,0.35734865044489683,-0.34253556184479306,0.827414685191144,-0.02475767407876095,0.8792894439564344,-0.46779242254469117,0.9626057799139642,0.16185812180476342,0.15569098779406043,0.11147139688467837,-0.20309974029960956,-0.6128955363433971,-0.4407178142499244,0.8775819945865819,0.48306252202932626,0.4538060426425299,-0.04409195796718148,0.5055893822236714,0.5511508240415731,-0.5349528911840533,1.0822244859451884,-0.8429222279123739,-0.4735998402373691,-0.7965535769867509,-0.0030454107296943827,-0.2356424585445354,-0.2303483472342845,0.34504574498057367,0.20910052788173367,-0.5271851757438737,-0.44196102230743944,0.5400227759748315,-0.08664332475614868,-0.44789443021226455,-0.907178999149684,0.10358483394700464,-0.841987829922341,1.093057744344193,0.9947868704481717,0.7534027972582785,-0.6816455729308489,0.34175162069040477,0.7842891849544643,0.7128953220126583,-0.11084346734039001,0.6407527811674508,-0.3882749715714945,0.7416344401715413,0.3647528235737394,0.8785648906224829,0.8766625460043166,-0.9001039566907784,-0.25068031204061486,0.662085376056464,0.7241499118676796,0.36770373046178884,0.2992403052175831,0.48224230575343924,0.04827481323912957,0.5732798450924048,-0.021583271711346885,1.0026448204396499,-0.27180090755992165,0.31580364996047144,0.5989009707058887,-0.7160953873539168,0.5480238990041665,-0.7638364386083139,-0.0096765429237886,0.8844383157052756,-0.8479368417489306,0.821772135631634,0.5642204382989647,0.8542226424909339,0.16638116195374578,1.0496863974893933,0.8720797810129326,-0.8516203851189975,0.3708383874785199,-0.9018315275627045,0.5688635256759254,-0.41498286037874044,-0.5685450167109433,0.19954920136086765,-0.3726043637694182,0.411230931358428,-0.36458022473874196,-0.763940099855652,0.7984661248860685,-0.28451810093378094,0.5173037042422903,0.5394861537013435,-0.017454897210660913,0.18309416716870983,0.3197781394464036,-0.7104646123909779,-0.069842592643005,0.007351795397400297,-0.8416549993024247,0.6812233014131901,0.7807176163394162,0.5888502560803012,0.37498038168041337,0.06749029933867487,-0.5625392008205975,0.030190535331195072,0.8981767719231252,-0.5349793348052808,0.37931144501913505,0.8860208040808875,0.9216241552123363,0.2322877928994473,0.7574741632890076,0.5133624721615065,0.6525659442092042,-0.09317746187901621,-0.35617638566655696,-0.6278140453147771,-0.8310187651256825,-0.02198348986660766,-0.4052459607190627,0.41066224788233097,0.07826323184495572,-0.6727444447612834,-0.04095019237253071,-0.3052689936623736,0.9380851462955513,0.8583454892704384,0.2430017210974618,-0.1093980904559794,0.10215883555578095,0.8229125325925101,0.3194222695345742,0.9901450205729689,-0.8812588182254606,0.2360715010814184,0.03809351184259089,0.8291504465241135,0.35769342447744534,-0.5025105699807783,-0.7102094853480477,0.36369507424679925,-0.9122039074028554],[-0.47843280713417236,0.9779221319677158,-0.2835252534257213,0.6637824647459225,-0.5817948032477633,-0.036360718392018786,-0.046810116458505316,-1.0000390637356456,0.2970925399953842,-0.06236392955593857,0.9474700815667619,-0.07774988736509224,0.19088016352974674,0.4555681540792168,-0.06990282205269682,0.5620832540080343,0.44284626164986995,-0.7369153157863373,0.8567710871456045,0.06375600107728054,-0.6482953668964275,0.30426692879998846,-0.3235238492742238,0.04073097375334687,-0.31514298538687546,0.6648907731425693,-0.8735211915247123,0.5419893269021787,0.17573696660649496,-0.5938891462492686,0.3843121721458065,0.08324218581304432,-0.9984966274652907,-0.1564070922664298,-0.9970969151889313,-0.7047720826828944,0.16867712081385397,-0.08009475579639404,-0.4857057215901386,-0.7456748059932983,0.9761807030121104,0.6780350308039521,0.3361719860763451,-0.5072998375971971,0.5199292518286297,0.7035990129886698,0.43516652684646967,0.9228297729405144,-0.4453868797811462,-0.8497033977240213,0.6354442877615863,-0.7828705668204781,-0.7750277907203107,0.33964006274014125,0.37593937634714836,-0.8191518669423372,0.5536972004015195,-0.7976348920530327,-0.04698928560271298,0.7277485702569164,0.7987595228000625,0.6237051382725216,-0.5685803239292114,0.955023289614924,0.4232743444671931,-0.4929817280686239,0.6045060561934213,-0.24787179514544808,0.7238747598094865,-0.2518403993391156,-0.5616475272059985,-0.6468788807114402,-0.7350456881305256,-0.46759301545926013,-0.3273135271584255,-0.5692265400832583,-0.9155552267440609,0.0485296808562625,0.5099707389188258,0.3009373862088811,0.10134575817010116,0.07106152493142703,-0.39833920366315834,0.6531131486514123,-0.20689702488692507,0.4864411432017284,0.26558219850013326,-0.26832812825352687,0.5702779784616484,0.8086906025839039,-0.8731608538363064,-0.8754860277503967,-0.51706807537991,-0.869212178225287,-0.5913856746651013,0.31367606672979287,0.8188074349204845,-0.2982228553939168,0.5762355573665727,-0.7416734503862185,0.31458356393178505,-0.28107736730952626,-0.5069160660165853,-0.43949293366719455,-0.6973160672894037,0.4152865180909525,0.3178740672783649,0.9935713007863918,0.5750578676027235,-0.47008802555931334,-0.34903529968077107,0.1369363078912902,-0.36683784064742264,-0.5131471167659707,-0.11270929779736813,-0.04299342661242639,0.14233422885407898,0.12018014671801182,-0.5727416971371286,0.07232897088362476,0.7549222742020568,0.6532396733384402,0.3250894262634944,0.055906606127908966,0.513390790372489,-0.7733678420996289,-0.8833439247925894,-0.6975301526603226,0.04034245404920873,-0.930138221818063,-0.5383165407652993,0.8144428294019409,0.47809330940769923,0.23286952859837184,0.30022971735175114,0.7907799310848163,0.2882182658725703,-0.8183717918147305,0.6897548373756576,-0.1586285487158432,-0.42870617391580623,0.7413756814383322,0.8059938644495749,-0.09587576992508563,-0.9479576470383835,0.7324090720763322,0.6716642921642075,0.35216232151117155,-0.8100741500184327,-0.6723933542076436,-0.6930977285637441,0.1098692191027438,-0.24176515802627638,-0.24992860415715606,-1.06474221736245,0.11104992077477806,0.36739487671098336,-0.004901991542702359,0.6391570187245831,-0.277340254618032,-1.1250053118905448,0.23894347899023624,-0.33415444712008385,-0.4719919305242719,-0.4541042638977107,-0.789593952190729,0.12915499075336614,0.034062912446877404,-0.7640321154778467,0.2996924482529852,0.8130961362672122,0.5601512380775384,-0.14131379582416245,-1.0122596367010455,-0.15691785322598403,-1.095802579664764,-0.18234497935369318,-1.0343488190955978,0.9002826988767099,-0.39051262659784763,0.16115012709298127,-0.2417460872114763,0.9812830081091763,0.710212793561964,0.905148948201508,0.879367050402341,-0.5637832827057355,1.1293937454957588,0.39202865206882304,-0.47977605611886853,0.49761646889267713,-0.3348948433810978,0.15389324938063395,0.7109362780952139,-1.0066479778736661,0.3235442307452486,-0.9349108585886721,0.9246493305653737,0.5537397196051235,-0.7610317040705975,-0.5648348023011324,-0.7662941074898284,0.8118456067709596,-1.0775461804829147,0.15525566376427447,-0.671031788950232,0.09813497390589716,-0.606609483746411,-0.3096406319922961,0.5773401038901023,0.3977962036419209,0.48726892319848536,-0.49475606609551614,0.6172187612110792,-0.19256148208172275,-0.3896475729687139,-0.4558083583388312,0.9779101095489595,-0.13333959233087123,-0.18477798923902242,0.9317865423501648,0.21602581750929836,-0.40279791118445113,0.2504919859676969,0.3814114309396759,0.18588435651131058,-0.6323365889624276,-0.3050194056586773,0.6681590168749678,-0.31263090838738067,-0.09511496037922446,0.4241923292791959,0.41811993916292495,-0.0760529544458147,-0.31016107523092834,-0.2550127378784689,-0.027514246724330074,-0.07784674924835906,0.15016362579250517,0.10382245734559639,1.3254342057183248,0.8739538577908081,0.39381834742200095,0.6676647116883244,-0.6192209708560015,0.8534350397359557,0.7433004486107254,0.5973220117312086,0.6882959518435968,-0.6854438476755881,-0.39576187073281716,-0.9761849423027255,0.4334866751154771,0.7904837524321628,-0.9052178098732716,0.4520643930441974,-0.23609767743627144,-1.0249005282557206,0.3103869513328497,-0.4960085852829868,-0.1409141242280149,-0.6922154333992544,-0.48367760117896336,-0.11356339562149277,-0.4021471802409749,0.2803257252699507,0.018268588967395652,0.6557437031401537,-0.332797861771501,1.3745694555031807,1.4772517295050964,0.48016681007090917,0.5485143330353099,-0.5760247589817517,0.23014644899016656,0.728070430735942,-0.9332813635354524,0.3597368471312633,0.06854676262998126,-0.5163852594464962,0.6402569776352758,-0.5298784463336635,-0.6807635242938891,-0.058664234144889076,0.08708042080205804,0.16255355069688693,-1.0868585199307568,-0.6165733361849721,-0.8815600739522337,-0.07546492401222009,-0.5874070385942618,0.3590050787504328,-0.3760986689062002,0.28713964059148367,-0.24399676938329207,1.47370943151467,0.8318474982512335,1.173120144874917,0.4419080616511623,0.9954719161530727,0.1732365509041734,0.2156130227078035,0.5180815063563868,-0.6719499084375528,0.09615182828401207,-1.0750388711738839,0.9593784327657491,0.7572578968259467,-0.3659724456867126,0.9051967265721855,-0.7052384383838592,-0.4859720082444207,0.47653937535624685,0.3122454338763519,-0.9253898220537536,0.3248506075041224,-0.8488717022894346,0.30662162787635494,-1.2085677528177048,-0.7545276551044575,0.5711223341396496,1.5776683978357373,1.2519986149826947,-0.01851047701123742,-0.24662631748484112,0.5010936421642229,0.008169966566008088,-0.2538435975375642,1.2391140497807287,0.8898640230574462,0.6992079588502131,0.8392264487403815,0.33656997349894474,-0.7091571124466359,-0.07449099966373628,-0.0824828834762759,-0.3091615813849158,0.263635278649052,-0.8856936206402168,0.07132328353653722,-0.38729605069643946,-1.0657329022292634,-0.8674286629940916,-0.7095920213461137,0.8728505352937863,-0.22764768032258664,-0.21734464519441213,-0.09699708175165751,-0.6669265666526399,-0.2607649923193172,-0.033919495068098424,-0.8143172719731128,-1.566211090529399,-1.8255532910995609,-0.3623540974648634,0.3206987328850646,-0.10130230447141039,-0.2935117045007613,-0.12379791639670709,0.016400601705909117,0.09282948614052512,-1.3433243984734557,0.7859394742011997,0.013558680916123673,-0.9691135035734681,0.236947319226548,-0.7213476464869414,0.4545340349468176,-0.5826349449720498,0.42264462230638705,-0.25439251523128503,0.9612466519571133,0.09294306357299466,-0.06785850229121912,-0.6309531173708355,-1.4399491770175914,0.07669565606910778,-0.5529843280892988,-0.24183247248832385,-1.6596393566495404,-1.467758160560607,-1.6542992560487126,-0.6578521464601351,-0.4068635935177161,-0.18723904140402467,-0.4072999455551158,0.19727251162991727,0.22037774589634762,0.6189998422364165,0.4286611558749137,0.48344573155629866,-0.5615992187107725,-0.6748669997826732,-0.46748940742876294,0.6391041468433256,-1.0897701425467792,0.6779196360428805,0.6497527312404848,0.6781791546645027,-0.7372416327401992,0.32497194675764884,0.23176009105497875,-0.9610267154893062,0.3402998044168521,-0.10926266536278341,-0.3526972023707078,-1.2338327028039775,-0.24684258062318257,-1.7713785482296944,-0.3375581265376977,-1.423689205130451,0.25413264758758974,-0.3109413440711301,-0.5636461567587401,0.05210901431823796,-0.5631164699914216,-0.8659321677623276,-0.7715381102382108,-0.12037224166026878,0.32414671880188933,-0.9826932699816767,0.2726238350895741,-0.28463237832719873,-0.24077274286646774,0.662380330889438,0.5349664446477523,-0.41984398178058974,-0.8533565186953278,-0.20593563110840912,0.09133910108656007,-0.9624760787927171,-0.22986398494358548,-1.072669039091387,-1.389096722915213,-1.381806048031315,-2.0066719908441435,-1.0659009559807069,-0.2740338077121638,-1.112789883331864,0.20355438622274882,-0.9378852490327505,-0.15813447937750377,0.45232173330684367,0.41083050950735295,-0.2458725937598482,0.3707265112553789,-0.9558923094398687,0.25194234585878383,0.13992099634876556,0.6608819658655425,-0.894467093997995,0.08653709531773132,-1.0921387065304151,-0.44664511646680094,0.460592250550962,-0.27754765745980836,-0.30197732987791953,-1.3728421090866805,-1.250541445351858,-0.040193529955522334,-1.286302062978604,-1.311046432349602,-1.7908406494328657,-1.5691364377725507,-0.4329233211545686,-1.044061934255534,-0.3373563505276263,0.0003611169350010483,0.17693158352963104,-1.0173877320776152,-0.3665195939360851,-0.8643581597874515,-0.322496348618926,-1.0631138425507942,0.4211937344898422,0.8669412082440574,0.8430182330890252,-0.1788695535509619,-0.4973971358404355,0.027352730601192473,-0.3240170037672395,-0.9166946486560149,-0.1536023185668965,-1.1484732580005974,0.8917866659841894,0.4075404334611888,-0.9263708676708214,-1.154652383957308,-0.7597967235193138,-1.8402933914813764,-1.475534035255474,-1.137121103437426,-0.835088427661432,-0.91858485637085,0.7566948865182509,-1.9014464101525577,0.06270550568529086,-0.8946858257430466,-0.12115017981869906,0.1744920893941583,0.24266143872553833,0.3391466044137661,0.8241412715852011,0.24898781818679708,-0.34173059336378886,-0.6593223365186576,0.8499325009407096,-0.4272740636248964,0.1489106475667777,-0.14004138787206594,0.18644464812184297,0.3569922985077934,-0.4067765690629301,-0.6423202602176971,0.5639436960178252,-1.371253259865706,-0.763392881040098,-1.4518321270886152,0.16588969933136452,0.4444381614478776,-0.3824905140325278,0.9233747989569719,-0.5554244153271541,-0.18380024632520814,-0.33146423313372886,0.12533628812951175,0.49435965032524604,0.011948798448444741,0.12498337105083376,-0.7933879146532948,-0.623294425514454,0.6548438103763691,0.7998670260766452,-0.916215620044442,-0.4063833572334895,0.4619042126455938,0.4942662588533812,-0.3311405094490352,0.8763032464581493,0.47770478570951996,0.4557965845218236,1.1092363354047396,-0.11444541627664089,-0.555569595909768,-1.0364384839372138,-0.9745690597141564,0.8669407134898639,-0.7568364589162698,-0.6737780043441477,0.7320350196572905,-0.9134962827359704,0.5218886088390069,-0.6090012960291372,0.4974601979306629,0.29013945504781025,0.06232727566740616,-0.23896682726036997,-1.2505927322613788,0.0848429356452364,0.8232208275090845,0.6394445040794943,0.4679786477031902,0.7343173392413231,-0.5496534211280485,-0.6848311720290768,0.17477750632529618,-0.3187663566655919,-0.5069815388422061,0.861282516441724,1.3961293006695283,-0.5083523542899305,0.33508872431468417,0.17974495570027424,1.134874875447024,-0.4720741740623099,-0.3245646590483873,-0.6157226248876798,0.45649978877561304,0.25045892748446663,-0.7299256018805295,0.021359700585677745,0.23231665070820542,-0.5834410414943595,-1.5306838682716812,-0.005110361484559654,0.10437816563753004,-0.29797040177549505,0.0033506405922332323,-0.6478207585253442,-0.1521919119934755,-0.7359845030587336,-1.0425443235799883,0.8156135191036712,0.029668575998940183,0.62399621739144,0.009816000002981997,0.8540698076630883,0.34956139744091064,0.7268945734259901,-0.6578584764332198,0.1777492408641031,-0.2997160927341029,0.5646376063677466,0.25718441707804784,0.055063970974880055,-0.31697341228254444,-0.6399389252889903,0.6318032701558189,-0.8571401126426184,0.3752809241759901,0.2955847556463773,-1.1333368724862625,-0.6440601740218488,-0.23996117148543733,-0.9645120174631866,0.4455878435138853,-0.4293873357229936,0.7432908272916856,0.5060209360896414,0.8407597731665528,-0.35907635767590607,0.7803717800001244,0.14828386456404544,-0.13160092589202171,0.4042279192679241,-0.5611980118442015,-0.6195540366328288,0.5557659496869854,-0.6977500673524226,0.11055196324802989,-0.4920925931097192,1.0007832386935875,-0.2695372436933943,-0.9570728026397987,0.8783830143591046,-0.27472334446520735,-0.42631159389510187,-0.11290772370860225,-1.1429441445377966,0.7769628294132813,-0.500775018218594,0.1504289169776219,0.25480614757545145,-0.9960205434368105,0.06345300035659962,0.30551608756402915,0.07919956120364906,-0.3841142667906199,0.1052452337888527,0.8886804029401181,0.33068469932217015,-0.11572857764766273,1.0667862239818597,0.40376519430491015,0.7177646958170234,1.0084276559779906,0.5125023448938673,-0.4006633464166828,-0.2020543468014644,1.3846224671314977,-0.2696860644309965,-0.48983691918841443,1.1835968180430974,0.37059129667471585,-0.07499161614927329,-0.5331229515535028,0.8408128424937698,0.025486794674705843,-1.0222293333339305,0.48113867513763264,0.04573702117228394,-0.7058991441697359,0.8233948665285493,0.019398382584183707,-0.6439835720068086,0.4298437863033168,0.31668705186878354,0.3582545686386652,0.345375770215918,1.2024278192704356,-0.03685648152705441,0.6194924703303838,0.5754853901979231,0.5820409341828705,0.18966996009404274,0.9023139748297367,0.5801278679826417,0.16577849675094555,-0.1107672613255811,-0.6205791353494563,0.04483518234412692,-0.3662980386281994,0.46154854381437194,-1.0206026971751443,-0.23952176493022145,0.08728471646112584,0.7230726844535713,0.0975027246517923,-0.43800077574747853,0.7634714579098429,0.35141754751653353,-0.1741690264916671,-0.6650480072426719,0.2966020008635125,-0.31177973125779446,-0.3766148648142605,-0.7513355474692122,-0.9350325158046611,-0.23112300807552738,-0.37899143890635656,-0.03406815068301943,0.9704615277422581,0.5876424702279083,-0.3842723732418789,-0.025424578700762562,-0.4986528669170684,0.914592334302684,-0.75773819087895,-0.4497068607121821,0.4228225857265639,0.14990887311140152,-0.09904883054243305,-0.8494878969398673,0.9804471733289749,-0.12230020980516237,0.43774955274529037,-0.38861071282464643,-0.8140867044012361,-0.7845689634666182,-0.831866240265962,0.02285905280086286,0.9760885738199614,0.10724219937872101,-0.9105529686094691,-1.0588974986488255,-0.9469162746496592,-1.073225260064323,0.5806128812824483,0.3197760633887563,0.17420471024458986,0.29540136896735913,-0.5819101959285728,-0.7094608592423366,-0.9403741382671202,0.8125663653761442,-0.9021646674565753,-0.9209398391435581,-0.5398657909493615,-0.48643125435940116,-0.15560936213767776,-0.6390351386019708,0.9136658599827983,-0.9845541231163374,-0.950757276907946,0.15771331353415732,-0.12126400871687704,0.6467268975178615,0.6976808271731754,-0.23293890650751736,0.9949125553864989,0.47508631196506473,0.035800027642548714,-0.7154679481403827,-1.0393280971005925,0.433532861209619,-1.0789606878142948,-0.797488686853385,0.5850543752167228,-1.0015347004849824,0.12234815547349764,0.27414811113469745,0.7921107807585513,0.765536843238394,0.45741548264477744,0.46011585856671167,0.26100678551514184,0.9818546714969654,0.09677027140059233,-0.38160422238134245,0.6583311085521211,-0.6037317110036405,0.46627601726449946,-0.4718318483309809,0.6253111737301458],[-0.4545026743166625,-0.8438914955815418,0.7133618714418417,0.938731477232325,-0.1666402129460156,0.5677776005424561,-0.46773302800941235,-0.8958959465175101,0.047257689760673745,-0.6481125382975548,0.0642197506577257,0.5398095477146831,0.2820762577079406,0.6860733695183224,0.6178493968488489,-0.4449600178305831,0.33957161801734986,0.37658145493484174,0.8281318321382347,0.9890830663635165,-0.2984072130456735,0.6857763433162954,-0.7131598788558027,0.6245842543529321,-0.7448878773621579,0.7447655648063312,0.9692709482135942,0.4440115946932619,0.848202862156628,-0.3547556336715951,-0.8781636491230933,-0.8839289361337808,0.9816048116409575,-0.6727309575149802,0.22062213018933985,0.3942184890707417,0.011965515588723821,-0.2277201057042277,0.5558130410799367,-0.919115870094315,-0.18001724976998845,0.46434684033760354,-0.1807169443661564,0.6640361074214295,-0.8134767153134681,0.150850132399035,-0.7628576560351373,-0.31646588404632,-0.670612481372661,-0.6204597071153092,0.7397577354078444,0.5083322964704906,-0.7008773741226797,-0.29565960402011715,0.15652344413227537,-0.43645369443026194,-0.23825508573631815,0.17751163160650307,0.4224880348629827,-0.9821960600826891,-0.9348626769777822,-0.2045408638638988,-0.2316827623042324,-0.4809025642165588,0.7670210987599018,-0.4659535548399902,0.6486024672022954,0.7781347961719465,0.8487985597860604,-0.7483120707624695,0.3330785766509337,0.07085854265840412,-0.651261510280608,-0.5827590500872083,0.38488046921886027,-0.9231959393289062,-0.5600203903114632,-0.6706902490227993,-0.6002335185591994,-0.9755553955462406,0.6817030896585949,0.6256165540302079,-0.9683942763455722,-0.6562724114602654,0.769431067195165,-0.005397864804536745,-0.06316019761982446,-0.1663311153857194,0.6785090393290178,0.9706840635874481,-0.4493741670507558,0.4359354162601511,-0.5021794010384648,-0.5783643313861537,0.8927497892182306,-0.5508571581545291,-0.6444294538068694,0.07992768535197084,0.3228676084971443,-0.8996788182430121,-0.017791147752011773,-0.09885966664859944,-0.05144029196786169,0.3553131282559914,0.45083105094807907,-0.5708508743038212,0.6014910777284774,-0.7259487110279034,0.9472628235983133,-0.8809872039841288,-0.0011564401272954328,-0.524241138234085,-0.23374459038597672,-0.4563016636283588,-0.8205574777134624,-0.8747235062342165,-0.05584027899110181,0.1364313918606556,0.1789049391832324,-0.14922222373456284,-0.8074526943618976,0.7837735834846988,-0.5033409538363187,-0.4050371677296826,0.04286825124305264,0.04632324697321166,0.8069714639773296,0.34253124539242763,0.17690953785839328,-0.07889409135748388,0.937528930389463,0.9246288660070352,0.6357778956469121,-0.10608827104664391,-0.3649767893862912,0.27361860673759764,0.6888399064901096,0.6003094964032448,-0.43923031800716644,-0.25471190693403445,-0.5417725723048785,0.7110545028463945,-0.4851131001377005,-0.022141766607038448,0.9486407790874264,0.32733715449740425,0.2608851664381089,0.56359115664625,0.7283500276884856,0.6845736880444129,-0.3111809442470278,-0.8907770520397077,0.8116111193020202,-0.9743519113458439,-0.6308448815431291,0.45597422674132926,-0.8896268105218593,-0.5654901949216736,0.40072362017571095,0.9175058641153234,0.031220637885777273,0.3835512097495594,0.24745684886509647,0.3610823964839112,0.804698690348079,-0.16510160963757187,0.7815163015547362,-0.6145240340403475,-0.9689150241880125,-0.8790163476120829,-0.9377359199773797,-0.8286507880120519,0.3344239220473686,-0.6602988718555299,0.4072452506469474,-0.7810251765672583,0.9898507040325788,-0.474621494736392,0.31423880427305007,0.5718550633471305,-0.8306209634447672,-0.020013754180451822,-0.21866101734312218,0.01804710782356979,0.9012031912723539,0.1878720970447808,-0.9036976220391281,-0.5626918060738949,0.5247786652930233,-0.7980777897990033,-0.21041754470700627,-0.17863126735214493,-0.6492008800680455,0.5911187108439785,0.5058073073934573,0.9469664519985569,0.5479695794647137,0.8348688549278291,0.03836860964236187,0.4510230074653273,0.9502165304080159,-0.10002125969201278,0.9241064899043827,-0.6223298507007984,1.0561363523283085,0.2567619990637571,-0.5568067262251334,-1.071726401205387,0.6061861593835282,0.7084468412961733,-0.8517522582130544,0.8288413182035751,0.646468139154726,1.0043709368055445,0.28490789426230984,0.629954559198596,0.963752726459585,0.5667148873240164,0.3199786830866387,-0.7412554267970912,-0.9815323138453981,-0.6940883089860681,0.35965983374890026,0.42399827485942015,-0.25596421272757697,0.2456271931673982,-0.19368486368397722,-0.5773865383475606,-0.9903573248923334,-0.3843393945970661,-0.425886304356179,-0.7884188390489586,0.04301409740416095,-0.5692070299014387,0.9140878812337214,-0.16872925520834817,-1.0272083042066842,0.38624500006440593,0.6110972937110615,0.2782738192858014,-0.00975972186090222,0.7867153551705016,-0.7253523659299388,-0.49797609268988624,-0.06402321627019869,-0.17611004585135354,0.9483907066424027,1.0114930415570444,0.06635398844774483,-0.5274326598421606,-0.8429926295059622,-0.031888747671115644,-0.9278399039366274,-0.766356966178279,-0.31378985170089324,0.3071638260361682,0.5308847784729515,0.48980179232160803,-0.7852043831415602,0.33036031934910576,-0.17229620537254092,-0.39696218692011687,0.9477035912597797,0.3482208422011772,-0.38927906715162974,-1.1179110109712904,-0.5817976642745966,-0.489167315522184,-0.3829016348488422,-0.29113817017767807,0.8535621342125048,0.18810412177782787,-0.06322435885406587,-0.18600032425154175,0.06793254241437746,-0.7083405960004464,0.1636934951832141,-0.4121622553782914,0.5930287284279022,-0.19606176303502135,-0.2011001663135934,-0.10991230266883732,-0.09691202191323316,0.5937053145690186,-0.5839560396515429,-0.44777620446243876,-0.1591907827052828,-0.010996503072930548,0.4716541883573624,0.736277166062876,-0.6874840564189058,0.26001318679655877,-0.9628402194956727,-0.9875525613209672,0.05346811739483195,0.7463141259218218,0.9288762001957157,-0.8618467893517495,0.8922828939876872,0.590145413575135,0.16377787006170075,0.7409797438602469,0.49967175752097104,0.34472874979686163,0.9193805902522266,0.04085970267443988,0.08978923721007827,0.9779843415118824,-0.9110461608324627,0.8806211313043156,0.5555859965764093,0.4915625634503923,-0.6296466429447849,0.34720949347570956,0.45766103058400087,-0.8806101152268881,0.8596865309227516,0.011910871008622106,-0.24723095624470764,0.4039529838888544,0.5697240859982681,0.9036945761722319,-0.37688326111295295,0.8417413253820782,-0.9635826050021153,0.8464799058614483,-0.664147272907536,0.6431568770522524,0.3690145923031888,-0.4736641128663171,0.06197992750059549,0.03207259898635025,-0.5063311028761154,-0.7356753291097123,-0.8389682269754857,0.13642359507875187,0.6173465874129169,0.01267528170072705,-0.27282018196549807,-0.8054818019327669,0.2147780006019308,0.8631319304947763,0.7205570294527415,0.7271200376562729,0.005649875346787754,-0.6062180045100258,-0.26958401696262463,-0.5301008973528719,-0.6301662285874494,-0.18897261144503166,-0.6359030252285698,0.17977781887241942,0.5398023882493943,-0.27205259660343656,-0.28199927373640504,0.9807239846323609,0.7501372479555967,0.6083080675593698,0.8947357776101192,-0.7145410537335559,0.6157232304355061,0.303255691552049,0.3897488311882374,0.24053923571360242,0.4960015717222433,0.9571263110880421,-0.816767306598654,0.25753339105490786,0.24798320062260168,-0.4499163722304964,0.09504400139217739,-0.6775791797631295,0.29217906271713834,0.5676126469475425,-0.49298872314612485,0.9447016515012969,1.0550058012362789,0.674229259436867,0.04504885256365305,0.5355318337455861,0.31592942403902696,0.7129599032159099,-0.6675482841172249,-0.479348367537236,0.26184305324149576,-0.25006542347863614,0.20827331100459112,0.7804771371197702,-0.1252053518103106,0.6332792738596073,0.23186591422203204,0.5663720308565716,-0.29166648512296617,-0.4756807736241642,-0.4987890538689753,0.9399547924548186,0.43911266239716185,-0.8537488553297448,-0.583300864643809,0.49295042097631775,0.36447103443338563,-0.8344326680959584,-0.9477818220595895,0.28966784687113745,0.6952182829435959,-0.3076063112495411,-0.15661286956282416,0.766762718077635,0.24891512116024977,-0.5493830656631404,-0.33302167735223964,-0.5348422023451679,-0.1417841889327589,0.7880062635285946,-0.47667609812960765,0.645724872816969,-0.25135626869062616,-0.8892479761727913,-0.5419508895775715,-0.7497804396390465,-0.847179373499302,0.3401218968312028,-0.3692791949227742,0.6648192153568606,0.46926428015849847,0.9424024308904032,0.33433794334215816,1.1630107269933414,0.23191484116033179,-0.701213567579092,-0.5673070087420256,-0.1461215844440814,0.5180305886057637,-1.219601489237189,-0.21342182100652185,-0.5835104079391726,-0.18657975858262707,-0.3716636768802613,0.8047023479139364,0.9628488406501412,0.6003493128446199,0.024947793698391126,-0.8024701737554892,0.9694038624914681,-0.3456127206783377,-0.7343547182278664,-0.7833546837526313,0.30799222895550604,-0.9725640503385218,0.8183607092148287,0.9396863547754671,0.983174851578001,-0.4465439653094447,-0.1563842837006124,0.22648989229234792,1.063681225542703,0.3710381598098468,-0.3437911778656691,0.07242885827988431,-0.6276092761455363,0.002172155251924568,0.21080984575242911,0.3505845874640623,-0.46252961468474024,-0.27225616068168507,-0.33733118735564555,-0.08332754534967321,-0.5429349768267906,-0.4568677543115834,0.714466337976522,0.6678639285041578,0.10249696649862794,0.7069056391298173,-0.6851958750119714,0.31759293705416325,-0.4268497005279364,-0.3580384874951523,-0.8928837805246658,-0.5329362815008064,0.8317262926524763,1.020436818091393,0.020052712094473672,-0.35092184718026004,0.4718756974051746,-0.6121817734334097,-0.14515745603544458,0.9300144574893584,0.5319417852475222,-0.4186316568054707,-0.823643089417954,1.1469545914789316,0.6079846159177004,0.869165077348407,-0.3679907105257109,0.5512067024534306,-0.09961995816699591,-0.3203231140363252,0.08431552863270814,0.5650087026804382,-0.6639271975189267,0.7821107172600309,-0.8648000958264089,-0.6340308078767084,-0.5626446827295657,0.0019685320608195944,-0.2953204322742312,0.7436753262754179,-0.8854016162094147,0.3915291013879861,0.1874043685679365,0.2381843905360011,0.9636307990356814,0.7856695117503619,-0.11262694037152138,0.8821521872456995,-1.088925773974292,0.9400927015252072,0.33544086479738733,1.0087163997470854,-0.5371547298486975,-0.8418464416767626,-0.11942749373867392,-0.4169254452664259,-0.0847527003989762,0.08663953896725188,0.30003153904397484,0.5412694017498513,-0.4911713899410848,0.9679749239842339,0.22277662541309817,-0.8782157994296804,-0.06091767297371694,0.5744268183820709,0.019184733276230673,0.7332473042353889,-0.0376421391259136,-0.6434251497860627,-0.33483069283905864,0.6695190167267197,0.7372871605904326,0.9435716255684246,0.9332603479308869,-0.5866813829348588,1.034649052565706,0.5423271892842093,0.9036840804733212,-0.1085602075937981,-0.620282682578545,-0.5048964667218374,0.5343935550094246,-0.6177684227010309,0.6991796131513462,-0.026715051009427743,0.22951342413870365,-0.4222868814898576,0.40239642918583246,-0.6740392553695346,0.14181179969334518,-0.9067397421723669,-0.42401511234956535,-0.5954855801151622,0.6666065116057335,0.15953836105755057,-0.9076717325411805,1.0514398222859942,0.9386267611498381,0.32674939044665857,0.795593304255707,0.9987882601410326,-0.12187393355147798,0.6133705700433881,0.5431192662764649,-0.530830334549876,-0.30080994854787774,-0.13064164215208685,0.6394834320468035,-0.48856708084505657,-0.7986251421598809,-0.1619267634136269,0.9673278209977114,0.9811083998574818,0.5335947912404365,0.6576256552841274,-0.16139207887378046,0.6028130079787728,-0.40693029611358195,-0.9718610504717832,0.7426544283298312,0.0439291937130708,0.8661249797539866,-0.9855713076316179,-0.46403280427493265,0.28825185859344926,0.1475627664802356,-0.8387703890661068,0.0113624998600616,-0.49343180440144746,-0.6085227513378405,0.47553605849141695,0.8559941673359339,0.855129547564595,-0.0029332336715865892,1.1078600187765477,0.445687741072897,-0.01210318799462937,0.43015593822003767,-0.7573158140661036,1.0339504646721764,-0.7055962192929773,0.30630412869456153,-0.039777678788340425,-0.6816731039442144,0.7130222975802615,0.31795221404710433,0.26801901867648287,-0.43621968988712323,-0.7103462232710882,0.5853225080616802,-0.002441172125117293,0.8779664319402938,-0.24867721931750075,0.5663917054517584,-0.3803217188554431,-0.06442058473805666,-0.4302120436988379,1.084935478072884,-0.5852164938715722,0.5662895983710832,0.33033044463534617,0.6287325211303424,-0.3482560819513134,-0.45881134730901046,-0.6970071533733188,0.9779389899262959,0.37447054621108833,-0.6032263040323907,-0.6913141918120885,-0.19611847993926168,0.39538440047681256,-0.7860113694055166,0.23898705601537654,-0.87656052222853,0.6114393016506657,0.6910852328534026,-0.7640385527547999,0.9698854061217036,0.6204061351193058,-0.15555890800048383,-0.8622068579335659,-0.02568819204732983,-0.41998209369228434,1.0938857724992688,0.6928599751440591,-0.4577738463120392,-0.4247536418539424,-0.156546145497298,0.6424074422277357,-0.2661781634281713,-0.6991327660872132,-0.2905374803220137,-0.29859704771423723,-0.1903759970295306,0.09873750218904358,-0.20628654125618126,-0.4641480663619208,0.1171324017134602,0.04340660577817089,0.3849958046744677,-0.245165011728093,-0.15513196826415887,0.09566348092487043,-0.1678112159239501,-0.7358601683757322,-0.8354336974484319,-0.008670120910506496,-0.8279300966420421,0.62021541843175,0.3178938993617446,-0.5711187589785004,0.13367621271663477,-0.08509593774004039,0.3937917607727917,0.4548858655961159,0.21196641960571083,0.3534151768436169,0.14844726217888607,0.11289021763916053,-0.6319030844469142,-0.4096492076815477,0.3269863063659849,-0.5141799703961082,0.6054290371796411,-0.6387013483896095,-0.27615436311547903,0.3437193951064551,-0.7386569810591734,0.7344112786456405,-0.2841276079516418,-0.5625648486890028,-0.9531668462362877,0.8998801123090234,0.5192127718046096,0.9445585777410953,0.608006999602214,-0.08774213519712741,-0.3659474813756045,0.7056878354462083,-0.6699689591626131,-0.5572116314862245,-0.45468643485966986,-0.5077379386818158,0.8879600582337646,-0.7115774356384259,-0.7730974657843593,-0.5965601742139254,-0.7872276291617095,-0.030320062309620907,-0.5148890210406111,0.6267314962847575,1.008187386162412,-0.6173245355107877,0.5331496927334121,0.613842259775786,0.015548467189000638,-0.9876157055891696,0.4299041745760608,0.758412716296355,-0.7976719604768401,-0.13049659902089594,0.41629404193061914,-0.04698591732714275,0.24477798813229615,0.3065061184266341,-0.6346620516048144,-0.06941841449209057,-0.15075172799912567,0.678472232756341,0.8770170148710547,0.2477455303760421,0.9172417595995268,0.45449200836440506,-0.9639396591733346,-0.5594996534929111,0.3722369899752948,0.7729494434515906,0.8686823873614081,0.37701877906856235,-0.240960820087019,0.7608747224563511,-0.8718132304469506,-0.9443685727203129,0.21639994002807603,0.4122001256097735,0.15607087646874343,-0.06138387027135073,0.6722944358606395,-0.7591839572616479,0.39220106129302934,0.2288816437758734,0.8031162749597978,0.19320563095383012,0.9923496799377237,0.8169838759997853,0.2527486309833333,-0.15640325823179646,-0.14042860210326233,0.5555308695597064,-0.42180287940451205,0.33399469975991736,0.04639249995192957,0.7421022302475936,-0.7605016236233849,0.3202195808770608,-0.30771941595496427,-0.408727455921151,0.09190607083296543,0.8434638177958862,-0.9333683109893741,0.4672607125711619,0.579806104814359,0.662303817011976,0.8567774078550722,-0.2103811833114464,-0.9706946504562661],[0.18112478136401564,-0.8908727482043788,0.6887193350054552,0.2709714095083062,-0.1726465044257406,-0.5971573283894125,0.8218362166626034,-0.6836472620788773,-0.3678661790271261,0.3454793647836369,-0.5038503164692424,-0.7553000173135632,-0.27752449788079997,0.8991964820108449,-0.8506869792907558,-0.06680283923637367,-0.9717877916717726,0.07953592325820051,0.41232371122684824,0.7440335052316297,0.2366682816772768,0.1317736037108678,0.35391274095308534,-0.5365590985533402,-0.1427369158280425,0.5285712678480894,-0.4786222160977869,-0.4300756958264178,0.5539836405338985,0.4617133634256354,-0.25835534639356617,0.9761684173872558,-0.7715616830390926,0.2902198479714162,-0.48919034611409806,0.06305951694808315,0.9181907528797895,-0.924905577147126,0.03338532203865357,0.6119919732741547,-0.9419581566021623,0.1039080981643595,0.8872972749446266,-0.35740656560418865,-0.22842754189537162,0.8320140493926003,-0.2726388502300855,0.6970599370126983,0.7565635191805793,-0.43139940959529005,0.17809685920543586,0.6298155920291268,-0.539467457083397,-0.856383092653997,-0.09721389867317587,-0.629213259927508,0.459965681757347,0.6077199805162223,-0.047797189297615006,-0.18264583059008865,0.38791361530423174,-0.5882029705188705,0.03797030648920272,-0.2693226358485562,0.5632534251949195,-0.5421770938041895,-0.5174377893302095,0.4977356461348186,0.5020644145091521,-0.34718483220713886,0.17564598278419372,0.018361870659474273,0.6153542164365569,0.7940209043828883,0.5131557807644066,0.8077780273481949,0.6907474183436146,0.8880033201224442,0.8651264672503943,-0.7366344345368838,-0.9589419865205584,0.1757833235482016,-0.5521121820589716,0.09303501642977485,-0.18977193065385078,-0.36541754250142366,0.7988593138777009,0.6732507254793907,0.8742846095398152,0.6961311815652268,-0.9678949227738078,-0.7177144234340853,0.2330439120966118,0.3370108903922745,0.6891429342071657,0.3636441222175475,0.4225497483542635,-0.12112097836493657,0.9626904944419432,0.056854310884342875,-0.5104335926585089,0.6842533073662748,0.1497213400044276,-0.24508094475713768,-1.0350839335658566,0.6554120084356957,-0.6492041904305872,-0.7196245938685667,0.8409471319140143,0.25140836156846297,-0.5363158067111735,0.44380191310176187,0.0457260667412136,0.4105619281529007,-0.5890405122142056,0.7145870232911911,0.9755975025592618,0.77931510639354,0.41302524353655223,0.8683901797803703,0.20252350365784458,1.024739749596425,0.4846865769013003,-0.5702307519762001,-0.7833352099741957,-0.09480666957303677,-0.8334504239433655,-0.5012451971100457,0.33097728999438564,-0.17605705212907022,0.09853098793369564,-0.1886096740827588,0.3990074359458339,-1.0183518339122986,-0.9237029088722423,0.8697624532848197,0.4708918616018668,0.6605330607389032,0.1157051702221827,0.7642790652635023,0.6312796471508548,-0.47653998237177086,0.4537225161215188,0.1511782568529262,-0.020909530130317017,-0.1711877284044986,-1.0483361976691365,-0.5784542881742617,0.46778428183274373,0.6720106435269607,0.3898945555043709,0.39212552465166056,0.767885392893909,-0.42549423260276265,-0.38690245394281775,-0.5009898107530271,0.303320564499891,0.6764735184687068,0.25434943914059405,-0.4866794046934079,-1.3139811273502762,-0.8881798373486772,0.23173151504169986,0.8742860376687108,0.7413697777771227,-0.3966511841884042,0.8701661825132689,0.31742631043602954,0.8468145636659941,-0.48187136029530303,0.2627163079720085,0.7416983703415377,-0.22019137094721716,-0.3654635923551083,-0.4072565639598657,-0.6739378340245966,1.003430666211658,0.662004177856223,0.8348225419109369,0.3448122933611849,-0.027741315304622583,0.4333430859381348,0.46158538215143413,-0.5882257174612012,-0.19775796094772954,0.24309732678774074,0.26149410072593515,-0.8660639727295719,-1.5707094444209773,-0.4479634289979533,0.3483092712119414,-0.7863285335705795,0.36734756634651006,-0.73802062024289,0.8206221108844178,0.9944226509590963,0.5836214684852106,0.12731329316899867,-0.24274621323382997,-0.11042473263523671,-0.8729680269739473,0.5559250025517017,0.8950240820044666,-0.5175131127924991,-0.6524243078408303,0.4164366026826604,0.6524360972340544,0.4112405727866048,-0.28227059452914866,-0.23141227219721566,0.4117915639191653,-1.0850734497309131,0.19973577897123335,-0.021956066674743518,-0.8903695757255862,-1.6233668080180197,0.015192016428462195,0.15843708881741894,0.2518913513414623,-0.3728792621590468,-0.31961703328990426,0.5705165772911898,0.2572883890386778,-0.3640761876646667,-0.15557032997270026,-0.2944204169116721,0.26949348197941836,0.07680394355228266,0.35621837443096144,0.5719914816431637,0.1292757967108107,0.017351910736109147,-0.02910563251450094,-0.37176412242681195,0.7520843173028509,0.03979633195660514,-0.6982461070490847,-0.8872599914415213,0.6545963842906404,0.2664671833624368,-1.448229945216024,-0.17073263302431266,-0.0570657636923981,-0.23170062424871773,0.4350276224066659,0.3080183688806906,-0.7742399558851313,-0.38532675900295066,0.2877871239616792,-0.35508128739746686,0.32210091032479216,0.28878271924828447,-0.8726453413067672,-0.7832101072554535,-0.13130666442328234,-0.060342115409458344,0.33802243169231294,0.45772138173395704,0.2268988262569211,0.38675570182418423,-0.5201831425044071,0.4578439467454125,0.4845379627946321,-0.37516557389399724,-0.8201306902969207,0.6573972641341815,0.6896653192169026,0.3861668575225542,-0.12398935642788433,-1.743725842249468,-0.4983781008840272,0.00948031499811489,0.32570383616653753,0.14043869799191142,0.6802509910979605,-0.42870824889214065,-0.1428709020421449,-0.24993020783876652,-0.6838495154762884,0.7010918686823553,0.3069764117571552,0.39007862260974935,0.4406277799478705,-0.9194198248919703,-1.1572395846680779,-0.6509155794270394,-1.104414592584602,0.7530862775974279,1.2597760129238267,-0.08267253222616108,0.2551572244149673,0.22519869840360224,-0.4525152111347585,0.7125366885852175,0.3428154763334442,-1.2626938486785027,-0.7775825727898412,0.11415151580007214,0.3471733521404598,0.2540287267255112,-0.032451302039217894,0.7989934482119919,0.15980332171323405,0.20259029442016788,-0.1982792620159619,-0.2935134966594932,-0.09415992464064074,-0.7896961012733071,-0.150299525340432,0.6774302528000379,-0.7325034492383307,0.4764931216487256,-0.4171247725709904,-1.545170631488942,0.3030390545647489,0.44437666315723845,-0.08730317963789629,-0.1866352630756836,-0.2614638382948719,-1.1398352918705301,-0.9248286595316495,-1.0340598432350252,-0.4323867406213358,-0.9016739099973421,-1.327590507140317,-0.7009715350892498,-0.26934316621796783,-0.5610657442575251,-0.033882113951592616,0.4105086142979009,-0.3977530539082537,0.7502873830757187,-0.6830820492705689,-0.6306027125920974,-0.20818505117593333,0.46734372173292715,0.6446735865651818,0.8878183032850925,0.1156901940630177,0.20603137543998434,0.5042267452214692,0.06571995179626072,-0.8297019140407018,0.02236877824624921,0.7925956791463648,0.9230059511301943,0.3202596034190623,-0.7958261564430282,-0.9751525663579402,-1.21061704810214,-1.7346244864883908,-1.6666927414138069,-0.9712441669971912,-1.0887524226127585,0.1091829137759066,-0.4597025669479602,-0.531255089069012,-0.4424738844281489,1.0952859024719712,-0.37764104794267767,-0.38589039125666913,-1.1098433932723721,0.2006734596151663,-0.17187974655037205,0.3815801794414302,0.635492069100506,-0.6925897439140757,0.6400313189822001,-0.5047348516105084,-0.7140903009188253,-0.6014129727352342,-0.051686647873387975,0.31571314770388437,-0.2874489462877421,-0.05252628939282403,0.3074053860718732,-1.7497528791808783,-0.5126233331506146,-0.6282315106698111,-1.0052315150115911,-0.34624869388544965,-0.5195175426729195,-0.6040313789978862,0.23319478457420295,0.5025582960405759,0.6350639634806521,-0.039716946423669186,0.682559651483093,-0.08913095654445088,1.120904453901645,0.35374119475767457,-0.5167255737433899,0.4688637626243462,-0.5632177560572666,0.8060510054510522,0.48353839951744015,-0.37314292078747624,-0.849011693205357,-0.7204110979766182,-0.2285054598727717,0.6841994879639012,1.319860676280617,0.897751252553147,0.9169174610859044,-0.7317138915460798,-1.2216871341197835,-0.6891242976431988,0.03899302269598083,-0.30617135074681917,-0.4263106493195421,-0.56458887003996,0.727386577156161,0.10410928577982685,0.3285730193460717,-0.0883789586195176,-0.1707709040930421,0.4415496844244292,-0.6732955582845515,0.7357993475405842,0.4490342023941194,0.47039051960977596,-0.3809842911784368,-0.45559097936948595,-1.064284898803311,-0.19986142664686485,-0.6548011860425668,-1.2035757419798314,0.10215179918374243,0.4127569848444221,0.8555173027525483,1.8125954073619317,-0.06072415548079901,-0.5636662893061243,-0.06406705324140739,0.5340955043154364,-0.09708223531596356,-0.0657929845330617,0.7041009195554866,0.17613781998788766,0.1955287094274253,-0.03243737960068847,0.6596808156753808,-0.4888961038545173,-0.40759185386756813,-0.24920953262593767,-0.4114519482889882,0.6222652031329139,-0.5462977577809536,-0.5681121682000058,0.020864755292418685,-0.07219434866104324,-0.28932469013381734,-1.0341821904143984,0.17855407480675395,-1.1730799733418982,-0.6781145518462746,0.6523077449964738,0.7041639458923229,0.9463328977428589,0.590770342299014,-0.07330615314702046,-0.6714059073137348,-1.230655774008305,-1.0943191188911385,-1.1612227790393894,0.5020232273945364,0.4652395558671898,-0.19953738813208075,0.4882400653622444,0.7726972656113492,0.81979778657596,0.45151088903019077,0.48567958078013135,-1.0229274630709464,-0.44654922095936517,0.6170557823523588,0.20650754576368202,-0.46268103790389886,-0.26226210763358443,-0.32371073346433227,-0.8152351919016628,-1.1627865059716445,-1.0121601880540738,-0.3559770244071913,0.12404901558278834,1.333590426350279,1.4291668176577428,-0.17277334092873367,-0.5101109523928086,-0.9564186761786967,-0.1495940912862063,-0.5036674396011331,0.6183556898660556,-0.25591510727249517,0.8728863259596181,-0.6341622692634151,-0.5273821366367003,1.0804665356231942,-0.21854487737529757,-0.4100348508229757,-0.5125699804453548,-0.8782655414502606,-0.32159273420683726,0.6040817693232955,-0.8574560811126575,-0.23388413390699,0.29929603458352055,-0.00012861040049801716,0.42541790307808647,-1.2202375029480403,-0.9330702492762873,0.1841191026064986,0.5238582006545051,1.6691962274520118,-0.04516214558259159,-1.5831162599741613,-1.315305591492505,-1.9940608418346928,-0.3004767835097583,-0.6478817162543768,0.4850434141261145,-0.465297957129366,-0.7568372662252835,-0.40868529754846494,-0.5129598530072672,1.0189295742567497,0.009655578164435241,-0.8996294579266687,-0.8015112682672156,0.238173915585563,-0.17078622444648653,-0.7533053559563322,-0.35233732517127736,-0.28371598421368194,0.049546012280413346,0.28547210376027427,0.5031062588116663,-0.9798674020098161,-0.5604863592482922,1.223532018720268,0.08088094105972056,1.4051647437013768,1.198638833652011,-0.18603295077578005,-0.7303452901232973,-1.3790090603018699,-0.571888612450092,0.4419655752771559,-0.5782206166951825,0.11126687351295703,-0.22163878574135137,-0.31545089921259184,-0.5851236154747048,-0.6214251098704474,-0.04477719015417839,-0.2903941868412943,-0.6736700043259155,0.39326103987445044,-0.04731273623877814,-0.6975021232644288,-0.6285015596188628,-0.9219114048405521,0.21391051020238203,-0.8209221952496959,0.7312469227869578,0.37782890651741297,-1.2972039248536935,-0.22321708966334436,0.6093865319047687,1.322577789971718,1.1573787559816513,-1.4050465877237566,-1.9070712134214682,-1.90123623796607,0.1595942886544403,-0.911944101231544,-0.5953241771344023,-0.13023566253856292,-0.8853513766950698,-0.20996812863457928,-0.3215807466838965,-0.00802930102450836,-0.5304999807924632,-1.1598733647558106,0.5578046730770307,-0.3253217049345181,0.6351251425268776,0.05187458529228223,-0.2819070543282871,-0.6503017787930921,-0.6966072008569973,0.4940223519276335,-0.5448483889039275,0.5946632114447825,0.21733506441458453,0.5551911110536144,1.352547704960764,1.1042622808300013,0.2851996736182283,-0.29681134068810255,-1.722542919459208,-0.9331634890942739,-1.2665578552918666,-0.4478845507428893,-1.2895852079229115,-0.7583137269322142,-1.084140846316288,-1.319013254437325,0.2250342630253972,-0.10951639916994409,0.47572489516958966,-0.15347718149924514,0.10441669267242402,0.03853474241283019,-0.9579648084781305,0.9203483015042494,-0.48581439336887033,-0.10747860771776736,-0.8001196651519408,-0.7046688804495966,0.05371117113348622,0.36655530053004876,0.5555314759353502,-0.16872999867944216,0.2881067725396621,1.7388615270019485,-0.11531992792632072,0.0891755080750563,-0.9110513954708164,-1.383563568692858,-0.6536379828767191,-1.1048316007506171,-1.5865101146331129,-0.7881524602311634,-1.1784072806876373,-1.5228557377707772,-0.7286695466961768,0.004015116276383934,-1.0389123270524856,0.7476978974231332,-0.9515850451884265,-1.0891421550568081,0.44930113354149165,-0.7739933062554653,0.38498475031560453,0.5682211928279725,0.960296990813698,0.30815413284825344,0.24959149967067668,-0.32758102907766523,-0.6194702865234607,0.9205500549914825,1.3711344178195874,1.4618049699002769,1.1250387660795778,-0.764551195628507,-0.16412334265449766,-1.6022982244618384,-1.3217004097003517,-1.3795464645244846,-0.993625092092914,0.03168586935869301,-0.7089018226679147,-0.6915103225295258,-0.6412550342432058,-0.6684284148941035,-0.190029295688049,-0.43140711696873235,-0.3158568883105704,0.4004267563151846,-0.7396153293822385,-0.09702174902812133,0.6559650007427607,-0.8622737679142514,-0.09376123208488928,0.7151112380583682,0.30804430341210126,0.4120737454864374,0.35065313561181194,0.9000588877256899,-0.21688558761104598,1.5692883195883245,-0.12200480363135213,0.47888189124333963,0.06084461631177184,-1.3186817520036103,-1.1885159845518,-0.69306285299669,-0.5751171594851704,-0.5247937002235548,-1.2964140364082362,-0.3083851778988021,0.04981182495424385,-0.3043588607060462,-1.0357533507470431,-0.13159874219231268,0.12003779634513628,0.9675202259290264,-0.6090176947449575,-0.8848156753084537,-0.5150988091825939,0.526102527992176,0.994765418948604,-0.7196024518528947,-0.4585517320006657,1.1587126826208052,0.6152414578759695,0.9212036516191056,0.9007842327986908,1.2011682991849566,0.7239312393698427,-0.3426328451324995,-0.5651525281753395,0.314886385951921,-0.8589408385089777,-0.25661315357841913,-0.24236937598404923,-0.18977298344335028,-1.1415377902796742,-0.8527316207565925,0.1709489154612596,0.3872377946149183,-0.3212064557360513,0.2096068027354679,0.7231491080663572,0.013065980578917356,-0.6021808850278264,-0.763239699027543,-0.08876005557974942,-0.27218026689415487,-0.01750501456769744,0.46909540583762543,-0.9294448750819096,-0.1143034000482683,0.3416114281098172,0.13401880616996575,-0.493007472181035,0.9686149501301713,0.5636456417854385,0.49429562399142307,0.361235309808492,0.022348795015905948,0.9009254083399743,-0.6212122536673158,-0.3295033271470318,0.641411850002602,0.5101599460349159,0.14334649811195957,-0.3039889550486777,-0.8600563561730047,-0.033014524471790097,0.7724613087284138,0.06369459710245884,0.3796208313161732,-0.33405924184048275,-0.6441143079107658,0.863051078080022,0.4445577814002708,0.713844669751234,0.3203636750991877,-0.09291961635344645,0.852691251756999,0.20476486857176018,-0.18560320049392728,0.4341227552943564,-0.7668201632546825,-0.838432106923033,0.6488124980330603,0.22548040418783136,-0.12997293957029546,-0.689660527113112,-0.7096978189626498,0.20024996690213392,-0.07130412608352388,-0.6266921960217767,-0.6352565055158743,-0.008771082873803637,-0.7588313580510853,-0.1163953527550931,0.04334310329858942,-0.8294731462194426,-0.4103591129186994,0.4442250490796904,0.15399488812731876],[0.40347586240820893,-0.43717136104206533,0.3473873945390862,-0.32194550082210993,0.13227162726784503,0.49285852245652206,0.13648194594934773,-0.11274563210457157,-0.15942689739662932,0.6441451354215247,-0.6468691660599987,0.6739939658088928,0.5511854100655075,0.16123887104411044,-0.7730635146436204,0.6178864496912497,0.33918186112947574,-0.2012911304394841,-0.02714727066165624,-0.5866077571476332,-0.8761083401997086,0.024663627008520334,0.518185688844847,0.9646746460408485,-0.5979545019809605,-0.5980417770353115,-0.42934482446302313,-0.3206629338206133,-0.3741556854070649,-0.9757246915674833,-0.9821130472304036,0.6003753668936098,-0.9929035171083762,0.22222836338933005,0.6553099895538677,-0.2215301069012816,0.6677278602034213,-0.8927531309894188,0.2590077268282767,-0.8292443556289182,-0.27036394798700203,-0.7262796201736851,-0.2344181108084083,0.005085935236043269,-0.5934304831127878,-0.23243121196606165,-0.6980014588953316,-0.24482366054212357,-0.518877305185578,-0.20092241402688193,0.3217773315938434,-0.5697593759189892,-0.5519536366765254,0.16027965658404675,-0.7425049420842007,-0.391100412694358,0.6601836024970145,-0.8590661180392503,-0.6563205891608423,0.11051910354151051,0.5630596706572337,-0.6675831258920333,0.98481705465053,-0.8387325019214069,0.05966120545065411,-0.5945872609381517,-0.37801161576803816,-0.12844010363988964,-0.6754548055017527,-0.7216773555724979,-0.7393327507076278,0.9839681356109329,0.2061237314826778,-0.2721604646699283,0.9684301413987201,0.7096366922990505,0.028631559918286087,0.8833817627372746,0.828444861378087,0.3923319961731764,0.5634449870678884,0.5774573569769101,0.81821415695534,0.3535980098659084,0.8460055977930847,-0.6624757254302818,0.1973198337731051,0.6901382004188565,-0.64518560795273,0.4219810430419026,-0.9753874449414012,-0.945859766098858,-0.6131521071360502,0.9391201434809466,0.21146849612253238,0.05484208931819639,-0.990655775621738,0.5053899506377095,-0.8807124573303708,0.39486837449147655,-0.3022193353323959,0.22095512121453237,0.5216869267708849,-0.3068300866626488,0.49125623495639015,-0.23245834282474034,-0.6182132325466692,0.5660040398064017,0.8838550869482728,-0.48914482370581014,0.418484931652086,-0.6599383657299844,-0.5804028737375226,0.004749055874100794,-0.09987776951141278,-0.14415109374397875,-0.01680040751823015,0.35499092347093425,0.842900017131508,-0.3133718184986796,0.7583255610804915,-0.8355703502183222,-0.650992764167378,-0.9888704627740708,-0.12806874852345732,-1.0103818354261418,-0.3015226509301506,-0.9451360703718762,-0.0616834409094546,-0.3951030240226011,-0.6489163952348096,-0.23567299666314812,-0.4852119439900543,-0.2513379118759517,-0.1566286195918932,-0.9290114785610876,-0.036439351610753457,-0.5479311976761811,0.998393322497502,0.21256312693172852,0.023296093709209487,-0.5525467092901898,0.21773434098859215,0.6598701830851694,0.793591508830241,-0.42404241308975876,-0.5123595291335219,-0.13249134449548633,0.05243361207645105,0.6034502033590555,-0.6519287439899211,0.20164771930357828,0.057288804984045046,-0.09941753499492814,0.3199175472804945,-0.7786308056848178,0.04578581867741006,-0.07597846694868435,0.9271543513577485,-0.002331607382365878,0.5085465596085964,0.07552438603668332,0.8152604415009687,-0.4402829024609299,-0.9810943007258007,0.062385810059580306,0.05438829490931734,-0.8393734667475921,0.9158137825447281,0.6327951151149196,0.6321101177729549,0.060202911759948026,-0.11834092491292027,0.2280387229216626,0.897181432727201,-0.8526603717450658,-1.1327593498524489,-1.2333381814233038,0.5558059056933096,-0.6553430838621964,-0.5471568962811548,-0.5158666532998741,-0.06606292210681335,0.527454274806858,-0.3077446461590844,0.706784077230075,0.005424954432810832,-0.3509155571558934,1.2615664437820504,0.91905438257458,-0.5710737409029562,0.8205129135498562,-0.4722914565350121,-0.5002952728715232,-0.12387105349957392,0.7037544598761111,0.4198627749029389,-0.8451438442937079,0.7630186887425102,-0.04255130831743212,0.32608495577951124,-0.8090928932814467,1.043689501520244,-0.3484389047970396,-0.505199070424836,-0.37790472227399896,-0.9990995141255529,-0.38425077262109764,0.012084166778826698,-0.3634817133895125,1.0173971769633987,0.8826615186244181,0.9917293230178901,0.63304392292978,0.04100740731040835,1.7386824318391416,0.721623263561194,0.4678406002670274,0.3477486162712144,-0.9770262557010727,-1.0005433338234266,0.6434554269858205,-0.9520253180409829,0.5382865907341013,-0.03177219820412702,0.44902343169444964,0.27122035981804116,0.030565587276177947,0.8651892694167939,-0.1884200819663692,-0.08800554703750814,0.6411004954862691,-1.2421783690499872,0.41994100264206335,-0.2412995175542897,0.34326095343579627,0.01371996702544161,-0.8796894922399779,0.43293305399725707,-0.3090815456797643,-0.06341980887869464,-0.2537149331413897,-0.25596986326186794,0.7919292728891447,0.11782470221027325,0.4133919616659014,-0.48232854665687325,0.31636488956873915,0.4410630528727986,0.8712716818327352,-0.3614516974115505,-0.7045672450483509,-0.49979110452496744,0.8193674544833517,-0.7208813239702851,-0.1656823653770714,-0.6065759223711323,-0.11085762616451773,0.4219956917554281,0.38697498154367155,0.4832619165509514,0.13825297774227183,-0.14954260321547758,-0.987856991477691,-0.26486336182220854,-0.1503581786492267,-0.0999138707989512,-0.34032126533547635,0.9572702999737942,0.3386547009214652,-0.296040532782922,0.46984243034093387,0.34642289453429953,0.05145727539276554,0.3449874493545305,-0.18656831041504693,-0.3697035436101468,-0.8469048831260323,0.47257100717020956,0.3015875500366768,0.11346401642208992,0.6900863166447059,0.42318224223917383,0.8228379843457285,-0.49848727740000115,0.6318906924417702,0.272540236947035,0.956768999394283,-0.23594984688987217,0.09232546719164181,-0.3152462904896448,-0.7246748842513766,0.10723239852385485,0.3467537906157535,-0.29603965207255817,-0.41993358076552817,0.1090054961466414,-0.4481633982438332,1.0858572123243322,0.15259850083405715,1.0473334401960452,0.7446331881543973,1.0152777305001044,-0.3484714688917551,0.957784826423748,-0.23490526277060586,-0.9853452191772403,-0.3731564202598171,-0.2870848062848843,0.3423780815695501,-0.23949684810109073,0.16889328817074534,0.45116940010713114,-0.1938306040337361,0.2514080287034024,0.7081930007953854,0.5532887049638012,0.7331234382736482,-0.9978868609308275,-0.10996655581520921,0.44866022014009876,0.44158334323793513,0.2339447027411671,-0.348987118984283,1.0498191685050784,1.0962841676875434,0.048701576996178525,0.3553965868608067,-0.2745773485730933,1.390479848972961,1.1093437342756813,1.1286522669682062,0.24278135243658883,-0.022096242334202428,-0.798624474487706,0.5260814298591249,0.14644849270008686,0.5578660830564319,-0.3592748244276394,0.24748701088335867,-0.6312193468735687,0.2282246174473203,0.97132760212227,0.1097858283065165,0.12250771209614932,0.4828462713269602,-0.2599031654046379,-1.2391271266349573,-0.3701770020251334,-0.43986280762512614,1.0535024010815626,0.7570010108526295,0.7472990344646013,-0.0887645876517391,-0.41112191828106803,0.9069750180423012,1.3037166352485476,1.0040805386086669,1.190759469153471,0.773105615841808,0.6172374929936998,-0.47362403352007854,-0.8482770691166305,-0.9533566118395554,0.7878138773906123,0.885307720308551,0.7525430661284909,-0.17740173627310496,-0.5016857183802116,1.0551815994667375,1.0965466856925477,1.367570880355183,-0.2234522827986704,-0.0914822592629431,-0.39952446901025634,-0.12357833380604868,-0.14486585401314248,0.16127193911541968,-0.1658130467084543,0.7687238097778429,0.5733024753468333,0.7278349063452031,-0.1163415167436447,-0.5130064685716386,0.19888430366268176,-0.5365363575703352,0.8529755282361886,-0.5563626910191518,0.9155176321823529,-0.8364075260705999,-0.9835226283249253,0.19012762905957856,-0.6804312321217708,0.7808356487526281,-0.9613424820321057,0.27342931653639035,1.3366449543072885,0.0872175560388973,-0.2817678223991321,0.4823336177432377,1.3751866307659677,1.060358505960192,-0.4554826226988923,-0.9826785925085691,-0.41974742285360184,-0.6903117428858381,1.3048229511744767,1.1627382620022135,0.16700251658372825,-0.38159926396803306,-0.2955843117366167,0.8988027713028041,-0.5418363214025037,0.17077423940796022,0.42213551291600815,0.42935857218577894,0.6900634132095795,0.4384091160453939,0.6541219573294381,-0.22714656446719228,0.6465288019049795,-0.6874588852465519,-0.49764761993858003,0.641479484428307,-0.3619928578426726,0.6993994549160819,0.5339981119385355,0.11042880397151518,0.31776409461951144,0.2935342514719726,0.3522693539944939,-1.0893614359094494,-0.5510689717973564,1.0778998548762195,1.1532434948565402,1.2058855850334373,1.3382630674095843,1.2704594434615484,0.05592606842348388,0.3631710809447504,0.33270464035404035,-0.5595745093535371,-0.22985038442182543,-0.5201070109011927,-0.8448224521945911,-0.7702445168939881,-0.5402402505727469,-0.6230556914156224,0.593278578683213,-0.3405134238945232,0.12643194118300133,-0.9678069587337016,-0.30578294712553444,1.4803986963462072,0.02615399592457312,1.426002256430042,0.5976742575034001,-0.6261645983572315,0.051074064853777947,-0.17325933557727236,0.9757364914287425,-0.2802757046830224,0.6417290538037872,0.39273023661223244,-0.4760539831845621,0.2947977767344077,-0.644799044165424,-0.16075515184717376,0.7065878465696784,0.9965460857990183,0.7253193165871591,0.33003771335502524,0.6882836728791352,-0.6987076924180723,0.8210728524507185,-0.6618251522111736,0.18725211002594921,0.12345109500147004,0.5893785551415894,0.1253762821242231,0.7763046744776092,0.9196357128493362,-0.16459621605960625,0.9592291137260248,0.007102805577011395,0.8146052588414178,-1.3672269017203869,0.12683915670266,-0.08183428500046284,-0.37503386308041786,0.1749313009193451,0.22717057101240304,-0.3023573522569491,0.931890091776396,-0.1912621379146128,-0.13820370853845276,0.4930281802726941,1.0527312761929806,-0.6609841757473661,0.4630159155793257,0.4800859625701266,-1.209615103281024,0.11825847951553523,-0.5021221430430112,0.6250811189475649,-0.2605660667474866,-0.4515522457820937,0.32733230403448915,0.2442609229778049,-0.1501297981166178,1.1664036251985097,0.09510547436363638,1.572618790874779,0.08639222972328778,-0.4534794880546851,-0.6126406714886705,-0.5370562767033883,-0.9392790444243049,0.40140821750772215,0.09632420323180695,0.03773012624164453,0.7238772570817675,-0.7746665132955787,-1.0122764976433196,-0.25773910562093577,-0.04992495491646023,0.3644868808001688,-0.5608428313994023,0.6331448775328282,0.5274043134532315,-0.18155284575708952,-0.2681271464001107,0.9781914051163523,-0.7364057305994802,0.832646554673493,-0.14374910696072624,-0.6822701227862151,1.329393460175586,0.21898842709350325,1.0218478543639329,0.44332598575985893,0.7902975022761209,-0.5841275821280673,0.0013893764561866274,-0.3415636526036397,0.3969899207143211,0.2484572434752118,-1.1559621720831197,-0.921610052862782,0.5653631847427888,0.41280828417371246,-0.39176733730733165,-0.3605610503059434,0.36594183932966345,-0.22281060147057782,-0.7223672260146183,0.32600845963282077,-0.5403205975027017,-0.7947410248206386,0.819737870623459,0.7952339475270715,-0.4462029268272948,0.6605684750917346,-0.5248166011854534,0.9622222349809012,0.8562086435190044,0.19302305535596334,0.42411890047708684,0.2087692907406111,0.36300592275834914,-0.18688550742780688,-1.1352082414394982,-0.14323254523270304,-0.11421344331006651,0.4693766927880608,-0.363551973745417,-1.0478838532192145,0.5026149500780528,0.11161826319314422,0.6504555779750354,0.3097736337222293,-0.29212355702265014,-0.3230333562153458,0.3676131268505281,0.6169804598015302,-0.36317398761851594,0.6939532352669372,-0.5468434290441457,0.08115369586929955,0.36620129019374864,-0.6734917844490201,-0.6093632409614974,-0.10810690426840673,-0.30512562357433337,0.08974389722391461,0.010533409384387037,0.8402739749702104,0.4061729261828023,-0.08712637753843379,-1.4236211554661984,-0.0759990425239843,0.16953019907509417,0.6478492589020922,0.27062561548913044,-0.42860586111436755,1.0657099522889333,-0.5682851479527018,0.8102442716674224,-0.08175413192955273,-0.10062102589871949,0.8376591942842438,-0.6804801663402332,-0.732345751196902,0.36359694561693684,-0.05190572139658582,0.7643619964258836,0.46668794809443703,0.7183971210167305,0.03882399663792345,-0.43017412851348424,-0.5760130157098113,0.8419454470152472,0.7074870351620063,-0.46638545883049265,-0.1704283260375729,0.7118463974437459,-0.2627223965957802,-0.8279870521099667,-1.1626482109604062,-0.9264176599317769,-0.6600330660576499,-0.5764898649009492,0.4762316171372668,-0.6283919406474683,-0.3125574042972541,0.4032314609012187,0.22435007245277744,0.9098321279112335,0.3560295199042348,0.9744087061553492,0.4649670699091905,-0.7390831424557491,0.330453175642295,-0.4319750578647321,-0.9989612370963004,0.33825511990752494,0.6787285680288192,0.2735950163964888,0.9802159531741906,-0.4401711335091775,-0.21149407586204527,-0.37380594244092324,0.615534760277841,0.5527135058387022,-0.25348381306147816,-1.0205278321798512,-0.4959526152551007,-0.641748782059955,0.579291718363726,-1.0402847604450751,-0.6466677933975853,0.18341735507400578,1.2316545919813937,1.0553697024513635,-0.06522087913807485,0.027766131545367712,-0.493889052867039,1.0625036347171346,0.22615831000438974,-0.10455364848754968,0.20190570742399558,-0.8152962575954974,0.2951872677864178,-0.8921544051771741,0.2046402832281546,-0.6952912120631803,0.9451929897067556,0.6438353985669029,0.5950602604946531,0.5955467075073675,-0.9065807676041477,-0.5693811366353277,0.873297858700842,0.731188377254962,-0.5620992864632058,-0.6594068635471932,0.25641903486443735,0.4109482516573388,-0.2387308673751102,0.5306307422849865,1.24806716651687,-0.3983991891041349,-0.4460402124749407,0.2160952661635483,-0.3769491738960308,-0.8977405546504134,-0.2549662182506075,-0.351449088341972,-0.3976535402719728,-0.43728127511995596,-0.7965950682340943,-0.7727057189058333,0.996606959976914,-0.8437660408296781,0.058771406088208314,-0.2904116775314976,0.504196263110409,0.23617200967030347,-0.5075982307516578,0.1903960177787989,0.0005840354710648032,0.40758595380459217,-0.47766952273186714,0.6424923942241194,0.603558203146697,0.05915647699518628,-0.33805194856271714,-0.7762449462808813,0.774735533682222,-0.41740393649361746,0.5127513480754449,1.0481518920758306,0.7970940557050108,0.5369981945732165,-0.12294503194032008,-0.2614422155668373,-0.683528122867413,0.7723025277747118,-0.7803612139763083,0.7811155591488137,0.5052416907377089,0.08842582163759098,0.7376994941902578,0.7710725846594435,0.8742276264827071,0.9539270502106819,0.7668357237901782,-0.3275739123594324,0.38057326111761336,-0.08458508456372674,0.3440295704062171,0.585199897227495,0.48222644597993775,-0.5283871429478707,-0.05168842173191208,-0.352770205763859,1.0662758371881471,0.49594984187994,0.7344379764634018,-0.3278377980995536,0.8456188105376794,-0.4148722487297048,-0.8583226680114842,0.29037545237159934,-0.3523125892353014,-0.7672319616858014,0.20873328075637865,0.049187899767671794,-0.008064178707155811,-0.7244427539547691,0.20094683278719647,0.17458057799918478,-0.3530311060872499,0.5065094956507761,-0.6821908259306999,0.36054590164031136,0.6203377766939883,0.579633029357865,0.2681082078938783,0.8361669174591788,-0.33730474044293884,-0.45163260311367337,0.5238608463926382,-0.07302567626682967,0.3570681537351807,-0.8939195555052318,-0.06646142529219665,-0.22942022273479842,0.9128039493917507,0.9099546930516426,0.14524274540749704,0.6599910633112717,-0.17492862095950068,-0.6062348936398965],[0.7996807373786432,0.7978389730570279,0.36599294706707486,-0.33470985485719096,0.8153374378322078,-0.5503030900133181,-0.17812908524122156,0.6391086342453723,-0.7981867869980218,0.8107899507411502,-0.8302482264085322,0.37973623498280973,0.7559975913363434,0.5769407083760854,-0.40878855814602577,-0.08157825198009824,0.5826622211761366,-0.27035607427165986,-0.9227550463652683,0.6684530902853505,0.472888374268724,-0.12120721612554894,-0.48582349986132306,0.8363213190138283,0.965423421289207,-0.925536609173359,0.07886373252664791,-0.31331876995189845,-0.526593475231885,0.706384823742535,0.12212858472729549,-0.026498040822316327,-0.09887790693050436,0.9937155723824382,0.3096638133527527,0.8119597404704035,-0.15470754874798406,-0.543052850608806,-0.502149825053239,0.9851850180791994,0.05911619032192083,-0.8527565348673358,-0.3381286932532967,0.23871455037554135,-0.6514496458265265,0.007854032552203183,0.7526077094938945,-0.6842204842266424,0.3101242627466654,-0.5536156254476535,0.019721308003641358,0.3109381463497498,0.805515947118224,0.874381705407056,-0.24891748202247355,-0.5805512122133649,0.002392252780947235,-0.19728164071694287,0.9418387697051758,0.7715314598192471,0.22946846696718995,-0.3586141639156857,-0.26584182423971686,0.8753570226584243,-0.7146627142213123,0.8143309581873406,0.40392466224905976,-0.731860999265171,-0.5388956058461903,-0.5236525448902029,0.8526625457151047,-0.027996866620461514,0.8033602627734309,0.32365876067298555,0.6330010592004682,0.8189188874489957,-0.7667934830058515,-0.8588424259503666,-0.38368886210502606,0.888185900879058,-0.45116449047336404,-0.9279606949680752,-0.07586569227522588,-0.0894262678955795,0.9763984663776579,-0.3917339391305692,0.10970325252884733,-0.3950372807442842,0.9217634783728073,0.8242548330798695,0.7578392911543826,0.17815449154241003,-0.22085301800334736,0.4602265738279151,-0.28563562007272375,-1.0790709199802717,-0.3713972883228913,-0.7806647171383124,-0.453896751663479,0.8847831058748836,-0.0037139004172312452,-0.8167796324127797,-0.220994349977616,0.9203135552663038,0.8630154328269842,-0.6918661678585287,-0.815033788246521,0.17200203510928921,-0.9946405184616346,0.12757564549302677,0.19181228472307277,-0.5451464179149044,0.6586834108239796,0.6163165872716512,0.4942709560582796,0.32233522170927825,0.16112408308945075,0.7858266719411436,0.17311423127315587,-0.26024168783374746,-0.7659573033906373,0.024628631283402654,-0.542974569341885,-1.2289742235095003,-0.9395438508628243,0.7480344547710421,-0.3053582946093668,0.10228198835822128,-0.8594194191584426,0.17206193392725552,-0.2745293971437938,0.33185980241386137,0.20479014768188913,-0.9776484701731555,-0.4395314718240263,-0.2409174297667046,-0.5896266388852064,-0.2888549316192423,0.9703366288879643,0.32723308428835995,0.8367726197301186,-0.5138798982338803,0.4597181285564982,-0.39807760984333657,0.5644415281321526,0.8687442066448705,0.3811056790330066,-0.19541661561710122,-0.8293432502188409,-0.39577984516192544,0.15705665295030424,-0.9834503754749448,-0.24960517643843871,-0.8241706323044558,-0.7133328652422154,0.1585418998982403,-0.4700746823868635,-0.7724677733918069,-0.974715895511511,-0.09290147714123806,0.35943020009985,-0.16208922342771198,0.7353992079170758,0.02281553570415935,0.4498747792470971,0.03989381737667728,0.11580634000423222,-0.4700226925856187,-0.639299872019345,0.7538614103493398,0.3776178139080663,0.06136044249264481,-0.4723577191915172,0.29155974006965013,-0.3913180498122606,-1.4674097017775813,0.3584659976887234,-0.13709816091166432,-1.0853427997843663,0.667828656375001,-0.2789987049931427,-0.9577657894684344,0.2215619123992423,0.08812184778884845,0.483288027439437,-0.9462348272966349,0.7233136495852931,-0.21047666746943927,-1.2471539488762668,0.003552494594579384,-0.6129047889775597,-0.6870523630161048,-1.2798253674699196,-1.1584059902183599,-0.374251363218432,0.916456823861559,-0.9130240412037121,0.1849320224537217,0.9216208806416961,0.6144113043805973,-0.14220659063810442,-0.1311605370233487,-0.486549861630789,-0.5533457006975966,-1.1920304028926005,0.4701075868439778,-0.09086134617870417,0.9203101390527468,-0.05970683942113578,0.5444416467986851,1.3012405444683373,0.11372160832223695,-0.4454099564466497,-0.09649971419964229,0.09563202738536097,0.583903024411914,-0.5749079280539299,-1.2475047433320123,-0.1097387844181382,-0.42637771767787347,-0.13430050613502223,0.3027862213794774,-0.4132001173085011,0.3108676988476821,0.13890210289621763,0.4973464177843462,-0.6544950527299459,0.6415368753910851,-0.6763901615018723,-1.0492219901769597,-1.202586538224368,-0.63272161546598,-1.1304330642254887,-0.3777636949332815,1.1907108846058754,0.5620614778043717,0.7533911434506119,1.327389309024546,0.17836072201428574,-0.19701475685692724,-0.35892795601455524,0.3424299201294943,-0.6482035283529057,0.6362503753100699,-0.04639309541969817,0.38012772950190704,-1.3479400494708855,-0.5790818571282151,-0.25804935674252494,0.10712243828561453,0.26870709398955694,-0.9642724348388506,0.007471367888499003,-0.7573319822320157,0.6725429768181062,-0.7882034422669567,-0.7767440926117596,-1.4317655447878868,-0.37906364632888584,0.3307182199140758,0.5701451548036478,-0.22689725606099073,1.4081914467274346,1.8053213469317366,0.9634208106787818,0.6107353545755039,0.17895176923685924,0.2677396107047682,-0.8191849637262024,0.6157973608006059,-0.3495819068830164,0.0050118726303879976,-0.00003741307912918345,-0.3219742950083014,-0.6531275607218148,-0.744855529971733,-1.2627740348192336,0.12625950413263173,-0.1593393647154126,0.2428155212372703,-0.14363780757184452,0.6068909440745712,-0.30126110372412107,-0.18011857927923924,0.31373458467548127,-0.8459040831114976,-0.9198057710806913,-0.6324134394054415,0.2814766563843194,0.31899221698766744,0.6650101114705418,1.4580569606636906,-0.49455976337034546,0.7926837167033313,-0.36843767574363373,0.5901836890721698,-0.2800670280345287,0.5656936800661171,-0.7182890465020891,0.08605206255841563,-0.13600438180754712,-0.5352539668134582,-0.4227252172921348,-1.0953901020793375,-0.7212979203256634,0.017679035833689804,0.16374380203897185,0.19864203827193203,0.8935088690252302,0.9017451285109181,0.9241198621875463,0.3171420785427262,-1.4977766589264403,-1.4436138671056444,-0.2891585114563428,-0.9662407998188299,-0.08674026969361093,-0.8328779331821178,0.7884341821114973,1.464048305912999,0.5001146034195072,0.5366107316852066,0.6919665435975568,0.7475921733799306,-0.6014500084812061,0.8114194913843663,-0.16148975065605664,0.0957721804832721,-1.369095650378388,0.2297385548327411,-0.4771082623295253,0.1565489866824135,-0.5414702503285691,-0.9449676762381027,0.33502162328185264,0.6702330313817457,0.4499849540085914,-0.31017675846867776,-0.7295844597668081,-0.8200509793837836,-0.23821515380475233,-0.7134012251503381,-0.4375451729593635,-0.23441082262421162,-0.49956959477845975,-0.46503671400478824,1.4413949906249253,-0.07414667480140037,1.0035241973590125,-0.3286007052875238,0.3042536976570031,0.3566612833274726,-0.12597053614755502,0.05790018489779593,0.3775184476624968,0.6346772646429344,-0.5235663630370312,-0.8995188569930943,0.38699811261329004,