{"layers":[784,128,10],"weights":[[[-0.22064026081500376,0.15346979635389246,-0.21314750163208496,0.0884796346082295,-0.9944601214332089,-0.9851640369718702,-0.8768086297527806,-0.1276861713071633,-0.15643905512580325,0.40219633946659217,0.6160903185319344,-0.1527509523232098,0.404289738337658,-0.08676799092139342,-0.3611377267031357,0.9962167392036645,0.1495283221659629,-0.7752870466613992,0.09179902461095502,-0.12476231994167364,0.44349414390962805,-0.9537978645741334,-0.6782795004405013,-0.8442339308389446,0.6561155106375893,-0.11781580664417435,0.6527019595781063,-0.05669835594517725,-0.9354313281720072,-0.9415487129927218,-0.6353234931989045,-0.7547988382131035,0.48585714399794444,-0.609881504681101,-0.5800021345574371,-0.7679464578433444,-0.9336435496230533,0.7868418558300823,-0.23240433769568547,-0.7285729308716098,0.8848289714542155,0.8328655300691081,0.03692236484710021,-0.772194039971501,0.34993462763494376,-0.5534273304109938,-0.15551353061334172,0.7050115010227027,0.8887170030677858,0.5766761025160401,0.1775671678311448,-0.2078284676542883,0.503303337562595,-0.9485684301589021,-0.7620222935834149,0.04819336420220166,0.4141796057761673,-0.4245175174380029,-0.1864882516241586,-0.2403401725865777,0.7782676019848922,0.5993178617972976,0.1765295804385345,-0.39122317008609375,0.5649759538641783,-0.5981624590166179,-0.6780927609271945,0.6363706096879373,-0.6531687191295883,0.9597549510994936,0.7153098706134364,-0.6199235749070531,0.2630038955374969,0.08369257648331763,0.9886397920482555,0.41794866440844514,-0.3453221095526007,-0.31459100448359445,0.28384104384125264,-0.5057440282102679,0.6236728027140535,0.25285942926188776,-0.6721448241799037,-0.06606579000809587,-0.35479663599781075,0.34732664507465083,0.5264928913941866,0.8972465077309253,0.7024688500332621,-0.5473120037814088,0.2520852688465629,-0.8756216556136072,0.021779341063053792,0.21288563880665246,0.32985537108748675,0.43241251108052703,0.0502804769726275,0.23656479962309396,-0.44188490571089467,0.4089320724601704,0.5736489838841359,-0.7749439757747787,-0.3820603836967207,-0.9575907376292232,-0.5992876354152896,-0.43316280966556464,-0.07323263828229365,-0.4519199207091291,0.5520670322478809,-0.22867634685953453,0.7977259774167282,-0.7508963092560337,-0.7411601908076055,0.9981524357586182,0.6330173163588224,0.5154676281345454,-0.13633453991133937,0.9086943521617483,-0.9537898011369048,0.37187942689311493,0.8292334678974109,0.8554560325659897,-0.37882392774385476,0.7458466268528854,-0.3587475392211612,-0.7938371682516143,0.5259937151745859,-0.9104538389725123,-0.11036695444313693,-0.14882732932463272,-0.5535721443274331,-0.20394201558285285,0.24538559062540077,0.30362733855438107,0.13787309086283406,-0.011058261686473614,-0.6231215306995925,0.20382710243233992,0.2502501105297368,-0.07902781666319925,0.35090743843731165,-0.6413095100974835,0.3194783124197862,-0.8850854526063472,0.6623564833767621,-0.27782952221642265,0.9125179019362597,0.8852353933699408,0.760701392648762,-0.3023175510009275,-0.2571723693703727,0.9645421478755849,0.18354229918950216,0.7831944303754406,0.9631263092393278,0.3771588050248744,0.2517421052041895,0.09929433165981472,-0.7425994756697696,0.8711789285505565,0.9289680063675605,-0.785078999673225,-0.6432703130275961,0.29991711702470125,-0.9205328208581647,-0.3788354659542996,0.750520860516549,0.8592415474439572,0.8525368878230601,-0.3952295057922077,-0.9662907978992306,0.4894118230900606,0.9308639297498673,0.3796305591971598,0.21657034385690288,-0.6583921903840637,0.09645515340391997,-0.13157396690195045,-0.5118391839339731,0.7649368501652689,-0.49602565254039543,0.5982981752533778,-0.26635436527640666,0.929239607925568,0.7774472912805419,-0.2435199118684439,-0.9083219683546866,-0.975237510854376,-0.9461517199380642,0.6371028015982674,-0.7935207364877264,-0.5855941782569087,-0.6919588356256332,-0.37522785513891277,0.9673644483837256,-0.48531604763635317,0.6329835459708741,-0.3999476766531309,0.1769082652744136,-0.9473586409914816,-0.24273182362054158,0.6193076754846092,-0.7619150412989741,0.24322111729040596,-0.3001287348545425,0.25622091302291006,0.9560368089066738,-0.4219600973532125,-0.188991825630747,0.05130926579093176,-0.7450030427512795,0.8968897657465988,-0.5601792539142716,-0.4470339899173559,0.4481908751984358,-0.07535015627461839,0.7308693104786688,-0.5341595257952778,0.3889659269638157,0.3234927980282807,-0.13258040729120824,-0.3611479777240354,0.6758911388532649,-0.21704771793891586,-0.651888461569166,-0.1829099355404522,-0.02493352364997614,-0.805069434762514,-0.76558006346459,-0.04673326298274949,0.813715111588849,0.1298265482658505,-0.8276611727525318,-0.022125963370394075,0.49224467961222773,0.18204172458495949,0.29889024613257353,0.7389287795886439,0.5503739702022283,0.06457032323049461,-0.42202448119386693,0.7155819182539433,0.5150368991884533,-0.06300510688758365,-0.46785618167321985,0.5510275265922249,-0.4471531469945522,-0.11517001591747533,-0.6160714564421466,0.05971807964121956,-0.6821900325089438,0.3382282296749848,-0.6579445226276488,0.3731034242189719,0.8908299115113292,0.897435589782293,-0.08829928323465852,-0.26062396737508786,0.19941060579401615,0.38459049735580964,-0.956656652326819,-0.6027904689485997,0.30210484745023525,-0.029993079289938773,-0.44694766748411663,0.930533600945183,0.21892432666294548,-0.6468111815213309,0.5260258786309553,-0.23536191904616377,0.5104986166813372,-0.28038025218298923,0.6199863721831655,0.020546452981831553,0.03468103105379017,-0.7929568026982174,0.16481877482349816,-0.7166591474218569,0.376536847493524,-0.9126003688671109,0.4255383139457458,0.7646268275892552,0.03054114087602322,0.04147217373718881,0.6780488047970534,0.6812909885196996,0.8759589063763187,0.7121956311267854,-0.5660273761234644,0.7046175511415802,0.236035216172501,-0.07907624365735755,-0.9410805885111606,-0.39715141127676734,0.9257919156260015,-0.725852824058594,0.8311741947712923,0.6363363489789431,0.4660476452845179,-0.33791273979488734,-0.8627138151393141,-0.3677968776247096,0.6551531726825082,0.6406522553320713,-0.0994125729390345,-0.5937636916303881,-0.23008438739168735,-0.5837379952602215,0.5563682475610996,0.8346479168786631,-0.982862666412224,-0.7371519121760808,0.6911790332963501,0.9132948044977045,-0.5338206075047127,-0.486052141974362,-0.8135565689314777,-0.6306613745901442,-0.4364248656484828,-0.6953973159241231,0.416097075283008,-0.9388129215039585,-0.2954600074141682,0.45893118462402915,-0.03457937109289899,-0.22054990854753687,-0.41302220201042594,-0.7175409675088305,-0.5180472557362981,-0.6787111307174301,-0.43080535861358094,0.39333244004284795,-0.5009933064105785,0.5651651078982014,0.8265297694739329,0.1752292438799139,0.8834086793572982,-0.05517050665185108,-0.7453215928010679,0.2500729490245508,-0.6114710111860457,-0.15476775398594045,0.2088081307659846,-0.9094717529487908,0.4556427407027952,-0.6834145549167614,0.3419373566995949,-0.9266124869253667,0.714724415782694,0.8851032586087029,0.1375855763161109,-0.3654236328491849,-0.8148849391579494,0.8348378355867938,-0.9838061337615684,0.6870258443280863,-0.9227593280312054,-0.0959888271545486,0.47790522081192455,0.05458671635109802,-0.4822045624594278,-0.12703307436209643,-0.43411388473536006,0.9971222509128355,0.055501268091443734,-0.7397736665289316,-0.692139982063666,-0.10561145439083575,0.24989528476767342,-0.4648245190943956,-0.11405619037841719,0.262156863145659,0.1794613060201109,0.3806246591797331,0.2745446016944797,0.44545427951613714,-0.25378292273345116,0.2041929928896371,-0.27337846844065883,-0.6393270706395584,-0.9187828364737878,-0.5099379765247649,-0.11107080700645389,0.9059287873366539,-0.029492274985769118,-0.4574970048717746,0.1585730733537467,0.6173353476627192,0.8599769373952824,0.5247649869272397,-0.49045147374200093,-0.1718447431225938,0.7717635128108085,-0.39454823200166,-0.9876600074263631,-0.02198476924754189,0.8587681216591014,0.9312437548694819,0.14709628377345974,-0.9262980403952694,-0.02695395870401507,0.7816177773634485,-0.7536669904099598,-0.7445497855326217,-0.12974874645721668,-0.3484904498818815,0.7303662015927341,-0.9488555113069621,-0.4058679118909936,0.08389395496599983,-0.03723603716129764,0.08147847272372832,0.596878347164441,-0.9151241063720317,0.6058247193595556,-0.34475622648471616,-0.8076316054961548,-0.517992862548263,-0.792281329881078,-0.5136916403583998,-0.3689273703523246,0.7358998514551844,-0.7465487285285861,-0.5159524048582034,-0.6482562567046495,-0.9962825621135254,-0.0947510314762745,-0.09495544387625454,0.09213508274353455,0.5639868230912461,0.8735965901635137,-0.22154873211226134,-0.0752000863072908,-0.9210223854737531,-0.5387303165080741,0.017754483345204797,0.011952929929365919,-0.45389717245108807,0.273668385485224,-0.7607247901550962,-0.22739079663181894,-0.6069499719487381,0.2707810271657336,-0.13150978106792133,-0.2958360690383599,-0.013786722714900002,0.1407083776889344,0.06113563098817654,-0.6133152219375431,0.896455360808134,0.8811717508786234,-0.5329112468875574,0.18886740802200874,0.2960262354508676,0.9749764809563413,-0.23984403126517417,0.358769223489237,0.9148979724701873,-0.0631603755856811,0.8415671375442684,-0.059739854157281336,-0.704157182726965,-0.5054518256468916,0.3135203595232601,-0.06765344717359811,-0.9742870663879057,0.6714603024883727,-0.7546778229362587,-0.28256069006706186,-0.07427854574935688,0.4992779663417459,0.611459500922019,-0.7295405089888134,0.5627308235189403,0.8999119043942247,0.971694655103879,-0.21548261192499796,0.8349162217552024,-0.06861758836625675,0.04087808059628317,-0.2373581942422085,-0.6134601031696869,0.643582942447579,0.6796243692781654,0.14422430741592818,0.4122671934786517,-0.5592379282673292,-0.6026898040853585,0.8338434398558521,0.5288937350952736,0.8886243931185467,0.6285636150001817,-0.12012521798499165,0.36891581101933557,-0.05813130069751038,0.7545989073164061,0.6822281622247819,0.8376938970628287,0.7573649553652126,-0.6698033497259588,-0.950706767857139,0.8718883428618986,-0.3636897274705331,0.21726611736693036,0.44536815931602725,0.5491716605825183,-0.6499249157280063,-0.670803605901062,-0.8561882781642902,0.9498633759738486,-0.37353545816229294,-0.47819401748620427,0.7404145457675715,0.16678513701260833,-0.41891789251503075,0.4150007759708454,0.789037968501666,0.4320332768164956,-0.8768707844957833,0.07195715767681055,0.4521687618389474,0.7316052740804295,-0.12215493237955011,0.6786659910825374,-0.20634108494615822,-0.3940267573606606,0.15174716284123368,-0.6735885224943243,0.4023745145348956,-0.44673183877632594,0.38931090060563056,-0.8947198442323354,-0.3971903458963939,0.7282401597179424,0.33169513420785623,0.2508723357411129,-0.9399733415099143,0.40474750519556224,-0.2886324083138172,0.20285974556431619,0.22233924134577654,-0.1372679658932099,0.11525141900136049,0.027588221386346756,0.21842803688914447,-0.5566126995341891,-0.0952218016825932,-0.7010280068071122,0.9099372941547434,0.725503696948218,-0.9389373814140161,-0.5437310026800333,-0.2511557616021842,0.29370087400790057,0.015174265705734324,0.5624346468650661,-0.9053978229960853,-0.642710709602548,-0.8092398105270613,0.29548992218025827,0.2625911497907736,0.9874701445637992,0.40697095909237424,-0.3907318044864323,0.6868095826430842,0.017518066028590962,-0.0787491498165469,0.6936879596877907,-0.5881389141185944,-0.18653928825340937,0.1051537560893765,-0.3758030733477624,-0.8450828033812736,0.6356002217309529,-0.5124423532720046,0.10931715630246241,-0.9487070384414111,-0.13608101392036254,-0.8307286522513686,0.4430748853223365,-0.3255052610420228,-0.836451059163112,-0.13301726033536454,0.8875860083288623,-0.6058364686664732,0.9879532434087221,0.6538579759336915,0.3346000975612582,-0.9565259246555611,0.17267852404120454,0.3222239564209004,0.2969821925777656,0.08639347944642806,-0.9741401241553156,-0.6095133482208155,-0.6647004854200094,0.936966639939429,-0.4120474846278559,-0.764522162698996,-0.16623801005072458,0.5456358653456452,0.12554126930707632,-0.17385858625511297,-0.3054855751866863,-0.3176211360734942,0.9193365518631209,-0.7579732574011615,0.04854450875671956,0.9323822106964488,-0.1182920916869743,-0.8845375689971879,-0.652440232805493,-0.02807679878508873,0.8807109898194665,-0.5667052905385384,-0.0500019208230551,-0.7613865580442543,0.18924975317369297,0.655407508222432,-0.9628478743963731,0.5203874313498251,-0.35810981275974285,-0.357708988232321,0.6633309917229595,-0.035047533582250434,-0.13969689471664326,-0.9650840592592469,-0.532183809645713,0.9509643969374051,-0.5295202747198324,-0.653733512548436,-0.62409087972227,0.814764726927085,-0.021937693095552824,0.16085195720947354,-0.11112842673505652,-0.5173180470276266,-0.5171893967687367,0.4101902735606613,0.7082432097898224,0.248471569330603,0.9054314965779731,-0.5086392585213568,0.5156805655003867,0.05003082240790535,-0.22271462614096027,-0.6994047729497814,-0.4693419868880073,-0.5631434149121626,-0.6404396649437549,-0.8159503802816497,-0.32062067139087436,-0.04958958098640531,-0.5565271158074383,-0.05855125757101742,0.15172548886496529,-0.7865090512458455,0.39971810120056483,-0.5555356586183304,-0.5259257039144556,-0.46020191784789866,-0.8117159887337682,-0.34156130880642177,-0.2946474346433554,0.0024405850589372946,-0.3009041515303599,-0.3496287967602498,0.09982693801976206,-0.525963809962775,0.1564312320542558,0.8199396732792859,-0.047745699916070805,-0.10477569371031104,0.26750079661995896,0.43876800733469024,0.9408101760509648,-0.5812167023562456,-0.49929295677596386,-0.8557914719247335,-0.43199202899241396,0.7389696876914869,-0.5140972956406915,-0.2692959931327228,-0.7032253087627764,0.4773370673733308,0.5610812597009538,0.14003584826582038,-0.8619865704405805,0.08264399582744497,-0.08994247088061558,-0.8247785786914017,-0.8987549702694957,0.2208274666777652,0.6181496080763091,0.2360271936545315,-0.6796428038179076,0.28480460053635914,-0.016422762940896618,-0.34094725755093647,0.018520992136435765,-0.37526783910879624,0.8970842952624429,0.9016247524877978,0.40535681168471704,0.2770155431722503,-0.5253518719302432,0.6049738701985441,0.8654735380883296,0.00892535089394908,0.32827491118040264,-0.9696564294762435,0.5272611180398026,-0.9429915474486927,0.026402063027515243,0.8014574970412118,0.12041805183578935,0.8410922310692794,-0.9664091164678967,-0.626360475815976,0.029142774776940605,-0.3815963535522684,-0.672907377348011,-0.5670572951660824,-0.9968385409335099,0.6600305768325945,-0.39484391229844196,0.30129510128873127,-0.13338601120506732,0.9653425700303044,-0.9379235333209297,-0.9059751178893896,0.6056734979999687,0.6517698940693708,-0.42194024558437704,0.9832113751089806,-0.1400421017633282,0.48449520560641934,0.2903045315477346,0.8446454919980066,0.4590885527092077,-0.5359999111594851,-0.9109755654268819,0.06246679276063993,0.8967524751324292,0.6916584202493881,-0.5977208379281862,-0.8198342351443078,-0.008947288004332421,0.20853613632789836,-0.6504860438028173,0.7564769600065775,-0.867300543392751,0.8953244711226631,0.7401934236820122,-0.04900757445513282,-0.712050553529902,-0.3131105801647749,0.1829895715798573,-0.014076293718705557,-0.11849031453415382,0.27347414000093506,0.6819660706632877,0.5583378553719474,0.29207961761815904,0.5061031904280697,-0.4727801914600249,-0.3959525088534783,0.23865522504951198,-0.44658413007641506,0.6924786097564835,-0.5024374408927614,-0.5264928680532974,0.24796858112197118,0.5402682777543921,0.5231515396603998,0.49948900215669756,-0.7853833675569581,-0.5573957895945116,0.7894896928414936,0.22526604076604206,0.9664443753870948,-0.2831525237982584,0.7687972207294509,0.18118004369509721],[0.9894408098875722,-0.5255581539254157,-0.5002405662998903,-0.13413967416960126,0.46037505171680193,0.3468397784610002,-0.9237918562372949,0.46639802873940717,-0.4762122766369581,0.18795546955890519,-0.16549713738996452,0.9720153945578542,0.11125137705963306,0.5772630532356446,-0.43401931256607185,0.12433506407151151,-0.41975222726675643,-0.5006952339065807,0.2556631165392047,-0.24856329010807876,0.6806307058142544,0.13228825467902805,-0.7223943728293216,-0.3249590648278664,0.03182839042665364,-0.48177443433064493,-0.2886794532708623,0.8707721141864124,-0.05177860227213271,0.2204945181266198,0.15867959071178417,0.9773688217859586,0.513584771109532,0.9627682637535218,0.1778899843479418,0.031586149670400854,0.9297959560558127,0.3596765669111348,0.5375293770612739,-0.803259026336133,0.45868430224541434,0.902666404909374,0.5487998863811727,-0.2654413173891115,-0.3285909166665939,-0.34003511112314166,0.6294531385389392,-0.8320747450106798,-0.05874730510327408,-0.7236650396528028,0.12593622061294596,0.2736063155081978,-0.7286374404530109,0.8513961855906875,0.7307424729736134,-0.9457253892903155,0.5020783201288133,-0.2627433306464013,-0.9410503864580568,-0.8406569234186572,-0.01719226116849626,0.11089537254922632,0.28963478555596645,0.2018276927646201,-0.12015979332055249,-0.7346094169633544,-0.670784120195588,-0.014316210577697941,-0.7096864123540048,-0.9056302690060085,-0.17424982734322736,0.12459133037477255,-0.9686732569161114,-0.5983510682366586,-0.8371386195539219,0.08945505019368749,0.2450468549144902,-0.584571569218594,-0.8588863086146432,0.6822023246739559,0.05660540097185418,0.8870843964666077,0.8863521886774728,0.20748748859826405,0.0743348323702282,-0.062809850114951,0.5223925678716386,0.9482339140667269,0.32801141076973606,-0.16721481622014256,-0.6229407906942712,0.1291801429582815,-0.05655077841536382,-0.047565801407000396,0.24652114384544355,-0.6012151637831007,-0.7418652646602801,0.25693314046215,0.8418155705202883,0.09183400951817466,0.2506634593743078,0.6289176897435054,0.7735887948117459,-0.7880391696044815,0.2706752666290102,0.9202044720802087,0.6359790619893411,-0.9823100204331223,0.9816186861196248,0.9983499051871525,-0.11925281322300396,-0.3442335459190393,-0.8641640534565851,-0.17390043419360612,-0.13696430003080184,0.26535145029401885,-0.7646029427345531,0.975570264306377,0.7819583480350958,-0.5534785416484447,-0.3833323418151538,0.6936270437341499,0.8465799041229563,-0.5091540717969596,0.7500217431531806,-0.32307278323653765,0.730428319292697,0.15868046840751227,0.756462255387035,-0.7492431807165234,-0.08625991247386411,0.006061513133630569,-0.5670562355327111,-0.16211083850242458,-0.9675695072373753,-0.6235014506075882,0.9088057878109557,-0.6782419855677104,-0.9617662787482666,-0.24006216548798331,-0.732340030474242,-0.23143598306561097,-0.9892746792258684,0.6637081427449827,0.7752810032946424,0.44959534543260915,0.0005814681176117276,-0.5865927200607512,0.21949700857969315,0.9517722885521307,-0.23645472111706844,0.8309692015938079,0.4950058951325116,-0.5558244158892625,0.9685941901853354,-0.49433958195276473,-0.16805295530139253,-0.8566975066644367,-0.6560389211650857,-0.3597160730074176,-0.06932949012047329,0.809454621080508,-0.07768204184401073,0.0073244733611761426,0.6458704809960092,0.09141703872689888,0.01848551190768255,0.1300446030636504,-0.693423459520635,-0.7359679729443416,-0.46352475661455106,0.5262850879136103,-0.17320181603028795,-0.8932336204339535,-0.9495884458963189,0.12108767465383374,0.35153510445145786,-0.06838561723126728,0.346136681322164,-0.01318653929550484,-0.5936558488658727,-0.6521018978265349,-0.2314206409346906,-0.8884267204591962,0.10564038313690993,0.9139755882240537,0.355868061035153,-0.473109221081474,0.036108592887076796,-0.6736461280303581,0.39276204696877404,0.9933148368103666,0.9061569558684681,0.4525574941267583,-0.2506661210368706,-0.036488624917419,0.6555488028950083,0.12444428290764531,-0.626286398789583,-0.24478489107194124,-0.7545270173988516,0.9071623197399079,-0.40811380678193476,0.24937108177810985,-0.9532731009470725,-0.25792222756729993,0.58944334132523,0.5475734058716024,-0.7800988990284576,-0.7575543474112854,0.8015656226361889,-0.24770007109726322,0.20867874883449655,-0.2623670952594197,-0.5336215501407802,0.11468289369565099,-0.7776387744582404,0.05104491202289903,-0.04600071069986928,-0.47805866139264186,0.875393064975102,0.6158134969547864,-0.307213926268747,-0.782717811233383,-0.8267509142753116,-0.02949513322017161,0.9051748754298843,0.9792495842450388,0.2824818293323115,0.4730801340105999,0.4102625065962928,-0.1045137694412473,-0.6142792783139885,0.9087290089252019,-0.01680833768052592,0.3612099063626393,0.4571610478494703,0.6646016492226838,0.2118951640135896,0.5414898204372336,-0.4392826561435743,0.5538397945347644,-0.5354717848891719,-0.524552438334408,-0.8431819403405268,-0.35259320152520934,0.5592587406794798,0.2485254399850412,-0.7054342266417557,0.7262931908777768,0.49844176184854216,-0.41334410740671945,0.020312180984863648,-0.7697089119307359,0.4662664274707562,-0.6765550228800845,-0.40029052082096683,-0.20351219145777044,0.9754051770216927,-0.49223736502372745,-0.6161538241260669,-0.5392438665539753,0.7003161483158036,-0.21868764668940877,-0.11077596219825459,-0.24679532518004005,-0.9319947420135173,-0.17362603363924795,0.7320022854566823,0.7293854224864749,-0.15555853710729922,0.05686249868276455,-0.7460680948141762,-0.2540146811333658,0.7591176379570559,0.8814485146082456,0.22604690194872276,-0.6894597292670874,-0.29597905215642584,-0.7540823492723896,-0.8826514981846412,0.6362864384959992,0.8821378188334883,0.5554179908351511,-0.16609421627258492,0.39498570481443807,-0.4860046860067442,0.5382278725445344,-0.24998948893577908,0.07514591534074752,0.18323496755189858,-0.8376643205883424,-0.26462630295147493,-0.6202654065420345,0.8483528233835984,0.20712287688927628,0.3172663711316774,0.4824746778006603,-0.24666051758703406,-0.6917618967955659,0.2791866396376563,0.4839589268509333,-0.08684930626384357,-0.7246868322333297,0.8516046706622634,0.6036906620342015,-0.47198834645864673,-0.3689580279537621,-0.11347189344155595,0.23674958939188784,0.4617067167320763,0.14773409788941505,0.4181629684446495,0.31865133312812777,-0.12982127265444893,0.12867750024220453,-0.9139260547974052,-0.22437337782486869,-0.6196883116578262,-0.7085730100463634,-0.9581475552345913,0.8148844748420125,-0.35552943564485023,0.016656655384432645,-0.7433300960306304,0.05992227236808667,-0.18094143081401382,0.49307893268823766,-0.5692049788347066,-0.5754980866569201,0.43591867697304815,-0.7123993032869753,0.4452962967284775,-0.8570807881440552,0.04995469491112692,0.6514809795634142,-0.021886788113389066,0.09746554695081011,-0.7413058724794839,0.4347772847531446,0.9214695424628605,0.8817323916910667,-0.12926965710263827,0.7108163874550357,-0.6084708408356392,-0.1880004375053009,0.7296064075171422,0.8045416997671664,0.46147738587947434,0.7229875756459967,-0.4801827124463147,-0.18020555598241314,-0.09047968945851823,-0.9363647415215473,-0.18639133869594549,0.3113495769633974,0.19398918837816623,0.588331909819124,0.2732759865698637,-1.0870347757464462,0.4351467092569058,0.3796579853089441,0.5360490714824411,-0.018682709319937985,-0.9532507089999962,-0.2597698803299542,-0.37106441355390185,-0.565015977646409,-0.7301744819577807,-0.2613174564767411,0.35233801010449084,-0.008658914280910396,-0.15274816023656476,-0.2411756391215601,-0.717316713797733,-1.0967410911938886,0.17220646056558103,-0.8714413886613896,-0.8556747170115728,-0.5086690422977007,-0.7118353025329291,-0.5526516266285793,0.4128018786885006,-0.3437424063868333,-0.04509091076251413,-0.705682933657028,-0.6326844446637538,-0.5706592357900013,0.09379505947854619,0.6869564259705833,0.24001402160320637,0.788395328203257,-0.1564791038011908,0.3205175754433558,-0.5908894626077652,0.2567525482956152,-0.5142069657494708,-0.84690007790419,-0.9737338453647082,0.38653615786592316,-0.39404441766671905,0.10090529700355427,0.29363430236528504,-0.37039474878102474,0.26509011328119886,-0.9097870743944954,0.014371860092963294,-0.7206760236213925,0.29538327047366986,0.4904608369944863,0.6915588371473054,-0.028789348892050547,-0.578001444914953,0.6002783949723973,0.7688127719155089,-0.7508723679258122,-0.5259592785264218,0.5855271233741906,-0.0735481970139829,-0.5422433550086279,0.22809215000605754,0.384337207842683,0.34013593899153216,-0.12431754667266404,-0.6136399695913056,-1.055070768739402,0.3949807537409152,0.1749198035995322,-1.1382434086840887,-1.1724032795706774,0.4137169693147654,-0.9368223606716302,0.4202837955154848,-0.8025917852340739,-0.9475789095915831,0.18360487605313622,-0.44650651242843065,0.13711758942855476,0.134222372656807,-0.31900745856279955,-0.6360808430004361,-0.8420982377941799,0.6625453528494294,0.6532226841741157,0.5330311735476618,0.6652269319132322,-0.6830503404612915,0.9264888867061138,0.8961632668066812,0.7924713802566945,0.29489796086984876,0.8516298959241584,-0.837132442296422,-0.10916531290285324,-0.750169518733075,0.1855834682704937,0.0758979328244676,0.19203601432021195,-0.29110659343457934,0.18454482305306377,-0.8434466485837685,-0.35916670166068004,0.4968392131135866,-0.2587307903665263,-0.5518565100505053,0.10890464746065834,0.1284605041259671,0.30370380796118146,-0.36798564666067285,0.22091732524248492,-0.9048960336581096,-0.31974480501532093,0.10547565083382161,0.47112379833020707,0.3263315186191248,0.6041862600141128,0.8164714687257497,0.08659379068662254,-0.3274209001083115,-0.8406754048546334,-0.18226590674001278,-0.6970298588307702,-0.35431784156802637,-0.927700060374864,-0.06213448463915483,-0.002951681569304955,-0.55306283045774,-0.2739370526242045,-0.6572933455046386,-0.8898134046267714,0.4761662527077738,0.398308638912552,0.701395449002877,0.7284189199011851,1.0342728857060328,0.7383580179576551,-0.8602593528927069,-0.966194257358697,-0.30224626096418616,0.8152808578372067,0.6852782590549764,-0.6156358598407032,0.4123969844544971,0.5922113193314962,-0.6835784097046496,-0.5953760589188417,-0.472715295661458,0.46918339722715174,-0.7643898856863615,0.08464321570531114,0.05414711323031926,-1.0965268865370403,-0.717407250482403,0.1522375111983584,-0.3551330329967534,0.6959550726695902,-0.46319453578550274,0.2383814300277247,0.1120949563738027,-0.1140163256013839,-0.7053373869520302,-0.7317041373881966,-0.6868685978745364,0.6166225450163705,0.10495464876952271,-1.0205448262413526,0.6812997930445331,-0.20940526480147525,-0.7282043403094685,-0.8997451558934269,-0.6293566213635611,-0.7923581067587517,-0.8974017568222203,-0.3498482065703383,0.25999617517843054,0.44061596142186854,0.2064024930306048,-1.0651091589997186,0.4752196532043309,0.7243124556155853,-0.8503104520461797,0.07601445703929322,-0.08128452078614154,-0.9085431305133056,-0.5559519350812356,0.7902531322712512,-0.9854795286524031,0.5320057770291353,0.6351415529980731,0.3592074114095132,0.7920172397182403,0.6714486723552309,0.7330496925971018,-0.613505140811129,0.11759334350522448,0.32873989704563034,0.5199153197870854,0.18102693529869507,-0.9251779651218546,0.9661763655740687,-0.3146197161971602,0.5114789548240504,-0.10266640400655014,-0.7567883315418675,-0.10680124193373342,-0.34170588911554267,0.5511379013686613,0.6056442089360115,0.873812337502101,0.3805502700503048,-0.9995099730429615,0.24462853915613836,0.02949116850604047,-0.9556083962950788,-1.0398258516251044,0.6257086078280898,-0.3909920085543349,-1.1264708041796003,-0.4134831313354119,-0.4865748135347979,0.8623503861102526,0.6220308307519749,-0.937773907520326,-0.4055715757424747,-0.079642476341649,0.1484827202261103,-0.6085281774105376,-0.32658863890987444,0.5227111938944664,-0.2766345066008369,-0.5244406139231517,-0.5383600337694321,-0.8012456607796405,0.056035672590737384,-0.7934099169303392,0.6713164539840311,-0.46555367908569,0.7166252758910989,-0.1653039775882287,-0.787971363565166,-1.1322621962494355,-0.37089320850758073,0.7645569783447024,-0.5868838626933175,-0.349691000232816,-0.8545694850132699,0.27391573685351855,-0.9903164570185008,-0.8698411694639394,0.9300100567010801,-0.9350524098122923,-0.12807618011017619,0.6543466337409769,0.9441624325722393,-0.934068169984811,0.02146063939068865,-0.055881036358499614,-0.37277229671836,0.2119254355214868,0.29746733371458545,0.9890362654535427,-0.8397332913867825,-0.08133392858170584,-0.711959991448755,0.8655462861852333,-0.76059360014438,-0.5984807522684532,-0.6832127522103133,0.6939482122970997,0.017470466333967316,-0.6195932828187996,-0.6209579687221027,-0.3051935798932357,-0.3931142932078182,0.45557801338667137,-0.20398269396693713,-0.04859074349160242,-0.44509307002913356,-0.9915966393174793,-0.9744571993916895,-0.5328885972342099,0.8926801186097624,0.32877430656020357,0.037086930975404275,0.628562687775001,0.4687909863806077,-0.6488088960539824,0.374502479205963,0.25283697550482165,0.11518180468199235,-0.023702211944695007,1.048100241901417,-0.5738090969752281,-0.3399120533296469,-0.35580583451527925,0.5220934793860832,-0.5164676483139647,-0.9248619166538865,0.45234240368969214,-0.1493637891481776,0.3402303443699388,0.5619211201570358,-0.5518626372904079,0.923238047039574,0.8782060733986334,-0.5671686668551521,0.3795047920355823,0.43318657625950463,-0.19124785029260405,0.14393836502634727,0.6006863648456555,-0.8360807202235341,-0.4982508196218043,-0.010233601138232018,-0.3407257991676018,-0.3459519209409474,0.28602758355666813,0.8918395089454236,0.022269826025216294,0.9670326050782165,0.39970964657094443,-0.8962668559469877,0.9722643739110772,0.9463915900239024,-0.09426582721268284,-0.914893984646362,0.47301596915413135,0.36819865676241115,-0.04205839625600838,-0.4718739048702334,0.4275764373550408,-0.44715244706915724,0.6622002466897938,-0.35027247558441,-0.043522598668832124,-0.12170735637328622,-0.09460914703276124,-0.943109984742228,0.42523402233881535,-0.5468858398025969,0.2844252995928258,0.09886743239018614,-0.26342070984692834,0.8078320524979539,0.07607989066878362,-0.03426478311679082,-0.7636666006855592,-0.380409618051877,0.5742494543622421,0.20030953823007014,-0.3150501154843277,0.4724274747683497,0.692497539767932,-0.27921099159856544,-0.41558246483552486,0.5369419625145766,-0.549007244587012,0.6847520271736594,0.1322137107627408,0.2794069988091916,0.4541279161903673,0.8938526916701024,0.2450871086556594,0.6850461313493055,0.5045622665413632,-0.900495503539958,-0.13902529876983127,0.23907827965319672,-0.8831772819611787,-0.4557035362599948,0.5054854265620317,0.6133428324045633,-0.34091201943644345,0.3515630288700775,0.5877751828551281,-0.5624192901578118,0.7880967711836027,-0.27351172366126475,0.626367885063448,0.7114411217681469,-0.0073922982498504375,-0.5922797767662553,0.6340016369767256,0.2606082598693451,0.013657318205649194,0.9526240462859694,0.23626778128586823,-0.36471624066561725,-0.7823343680249812,0.6358930132422769,0.9796665235092745,-0.7551819800014101,-0.33770302063534086,0.16816242937116188,0.35807166675418944,0.9949192470323549,0.9099733000289429,-0.8893222761936475,-0.39259821927551286,0.6254710141608029,0.8411713746462266,0.49457037906869283,-0.08934757070531463,0.461870060072163,-0.4083965977515298,0.34878524766692554,-0.8426020264424503,0.8010352533653649,-0.4170640183726384,0.7576483012498909,-0.12303427406358036,-0.658346001983118,0.6674379246162254,-0.30459459886062534,-0.14301732009224555,0.6036217156286514,-0.8861316010532061,-0.6630039429781709,0.5866784887976948,-0.24689233268399668,-0.08612325832588752,0.19198073079641542,0.10177430643574947,-0.5985219115698972],[0.8387873966437254,0.773310239213866,-0.991712323705995,0.1630853332310016,0.5981212494629986,0.49538610057842236,-0.45349878996769943,0.8917877755499277,0.3877575457719846,0.5158213391054991,0.9234694294296428,0.5627741778542061,0.12618653299515614,-0.43934580690366465,0.644579653994136,0.30473046215480437,-0.1663856215777071,0.2144585463740638,-0.5031991467409997,0.7294830025481889,-0.0640209717430329,0.30783106197049737,-0.9614642073575101,0.3613994250034751,-0.6091764935617907,-0.4546490073750151,-0.015243521177731978,-0.5721065876727458,0.1767956897699583,-0.46632054059681893,-0.1575365725617477,-0.26819957588313725,-0.8127299690970573,0.9720687836993811,0.08490023137253155,-0.8244463496010255,0.8970089987559295,-0.10408673620075115,-0.29961923337335783,0.03127734274190619,-0.22198444773455073,0.08918295520125463,0.17696535434110672,-0.22948205524588028,-0.8803401036716152,-0.6016899654252472,0.27758064696190354,-0.4323926327233121,-0.20564900473382774,0.053444784008226165,-0.9794378561356032,0.8692906901202444,-0.8968386940497326,-0.213800543152173,0.5781656835140061,-0.23784737365675301,-0.0635519359977832,0.4605604825778511,0.509118091331576,-0.9686053992557451,-0.8426974257002398,0.6161598851635253,0.1652961520746854,0.896135964672903,0.7524184061474726,-0.5230807811601146,0.39925561693302036,-0.2187969852846483,-0.6584961457894196,-0.8384625046548035,0.22626129158415864,-0.15190293934815857,-0.3896327630184855,-0.7060029440933424,-0.16015934851425984,-0.11117142522083157,0.3019124829437523,0.7485299191304837,0.6593300523748651,0.8511757621033578,-0.8421160759092925,-0.024500008572275522,-0.19765184972571426,-0.6633419529756801,0.4512357603778878,0.6687508293412385,0.021056874576922624,-0.09403439902654531,0.8032932501136401,0.08968904462510263,0.30868692153133903,-0.08412305101772288,-0.1894107559002829,0.8321666647623442,-0.855307907098688,0.19446405851846338,-0.1971599218133142,0.647098840564801,0.41531849023212475,0.19776081915552846,0.3619269152790263,-0.7382275848558568,-0.9885874850154179,0.7589220421523177,-0.31119830116409775,-0.7101849055978655,0.5012780997051554,0.32844217050067126,-0.4682459400966579,0.9127152215562249,-0.8359287625523923,0.2658248579443674,0.040594862965576795,-0.022201692580553267,0.546789703799742,0.24643734783724147,0.8458916453545022,-0.04788040176809849,0.29877619785528653,-0.8623595698768698,0.22323064058932784,-0.4409084817274196,-0.6246581272798224,-0.1926295600835939,0.5231458150465671,-0.08764414357628025,0.3541107433183259,0.6039638713311795,-0.33881659364612515,0.09398438586860225,-0.8598020585907928,-0.39551906225732303,-0.8489822596565815,-0.11114902812237837,0.21996736406618433,0.9302737963789305,-0.39912792307768363,-0.42868806155927874,0.8159916230786806,0.27016830795910574,0.9914097078151358,-0.26148819647728194,0.9386618959517814,-0.29456425000364383,-0.7254048573955258,0.18816897411146982,-0.9447956717314412,-0.8851431443220847,-0.07814777236475212,-0.17423103471059775,0.07455362917783903,-0.6608737005727701,0.9800539906745693,0.5301647389062252,-0.918868254126187,0.6019413514985752,0.09934265525153929,0.2967469433816299,-0.12305847420422289,-0.8181100463986866,0.2338016220164172,0.47061598958203366,0.20797198573860332,-0.8889431575481503,-0.8590751824655389,0.8749320393072342,0.4485407514644155,0.03832932044997017,0.4567600562921079,-0.975470723863542,-0.4119634758089856,0.8736323487975559,-0.5908619009092893,-0.769567542756048,-0.44110573952774423,0.9088746743554363,-0.819448556038664,-0.12410173999045693,0.7242390473358924,-0.29245592072342896,0.44522219790942863,-0.5344155189015507,0.5799847332309422,0.5257165906310153,0.7578828115514349,0.11278979121959676,-0.712787080850894,0.243253757762957,0.9817279039727342,0.11221740845440209,-0.17585132034610185,-0.5327368109150847,0.23188157296887724,0.6156588575566939,-0.4355733139794755,-0.03318572305544709,0.5243992664624355,0.7602117895796843,-0.5988399823828221,0.8788652740528535,-0.25884112904275103,0.07019594904196591,0.7328019253272133,0.9405483429566694,0.3201209430926144,0.46438262976360445,0.9650320783820368,-0.8363470248714733,-0.7409458622700051,0.5110506906065981,-0.4913555073088798,-0.8005546089608844,0.9651512234343254,0.28086787647938793,-0.10952063509285637,0.30759321650519844,-0.4946497473457767,0.6835284685286109,-0.0015058739941018473,-0.484659216113867,-0.6333885036102749,-0.04539606983669353,0.5808893726495121,0.917702977654494,-0.5307269764183387,-0.6339204124248274,0.02464641810009116,0.41777565378956005,0.17635479643970076,0.09769289141067317,-0.37171237685720904,0.7986355375736571,-0.4364466681697361,0.8509164479971796,0.4360642611025156,-0.02132912865233516,0.9199066750371578,0.8495601157362773,-0.13953126302577523,-0.8828245286042828,-0.5547715796810286,0.6416356304094308,-0.36204177564361384,-0.5426519578190878,-0.11961266810883364,0.4869286906082615,-0.1823283077311859,-0.8291860193438332,0.0736455806519074,0.036313794632123475,-0.8182205906620772,-0.7472465748612285,0.3882404628073437,0.602137890620583,-0.7850319378515693,0.37393795819505415,0.22307304370341408,-0.04114549428326031,0.9558348920496935,0.13853527730936932,0.04262183475609138,0.16408503224216586,0.5920025964247975,-0.6049355451565472,0.2771790867450856,-0.022502678486327365,0.8931036407208821,0.7545195667617968,0.3975285591118136,-0.4517905522453045,-0.07100999157111554,0.16012111747247237,0.21608959999639143,-0.72876616066142,-0.9693775820044928,0.22284954586531525,-0.626020028532722,0.9138990115688328,-0.10126455856662542,0.9342862222313904,0.6540635443795311,0.5129956952557624,0.18806231954626584,-0.08096070951247514,0.6047406502518098,0.8497947045161549,-0.6318302018986786,0.30367264637967395,-0.11781579284805455,-0.39158470010730895,-0.23789945568034732,0.49410976779070026,-0.7077891865438759,0.018710635822653643,0.9143791962706977,0.2513751604211718,-0.17372054150922933,0.5490293648634452,-0.6889103573466784,0.9214971255451001,-0.9143762953188794,0.42264754429570717,0.1808169295899682,-0.7398681636541018,0.7077401699439703,-0.10636889028765406,-0.7326067585522833,-0.0169231467364388,0.9840354044880524,-0.5843535167439549,-0.27877698411490703,0.49090119424731826,0.8175876234967059,-0.7059735173173132,0.4471217284415241,0.8422928967408794,0.5032621794444538,0.5581836521459986,0.47381823858623573,-0.12902114851526036,0.7926269086839675,-0.8552049170245897,-0.1280072700414001,0.149912340703811,-0.5120106312853197,0.3665256534449517,-0.046118517854691454,-0.44834099483636347,-0.48876440715596425,0.8988323108061111,0.16199473175450896,-0.414357620034167,-0.6052909076103252,-0.6381897123193441,0.544221842090773,-0.5731036986608249,-0.6532230680502349,-0.18685210978376388,0.5130938346091005,-0.14631157648624749,0.1517046089429437,0.7405546017858811,0.9125508604888872,-0.42445864930307975,-0.4905400310507715,-0.930252074776357,0.6129006218828876,-0.3710335287046669,0.5156737239582574,0.17566943633026577,0.019747219030122665,-0.9463774988895772,0.839003305565988,-0.9193160873948178,-0.673820785276328,0.2849384620027551,0.5573633415007317,-0.8658951651119247,0.03887446459083188,-0.7838958366972753,0.18077016663912104,0.6164973400412337,0.9314562519566763,-0.9633364105759563,0.4849799402117365,-0.5346637953087936,0.2602405890798294,0.6485563012396738,-0.9387594558248917,0.6393291996818973,0.2216289735990422,-0.5308956042848849,0.8007686791608655,0.46403941611702715,-0.15999264398396207,-0.33357130952535696,0.8180970759119321,0.6869183574681399,0.6900944477476281,0.23353232663646128,0.37337015055467404,-0.539701692040071,0.39196232616815596,0.332710774931404,-0.8058300014561941,0.17807200972898096,-0.9744897956764409,0.2679853958758538,-0.3713154928178679,0.21107063553708816,-0.1930545156737944,0.039641016509154525,-0.24921095160738638,0.7529740383985395,-0.21960332653215486,-0.599564626098819,0.23502106842530246,-0.9306176549669201,0.8953948956065201,-0.24433956037387805,0.5843289726697698,-0.46078993430021864,-0.6955679271178243,-0.8308211655061717,-0.8878111270745079,-0.9234149286418574,-0.20263400533560638,0.01181267050095558,0.2536004259256468,-0.8618905093920279,0.45135165016773815,-0.0434117744685838,0.3768006447353196,-0.9361024476535564,-0.4098091240820092,0.03761810759212603,0.6021444608450586,-0.9266243163016274,0.4632719748017675,-0.45002866880875647,0.10779200577720527,-0.633786703193846,-0.5171514461922935,0.14315021177524168,0.5168064662489802,-0.9423531674952774,0.8734200396942029,-0.6576352682962314,0.13758452749831163,0.33847524329644374,-0.17268149259698795,-0.8565118751319805,-0.18664548951893822,0.7935780583142602,-0.042439945861104444,-0.9211908382549101,-0.8395825884670347,0.48991003648447284,0.9128716875765974,0.26231120153865284,-0.3071601261426058,-0.9261460450583652,-0.461853722826572,0.0963644401653676,-0.36318454778258236,0.36503540299447446,-0.9686255499318923,0.5928884459389185,0.5773372706080546,-0.9972319580874403,0.4395297635287845,0.4977617335344289,-0.3814141071853263,-0.7795961083131275,-0.5689786931598344,0.7524280057482287,-0.2742246282199723,0.26748373972459616,-0.666296284251306,-0.13306643954348285,0.4394307103866826,-0.4406891899417027,0.11864672650545982,-0.4197169514427981,0.8430686430098304,0.7025383638812919,0.15904728171464644,0.7600855054231785,-0.42893523346971785,-0.025950471873575687,-0.03734462098029878,-0.3067816801538137,0.3078371331941834,0.6058598033304472,-0.10998675692775217,-0.1721566118585569,-0.2845272388890261,0.8515948945544052,-0.5427755004944101,-0.5445799997105114,-0.02847973640457191,0.05128953339625264,-0.348775705725338,-0.8578804060984186,-0.8588518318913887,0.8722076262552445,0.5643008254052111,0.1941482417995415,-0.25077723058172774,-0.781308445376804,-0.16747923331891545,-0.9681578972476697,-0.5457078622224949,0.896803093139948,0.7987337548429867,-0.08076920977405777,0.4613123318184065,-0.15524324539898293,0.48099098609876423,-0.6997230128656535,0.06439282349377473,0.5655373094584495,0.5018059019004957,0.6450688492375658,-0.01465596565149907,-0.9986127199245174,0.9622961330389836,-0.8999528961145131,-0.6038528035047279,-0.03896516051628618,0.37168524241323597,-0.804029034895724,-0.8135012077633474,0.1451832320307247,-0.590733124725523,0.07413582461091206,0.20539573518052867,0.0012730538096339394,0.6286546681806713,0.0826646935115476,0.6394316062643437,-0.775167636997939,-0.07217604307103365,0.9379908014871283,-0.8323558311390089,-0.9949076345514603,0.5643715541185901,-0.18652376484500133,-0.4262938710824482,-0.9167122432483779,0.01374787280025025,-0.004387389769595185,0.35910328037109496,0.17399388994869947,0.7373723739887637,-0.7797667197013456,-0.7998056748866138,-0.37910478297974715,0.1962575465161911,-0.7623673006405975,0.505843229400671,0.026694385098621876,-0.8855997794842754,-0.6873575097015485,0.7013028380344353,0.08972813090506859,0.19287223558189348,0.9693174211957052,-0.4332186764262578,-0.29905702438929893,0.19542492201279194,-0.36482201333928455,-0.7294280725315927,-0.24947355315494013,-0.8173276578792454,0.29040022413892874,0.500867711693628,-0.5243088362440838,0.8309805604037597,0.5583739446238929,0.8015305509244004,0.18864029065679278,-0.027399775791229874,0.49907978971484024,0.09967477560610094,0.5708901828076081,0.1126219739473715,-0.257099367270857,0.18781287359552712,-0.6027276611251171,0.019661702534027103,0.9158254315990919,-0.712454956534208,-0.30021273307903895,-0.94180357998215,-0.8812133503813273,-0.36528865110948416,-0.6772149881745988,0.2634484412544369,0.9795800350077273,0.13553972310635576,0.22338889598737888,0.8202974547124802,0.6025261222099703,-0.45598235702211243,0.663880672565984,0.14187527023348245,0.247965538348641,0.07793319637170715,0.8923389655419731,0.9307476402140935,0.8162393396489978,0.432304300417087,0.9836110200626598,0.6851812871442502,0.4231099155533733,-0.48464819749894694,0.9278142462630754,-0.9939666465489476,-0.5608559118607852,0.07650296504530552,-0.4574377643368197,0.2564216669797772,-0.8541104876923935,-0.8663049606752895,-0.6376411488102298,-0.6223656989918611,-0.7505407316136354,0.021782285938690915,0.15563416335349078,0.3082179336987161,0.6829776502697085,0.24999569347533113,-0.4220964895337369,-0.37100517142275535,0.45834437368220726,0.36992103367822393,0.534690813634835,0.9598554540046345,0.9424576219693162,0.7222394627048923,0.4037038306583902,-0.35657519332995724,0.4355448095909802,-0.799357894536997,0.15528589295516504,0.47251324933993866,-0.8358511378974711,-0.8276663427574271,-0.9280476474944153,0.410912435161487,0.2150438187370005,0.7661280157559127,0.07505820696418297,0.9770266027370935,-0.48294205336977125,0.34494592531221535,0.6458921997297451,-0.31982298790675445,-0.2950020139048868,0.6517927332338731,0.9971655522966278,-0.6750471542219572,-0.21739132507356995,0.47722242831222106,0.015923108151390863,-0.25836911616525216,0.2829476528123802,0.8427648702842037,-0.6167410622342704,-0.5854272993683143,-0.6563617737182956,-0.8660247178815315,0.8123683604717167,-0.8282988340087742,-0.07245814360734304,-0.9475003723218305,0.751231089385568,-0.9395878602081305,0.42043765100003627,-0.4175489014927005,0.47488099670497386,-0.530577232757993,-0.5351837318095818,0.9936838078723249,-0.4833038985474678,-0.5463856393388169,-0.689887434699235,-0.9745940874517585,0.8940987200495174,0.5776932768092315,-0.279020212790714,-0.021518035192442664,-0.6833469359147508,0.8977724680332289,-0.2517386622301796,0.15394788850228336,0.7335820361839365,-0.34685108271944687,-0.21395041525322434,-0.9727253425135118,-0.40766783413255236,-0.25987265439317264,-0.7992582201401492,0.9041632904779084,-0.8202400235154856,0.04093131564351937,-0.057109852729953836,0.6325920051498821,0.693515405572064,0.2425712563028486,0.2453500858320825,0.8924147955316273,0.5589234035869532,0.34099831998775265,0.8872252979771162,-0.14901990550590538,0.3652229791172994,-0.6422486457963599,0.39012293760115435,-0.29239278406080826,-0.9000361191911632,-0.3772072550536145,0.834962764391534,0.3907802322170233,0.41986559085152875,-0.0637661363664268,0.15828545965801366,-0.4787300516155586,-0.2939966799296827,-0.11651887563020713,-0.4714144683562633,-0.5999274239554029,0.22417495788566955,-0.4812090565547198,0.8137314831775919,-0.27850652664222864,0.6416071414197884,-0.028369916458078404,-0.7629938869210746,-0.11631820809217253,-0.3275613250734106,-0.8137654803263157,0.4611787747243028,-0.7135590235879938,-0.7312570234804205,0.6117648561575857,0.44053800804110743,0.8302661445188906,-0.6145886448770672,0.4028132936075317,0.3222380093250621,-0.7440351895529105,-0.4536624438395154,0.8353036788980495,0.8695586326384404,-0.3812698943497206,-0.6593816998586028,-0.5673834495677599,-0.11656703257629264,-0.3909318337737302,0.4370139940353357,-0.21817764817619345,-0.515086429240482,-0.40861461898819895,-0.5046207208231741,0.5213565140799079,0.22926291874085614,0.8377744451851905,-0.47943324896333506,0.05091719245682924,0.46729481216483704,-0.5335333283252885,0.2890801778036476,0.0002770710157311562,0.30446040997455004,0.8899688339878331,0.40181658089708794,0.7358063726351274,0.2280826423726623,0.8886656040586169,0.42479916924599026,0.6917840535037412,0.4404379936886822,-0.879815474566839,0.2717421257779171,0.579067803646307,0.6366879284919347,-0.29742640018965405,-0.5081284731606566,-0.10918829858419699,-0.9153363051377759,-0.25042315653168856,-0.5129238558118834,-0.6847349908783427,0.9431707698231913,-0.423162317634902,0.4968032976434005,0.9102439905983903,-0.31976697219798833,0.42092826073229306,0.8252461061956824,0.39130137706285906,-0.6974197653567451],[0.377772604079996,0.5334192092103547,-0.970462925869779,-0.7767279491944774,-0.31975048011522667,0.4726717388507935,-0.7970621712328883,-0.8253715754136719,0.44861667492532176,-0.977543192064461,-0.831044511798372,-0.7768936046003936,-0.7766060626936744,0.8441195302692663,0.6227920643429168,-0.22516387646293223,-0.7423739726818179,-0.5241697569220092,-0.8365423595614248,0.7355213073377143,0.36866483648799964,0.14345309444417254,0.36974229127887837,0.522254228439972,0.3050162293966099,-0.5157248152556222,0.864096749968819,0.8041294119752496,0.1357206340481083,-0.7770811512805773,-0.26786474848249986,0.376361594603567,-0.4794774807740514,-0.8415720697530258,-0.5365497044209175,0.6528983083816144,-0.8255465043895849,0.6132660021310832,0.015177095173434463,-0.059349961659604045,-0.026398058016937398,0.0014265820772156879,0.5219696150155926,0.12634034714783926,0.0824875462961816,-0.17497743363760065,-0.21473752745191943,0.45512288002777357,-0.8350308426894526,-0.41726710853105553,-0.6169542236720629,0.9334734798664468,0.03405958614837701,-0.5426296501710408,0.8985689411169617,0.059483124008954835,0.14491674870785154,0.2358635767642583,0.8825428451356365,0.6394979349453362,-0.06896177865413433,-0.03347686189216814,0.3700446223623999,0.0266860346328035,0.2273670892960622,0.48769298206243494,-0.6433276992119423,0.3863942946731944,-0.13602162686322616,-0.0661536078709859,0.6252684081786084,-0.9925387730304114,0.765557811599404,0.48430403783432263,0.11812515847474447,-0.9896065707157766,0.7514246538221729,0.5904248160414682,0.38515629893476433,0.6741353688627707,-0.7920503316534302,0.5349714923777471,-0.5253067294643916,0.21790132240496174,0.6859451391931133,0.64612331857349,-0.6229452591125946,0.35796888093640744,-0.29886275141263363,0.7231316947177131,0.5076924020435736,-0.4610680709294801,0.7229383816550778,0.506836973664615,-0.8307669071934063,-0.9315731846319051,0.9953074176353147,-0.1344145299519166,0.6488445425662337,-0.17354063311400436,0.3921163165532313,-0.042884199432177805,-0.6164548456054195,-0.8110238726558263,-0.021081845838190727,0.3125941283007192,0.22243315839658573,0.895427173843538,-0.7923439848759029,-0.7316511177338194,0.5397486666747526,0.1858273600463618,0.14903158116825654,0.7716538665109862,0.9358531293575476,-0.4598595349348664,-0.15547016361757304,0.15213196935572038,0.6527939261222429,-0.4369861996702662,0.3490105189347896,0.9933786649336898,0.04295345298393771,-0.699418697385338,-0.5872093217328755,-0.7409088131724011,0.5502297464493338,-0.5306074960919052,-0.8173880752608658,0.9207298444260124,0.3695963153557713,0.11368389809484691,0.5760855455842506,0.279465650170978,-0.5586871336985033,0.9612461037000695,-0.9249656694730044,0.43640500800669546,-0.813704332691696,0.9323294975996168,0.9994197184081446,0.02676523834591471,-0.14409492811129487,0.3519375956947619,-0.6938299196703652,0.32122946466970026,0.20007755579348174,-0.22836391415772717,0.15822635506770943,-0.20621619827960247,-0.45862419477722405,-0.7709834002852989,-0.11194606713145161,0.9293059353108712,0.5174873521536152,-0.9641227271867545,-0.7304258605740523,0.1641449211907653,0.29864670496865253,0.843147241352586,-0.2004286837243816,-0.5735483810937536,-0.20277590418497304,0.8266205129334057,0.2862866328816631,-0.09570282821508513,-0.7274911501264909,0.7064329491035735,-0.1436449093143377,0.7320631540098224,-0.4074986018296136,-0.2518938094051242,0.8286943417198458,-0.8243122960561213,-0.4295535782208919,0.6827765778784078,0.9952052543084124,0.28397430141391933,-0.3343043196435014,0.6799283385457486,-0.5700891714461696,0.9863596244315014,-0.221173842471464,0.03969647818695021,0.9041831689842215,-0.9504512688175799,-0.9793438992365422,0.8562125949360198,-0.38630685052503333,0.9525845898141898,0.43843246949064074,0.725446847426003,-0.12470887154530397,-0.2378664488233686,-0.694900461903373,-0.6417383147793259,-0.20058788683259365,-0.06929773403039041,0.6628002576936969,-0.9255557857074819,-0.9787741006360622,0.7989413565495149,0.5680468494593138,-0.16935008331762091,0.3845987504961328,0.9913251749672933,0.9241573154717,0.600708190633481,0.09395159052061475,0.49961392656105685,0.17541996157505801,0.30762638049477875,0.25350417327240127,-0.5979263294512416,-0.9412234830660693,-0.2633501489461323,0.9669803697955826,0.568453175306014,-0.601068496626906,-0.36493213977257133,0.4091798870136891,-0.8074841522109222,-0.2569384688079053,-0.4531524160129008,0.0913497370890699,-0.8880258201568321,-0.07169677017890752,-0.32022257193866643,0.7476763710277896,-0.6524589911083964,0.787613413409864,0.8196182551531774,-0.5143281947103424,-0.07549509351713324,0.6931446946855448,-0.22466616536009498,-0.43646289067893207,-0.2847110176758889,-0.5393621536448654,-0.22643708951153485,-0.04062863882175893,0.6770212197447893,-0.32181287308577344,0.6902140008709661,-0.858658644832687,0.3952990703650463,-0.6063591065582941,0.3178482431284797,-0.9049433256475501,0.5739177297359941,-0.21947082252540717,-0.8670812290022569,0.6921924747980497,-0.32083520344161975,0.252996726039457,-0.56218032676066,0.7202435176330857,0.9678023158122784,0.40261568533958725,-0.9489039640086565,-0.00422053554460966,-0.8858741602000038,-0.051450483019982673,0.4802331426535962,0.3613854444841911,-0.45147005742335944,-0.2350464969701811,0.3317412265229409,-0.2058666513992664,0.44744836407263255,0.584434291511652,0.07421612269744671,0.23134366357637237,0.06531672534955346,-0.2940985415112971,-0.7179439159928336,-0.5268833015007481,-0.8901340751712468,0.7407910640363897,-0.727220786589239,-0.944674973213099,-0.6230897700879048,0.0604833817034649,0.9929257115403547,0.1692454638403298,0.5598847094065236,0.5770029088909396,-0.8574342464020028,0.8767204693165049,0.3288753704368865,0.68227471174073,-0.5838105007647196,0.7402515977795039,-0.4298234847415707,-0.08339240829732919,0.4006317993010855,0.35611734865826117,-0.0829442928634827,0.5670011196208158,0.8701532655981423,0.7748541281186019,-0.061090360972402724,0.12272502920454276,-0.25641497158010695,0.6638164561560296,-0.3180175157565768,0.508073868885091,0.6616495279123265,0.1379402913751715,0.45704555473907993,0.7489690677842109,0.26465529645172126,-0.2284095017337875,-0.03009754509956153,-0.27627771881690455,-0.6409242027982645,-0.6400839395160105,-0.8005304090340615,0.994495578875001,-0.5843761377590888,0.9589827514978335,-0.5608422833213664,-0.1945100672763611,-0.7427650692365004,0.018795912680130034,0.9031723300632093,-0.7288064180956826,0.44720039522841093,0.45476129813493804,0.12176932079592184,-0.7374765684581703,-0.21171670135530496,0.9331406821044719,-0.0007307711090782654,0.05524207609145915,0.025174256191198285,-0.4489839923339942,-0.053651914520563615,-0.92669577266392,0.9194735344010545,-0.866751926145342,0.6394956609202449,-0.5567390989449721,0.445069150643711,-0.046264176895410625,0.13220627792279904,0.5858178436910788,-0.37621591446731006,0.7993148299121366,0.03773598117922816,-0.5946144298908491,0.3066768799555928,0.3888290276806954,0.033532040946200325,0.9724401924434019,0.1898159687187233,-0.3020402813362457,-0.415349353305257,0.5592913218632853,-0.3840396966970494,0.031003962004071628,0.24340994845376684,-0.7172631687161508,-0.9559419762977917,-0.8804001371751498,0.1846851383433461,0.7178221373364364,-0.8170923337603271,0.7318101088878608,0.00575024866875129,0.3881850062452621,0.5791554406086457,0.8147574847973393,0.6547112331235243,0.4834972679647396,0.26708908007049503,-0.3146352093071445,0.35360296893974485,-0.840088383704559,-0.04721862007218025,0.9051078840635074,-0.41978532037293714,0.8758183210317005,0.6676286302178887,-0.8077020068189897,0.48525153469104065,0.4939160586562785,0.796649192330813,0.6274367669240304,0.666187495877181,0.21652665616919853,0.979188371117413,-0.6738759732126662,0.33349525768414123,0.20997192891644456,-0.8641061473926395,0.18773986726315517,0.7514380005177106,-0.7753857626491074,-0.7026291238163389,-0.008076828642736622,0.07724393110154137,-0.22371564406323108,0.6830206493146576,-0.41436147804017054,0.7873126206611354,-0.1377592678866839,-0.15399243792143258,0.24235334719356239,0.4531741824956139,-0.7001781432029333,-0.8377922692944293,0.38907015643322396,0.6012705359318091,0.6199640504843003,0.8858778353638526,-0.14599792338633222,0.6368373163574832,-0.585361113892994,0.5334127255179841,0.3559549719636186,-0.8083588021737738,-0.9664426583199526,-0.8948967291794112,-0.8233849707583563,-0.7939794047788964,-0.9086365630338049,-0.14046084888732935,-0.46385165948554974,-0.8867032191284681,-0.546002045052774,0.7470667166776823,-0.05602726588016127,0.1595552444046744,0.505800765030322,0.859687263932913,-0.9046075022709767,0.6557627188142345,0.1681807732794507,-0.6503626306432122,-0.09490685666850895,-0.31576489604835345,0.3137141581711469,-0.066240899061627,0.32600413830478425,0.8360884685369943,-0.7041303148676383,-0.9645193123097568,-0.37882413078092503,-0.4124946592079817,-0.42415611723637836,0.8074567074531274,0.10442975507746644,0.6467489533237063,-0.3720209449932268,-0.6570905062362518,-0.8317920137123971,0.68810007575697,0.3552478262458174,0.535396980051515,0.144198890346368,-0.7504579340959858,-0.34914496653590144,0.3815662827429178,0.995446986659112,-0.06233349252245102,-0.6462910974744789,-0.5270222632333925,-0.32997315743833333,-0.3724748556434947,0.1709219370424222,-0.28208717858603105,0.05051834178200343,-0.36978994568510837,0.6298806725621797,0.30292872241729807,-0.07126545838654508,0.5309062188691254,-0.6380136951276874,0.4965179731834355,-0.8307844359045995,0.37510731271658715,0.5805212109318219,0.905394443946689,0.9673723601725417,0.9347498413000221,-0.13267865455647554,0.3309565065320479,-0.545638800190178,0.5962282085282178,0.6565254055341261,-0.5847975784076209,0.9360974049128381,0.7359769612205445,-0.16591041987313826,0.04814367263595498,-0.9918251206353061,-0.237687611306713,-0.16359447353246548,-0.7148248719868375,0.14880868467944053,0.324914960286097,-0.8793568108964034,-0.3237774517263752,0.39629767395133353,0.7653679901284538,-0.6908635004671644,0.8487728040296578,-0.983396104459977,0.4976521294734386,0.5628510616692952,0.5519196252495071,0.34101525417886513,0.5126871286070673,0.06673810137435465,0.28736971120008414,-0.9269659173610258,-0.29706050045176813,0.9224735858858915,-0.2128851905797977,0.5698979740321177,-0.32891059496499553,0.07014753477048341,0.7762094123987002,-0.053251010775346774,0.845573297054977,-0.26667576209922705,-0.12166958903494995,-0.7726420082905059,-0.5482654776703568,-0.9048382855028341,0.5001640226452162,-0.5312516765387381,0.16517482592691346,-0.4562778666023113,-0.40574893665009215,-0.29983822993326337,0.2772809778815333,-0.14893708559685992,0.26417098777320236,-0.27800355727236514,-0.2337468567463925,0.05636923880206668,0.395652852513142,0.4120134126245918,-0.4189750437831483,0.6117315745745286,-0.4187260135465274,-0.7198019847571304,-0.5260719460668404,0.8683748099238597,0.28074274992198855,0.23470683653248026,-0.3525806821598496,-0.8039107715688849,0.5241495452960621,-0.2414155648184395,-0.9234512636827765,0.20325206482470515,-0.22269512646561562,0.04382669637175729,-0.0307932841383054,0.740123546852506,0.8954962046605983,-0.511757595124708,-0.48523317555867784,0.15381429733422491,-0.4327476967296353,-0.2642894936717486,0.68118900200811,0.6478391550147151,-0.27607909454619994,0.7566763000780825,-0.27435734814864565,-0.04412537218978807,-0.12032405460590745,0.1616407916426592,-0.6720357408509554,0.364082354877612,-0.2201636091882917,-0.6969604683019313,-0.5218266321581893,-0.2995879032164295,0.33766384392017823,0.9822595260533884,0.6061271681375016,0.5286273840071503,-0.2622975555038445,-0.19897485221479982,0.3204573559863504,-0.2721749370303699,0.7921557587424974,-0.8598902558226857,-0.645132483356079,0.8051283020076627,-0.06531816929782908,0.15240598021620855,-0.44918355100901364,-0.14210564568843687,-0.7594832875509798,-0.2614678912278414,0.4272210513534831,-0.014841893459438538,-0.8358295283199877,-0.29754610086059374,-0.8578800271741187,-0.8502942687361283,-0.15571894028078725,0.19340536740978287,-0.9314277208526871,0.20445443147264264,-0.9944313593610787,-0.6821578273569302,-0.3345526482880712,-0.4234537591179457,0.8691646937582371,-0.819891049057083,0.9454221737646922,0.5138462034941256,0.5557694434146745,0.8581857488016054,-0.027027764880646288,-0.7442827952026696,0.017838446865942714,0.39392353652362466,-0.9701671116450576,0.6540838200775503,-0.1251078251933131,0.030832588408884032,0.4595533226273507,0.9738671235073735,0.6927155543809973,0.3664149147660902,0.861529015044284,-0.528662326786379,0.41479239521817135,-0.4865193879418377,-0.4627731587463235,0.3862268217690312,-0.14419732228742888,0.21597654302741942,-0.7960806077259788,-0.5648716184766602,0.7630092613474337,-0.6513190318584039,-0.8445091555599427,-0.2035044779003763,-0.9987219662968281,-0.24419354890405431,0.9136699628023677,0.2403628924261505,-0.15423464173667822,-0.28755505968319905,-0.9091741472244261,-0.30804394929362733,0.6030358355574896,0.6463073002003825,-0.775239621612458,-0.3317316510093895,-0.9310192450889803,0.6353610866285635,-0.8513141176097041,0.6396975701004166,0.2110782507125215,0.2431900107985201,0.32965580940956496,-0.9033231201574079,-0.16905145701787916,0.35584730986456314,0.2622319220111109,-0.5522961119898318,0.662171196297185,-0.8155431802718462,0.6871552659816431,-0.04949027880913581,-0.8649302133440946,0.9498340054111529,0.6678717710364088,-0.988794522797388,0.036278084587430204,0.054158928938707884,-0.7582010955332863,0.7135365635933324,0.1551545471669291,0.30694197095288533,0.952628803884672,0.19954223108954672,0.8007108029874677,-0.8316267929245731,-0.778187290223912,-0.07507526917127905,-0.682798323579608,0.1465742105906509,-0.917470052107384,-0.6103630871022361,-0.2912408393193098,-0.4347052245989227,0.884647820025295,0.7856727521540234,0.49488393492582006,0.9250718780107756,0.443314777273248,0.23057337415597123,0.10325066004099392,-0.46334544939901257,-0.3183041524320904,0.5257405794533532,-0.06530025258394678,0.47186876138269573,-0.3505240447105229,0.08063993331658059,-0.12106879619815647,-0.5069926327265453,0.7882153200847353,-0.08753927125851746,0.840305205088625,-0.9613691310331518,-0.3509302768724609,0.6225804317143768,-0.9835768651740713,0.466559802554368,0.47138078581031184,0.6752461954037523,0.26186008354431634,0.26543231874260087,0.28269640013757247,-0.8770747087735886,0.5840366793072791,0.8912656823274316,0.6892959782255335,0.4206134378641151,-0.9488586379173549,-0.5292733766910751,0.2658795348952987,-0.10013129059289883,0.17411477066251146,-0.9182231583968972,-0.06224801743970687,-0.39579624015690795,0.638850663421362,-0.35120372511721154,0.997062561400154,-0.9815398018952481,-0.7146909597571645,0.976489985494172,0.9118819653540178,-0.43689173428365624,-0.29356744254122713,0.2737492783551403,-0.6753905257977584,0.22004153456119901,-0.6359601959188939,0.8495992105944614,-0.5225551135518836,0.5255758938336856,-0.9356546491364504,-0.94971160862096,0.11634624071220889,-0.004680641063074198,0.41389424118444706,-0.2595537702055757,-0.8255748781977088,-0.6474975593897865,0.9942018427513952,-0.8534477347325575,0.5547171034876128,0.7693670314918877,0.24554579898721984,0.21846172854620916,-0.9690637519334353,0.7615858255625936,0.8978986892623997,0.5326499563822513,0.6985874023842342,0.8843374070398968,0.16289299401616697,0.4873630660931916,0.12116280684885705,-0.24085585700208112,-0.44354136886386275,-0.8825058554222562,0.9907624040549257,-0.8983702688963993,0.1629019743231721],[-0.6037889134850416,0.9437783756916325,-0.9497781283298652,0.3110347627064507,-0.8976248086231844,0.2608575930016821,0.6574925112710397,-0.35454484090948,0.605538915104253,0.7121706644108756,0.7380732976125857,-0.2411521929874243,-0.028039512043741777,-0.09884490252492872,-0.2688335602619465,0.9095811495894952,-0.48492481551392075,0.29790117184584464,0.3666649545877001,-0.4768971705550995,-0.2227939224071207,-0.4560641310460256,0.01333466853313281,-0.08091218624197705,0.6501653559125264,0.5993450676730916,-0.20138609994595535,-0.7544415687387405,0.9337998766584712,-0.9449870736483224,-0.010482894124157927,-0.810146240576461,0.8964241932678121,0.2830000657487828,0.2067119599777989,0.11043660382721576,0.5724208029655427,0.5944236623542491,-0.2167672206851856,-0.29181553148569606,0.040315326114568784,0.0462268240750312,0.825751998876318,0.5451213509013559,0.20947687946502747,-0.6075014051316248,0.9373374870910913,-0.9681301695967872,-0.5992055529363642,-0.56871366461184,0.9352369194840877,0.5131852637927863,0.4121438290636066,0.5269598271788563,0.20482276149346523,-0.11223026281154524,-0.3466878607500923,-0.26946461224013074,0.11461174554295273,0.8501740097831059,0.36605687126524167,0.638663667923224,-0.4223255602835918,-0.31886844394610314,0.6100042874685063,-0.9740458190426362,-0.5464105687216136,-0.2686447158910008,0.8825301149798834,0.32638717133129624,0.1168982608036262,-0.17638437602129642,0.007142163292004344,-0.49849565912501426,-0.22068080016616953,-0.21857922528406748,-0.6132356615112493,0.21106143156344626,-0.3308527477648595,-0.9557774560093906,-0.8892821388885634,-0.6376368646561641,0.1087392993752232,-0.6628452458627994,0.795419278659546,0.8879566782828854,0.9603106813288367,-0.8288275909904712,-0.10690984379017232,-0.5924450572827542,-0.8237716397688923,0.9744255227180489,-0.6181154597189003,-0.7011487687967422,0.46350852954996036,0.6924160176045948,0.7525626454985441,-0.5391931514848838,-0.7345991178279454,-0.9815034630117583,0.2755481012992371,0.17514567769941847,0.7206735397379593,0.2920555912064269,0.5720383379581038,0.1825916720754508,-0.45820114459590844,-0.7319550660554173,-0.8506261221755733,-0.2718242589430493,0.3584022259248476,0.31503351827177406,0.26128927316660766,0.6922010944432326,0.8095249221272676,0.779127326557139,-0.1539713363805153,-0.4259462891712502,0.9533188037692981,-0.6242736546142469,-0.7268967843666245,0.5962950873132806,0.20613562014750464,0.3003678175286315,0.49286401553718173,-0.6688322545674041,-0.6492434203964503,0.2571992039948876,-0.3270668353628001,0.9782202081262517,0.8468366334620381,-0.8114256770921626,-0.8184843328870461,0.47264807243276463,-0.904713713133356,0.6298461862151155,-0.850946232935649,-0.7397916589248248,0.9565963225144132,0.24614936555192157,0.46575209352017266,0.4901546487867581,0.5990905254670569,-0.850215821295857,-0.04630168754201458,-0.6256110008502063,-0.06929155919196095,-0.6558939323257342,0.3986797110887448,-0.8311301371375421,-0.9751137143857314,-0.25942747995620774,0.7665039896694203,0.6774252451808906,0.8422879869799322,-0.027117429407590876,0.5046265942534678,-0.5480259602958442,0.795217302176769,0.8670990941412153,0.722854576724079,-0.5730402424309946,-0.019889213767533498,0.9504377119776519,-0.5743692641521041,-0.9781735417502309,-0.4611390975429366,-0.04918926998527651,-0.4450570398291971,0.6471185501747541,0.284037159317557,-0.5217174778519471,0.6187952368924652,-0.9621577348278709,-0.199751930768572,0.8120993424833354,-0.21664240395420162,-0.41359548812337554,-0.2954009852561424,0.4833060924329848,0.6704838743850706,0.8182131058622707,0.843182048309732,-0.585189291920595,0.0789647893327029,-0.6502178723204928,-0.7079073155865969,-0.42693489697983766,-0.45853301001071367,-0.7913355616565969,0.6762179224358329,-0.08701450293630764,-0.6385273461855534,0.6872229177366536,0.15765701011767375,-0.0458857473250478,-0.7473853096756478,-0.6666878602843238,0.44890849621704954,0.17969799494398275,-0.6091398927885865,-0.04084900043820028,-0.25572774603384385,-0.8140389450831389,-0.4728920341238797,0.2270733823432171,-0.22043544080132468,0.7114842302256067,0.7590451899280473,-0.6985922913409791,-0.008238381449442018,-0.5175339229107342,-0.31213662473351034,0.9227715915468645,0.6363605255123281,0.826064184299251,-0.6004304556272094,0.3507656994830048,-0.45798495912392667,0.5648484544720387,0.24030234285679963,0.44876905793847194,-0.12800097859998025,-0.7468721954711302,-0.06126780079439875,-0.22332853530028585,0.8021118621474606,0.7428818594958653,0.7455630067993071,0.49440497084631874,-0.2383317934860183,0.7020380570797442,0.18540458465099405,-0.2941241056354545,-0.24896390750349648,0.4063538801978192,0.9096618927188889,-0.5801192838652762,-0.6130598542457714,0.32259313549546187,-0.3360889435646686,-0.7651036045196101,-0.2062408477454975,0.9178172657054083,0.3817959155327577,-0.09416324889924556,0.6344289905717795,-0.8794388396968899,-0.1770111280789441,0.6943162623055692,0.051267332193973336,-0.5041355181888485,-0.8639016965367001,0.8010582407980995,-0.3741780147241194,-0.4562714220546358,-0.18568140245281795,-0.9471118870827295,0.38518950315225986,-0.5806101532145794,-0.9607094489175434,-0.3172642198551093,0.7190073882404279,0.6431833516128811,0.9395490960230721,0.48064600297933285,0.11988754082341342,-0.0023524032593335614,-0.5025952310300676,0.2827687010295818,-0.6804564705671072,0.6777604271441442,0.6380627788824885,-0.5603820664721504,0.5802178425251255,-0.3386432786677551,-0.04113973294624712,-0.08233739878722279,-0.7217932714849244,-0.07375141934878338,0.3484573303808456,-0.07826216525240026,0.48661813806510823,0.12672766628010113,0.7630743532113367,-0.21580741744895793,-0.9180267903053005,-0.8144930652024014,0.8293797913999291,-0.018249151892367626,-0.8141639268140068,-0.547298591505295,0.4812217114213595,-0.5055343446183352,-0.6210025073903782,-0.8898439384298025,-0.3116818897833427,0.9678775505394805,0.4319284160988656,-0.8063046140325711,-0.8102217288619153,-0.7465437001433844,-0.748748185761045,-0.39962765388139,0.11094198250218468,-0.6572040866576551,0.24429855481197,-0.9352384239312146,-0.46537117345674295,-0.8592330532840666,0.8452276534892653,0.17549810582582692,-0.3892809856519537,0.14586643831016152,0.4744720361588335,0.6029531696318132,-0.6397241635096272,-0.029220699514743192,-0.6211314678936877,-0.6512439387707666,0.751123495734657,0.13240243181598457,-0.42399448715804505,0.21703440249193032,0.46259484621145125,-0.6243674593228117,0.6297744177634657,0.23102763760444422,-0.4359587416690331,-0.18806237730144418,-0.25067949051406685,0.8702305440096668,-0.09085971431078207,-0.66843469306396,0.7210499070608725,-0.9100577852490703,0.6074147470928204,-0.13289817352165745,-0.19621830654447603,0.22049035518426585,-0.8250158741496689,0.37379004928281506,-0.5173885209078535,0.036872365042347865,0.6315024908460799,-0.8231372897172576,-0.879855548508922,-0.8602536688040523,0.16756705624264268,-0.36743277972272775,0.8025060846902752,0.55812989297207,0.9230033978691717,0.8110718341110034,0.30945508779398745,0.0759177606285491,-0.44212771089383845,0.9015621273142145,-0.07708827726726566,0.8420792692509785,0.8581956476374644,0.21811237743202394,0.22571394856747684,0.7640514138739505,0.12165998176688664,-0.4634582596347139,-0.13468321600070343,-0.4039052965705854,0.3810537537812246,0.2172316101334883,-0.7270586375053266,0.6477664046498787,-0.691101179138948,-0.7382115602543653,0.03547395602198992,-0.33061604050622373,0.36926315622286865,-0.40337473810170027,0.08895946592483218,0.5909209975009575,0.11335249082914345,0.699799396320991,-0.8421712778427963,0.47024689686371646,-0.8533213528336198,-0.9141557935348413,0.13329677786790364,0.36397390947294733,-0.7173557003872857,0.7287269477667888,0.9042465807271112,0.9652535519191519,-0.578108014350649,0.5569346051348565,-0.41640407221687026,0.8581577242684557,-0.5247487137303138,-0.6821496523136947,-0.33764975951552945,0.9305807492050314,-0.35049700579795356,-0.28157998131189543,-0.5168330941061414,-0.2811424682149602,0.08207844562509933,-0.07853063340090874,0.4716227704801251,0.7326004682994065,-0.8037389028520957,0.05639601770935614,0.6034519401065721,-0.8599406318863849,0.19867880151625758,-0.4949823428452937,0.762010630898355,-0.2116594812621364,-0.6906050098343267,-0.3460819545672335,0.10794973006917416,0.8660665012210789,0.35344858301669557,0.2576482026932734,0.06800544769500894,-0.6200690037240553,-0.150604303913576,0.5629967661791945,0.5600284092795904,0.8281329329635728,-0.002939039660314274,0.11280910712123096,0.22838152436384665,0.9329262311427221,-0.5458316549646459,0.4696820856511921,0.4091287258620006,0.32840411687171067,0.42330990681116915,0.48118738969893,0.6355353283687524,0.5227988555567458,-0.449313609678545,0.39849334612916204,0.8311927652321311,-0.7180083538688283,-0.37671172262614044,-0.7039322105044666,-0.51048461475126,-0.9818160299976788,-0.3021553374513708,0.6721071470465034,0.30505875530457116,0.12377500427945698,0.5679446676843488,0.4211130041242349,0.35134669050746226,0.6398114689918426,0.8025871380541602,0.6893857748823754,-0.8464215399701066,-0.29208660403177017,-0.19003243689992816,0.9984774151389796,-0.18179905346091274,0.5884227943812319,-0.5088832147632278,-0.35389289436363314,0.7756070398316188,-0.7628279195810175,-0.5614014175069172,-0.12284268521303351,-0.6413205070612046,0.1381609124724413,-0.08352403796277788,0.17467223557272232,-0.612470429435581,0.02394202800455325,0.16869500942102533,-0.30738823290153094,0.9932725895910752,0.13810806550411892,-0.08522514756822738,-0.5159354545565528,-0.9565166681073994,0.9198200268730317,0.6402362455410177,-0.46495117374789224,-0.07831789775397553,-0.9914444248136024,-0.479137732661145,-0.7451061164872625,-0.5111183142978304,0.3457873622915068,0.050427336146718654,-0.7298905731869779,-0.34683776308622727,-0.4173821806084089,-0.5666245937444181,-0.3708569000804947,0.18534086762298965,-0.1906569883021241,0.6125007275321404,-0.028920211849620518,-0.30898716081911415,0.5571512909951606,0.8696299646540995,0.8606304583718805,-0.3074924108905557,0.7508409829711233,0.10638302274799837,0.16581363186412268,-0.5894495386593341,0.8229800720204737,0.8159281623051982,0.6991068862469945,-0.9411609666795037,-0.026101675887639873,-0.08648952671356792,0.8517516764724669,-0.42208354541032045,0.31665769485741435,0.1878608442373761,-0.04355375551991414,-0.6329102951267163,-0.4510955593411162,0.07608722273501486,0.5175104596148077,0.7343055219642592,-0.18015659615505214,-0.3606865654683309,0.6787772028359152,0.15844942955117736,0.9501063183090248,-0.4565658193516553,0.7831059323465799,0.057752645427858074,-0.6056622703282271,-0.12166147891825989,0.5525990773270207,-0.9197341849282132,0.18160390378518265,0.09886001709702529,0.9905067065030477,0.022649539322987033,0.7577331931202012,0.9449840769308333,0.32421491129603286,-0.24778800988012115,-0.07993691264786287,0.20944174104414723,-0.17356617636370797,-0.7590284810720159,-0.6195407849912167,0.7894578377242117,0.21770389239595003,-0.861849681002875,0.49619322078193406,-0.9227453099500913,-0.7119263235945938,0.09555879331199035,-0.1960630882388208,-0.013380150696882254,0.43806043335907985,-0.43489824416268963,0.32845672434534157,0.42494447923482426,0.8903837032497086,0.4407172205251346,0.06676454467095068,0.546151524947669,-0.8256342581543351,0.1786288842545461,-0.9753525049956243,0.15264380070886482,0.23698618024055373,0.6185464316292365,-0.5103932744052955,0.26834493798135445,0.3696695494396024,0.6854271546917406,-0.3174018414251968,-0.008391858958241905,-0.26928223275763896,-0.560989831267669,0.32686085667213494,-0.2467007771638725,-0.028403112753411897,0.014146713535690303,-0.4847849045175714,-0.09276516352390551,0.8886620443568547,-0.7875820112561605,0.23938714356118984,0.6700509342509746,0.9312276209905788,-0.37232507516753427,0.6688249840734612,-0.05656956828478387,-0.3007032862657905,0.32187618852263455,0.05486616341132645,0.4384203351062846,-0.03267591502138663,0.3137081693914361,0.33459293315574873,0.8732874223049296,-0.45354008561892317,-0.5134819554890093,-0.5750078430200123,0.029620539318823358,0.06680828065795225,0.8405809112576487,-0.02699658310174602,-0.6823285224582909,-0.373744483996755,0.7534679406737448,-0.955918619421336,0.9212076815293608,-0.6561408375355753,0.10126646340202372,-0.5774391676387953,0.5774992583722862,0.6061847679450008,0.8631400857387539,0.6815491038784613,-0.9617032267047965,0.4135696333608544,0.38078850640874307,0.29185596400533026,0.8883871792235154,-0.12574690919944487,-0.09605623966140911,0.7942752782006779,0.4726279176610899,-0.9393354970155223,-0.661050423171587,0.8096339209129484,-0.941621113829719,0.3052533341400886,0.511598677455364,-0.9073146752063286,-0.9459171965908548,0.02320337418578422,-0.8280299733482313,-0.9792736560478597,0.8093113780041352,-0.22580277346336608,-0.3811238298933244,0.9965028349643208,0.39775490977547623,0.7624913873067154,0.2184597929250356,0.8403774667473978,-0.3301941995922144,0.7489675004421695,-0.7810350442438521,0.8121428832093264,0.033996701319449825,0.7771028288057984,-0.8152119065451489,-0.5528820027669488,0.3256558246904886,0.4346781142230429,-0.7684462036154627,-0.4302346977119309,-0.3907177218306507,0.7615549307384502,0.720732078679978,-0.2703775462067419,-0.8980964308726169,0.06312724247908852,-0.9423097348861944,-0.6981988755587119,0.08953468009261067,-0.6723805626550394,0.08737258027359873,0.4199738716762935,0.4469519926754537,0.17838206340528373,0.4872032569118514,-0.8804165946530391,0.7063339757562686,0.3081577889041802,-0.3226141522892084,-0.9664654828975235,-0.07734033008522727,-0.874997285823123,-0.8718754141593563,-0.3454498465354061,0.37123654425753205,0.4412856737056355,-0.9616858781089288,0.23950150817410995,-0.2739437160211805,-0.40307413215887955,0.6365210432521344,0.8081191725856458,0.40702593518837604,-0.33935832241379593,0.8148958765394703,0.37797881348763473,-0.22842187162268246,0.5123295962944638,0.3255603415771282,0.3016180532456132,0.8783200651647642,0.990510743860892,0.7185115417157153,0.36745584963489764,-0.6808957195290999,0.8276501727543826,0.0022624147908669734,-0.925140291279968,-0.6384790766998112,-0.1265866084749947,-0.2643732729940321,0.9492067774791316,-0.8103328355871432,-0.8975105470500514,0.31625836820764797,0.88058551197964,-0.0032937160281143463,0.74463565689592,-0.9413939348737879,0.01810177648842437,0.05883431652522386,-0.0030328088529567587,0.8905050846772573,-0.891465303005178,-0.053573961149964155,0.055808294464577024,0.5028439148938402,0.36992023151881526,-0.45005532226022193,-0.06785544899352391,0.9713468080193826,-0.7275307980395911,-0.5120737843631056,-0.29832881198566463,-0.9403475820781426,0.2810747600470127,0.3860516745572662,-0.1893156866247474,-0.11435421561292358,0.8862018361372068,-0.24947789298853174,-0.44880608473668815,0.73412847092332,-0.4458134494863315,-0.09365393304656733,-0.859209268434721,-0.20434164640626884,-0.35089846999940777,0.47716177615200417,-0.4706855586027081,-0.02944028106864227,-0.6624908253715835,0.0762478995988416,0.11877564878396019,0.7831926073770812,0.3316671266203688,0.1949801060783738,0.31741728831619964,-0.976384115107138,-0.7341080813927823,0.7801656153205907,0.7980771436843388,-0.5912873282372373,0.041198811674798996,0.956993471899088,-0.9164628646151671,0.8151352634657911,-0.3405795781852654,0.42112422905667657,0.4013953980760503,-0.5912253383241404,-0.4960024881259977,0.09434866231413785,0.8214712494118195,-0.9730700494104694,-0.15601336368040641,0.5754315022576741,0.07445411025982152,0.36089990853311305,0.9486682106349886],[-0.32502555733035,-0.14112597433393637,-0.2940632385790054,0.778346020799221,-0.1359756371059575,0.7780581551473964,-0.37171247844232713,0.5196288689029758,-0.7440539131272677,0.022019714641351218,-0.4136631701909246,-0.8751175942566309,-0.6167343948043995,0.4849292048049145,0.3132744198877333,0.28236906434143805,-0.9750099041878428,0.8580928545121136,-0.7586767822330369,-0.2629540736027467,-0.39438842498692983,-0.41803518525944083,-0.7590634588323519,0.6990398297233722,0.8463993482130632,-0.39463032007857546,-0.28077173498633323,0.14620173328828834,0.709577817855513,-0.7827126200209942,0.8033745659921898,0.8958089497656414,0.003225702867403424,-0.9307733829037019,0.03408266316295672,0.9076679876835736,-0.99816335709076,-0.5820661173894224,-0.14912263148512084,-0.619738480792603,-0.6529497055673992,0.1548057934885385,-0.9546962432201918,0.4382045697837387,-0.15954712938312454,-0.6974959473701325,0.11585611477493307,-0.731089225010416,-0.7636167491552661,0.10077300375514531,0.2080867365191379,0.2487708419322021,-0.8127355402779455,-0.2978184653379614,-0.40448832313722116,-0.9521517569400904,-0.39213442065759496,-0.3508112199712361,-0.9810414046691069,0.6383041150637849,0.12032302908517556,-0.907839695811925,0.5909932395761479,-0.9169712562050218,-0.6098592421430395,-0.7325465442428101,0.2639405001066186,0.3157015252929627,0.07850826128808963,0.8091000970048552,0.5184685436579901,0.529760336512592,0.9033348431784636,0.9569994901020733,-0.630325519887394,0.23223335350558916,-0.712237218170733,-0.35036780471360185,-0.5544881085334121,0.19726966636417398,0.7269712661349885,-0.7230094902004716,0.008138298478513217,-0.816715310286579,-0.5277789439477663,0.23259442183849677,0.4871933757388116,0.8476194887449418,-0.8774198614335633,-0.44052084877674913,0.6213930916432697,-0.5666428213709338,-0.23555359881383442,-0.3432843660185796,0.5681984400598621,0.49927333310742217,0.558418199567503,0.26204439354695674,0.10611055362688138,-0.7396335477968377,0.14921814191424465,-0.8041256262510474,0.3569906127901046,0.2654338081859078,-0.2683183383783958,0.3180366353301465,-0.6525757672105059,-0.60861880440808,-0.14848936850147254,-0.11377807004787543,0.27140563649506166,0.6626322334763146,0.4318026388819587,0.7657324258206488,-0.48654888105323124,-0.8815871061989413,0.5503345810633555,0.1575983441041502,-0.29285072454324723,0.892093953326218,0.2780873879526964,-0.423729873802861,0.17661773855973983,-0.40160117694025566,0.4706412313922783,-0.44023735168012523,0.2563455955392837,0.4437793191903405,0.7580535346852146,-0.29783582671894404,0.8006747650060668,-0.5745340493378657,0.8767719568689056,-0.5956902601184932,-0.7271609594227813,0.2041066987882747,0.575871334855754,-0.22710485619566034,-0.9315205480828803,0.3147251032243288,-0.9583950882366441,-0.6597565351151888,-0.868076981756142,0.29203882632410183,-0.33570483278674024,0.5532727751115756,-0.27471070084644245,0.6167352990833064,-0.31073122274089116,0.9712039032928117,-0.2571871322663424,0.7643094682739511,0.6050342206763841,-0.7800621534557255,-0.8997791134631887,0.33281987385718725,0.7849639078640287,0.5304983975624626,0.3198756123286084,0.18458819083139621,-0.7705177943624739,-0.6997564615990428,0.4388631611272378,0.056835436280030294,-0.6784689218721875,0.37051200964622133,0.7323714159029686,-0.6388761131825147,-0.3039801916447322,0.5623163439727681,-0.7988020114780388,0.5698061202061715,0.5491011360687943,0.5250956542505629,-0.6965865756759873,-0.8868622969778679,-0.6435228155852681,-0.28252414109362567,-0.5540460800910507,0.8398050160528974,-0.08021982776498104,0.22778892882932844,0.6918719262916575,-0.26129600855877744,-0.18737317805430687,0.12507549537849583,-0.46694523516512926,0.9636235657595937,-0.49981975795417594,0.07369022206109653,0.15271624448032695,0.8958198803327138,0.3918151436401218,-0.7057701599343771,0.8543189715917991,-0.5541322362793495,-0.5818593783272807,-0.39765852544927505,-0.6643423266548365,-0.5769097043350446,-0.6343585978161457,0.4242593484401862,-0.05362346616347846,0.8807604907209634,-0.7939396910425613,0.00950584925847231,-0.3649979140004418,0.787903119499461,-0.5877317681873256,-0.7725849596677152,0.5344959308198577,-0.516755844775318,-0.0744527431359665,0.4518837802673228,0.4169944476432752,0.7900082840865669,0.2653457962908816,-0.36777089323259526,-0.05416285242446506,0.5049288062010366,0.5930827728982249,-0.6003033589699269,0.07837306223240281,-0.6588159626887062,-0.20481758898286895,-0.010781957775295226,-0.7937905777247871,0.09793541622172741,0.37621811665154015,-0.6872801588255331,0.4283857782931211,-0.07411434471838341,0.44777905291450226,0.7840104508565373,0.5048964729665707,0.7731654263096629,0.30460253134341936,0.9806052120786881,0.9418930376498262,0.5536586677982744,-0.6864397024847637,-0.44112909837156833,-0.844312552107827,0.540271655199903,0.8763132439020479,-0.8083643509899276,0.9506526151745387,0.5002420257620566,-0.010911875217089584,0.21013454019137345,0.23688470775070636,-0.4092933394284679,-0.5849082759244575,0.7572199388572072,0.719341287266249,0.9037987732454975,-0.32558954326738965,0.5686532083974973,-0.9433403966453913,-0.7308445144627749,-0.9631087467570265,0.1692218908685641,-0.26651290185971,-0.7211662386862598,0.5846680030234852,-0.6263600790915547,0.16659181640603005,0.7611890695385273,-0.5101515552413378,0.6101727651247,-0.16541919626414092,-1.6893277832685496,-3.80108673477439,-3.423251196647227,-2.8018475091523376,-1.5984598107304415,0.17530499613658318,0.3994148871720525,0.8157633368976986,-0.8360800002177688,0.6566465279218376,0.4450799152824976,-0.9673766113349966,0.9516542601447888,0.44380814318725603,0.8731483656521553,0.9389249525392698,0.7802421936760329,-0.1612268829023895,-0.8911068647855742,-0.8035537870378056,-0.26052119030577636,0.4779526276239431,-0.18880700668207645,0.014305508880438722,-0.5244248268478161,-0.9230147108260542,-0.8373329324263339,-2.514911959342095,-4.445783523744716,-3.9222433644651837,-4.872340874757908,-5.424897468730291,-2.240937393516475,-0.7748827259067788,-0.188132731629801,0.30001175482663045,-0.8092661258849305,0.3141253201548455,0.44350314940805236,-0.23072279754591518,0.8677487872812981,0.07602692103975572,0.05639359505927377,0.838868355308156,-0.7586585407130007,-0.8858764338369414,-5.1866908368932005,-4.021171495299251,-1.7302089696361747,-1.017410742824766,0.7697025904941888,0.3163362158697066,0.39521693270633307,-1.5889511390154216,-3.466305836550919,-5.135749835295105,-5.71363311518199,-5.663823392514029,-4.54299610010702,-5.726979446300522,-5.528920549774482,0.766409783856381,-0.5217498013111475,-0.8523931313829028,0.6176225849116603,-0.5428736438860069,-0.862918164556461,-0.47530379134031886,0.0009712751384820528,-0.9661570122608047,-0.4519231892917399,0.8081492530285517,-2.0040017727309287,-4.3792401406208645,-5.505952526082616,-5.1112156973604375,-5.2272838465346245,-4.136812890331651,-0.5000584961822695,0.8884927138261369,-1.2722985335085149,-3.6874545213228678,-4.898033156295838,-4.912130403863361,-3.2032661939021967,-0.6531865684849989,-0.7336959043661772,-4.617264204316211,-4.796065360893625,-0.2023309029452024,0.8808031193765258,-0.01437833108041886,-0.4377646954892671,0.30817332740729597,-0.6530783652452876,-0.9449695235865048,-0.7900328174693909,-0.833733495267825,-0.15343989341552292,-1.0685574464969765,-3.4729269408876444,-4.489105353990051,-3.189646230084659,-2.8353755003461862,-4.384876528420759,-4.530628757010805,-2.298140992386563,-0.8680774777715935,-3.5491881333913295,-4.543449979160427,-3.507514567331873,-0.8912850479478639,-0.916600068815699,-0.4458295980575866,-0.3521405139481566,-4.192280516253801,-4.742025326258949,0.3992787788135708,0.8035734514234996,0.01847096496784939,-0.009890293477279322,-0.21866092747861288,-0.4440964780557555,0.056844864402865625,0.35503016138922616,-0.8949315182184292,0.8293195461188867,-3.726316211805288,-3.879837235447469,-4.287517722324277,0.019470954302544474,0.5078145822640301,-4.6242043837263775,-3.8113159770450107,-5.084828934556306,-5.02684465537814,-4.8678509240805665,-3.8903266237406746,-0.027277355786317736,0.6784471208157785,-0.8183789641825234,0.8632194575072659,-2.4033751902012326,-5.497036136406021,-3.770343624504049,0.3071172676671199,0.9298586318158244,-0.13523787355126604,0.5951155029249491,0.9113560525992312,0.37826741568601685,-0.17667694605635154,0.3965946247709411,0.7755196624400043,-0.9310463285997448,-5.244961866032056,-3.7462905070902446,-2.1601750141790577,-0.8889980496363539,0.01261099841862586,-1.8630385715349767,-4.34965487263024,-5.64517179756775,-4.4782856649512714,-3.632364265354629,-1.6888843973968717,0.5510236793661044,-0.12754788846978626,-0.0027934253494362954,-1.6200104921031595,-3.8598908531620864,-4.401664181211632,-0.8829513452530398,-0.3984242132735416,0.7396144416664514,0.6654267967942005,-0.4276780460249032,-0.05975606645808007,-0.029886412243183003,0.90588401956945,0.13333156592094886,0.08583424249694804,-1.8309676441889553,-4.728359129040424,-4.968485000580022,-2.9993771205658635,-0.41525866278993795,-0.6146090711319034,-0.9521209346419632,-3.616348071366476,-4.0539747386678116,-4.591962990722053,-4.35358574522877,-3.182681167083917,-2.4097586510569173,-1.8856971408116823,-3.1583631638630307,-4.819693468706699,-4.715942849047922,-2.873646334701904,0.3366711957345538,-0.6713941167780053,-0.36523322729222985,0.8965243190131522,-0.47349288976143766,0.5253959772150969,-0.7102106463165643,-0.3948343590541321,-0.3024580020829384,-0.8212244483982656,-1.3857201549274323,-3.8315298883945865,-5.100389683789512,-4.102859674505483,-2.999573082692328,-0.7473321820456827,-3.322156962217825,-5.4079851913818775,-3.6713649490587827,-3.8522901883302105,-5.01927107504084,-4.7983163809230955,-5.037929111176332,-5.0488020741719595,-5.682838614038596,-3.253294314389918,-2.542597051432468,-1.0483460021292816,0.0940269113720852,-0.11114457338123951,0.948916439641716,-0.7648631123278027,0.8247594973041221,0.7651438922367912,0.66908713967549,-0.8623628264372805,0.4225493540753722,-0.7369502725639694,-1.3117914150213803,-4.6347713678470885,-5.432668880067464,0.4323947993573518,-3.662248802862589,-5.050169115299984,-5.2081538472615545,-4.371957769716311,-0.49376730113027995,0.976445167082702,-1.6305526186270192,-3.3653477996319423,-3.3113667634229387,-4.380013827738652,-4.184142321109432,-1.4154435502589813,-0.9537570365110848,-0.3908590533698497,0.9382468909435024,0.6317714203526914,-0.1470457856482108,-0.27516201025225406,-0.39212167622447236,-0.7232622630921557,-0.7305149316212671,-0.7171413552462385,0.7151133695228431,0.41722709951748316,0.013879045064096207,-0.09359600908524979,0.037748965981242,-3.0590790108667414,-5.10434284681222,-5.534022197201168,-4.87157591571205,-1.8387527853610046,0.2547987123963894,0.9496413803091343,-0.6452421684648408,-0.75693636017346,-1.0689868424646525,-0.41165882386859787,0.22911267987954576,0.8911471150569468,-0.2761451714687504,-0.7855015492436115,-0.42192934623035727,-0.15943450376982593,0.4681626795984135,-0.6001713542842344,0.680589765181141,-0.7368207288449704,-0.8257276289253732,-0.2577315784150187,0.15592666969103108,-1.1869122768719387,-3.172695799594437,-2.8301923959050086,-4.646074399432143,-4.659948952798702,-4.590044924716892,-2.546673326598887,-0.6811444984116284,0.770712669883943,0.6557579459893913,0.9071960615599527,-0.8169471764726461,-0.17502581057472,0.5313278985712113,0.27775789619602875,-0.7242352322084851,-0.6932447780770632,-0.5607008373282598,0.2856714091389554,-0.20703244783478425,-0.4910310499451298,-0.9317109166597595,0.12813588417592037,-0.02178790613398851,0.1749736026002071,-0.6375907015149491,0.518254155586412,0.8560006633791106,-3.904539327895446,-3.7894227187122183,-4.034196060865094,-5.2952963840242235,-3.9854721888750015,-3.788904097879059,0.014630050477465389,0.1262514429213272,-0.8956053869451043,0.764255073800896,-0.008192879626824467,0.244840145541251,-0.9647188436901772,0.06501008896506733,0.6880651309787287,0.608451036391978,-0.05919374746961381,-0.4723045918865294,-0.7340667006289312,0.2542511830502372,-0.7200852322087941,0.4517868110381906,0.07261397251292889,0.6562535507811438,-0.5407120217472015,-0.2575264705782412,-0.99429907884653,0.6628013955381018,-2.2648926234887745,-3.6684580723444755,-2.424580847523821,-1.2416218244991601,0.5188647129214866,0.7724166407329475,0.4421921965314937,0.562644875948152,-0.014726148451296162,-0.9156909614568844,0.8354825062232605,-0.4572385202520599,0.6535855495631799,-0.8830080999456151,-0.5305633831041145,0.8762344743863939,-0.823065554156929,-0.3298476456756694,-0.6182347650181503,0.6515554697115591,0.6168394510729658,0.5380644437899273,-0.13047518822986603,0.7995918521575929,0.614586181702498,0.6572961777622996,-0.11127461932015859,0.310493709859994,-0.7969646905443377,-0.2647879418491432,0.4367022349324915,0.9445762772733086,0.17536255036134013,-0.8338357249110966,0.10931779331066238,-0.5724595356620088,0.7864981590978504,0.013939935579350582,0.07927392355724283,-0.6127266339052988,-0.5401405082830952,0.22079028845609994,-0.18049506984361807,0.8469643823863859,-0.7403772718105501,-0.14505609847880985,0.6818100466051509,0.5720101474898582,-0.41190592459849373,0.49811392808432364,0.332175580785929,0.5618562276227679,0.7478615519049607,0.9603786196045276,0.4680489587966439,0.05331463352029919,0.300282146162306,0.4824301279039096,-0.38595334907702483,-0.8777375269997851,0.29378125504399577,0.620569323489033,0.8103031043882725,0.5060672537075606,-0.45844569598748564,-0.6175502041470704,0.04296325226574371,-0.04326419533106307,-0.4764478357751205,0.7509920883332541,0.09666423451716444,-0.21187280805838205,-0.4212869082800057,-0.931269371656037,0.7305113369299554,0.044013098752163415,0.9985479488499731,-0.08783362926736604,0.8334675745531968,-0.02135374847139726,-0.16916537498825246,0.7508513843909022,-0.24948455921715373,-0.9935387365076291,0.5554663314067052,-0.14671023660493487,-0.7897730627504603,0.8431641112546818,-0.5526955646736349,0.37831625598953433,-0.9342182862814794,0.8930004334930759,-0.7226794125995322,-0.9188843114989709,-0.6297712265605,-0.16157548285543077,-0.8838812607062039,0.9768809308583566,0.7016499434585928,0.5086652989199218,-0.581910091133301,-0.7266252428325619,0.812301859752603,0.06458647293147246,0.615556390459087,0.03898281087303923,-0.24527951080600507,0.9092447906936889,-0.8729792789274424,0.6418612506564232,-0.12184794055933423,-0.009284052530837084,-0.6955160719158222,0.3632864865597307,-0.3315546829593634,-0.4851384806345225,0.6891440864299545,0.5210605518712512,0.2684208684234357,0.5676426070320244,-0.4254150060035733,-0.10699464063059683,0.5952107831189961,-0.21912291872384504,0.500872716077843,0.9769624163239441,0.9110502689612652,0.08853256960487732,0.03878068481115271,0.8194417723015417,-0.7377497427918263,-0.6876297159696176,0.8089109311547267,-0.8277872541433373,0.11717140627464628,-0.33451990983181146,-0.2420142341114242,-0.8257345832914691,0.974249731749147,-0.7375429166635357,-0.7002949757122123,-0.5879353997515593,-0.2171093310754486,-0.7570163462607371,0.13113782918285022,0.2620027496959785,-0.46346772655169977,0.025149678913990225,0.4275570969889366,0.8368885206185932,0.6479102515570312,0.11537449733116034,-0.8406497758711735,-0.7110565319987101,0.5703732907728969,0.41905244474061387,-0.21515605520282532,-0.5740242234298631,0.7240122690559128,0.9064054770255692,-0.9357812101327307,0.43631107722556717,-0.7538782056583915,-0.5400613373824279],[0.5673134157041928,0.5589976811887922,0.4295610728853698,0.34447189921582133,0.07330336007886284,0.730949156895945,0.09053775619820437,-0.019187171410789183,0.8643665544152666,0.4742014851444418,-0.4843768887843196,-0.7155237559760015,-0.4154388464355203,-0.8050199837362544,-0.09016605622801555,-0.20692967529235906,-0.826560490046508,0.9996663446262466,-0.32834226242720366,-0.29056192863401176,0.5081746114807193,-0.03258469694608257,0.580914602166271,0.036531259431253016,-0.36561557671751777,-0.4432436052113977,0.8051330908160113,-0.12502841679788546,-0.957927572004607,0.5368153286830273,-0.8644402468977259,0.48143587303461066,0.869822777258622,-0.705004981000223,0.4698315772372217,-0.14472509492412255,-0.9958281947108665,-0.19581889070729197,-0.9297899169785602,0.32622093690725196,-0.6986530947618959,0.5178464177138227,-0.776095874189846,0.1646900884401039,0.23185040435580628,-0.76507804667837,0.14055420668327612,-0.022888434126909107,-0.9964354218940281,-0.9183992230503808,0.4185065623194544,-0.08719282297906483,0.052761859754423934,-0.030817137942262374,0.828045147659719,0.11998536685373695,0.5563179567236904,0.5862861903353069,0.5518238047231985,0.4166259104194552,-0.4014646416285177,0.3942478408352401,-0.3063231351538751,-0.07835111090316138,-0.32953322596137014,-0.128826782413749,-0.8958012545290446,0.40716119742527024,-0.4374807017911073,0.9150488462667887,0.9428141764894891,0.6283173243383238,-0.8188018203253891,-0.007294244781702819,-0.26445789073680137,-0.5550102947609954,-0.2611376715343101,0.9231795224365307,-0.17440086502445684,0.06069972390391287,0.10850009652168602,0.5629839321246699,0.6083189325355614,0.7077183418596169,0.42639222915716557,0.36570972465101637,0.7374901233616993,-0.706282297901641,0.9886086037890727,-0.5199694871989942,-0.026225865469864384,-0.456588741058535,-0.9009501435517735,-0.2612244862130404,0.6834353257708905,-0.16909458889264606,0.9878945475100296,-0.3638949224563284,-0.5665999423899768,0.49710556278057005,-0.9008399207031661,-0.010878371497928807,0.4182609986870043,-0.08970767298145033,0.4890896078140168,-0.1717687546148472,-0.9183934042977127,-0.05046055281177164,0.4079744291964271,0.9051995858897213,0.6506906940372099,0.19019930883999825,0.769804158806247,0.7796837325297794,0.3113736273928067,-0.4799055992410173,-0.6259987851723796,-0.7788053889630957,0.8235971582067663,-0.0781340543794099,-0.44705823098838204,-0.9842583674662913,-0.6943964028207086,-0.6223907272496372,0.1609069144581987,-0.11837558068380716,0.22817813740781467,-0.7777333393508399,-0.4935560807764974,-0.776539027478341,-0.08582826583455816,0.37343258255483436,0.2013688711783468,0.14508763383843437,-0.8661188832800457,-0.502973619674068,0.39806237472716255,0.16881992757625008,0.5752994853943854,0.49844524633110154,0.7460321570529844,0.5956894574312006,0.6454247849732169,0.07355322668792841,-0.8918975981611106,0.6456492749006975,0.66927290972759,-0.4190701431906145,-0.99649140756718,0.2603018092656182,-0.8943682493177074,-0.3766925603991762,-0.3681950396166438,-0.5771140668390138,0.1816124783399129,-0.8366659377124614,0.3819447040619224,-0.9848411921580804,0.5893238731570039,-0.9740646390129752,-0.6556044095887303,0.07963111171714354,0.06731276095380911,-0.8570656619003341,-0.3897631570783813,0.12908930780486338,0.7034888310090723,-0.20693369298162567,0.8419876883808843,-0.24294234939420978,0.8181580040550247,0.07995128854862843,0.34755773748580365,0.19955462198436047,-0.6783156126215033,-0.010305212774305517,-0.31078957046517,-0.6056282325424585,0.2893576168401708,0.9349220700992316,-0.13065952258864,0.020119930144756992,0.882506874507452,-0.6908663902750098,0.0724230689268035,-0.19077902170734573,-0.4039047634103796,0.6337311219189252,-0.4848912090615789,0.9404200146859147,0.5869981545528979,-0.6299421525200799,-0.7856032857165891,0.8746277949412669,0.8163755209973265,0.37899439694528914,0.7188013838517411,-0.5629340750647795,0.3566384970555525,-0.6955280930881109,-0.11114311721414616,-0.6061696062396926,-0.7631897052018197,0.3321412863635005,-0.6923252160852535,-0.32119539845303713,-0.7149285469206048,-0.14183089204589727,-0.06859129796421648,-0.9524543015652815,-0.3700098678887036,0.9160276986301659,-0.15736036168461975,-0.9672935952401258,-0.2497844547505781,0.6634823538260262,0.3213508028363932,0.6462556236666579,-0.5554837310896807,0.6001891304979287,-0.2937558458021994,0.534534054688677,-0.39059714968221604,0.47800331494372417,-0.8872082575068099,0.7741441999695571,0.5774360043643476,-0.7916321304306089,-0.8330448212946067,-0.3113323824245424,0.5319298593637227,0.49750665167095764,0.08489178251166507,0.07049935726516665,-0.17416228872512107,0.5376627784035239,-0.44210579054771726,0.4370780478106471,0.4612124613900953,-0.32762216197885485,0.6011037172879875,-0.7564362820273288,-0.8096119569434918,-0.9906359505766431,0.48345074798457843,-0.7268850198306438,0.8739563078937559,0.06004239864633045,-0.43144145293454295,0.04060966740962435,0.6329925329835957,0.587109952295886,0.8072633719708597,0.017176313561543477,0.4802779779974955,0.39474238250702554,0.8405363302804671,-0.7400659394117701,0.07487184114220957,-0.04232577767959933,0.003504145377012602,-0.932644379817618,0.038323652036629685,0.2662492230770641,-0.5938413186871241,-0.23487265007092356,-0.14220501698043803,-0.7114029831216635,0.07447104825078622,0.9125477822419279,0.2972281740811261,-0.14299805000976135,0.5100299378173493,-0.14912598704767552,-0.23174393889395062,0.6854886634677564,0.08321421826317883,-0.30657696178773497,0.5694077261963653,0.34163957424920577,-0.8713954806492108,-0.87706119898604,0.8585417141979339,0.07675157072042227,-0.6524051946634928,-0.6511531984130623,-0.3712782108812682,0.38282397857861883,-0.5255085826286026,0.7783473292250647,-0.45369348400727105,0.20228676578828675,-0.7276030674354701,-0.6116424710324446,-0.25613001246395295,-0.9346299238310942,0.1798911014582703,0.7949845651942138,-0.053448121635589416,-0.7171844158077602,0.5700606319700876,0.5109600312581256,0.1645663063660176,0.2398661151681015,0.11538137504549777,0.1532090938833548,0.386416357179852,-0.7060191563379159,-0.43779973394210625,-0.17079996275406728,0.9048731010693838,-0.8653415359516079,-0.4303551520972273,-0.7900473446054551,-0.9370781628632484,-0.2602560280615056,-0.5938108404049922,-0.756491435208196,-0.9938123797995023,-0.5018219238486015,0.7583507050003837,0.4928192055966205,-0.20857056504745505,0.2964659728963736,0.7327754053111774,-0.7817820080780744,0.31674415664344374,-0.07178904870172634,0.6591758346405939,0.2854223689868058,-0.6968932538538571,0.2060443389391955,-0.8811594193598323,-0.6389237089372193,-0.39308609377325965,0.00721022808499594,-0.9782076333307259,0.602317168605393,0.06655652014214741,0.33369062763147106,-0.5821079990266431,0.7726575112470412,-0.6964744460485044,0.49998868123072326,0.02631568560774692,-0.7806936849184308,-0.07001239543770635,0.6614841754795756,-0.2918572575960328,0.14376308657703465,-0.7102536732048752,0.8762475272242343,0.405418270928104,-0.26191077240042737,0.5407132037642178,0.21360114579833236,0.6389552872508645,